{"learner":{"attributes":{},"feature_names":["corsiPercentage_For_seasonal_ema","fenwickPercentage_Against_seasonal_ema","eloExpectedAgainst","corsiPercentage_Against_seasonal_ema","eloExpectedFor","fenwickPercentage_For_seasonal_ema","xGoalsPercentage_For_seasonal_ema","dZoneGiveawaysAgainst_seasonal_ema","takeawaysFor_seasonal_ema","playStoppedFor_seasonal_ema","lowDangerxGoalsFor_seasonal_ema","playContinuedOutsideZoneAgainst_seasonal_ema","scoreAdjustedShotsAttemptsFor_seasonal_ema","hitsFor_seasonal_ema","highDangerShotsAgainst_seasonal_ema"],"feature_types":["float","float","float","float","float","float","float","float","float","float","float","float","float","float","float"],"gradient_booster":{"model":{"gbtree_model_param":{"num_parallel_tree":"1","num_trees":"1500"},"iteration_indptr":[0,2,4,6,8,10,12,14,16,18,20,22,24,26,28,30,32,34,36,38,40,42,44,46,48,50,52,54,56,58,60,62,64,66,68,70,72,74,76,78,80,82,84,86,88,90,92,94,96,98,100,102,104,106,108,110,112,114,116,118,120,122,124,126,128,130,132,134,136,138,140,142,144,146,148,150,152,154,156,158,160,162,164,166,168,170,172,174,176,178,180,182,184,186,188,190,192,194,196,198,200,202,204,206,208,210,212,214,216,218,220,222,224,226,228,230,232,234,236,238,240,242,244,246,248,250,252,254,256,258,260,262,264,266,268,270,272,274,276,278,280,282,284,286,288,290,292,294,296,298,300,302,304,306,308,310,312,314,316,318,320,322,324,326,328,330,332,334,336,338,340,342,344,346,348,350,352,354,356,358,360,362,364,366,368,370,372,374,376,378,380,382,384,386,388,390,392,394,396,398,400,402,404,406,408,410,412,414,416,418,420,422,424,426,428,430,432,434,436,438,440,442,444,446,448,450,452,454,456,458,460,462,464,466,468,470,472,474,476,478,480,482,484,486,488,490,492,494,496,498,500,502,504,506,508,510,512,514,516,518,520,522,524,526,528,530,532,534,536,538,540,542,544,546,548,550,552,554,556,558,560,562,564,566,568,570,572,574,576,578,580,582,584,586,588,590,592,594,596,598,600,602,604,606,608,610,612,614,616,618,620,622,624,626,628,630,632,634,636,638,640,642,644,646,648,650,652,654,656,658,660,662,664,666,668,670,672,674,676,678,680,682,684,686,688,690,692,694,696,698,700,702,704,706,708,710,712,714,716,718,720,722,724,726,728,730,732,734,736,738,740,742,744,746,748,750,752,754,756,758,760,762,764,766,768,770,772,774,776,778,780,782,784,786,788,790,792,794,796,798,800,802,804,806,808,810,812,814,816,818,820,822,824,826,828,830,832,834,836,838,840,842,844,846,848,850,852,854,856,858,860,862,864,866,868,870,872,874,876,878,880,882,884,886,888,890,892,894,896,898,900,902,904,906,908,910,912,914,916,918,920,922,924,926,928,930,932,934,936,938,940,942,944,946,948,950,952,954,956,958,960,962,964,966,968,970,972,974,976,978,980,982,984,986,988,990,992,994,996,998,1000,1002,1004,1006,1008,1010,1012,1014,1016,1018,1020,1022,1024,1026,1028,1030,1032,1034,1036,1038,1040,1042,1044,1046,1048,1050,1052,1054,1056,1058,1060,1062,1064,1066,1068,1070,1072,1074,1076,1078,1080,1082,1084,1086,1088,1090,1092,1094,1096,1098,1100,1102,1104,1106,1108,1110,1112,1114,1116,1118,1120,1122,1124,1126,1128,1130,1132,1134,1136,1138,1140,1142,1144,1146,1148,1150,1152,1154,1156,1158,1160,1162,1164,1166,1168,1170,1172,1174,1176,1178,1180,1182,1184,1186,1188,1190,1192,1194,1196,1198,1200,1202,1204,1206,1208,1210,1212,1214,1216,1218,1220,1222,1224,1226,1228,1230,1232,1234,1236,1238,1240,1242,1244,1246,1248,1250,1252,1254,1256,1258,1260,1262,1264,1266,1268,1270,1272,1274,1276,1278,1280,1282,1284,1286,1288,1290,1292,1294,1296,1298,1300,1302,1304,1306,1308,1310,1312,1314,1316,1318,1320,1322,1324,1326,1328,1330,1332,1334,1336,1338,1340,1342,1344,1346,1348,1350,1352,1354,1356,1358,1360,1362,1364,1366,1368,1370,1372,1374,1376,1378,1380,1382,1384,1386,1388,1390,1392,1394,1396,1398,1400,1402,1404,1406,1408,1410,1412,1414,1416,1418,1420,1422,1424,1426,1428,1430,1432,1434,1436,1438,1440,1442,1444,1446,1448,1450,1452,1454,1456,1458,1460,1462,1464,1466,1468,1470,1472,1474,1476,1478,1480,1482,1484,1486,1488,1490,1492,1494,1496,1498,1500],"tree_info":[0,1,0,1,0,1,0,1,0,1,0,1,0,1,0,1,0,1,0,1,0,1,0,1,0,1,0,1,0,1,0,1,0,1,0,1,0,1,0,1,0,1,0,1,0,1,0,1,0,1,0,1,0,1,0,1,0,1,0,1,0,1,0,1,0,1,0,1,0,1,0,1,0,1,0,1,0,1,0,1,0,1,0,1,0,1,0,1,0,1,0,1,0,1,0,1,0,1,0,1,0,1,0,1,0,1,0,1,0,1,0,1,0,1,0,1,0,1,0,1,0,1,0,1,0,1,0,1,0,1,0,1,0,1,0,1,0,1,0,1,0,1,0,1,0,1,0,1,0,1,0,1,0,1,0,1,0,1,0,1,0,1,0,1,0,1,0,1,0,1,0,1,0,1,0,1,0,1,0,1,0,1,0,1,0,1,0,1,0,1,0,1,0,1,0,1,0,1,0,1,0,1,0,1,0,1,0,1,0,1,0,1,0,1,0,1,0,1,0,1,0,1,0,1,0,1,0,1,0,1,0,1,0,1,0,1,0,1,0,1,0,1,0,1,0,1,0,1,0,1,0,1,0,1,0,1,0,1,0,1,0,1,0,1,0,1,0,1,0,1,0,1,0,1,0,1,0,1,0,1,0,1,0,1,0,1,0,1,0,1,0,1,0,1,0,1,0,1,0,1,0,1,0,1,0,1,0,1,0,1,0,1,0,1,0,1,0,1,0,1,0,1,0,1,0,1,0,1,0,1,0,1,0,1,0,1,0,1,0,1,0,1,0,1,0,1,0,1,0,1,0,1,0,1,0,1,0,1,0,1,0,1,0,1,0,1,0,1,0,1,0,1,0,1,0,1,0,1,0,1,0,1,0,1,0,1,0,1,0,1,0,1,0,1,0,1,0,1,0,1,0,1,0,1,0,1,0,1,0,1,0,1,0,1,0,1,0,1,0,1,0,1,0,1,0,1,0,1,0,1,0,1,0,1,0,1,0,1,0,1,0,1,0,1,0,1,0,1,0,1,0,1,0,1,0,1,0,1,0,1,0,1,0,1,0,1,0,1,0,1,0,1,0,1,0,1,0,1,0,1,0,1,0,1,0,1,0,1,0,1,0,1,0,1,0,1,0,1,0,1,0,1,0,1,0,1,0,1,0,1,0,1,0,1,0,1,0,1,0,1,0,1,0,1,0,1,0,1,0,1,0,1,0,1,0,1,0,1,0,1,0,1,0,1,0,1,0,1,0,1,0,1,0,1,0,1,0,1,0,1,0,1,0,1,0,1,0,1,0,1,0,1,0,1,0,1,0,1,0,1,0,1,0,1,0,1,0,1,0,1,0,1,0,1,0,1,0,1,0,1,0,1,0,1,0,1,0,1,0,1,0,1,0,1,0,1,0,1,0,1,0,1,0,1,0,1,0,1,0,1,0,1,0,1,0,1,0,1,0,1,0,1,0,1,0,1,0,1,0,1,0,1,0,1,0,1,0,1,0,1,0,1,0,1,0,1,0,1,0,1,0,1,0,1,0,1,0,1,0,1,0,1,0,1,0,1,0,1,0,1,0,1,0,1,0,1,0,1,0,1,0,1,0,1,0,1,0,1,0,1,0,1,0,1,0,1,0,1,0,1,0,1,0,1,0,1,0,1,0,1,0,1,0,1,0,1,0,1,0,1,0,1,0,1,0,1,0,1,0,1,0,1,0,1,0,1,0,1,0,1,0,1,0,1,0,1,0,1,0,1,0,1,0,1,0,1,0,1,0,1,0,1,0,1,0,1,0,1,0,1,0,1,0,1,0,1,0,1,0,1,0,1,0,1,0,1,0,1,0,1,0,1,0,1,0,1,0,1,0,1,0,1,0,1,0,1,0,1,0,1,0,1,0,1,0,1,0,1,0,1,0,1,0,1,0,1,0,1,0,1,0,1,0,1,0,1,0,1,0,1,0,1,0,1,0,1,0,1,0,1,0,1,0,1,0,1,0,1,0,1,0,1,0,1,0,1,0,1,0,1,0,1,0,1,0,1,0,1,0,1,0,1,0,1,0,1,0,1,0,1,0,1,0,1,0,1,0,1,0,1,0,1,0,1,0,1,0,1,0,1,0,1,0,1,0,1,0,1,0,1,0,1,0,1,0,1,0,1,0,1,0,1,0,1,0,1,0,1,0,1,0,1,0,1,0,1,0,1,0,1,0,1,0,1,0,1,0,1,0,1,0,1,0,1,0,1,0,1,0,1,0,1,0,1,0,1,0,1,0,1,0,1,0,1,0,1,0,1,0,1,0,1,0,1,0,1,0,1,0,1,0,1,0,1,0,1,0,1,0,1,0,1,0,1,0,1,0,1,0,1,0,1,0,1,0,1,0,1,0,1,0,1,0,1,0,1,0,1,0,1,0,1,0,1,0,1,0,1,0,1,0,1,0,1,0,1,0,1,0,1,0,1,0,1,0,1,0,1,0,1,0,1,0,1,0,1,0,1,0,1,0,1,0,1,0,1,0,1,0,1,0,1,0,1,0,1,0,1,0,1,0,1,0,1,0,1,0,1,0,1,0,1,0,1,0,1,0,1,0,1,0,1,0,1,0,1,0,1,0,1,0,1,0,1,0,1,0,1,0,1,0,1,0,1,0,1,0,1,0,1,0,1,0,1,0,1,0,1,0,1,0,1,0,1,0,1,0,1,0,1,0,1,0,1,0,1,0,1,0,1,0,1,0,1,0,1,0,1,0,1,0,1,0,1,0,1,0,1,0,1,0,1,0,1,0,1,0,1,0,1,0,1,0,1,0,1,0,1,0,1,0,1,0,1,0,1,0,1,0,1,0,1,0,1,0,1,0,1,0,1,0,1,0,1,0,1,0,1,0,1,0,1,0,1,0,1,0,1,0,1,0,1,0,1,0,1,0,1,0,1,0,1,0,1,0,1,0,1,0,1,0,1,0,1,0,1,0,1,0,1,0,1,0,1,0,1,0,1,0,1,0,1,0,1,0,1,0,1,0,1,0,1,0,1,0,1,0,1,0,1,0,1,0,1,0,1,0,1,0,1,0,1,0,1,0,1,0,1,0,1,0,1,0,1,0,1,0,1,0,1,0,1,0,1,0,1,0,1,0,1,0,1,0,1,0,1,0,1,0,1,0,1,0,1,0,1,0,1,0,1,0,1,0,1,0,1,0,1,0,1,0,1,0,1,0,1,0,1,0,1,0,1,0,1,0,1,0,1,0,1,0,1,0,1,0,1,0,1,0,1,0,1,0,1,0,1,0,1,0,1,0,1,0,1,0,1,0,1,0,1,0,1,0,1,0,1,0,1,0,1,0,1,0,1,0,1,0,1,0,1,0,1,0,1,0,1,0,1,0,1,0,1,0,1,0,1,0,1,0,1],"trees":[{"base_weights":[3.7134644E-3,8.451808E-2,-8.9246616E-2,1.2809052E-1,-9.1216214E-2,-1.6448402E-1,-1.6459864E-2,6.147324E-4,2.0224387E-3,-1.7290836E-3,1.0516252E-3,-1.9717405E-3,-1.9830027E-4,5.57377E-4,-6.1830174E-4],"categories":[],"categories_nodes":[],"categories_segments":[],"categories_sizes":[],"default_left":[0,0,0,0,0,0,0,0,0,0,0,0,0,0,0],"id":0,"left_children":[1,3,5,7,9,11,13,-1,-1,-1,-1,-1,-1,-1,-1],"loss_changes":[6.2714413E1,3.4212437E1,2.1258976E1,1.7669922E1,1.4264013E1,9.023258E0,6.4711695E0,0E0,0E0,0E0,0E0,0E0,0E0,0E0,0E0],"parents":[2147483647,0,0,1,1,2,2,3,3,4,4,5,5,6,6],"right_children":[2,4,6,8,10,12,14,-1,-1,-1,-1,-1,-1,-1,-1],"split_conditions":[9.796048E-3,6.6059E-1,-7.194617E-3,1.4314453E-2,3.7016597E-2,2.049481E0,-3.0368173E-1,6.147324E-4,2.0224387E-3,-1.7290836E-3,1.0516252E-3,-1.9717405E-3,-1.9830027E-4,5.57377E-4,-6.1830174E-4],"split_indices":[0,2,1,3,1,4,7,0,0,0,0,0,0,0,0],"split_type":[0,0,0,0,0,0,0,0,0,0,0,0,0,0,0],"sum_hessian":[8.347E3,4.4655E3,3.8815E3,3.5785E3,8.87E2,1.908E3,1.9735E3,1.886E3,1.6925E3,6.265E2,2.605E2,1.556E3,3.52E2,7.615E2,1.212E3],"tree_param":{"num_deleted":"0","num_feature":"15","num_nodes":"15","size_leaf_vector":"1"}},{"base_weights":[-3.7134644E-3,-8.451808E-2,8.9246616E-2,-1.2809052E-1,9.1216214E-2,1.6448402E-1,1.6459864E-2,-6.147324E-4,-2.0224387E-3,1.7290836E-3,-1.0516252E-3,1.9717405E-3,1.9830027E-4,-5.57377E-4,6.1830174E-4],"categories":[],"categories_nodes":[],"categories_segments":[],"categories_sizes":[],"default_left":[0,0,0,0,0,0,0,0,0,0,0,0,0,0,0],"id":1,"left_children":[1,3,5,7,9,11,13,-1,-1,-1,-1,-1,-1,-1,-1],"loss_changes":[6.2714413E1,3.4212437E1,2.1258976E1,1.7669922E1,1.4264013E1,9.023258E0,6.4711695E0,0E0,0E0,0E0,0E0,0E0,0E0,0E0,0E0],"parents":[2147483647,0,0,1,1,2,2,3,3,4,4,5,5,6,6],"right_children":[2,4,6,8,10,12,14,-1,-1,-1,-1,-1,-1,-1,-1],"split_conditions":[9.796048E-3,6.6059E-1,-7.194617E-3,1.4314453E-2,3.7016597E-2,2.049481E0,-3.0368173E-1,-6.147324E-4,-2.0224387E-3,1.7290836E-3,-1.0516252E-3,1.9717405E-3,1.9830027E-4,-5.57377E-4,6.1830174E-4],"split_indices":[0,2,1,3,1,4,7,0,0,0,0,0,0,0,0],"split_type":[0,0,0,0,0,0,0,0,0,0,0,0,0,0,0],"sum_hessian":[8.347E3,4.4655E3,3.8815E3,3.5785E3,8.87E2,1.908E3,1.9735E3,1.886E3,1.6925E3,6.265E2,2.605E2,1.556E3,3.52E2,7.615E2,1.212E3],"tree_param":{"num_deleted":"0","num_feature":"15","num_nodes":"15","size_leaf_vector":"1"}},{"base_weights":[3.676296E-3,8.367353E-2,-8.835491E-2,1.2681063E-1,-9.0305045E-2,-1.6284084E-1,-1.6295351E-2,6.085882E-4,2.002235E-3,-1.7118258E-3,1.0411512E-3,-1.9520434E-3,-1.9632227E-4,5.518103E-4,-6.1212457E-4],"categories":[],"categories_nodes":[],"categories_segments":[],"categories_sizes":[],"default_left":[0,0,0,0,0,0,0,0,0,0,0,0,0,0,0],"id":2,"left_children":[1,3,5,7,9,11,13,-1,-1,-1,-1,-1,-1,-1,-1],"loss_changes":[6.1467262E1,3.353215E1,2.0836334E1,1.731868E1,1.3980902E1,8.843845E0,6.342532E0,0E0,0E0,0E0,0E0,0E0,0E0,0E0,0E0],"parents":[2147483647,0,0,1,1,2,2,3,3,4,4,5,5,6,6],"right_children":[2,4,6,8,10,12,14,-1,-1,-1,-1,-1,-1,-1,-1],"split_conditions":[9.796048E-3,6.6059E-1,-7.194617E-3,1.4314453E-2,3.7016597E-2,2.049481E0,-3.0368173E-1,6.085882E-4,2.002235E-3,-1.7118258E-3,1.0411512E-3,-1.9520434E-3,-1.9632227E-4,5.518103E-4,-6.1212457E-4],"split_indices":[0,2,1,3,1,4,7,0,0,0,0,0,0,0,0],"split_type":[0,0,0,0,0,0,0,0,0,0,0,0,0,0,0],"sum_hessian":[8.346983E3,4.46549E3,3.8814932E3,3.5784924E3,8.869978E2,1.9079939E3,1.9734993E3,1.8859993E3,1.692493E3,6.264981E2,2.604997E2,1.555994E3,3.5199997E2,7.6149976E2,1.2119995E3],"tree_param":{"num_deleted":"0","num_feature":"15","num_nodes":"15","size_leaf_vector":"1"}},{"base_weights":[-3.6763118E-3,-8.367354E-2,8.8354886E-2,-1.2681064E-1,9.0305015E-2,1.6284086E-1,1.6295284E-2,-6.085891E-4,-2.002234E-3,1.7118249E-3,-1.04115E-3,1.9520434E-3,1.9632347E-4,-5.5181055E-4,6.1212364E-4],"categories":[],"categories_nodes":[],"categories_segments":[],"categories_sizes":[],"default_left":[0,0,0,0,0,0,0,0,0,0,0,0,0,0,0],"id":3,"left_children":[1,3,5,7,9,11,13,-1,-1,-1,-1,-1,-1,-1,-1],"loss_changes":[6.1467255E1,3.3532146E1,2.0836359E1,1.7318642E1,1.3980882E1,8.84383E0,6.342526E0,0E0,0E0,0E0,0E0,0E0,0E0,0E0,0E0],"parents":[2147483647,0,0,1,1,2,2,3,3,4,4,5,5,6,6],"right_children":[2,4,6,8,10,12,14,-1,-1,-1,-1,-1,-1,-1,-1],"split_conditions":[9.796048E-3,6.6059E-1,-7.194617E-3,1.4314453E-2,3.7016597E-2,2.049481E0,-3.0368173E-1,-6.085891E-4,-2.002234E-3,1.7118249E-3,-1.04115E-3,1.9520434E-3,1.9632347E-4,-5.5181055E-4,6.1212364E-4],"split_indices":[0,2,1,3,1,4,7,0,0,0,0,0,0,0,0],"split_type":[0,0,0,0,0,0,0,0,0,0,0,0,0,0,0],"sum_hessian":[8.346983E3,4.46549E3,3.8814934E3,3.5784924E3,8.8699786E2,1.9079939E3,1.9734994E3,1.8859993E3,1.6924932E3,6.264981E2,2.604997E2,1.555994E3,3.5199997E2,7.614998E2,1.2119995E3],"tree_param":{"num_deleted":"0","num_feature":"15","num_nodes":"15","size_leaf_vector":"1"}},{"base_weights":[3.6395302E-3,8.530479E-2,-8.47479E-2,1.2898467E-1,-9.195655E-2,-1.589771E-1,-1.3006814E-2,6.2897487E-4,2.022822E-3,-1.6704772E-3,1.3217668E-3,-1.8995932E-3,-2.2866069E-4,-3.1722058E-4,1.4980199E-3],"categories":[],"categories_nodes":[],"categories_segments":[],"categories_sizes":[],"default_left":[0,0,0,0,0,0,0,0,0,0,0,0,0,0,0],"id":4,"left_children":[1,3,5,7,9,11,13,-1,-1,-1,-1,-1,-1,-1,-1],"loss_changes":[6.026415E1,3.361126E1,2.1349506E1,1.6854042E1,1.4470861E1,8.305195E0,6.220635E0,0E0,0E0,0E0,0E0,0E0,0E0,0E0,0E0],"parents":[2147483647,0,0,1,1,2,2,3,3,4,4,5,5,6,6],"right_children":[2,4,6,8,10,12,14,-1,-1,-1,-1,-1,-1,-1,-1],"split_conditions":[6.3703093E-3,6.6059E-1,-7.194617E-3,1.4314453E-2,4.9922064E-2,2.049481E0,1.3619125E-1,6.2897487E-4,2.022822E-3,-1.6704772E-3,1.3217668E-3,-1.8995932E-3,-2.2866069E-4,-3.1722058E-4,1.4980199E-3],"split_indices":[0,2,1,3,1,4,1,0,0,0,0,0,0,0,0],"split_type":[0,0,0,0,0,0,0,0,0,0,0,0,0,0,0],"sum_hessian":[8.346935E3,4.3384624E3,4.0084722E3,3.4809705E3,8.574917E2,1.9694757E3,2.0389965E3,1.8314973E3,1.6494733E3,6.424926E2,2.1499907E2,1.6039758E3,3.6549988E2,1.8294968E3,2.0949966E2],"tree_param":{"num_deleted":"0","num_feature":"15","num_nodes":"15","size_leaf_vector":"1"}},{"base_weights":[-3.6395194E-3,-8.530476E-2,8.4747896E-2,-1.2898465E-1,9.195654E-2,1.589771E-1,1.3006789E-2,-6.2897487E-4,-2.0228212E-3,1.6704773E-3,-1.321768E-3,1.8995932E-3,2.28661E-4,3.172203E-4,-1.4980201E-3],"categories":[],"categories_nodes":[],"categories_segments":[],"categories_sizes":[],"default_left":[0,0,0,0,0,0,0,0,0,0,0,0,0,0,0],"id":5,"left_children":[1,3,5,7,9,11,13,-1,-1,-1,-1,-1,-1,-1,-1],"loss_changes":[6.026412E1,3.3611237E1,2.1349516E1,1.685402E1,1.4470873E1,8.305191E0,6.220635E0,0E0,0E0,0E0,0E0,0E0,0E0,0E0,0E0],"parents":[2147483647,0,0,1,1,2,2,3,3,4,4,5,5,6,6],"right_children":[2,4,6,8,10,12,14,-1,-1,-1,-1,-1,-1,-1,-1],"split_conditions":[6.3703093E-3,6.6059E-1,-7.194617E-3,1.4314453E-2,4.9922064E-2,2.049481E0,1.3619125E-1,-6.2897487E-4,-2.0228212E-3,1.6704773E-3,-1.321768E-3,1.8995932E-3,2.28661E-4,3.172203E-4,-1.4980201E-3],"split_indices":[0,2,1,3,1,4,1,0,0,0,0,0,0,0,0],"split_type":[0,0,0,0,0,0,0,0,0,0,0,0,0,0,0],"sum_hessian":[8.346935E3,4.3384624E3,4.0084722E3,3.4809707E3,8.574917E2,1.9694757E3,2.0389965E3,1.8314973E3,1.6494734E3,6.424927E2,2.1499907E2,1.6039758E3,3.654999E2,1.8294968E3,2.0949966E2],"tree_param":{"num_deleted":"0","num_feature":"15","num_nodes":"15","size_leaf_vector":"1"}},{"base_weights":[3.6033539E-3,8.203432E-2,-8.662558E-2,1.2431259E-1,-8.848084E-2,-1.5962698E-1,-1.6003812E-2,5.9675303E-4,1.962643E-3,-1.6781448E-3,1.0222484E-3,-1.9136093E-3,-1.9208457E-4,5.4738595E-4,-6.045981E-4],"categories":[],"categories_nodes":[],"categories_segments":[],"categories_sizes":[],"default_left":[0,0,0,0,0,0,0,0,0,0,0,0,0,0,0],"id":6,"left_children":[1,3,5,7,9,11,13,-1,-1,-1,-1,-1,-1,-1,-1],"loss_changes":[5.908275E1,3.220976E1,2.0013334E1,1.6635376E1,1.3451758E1,8.502659E0,6.2129507E0,0E0,0E0,0E0,0E0,0E0,0E0,0E0,0E0],"parents":[2147483647,0,0,1,1,2,2,3,3,4,4,5,5,6,6],"right_children":[2,4,6,8,10,12,14,-1,-1,-1,-1,-1,-1,-1,-1],"split_conditions":[9.796048E-3,6.6059E-1,-7.194617E-3,1.4314453E-2,3.7016597E-2,2.049481E0,-3.0368173E-1,5.9675303E-4,1.962643E-3,-1.6781448E-3,1.0222484E-3,-1.9136093E-3,-1.9208457E-4,5.4738595E-4,-6.045981E-4],"split_indices":[0,2,1,3,1,4,7,0,0,0,0,0,0,0,0],"split_type":[0,0,0,0,0,0,0,0,0,0,0,0,0,0,0],"sum_hessian":[8.346857E3,4.4654136E3,3.8814434E3,3.5784326E3,8.869811E2,1.9079471E3,1.9734963E3,1.8859937E3,1.692439E3,6.2648364E2,2.6049744E2,1.5559473E3,3.5199985E2,7.6149896E2,1.2119973E3],"tree_param":{"num_deleted":"0","num_feature":"15","num_nodes":"15","size_leaf_vector":"1"}},{"base_weights":[-3.60334E-3,-8.203429E-2,8.6625576E-2,-1.2431254E-1,8.848084E-2,1.5962698E-1,1.6003804E-2,-5.9675303E-4,-1.962642E-3,1.6781448E-3,-1.0222484E-3,1.913609E-3,1.9208576E-4,-5.4738484E-4,6.0459727E-4],"categories":[],"categories_nodes":[],"categories_segments":[],"categories_sizes":[],"default_left":[0,0,0,0,0,0,0,0,0,0,0,0,0,0,0],"id":7,"left_children":[1,3,5,7,9,11,13,-1,-1,-1,-1,-1,-1,-1,-1],"loss_changes":[5.9082714E1,3.2209747E1,2.0013336E1,1.6635353E1,1.3451756E1,8.502644E0,6.2129307E0,0E0,0E0,0E0,0E0,0E0,0E0,0E0,0E0],"parents":[2147483647,0,0,1,1,2,2,3,3,4,4,5,5,6,6],"right_children":[2,4,6,8,10,12,14,-1,-1,-1,-1,-1,-1,-1,-1],"split_conditions":[9.796048E-3,6.6059E-1,-7.194617E-3,1.4314453E-2,3.7016597E-2,2.049481E0,-3.0368173E-1,-5.9675303E-4,-1.962642E-3,1.6781448E-3,-1.0222484E-3,1.913609E-3,1.9208576E-4,-5.4738484E-4,6.0459727E-4],"split_indices":[0,2,1,3,1,4,7,0,0,0,0,0,0,0,0],"split_type":[0,0,0,0,0,0,0,0,0,0,0,0,0,0,0],"sum_hessian":[8.346857E3,4.465414E3,3.8814434E3,3.5784326E3,8.869811E2,1.907947E3,1.9734963E3,1.8859937E3,1.6924391E3,6.2648364E2,2.6049744E2,1.5559473E3,3.5199985E2,7.6149896E2,1.2119974E3],"tree_param":{"num_deleted":"0","num_feature":"15","num_nodes":"15","size_leaf_vector":"1"}},{"base_weights":[3.5673152E-3,8.363133E-2,-8.308647E-2,1.2645514E-1,-9.0156384E-2,-2.242996E-1,-4.6237748E-2,6.167272E-4,1.9830866E-3,-1.6386484E-3,1.298456E-3,-9.1431383E-4,-2.71665E-3,-7.9954905E-4,4.7670133E-4],"categories":[],"categories_nodes":[],"categories_segments":[],"categories_sizes":[],"default_left":[0,0,0,0,0,0,0,0,0,0,0,0,0,0,0],"id":8,"left_children":[1,3,5,7,9,11,13,-1,-1,-1,-1,-1,-1,-1,-1],"loss_changes":[5.792237E1,3.2305946E1,2.0852613E1,1.6195396E1,1.39422E1,5.195244E0,1.007564E1,0E0,0E0,0E0,0E0,0E0,0E0,0E0,0E0],"parents":[2147483647,0,0,1,1,2,2,3,3,4,4,5,5,6,6],"right_children":[2,4,6,8,10,12,14,-1,-1,-1,-1,-1,-1,-1,-1],"split_conditions":[6.3703093E-3,6.6059E-1,-9.232209E-2,1.4314453E-2,4.9922064E-2,1.557936E-1,6.8989284E-2,6.167272E-4,1.9830866E-3,-1.6386484E-3,1.298456E-3,-9.1431383E-4,-2.71665E-3,-7.9954905E-4,4.7670133E-4],"split_indices":[0,2,1,3,1,9,1,0,0,0,0,0,0,0,0],"split_type":[0,0,0,0,0,0,0,0,0,0,0,0,0,0,0],"sum_hessian":[8.346748E3,4.338351E3,4.008397E3,3.4808833E3,8.5746783E2,8.2845856E2,3.1799385E3,1.831489E3,1.6493942E3,6.4247205E2,2.1499577E2,2.184891E2,6.099694E2,2.3399424E3,8.3999603E2],"tree_param":{"num_deleted":"0","num_feature":"15","num_nodes":"15","size_leaf_vector":"1"}},{"base_weights":[-3.5673147E-3,-8.363138E-2,8.308653E-2,-1.264552E-1,9.015637E-2,2.2429967E-1,4.62378E-2,-6.167275E-4,-1.9830875E-3,1.6386483E-3,-1.298456E-3,9.143146E-4,2.716651E-3,7.995496E-4,-4.7670104E-4],"categories":[],"categories_nodes":[],"categories_segments":[],"categories_sizes":[],"default_left":[0,0,0,0,0,0,0,0,0,0,0,0,0,0,0],"id":9,"left_children":[1,3,5,7,9,11,13,-1,-1,-1,-1,-1,-1,-1,-1],"loss_changes":[5.7922447E1,3.2305954E1,2.0852625E1,1.6195412E1,1.3942199E1,5.195236E0,1.00756445E1,0E0,0E0,0E0,0E0,0E0,0E0,0E0,0E0],"parents":[2147483647,0,0,1,1,2,2,3,3,4,4,5,5,6,6],"right_children":[2,4,6,8,10,12,14,-1,-1,-1,-1,-1,-1,-1,-1],"split_conditions":[6.3703093E-3,6.6059E-1,-9.232209E-2,1.4314453E-2,4.9922064E-2,1.557936E-1,6.8989284E-2,-6.167275E-4,-1.9830875E-3,1.6386483E-3,-1.298456E-3,9.143146E-4,2.716651E-3,7.995496E-4,-4.7670104E-4],"split_indices":[0,2,1,3,1,9,1,0,0,0,0,0,0,0,0],"split_type":[0,0,0,0,0,0,0,0,0,0,0,0,0,0,0],"sum_hessian":[8.346748E3,4.338351E3,4.008397E3,3.4808833E3,8.574678E2,8.284585E2,3.1799385E3,1.8314891E3,1.6493942E3,6.4247205E2,2.1499577E2,2.1848909E2,6.099694E2,2.3399424E3,8.399961E2],"tree_param":{"num_deleted":"0","num_feature":"15","num_nodes":"15","size_leaf_vector":"1"}},{"base_weights":[3.5314986E-3,8.042489E-2,-8.49276E-2,1.2186197E-1,-8.6698405E-2,-1.5662663E-1,-1.55685665E-2,5.8511563E-4,1.9238513E-3,-1.6452293E-3,1.0037418E-3,-1.8802286E-3,-1.7712593E-4,5.445319E-4,-5.957203E-4],"categories":[],"categories_nodes":[],"categories_segments":[],"categories_sizes":[],"default_left":[0,0,0,0,0,0,0,0,0,0,0,0,0,0,0],"id":10,"left_children":[1,3,5,7,9,11,13,-1,-1,-1,-1,-1,-1,-1,-1],"loss_changes":[5.6786686E1,3.093991E1,1.9304424E1,1.5979954E1,1.2944006E1,8.321957E0,6.0870447E0,0E0,0E0,0E0,0E0,0E0,0E0,0E0,0E0],"parents":[2147483647,0,0,1,1,2,2,3,3,4,4,5,5,6,6],"right_children":[2,4,6,8,10,12,14,-1,-1,-1,-1,-1,-1,-1,-1],"split_conditions":[9.796048E-3,6.6059E-1,-7.194617E-3,1.4314453E-2,3.7016597E-2,2.049481E0,-3.0368173E-1,5.8511563E-4,1.9238513E-3,-1.6452293E-3,1.0037418E-3,-1.8802286E-3,-1.7712593E-4,5.445319E-4,-5.957203E-4],"split_indices":[0,2,1,3,1,4,7,0,0,0,0,0,0,0,0],"split_type":[0,0,0,0,0,0,0,0,0,0,0,0,0,0,0],"sum_hessian":[8.346622E3,4.465265E3,3.8813567E3,3.5783167E3,8.869485E2,1.907866E3,1.9734907E3,1.8859827E3,1.6923339E3,6.264557E2,2.6049283E2,1.5558678E3,3.5199817E2,7.614979E2,1.2119927E3],"tree_param":{"num_deleted":"0","num_feature":"15","num_nodes":"15","size_leaf_vector":"1"}},{"base_weights":[-3.53149E-3,-8.042488E-2,8.492762E-2,-1.2186198E-1,8.6698465E-2,1.5662664E-1,1.5568585E-2,-5.851168E-4,-1.9238502E-3,1.6452302E-3,-1.0037416E-3,1.8802286E-3,1.7712591E-4,-5.445317E-4,5.957204E-4],"categories":[],"categories_nodes":[],"categories_segments":[],"categories_sizes":[],"default_left":[0,0,0,0,0,0,0,0,0,0,0,0,0,0,0],"id":11,"left_children":[1,3,5,7,9,11,13,-1,-1,-1,-1,-1,-1,-1,-1],"loss_changes":[5.678669E1,3.0939926E1,1.9304424E1,1.5979904E1,1.2944017E1,8.321957E0,6.087044E0,0E0,0E0,0E0,0E0,0E0,0E0,0E0,0E0],"parents":[2147483647,0,0,1,1,2,2,3,3,4,4,5,5,6,6],"right_children":[2,4,6,8,10,12,14,-1,-1,-1,-1,-1,-1,-1,-1],"split_conditions":[9.796048E-3,6.6059E-1,-7.194617E-3,1.4314453E-2,3.7016597E-2,2.049481E0,-3.0368173E-1,-5.851168E-4,-1.9238502E-3,1.6452302E-3,-1.0037416E-3,1.8802286E-3,1.7712591E-4,-5.445317E-4,5.957204E-4],"split_indices":[0,2,1,3,1,4,7,0,0,0,0,0,0,0,0],"split_type":[0,0,0,0,0,0,0,0,0,0,0,0,0,0,0],"sum_hessian":[8.346622E3,4.465265E3,3.8813567E3,3.5783167E3,8.869485E2,1.907866E3,1.9734906E3,1.8859827E3,1.6923339E3,6.264556E2,2.6049283E2,1.5558678E3,3.5199817E2,7.614979E2,1.2119927E3],"tree_param":{"num_deleted":"0","num_feature":"15","num_nodes":"15","size_leaf_vector":"1"}},{"base_weights":[3.4962406E-3,8.384915E-2,-7.9496905E-2,1.256158E-1,-8.697531E-2,-2.2054905E-1,-4.2948075E-2,9.902468E-4,2.9271564E-3,-1.5081457E-3,1.5427597E-3,-9.18416E-4,-2.66407E-3,-7.340908E-4,5.8419985E-4],"categories":[],"categories_nodes":[],"categories_segments":[],"categories_sizes":[],"default_left":[0,0,0,0,0,0,0,0,0,0,0,0,0,0,0],"id":12,"left_children":[1,3,5,7,9,11,13,-1,-1,-1,-1,-1,-1,-1,-1],"loss_changes":[5.56737E1,3.0274303E1,2.1162178E1,1.5117352E1,1.2866892E1,4.9623528E0,1.0079325E1,0E0,0E0,0E0,0E0,0E0,0E0,0E0,0E0],"parents":[2147483647,0,0,1,1,2,2,3,3,4,4,5,5,6,6],"right_children":[2,4,6,8,10,12,14,-1,-1,-1,-1,-1,-1,-1,-1],"split_conditions":[3.391514E-3,6.6059E-1,-9.232209E-2,5.8389664E-1,7.00742E-2,1.557936E-1,7.693741E-2,9.902468E-4,2.9271564E-3,-1.5081457E-3,1.5427597E-3,-9.18416E-4,-2.66407E-3,-7.340908E-4,5.8419985E-4],"split_indices":[0,2,1,2,3,9,1,0,0,0,0,0,0,0,0],"split_type":[0,0,0,0,0,0,0,0,0,0,0,0,0,0,0],"sum_hessian":[8.346458E3,4.2406772E3,4.1057803E3,3.4077466E3,8.329309E2,8.439E2,3.2618801E3,2.9412832E3,4.6646323E2,6.589391E2,1.7399182E2,2.2247958E2,6.214205E2,2.5083877E3,7.534924E2],"tree_param":{"num_deleted":"0","num_feature":"15","num_nodes":"15","size_leaf_vector":"1"}},{"base_weights":[-3.4962066E-3,-8.384909E-2,7.949691E-2,-1.2561575E-1,8.697534E-2,2.2054905E-1,4.2948086E-2,-9.902461E-4,-2.9271557E-3,1.508146E-3,-1.5427587E-3,9.18416E-4,2.66407E-3,7.3409115E-4,-5.842005E-4],"categories":[],"categories_nodes":[],"categories_segments":[],"categories_sizes":[],"default_left":[0,0,0,0,0,0,0,0,0,0,0,0,0,0,0],"id":13,"left_children":[1,3,5,7,9,11,13,-1,-1,-1,-1,-1,-1,-1,-1],"loss_changes":[5.5673664E1,3.027429E1,2.1162172E1,1.5117348E1,1.2866883E1,4.9623566E0,1.0079338E1,0E0,0E0,0E0,0E0,0E0,0E0,0E0,0E0],"parents":[2147483647,0,0,1,1,2,2,3,3,4,4,5,5,6,6],"right_children":[2,4,6,8,10,12,14,-1,-1,-1,-1,-1,-1,-1,-1],"split_conditions":[3.391514E-3,6.6059E-1,-9.232209E-2,5.8389664E-1,7.00742E-2,1.557936E-1,7.693741E-2,-9.902461E-4,-2.9271557E-3,1.508146E-3,-1.5427587E-3,9.18416E-4,2.66407E-3,7.3409115E-4,-5.842005E-4],"split_indices":[0,2,1,2,3,9,1,0,0,0,0,0,0,0,0],"split_type":[0,0,0,0,0,0,0,0,0,0,0,0,0,0,0],"sum_hessian":[8.346458E3,4.2406772E3,4.1057803E3,3.4077466E3,8.329309E2,8.439E2,3.2618801E3,2.9412832E3,4.6646323E2,6.589391E2,1.7399182E2,2.2247957E2,6.214205E2,2.5083877E3,7.5349243E2],"tree_param":{"num_deleted":"0","num_feature":"15","num_nodes":"15","size_leaf_vector":"1"}},{"base_weights":[3.4613283E-3,7.8865066E-2,-8.328311E-2,1.5832294E-2,1.8512504E-1,-1.5371272E-1,-1.5155993E-2,6.6576956E-4,-1.6161106E-3,2.1477602E-3,4.311714E-4,-1.847752E-3,-1.6287412E-4,5.414986E-4,-5.8709935E-4],"categories":[],"categories_nodes":[],"categories_segments":[],"categories_sizes":[],"default_left":[0,0,0,0,0,0,0,0,0,0,0,0,0,0,0],"id":14,"left_children":[1,3,5,7,9,11,13,-1,-1,-1,-1,-1,-1,-1,-1],"loss_changes":[5.460505E1,2.9910189E1,1.8625256E1,2.5261639E1,6.9920807E0,8.145012E0,5.9632373E0,0E0,0E0,0E0,0E0,0E0,0E0,0E0,0E0],"parents":[2147483647,0,0,1,1,2,2,3,3,4,4,5,5,6,6],"right_children":[2,4,6,8,10,12,14,-1,-1,-1,-1,-1,-1,-1,-1],"split_conditions":[9.796048E-3,3.586025E-2,-7.194617E-3,6.6059E-1,2.2058222E-2,2.049481E0,-3.0368173E-1,6.6576956E-4,-1.6161106E-3,2.1477602E-3,4.311714E-4,-1.847752E-3,-1.6287412E-4,5.414986E-4,-5.8709935E-4],"split_indices":[0,1,1,2,12,4,7,0,0,0,0,0,0,0,0],"split_type":[0,0,0,0,0,0,0,0,0,0,0,0,0,0,0],"sum_hessian":[8.346302E3,4.465071E3,3.8812305E3,2.8033123E3,1.6617588E3,1.907749E3,1.9734814E3,2.1803948E3,6.229173E2,1.3742958E3,2.8746292E2,1.5557544E3,3.5199457E2,7.6149615E2,1.2119852E3],"tree_param":{"num_deleted":"0","num_feature":"15","num_nodes":"15","size_leaf_vector":"1"}},{"base_weights":[-3.4613283E-3,-7.8865066E-2,8.328311E-2,-1.5832294E-2,-1.8512505E-1,1.5371269E-1,1.5156018E-2,-6.6576933E-4,1.6161097E-3,-2.1477602E-3,-4.3117141E-4,1.8477517E-3,1.6287489E-4,-5.414985E-4,5.8709964E-4],"categories":[],"categories_nodes":[],"categories_segments":[],"categories_sizes":[],"default_left":[0,0,0,0,0,0,0,0,0,0,0,0,0,0,0],"id":15,"left_children":[1,3,5,7,9,11,13,-1,-1,-1,-1,-1,-1,-1,-1],"loss_changes":[5.4605057E1,2.9910192E1,1.8625244E1,2.5261616E1,6.9920807E0,8.145E0,5.9632387E0,0E0,0E0,0E0,0E0,0E0,0E0,0E0,0E0],"parents":[2147483647,0,0,1,1,2,2,3,3,4,4,5,5,6,6],"right_children":[2,4,6,8,10,12,14,-1,-1,-1,-1,-1,-1,-1,-1],"split_conditions":[9.796048E-3,3.586025E-2,-7.194617E-3,6.6059E-1,2.2058222E-2,2.049481E0,-3.0368173E-1,-6.6576933E-4,1.6161097E-3,-2.1477602E-3,-4.3117141E-4,1.8477517E-3,1.6287489E-4,-5.414985E-4,5.8709964E-4],"split_indices":[0,1,1,2,12,4,7,0,0,0,0,0,0,0,0],"split_type":[0,0,0,0,0,0,0,0,0,0,0,0,0,0,0],"sum_hessian":[8.346302E3,4.465071E3,3.8812305E3,2.8033123E3,1.6617588E3,1.907749E3,1.9734814E3,2.1803948E3,6.2291736E2,1.3742958E3,2.8746292E2,1.5557544E3,3.5199457E2,7.6149615E2,1.2119854E3],"tree_param":{"num_deleted":"0","num_feature":"15","num_nodes":"15","size_leaf_vector":"1"}},{"base_weights":[3.426757E-3,1.3140868E-1,-4.6706934E-2,1.6995284E-1,-6.1257683E-2,-9.9730596E-2,4.8122313E-2,3.1298664E-4,2.2386883E-3,-1.7077605E-3,2.2332992E-3,-6.703951E-4,-1.993919E-3,7.638109E-4,-8.533382E-4],"categories":[],"categories_nodes":[],"categories_segments":[],"categories_sizes":[],"default_left":[0,0,0,0,0,0,0,0,0,0,0,0,0,0,0],"id":16,"left_children":[1,3,5,7,9,11,13,-1,-1,-1,-1,-1,-1,-1,-1],"loss_changes":[5.3562824E1,1.7459637E1,3.0165922E1,1.4632252E1,1.2269642E1,1.2522102E1,8.121794E0,0E0,0E0,0E0,0E0,0E0,0E0,0E0,0E0],"parents":[2147483647,0,0,1,1,2,2,3,3,4,4,5,5,6,6],"right_children":[2,4,6,8,10,12,14,-1,-1,-1,-1,-1,-1,-1,-1],"split_conditions":[-5.926921E-2,2.0967832E0,3.0483222E-2,-1.3455175E-1,4.893555E-2,6.6059E-1,9.9496916E-2,3.1298664E-4,2.2386883E-3,-1.7077605E-3,2.2332992E-3,-6.703951E-4,-1.993919E-3,7.638109E-4,-8.533382E-4],"split_indices":[5,2,1,2,1,2,0,0,0,0,0,0,0,0,0],"split_type":[0,0,0,0,0,0,0,0,0,0,0,0,0,0,0],"sum_hessian":[8.346097E3,2.3486956E3,5.997401E3,1.9572523E3,3.914432E2,3.8465532E3,2.1508474E3,5.484361E2,1.4088163E3,2.8295358E2,1.0848963E2,2.8977131E3,9.488402E2,1.7753518E3,3.7549554E2],"tree_param":{"num_deleted":"0","num_feature":"15","num_nodes":"15","size_leaf_vector":"1"}},{"base_weights":[-3.4267462E-3,-1.3140865E-1,4.6706937E-2,-1.699528E-1,6.1257675E-2,9.9730596E-2,-4.812231E-2,-3.1298614E-4,-2.238688E-3,1.7077602E-3,-2.2332983E-3,6.7039527E-4,1.9939188E-3,-7.6381076E-4,8.533383E-4],"categories":[],"categories_nodes":[],"categories_segments":[],"categories_sizes":[],"default_left":[0,0,0,0,0,0,0,0,0,0,0,0,0,0,0],"id":17,"left_children":[1,3,5,7,9,11,13,-1,-1,-1,-1,-1,-1,-1,-1],"loss_changes":[5.3562813E1,1.7459625E1,3.016592E1,1.4632259E1,1.2269635E1,1.2522091E1,8.121794E0,0E0,0E0,0E0,0E0,0E0,0E0,0E0,0E0],"parents":[2147483647,0,0,1,1,2,2,3,3,4,4,5,5,6,6],"right_children":[2,4,6,8,10,12,14,-1,-1,-1,-1,-1,-1,-1,-1],"split_conditions":[-5.926921E-2,2.0967832E0,3.0483222E-2,-1.3455175E-1,4.893555E-2,6.6059E-1,9.9496916E-2,-3.1298614E-4,-2.238688E-3,1.7077602E-3,-2.2332983E-3,6.7039527E-4,1.9939188E-3,-7.6381076E-4,8.533383E-4],"split_indices":[5,2,1,2,1,2,0,0,0,0,0,0,0,0,0],"split_type":[0,0,0,0,0,0,0,0,0,0,0,0,0,0,0],"sum_hessian":[8.346096E3,2.3486956E3,5.9974004E3,1.9572523E3,3.914432E2,3.8465532E3,2.1508474E3,5.484361E2,1.4088163E3,2.8295355E2,1.0848964E2,2.8977131E3,9.488402E2,1.7753518E3,3.7549554E2],"tree_param":{"num_deleted":"0","num_feature":"15","num_nodes":"15","size_leaf_vector":"1"}},{"base_weights":[3.3925937E-3,7.756186E-2,-8.1930175E-2,1.561934E-2,1.8198915E-1,-1.3216999E-1,1.044601E-2,6.5329083E-4,-1.582176E-3,2.1127446E-3,4.1744526E-4,-2.140358E-3,-9.3157793E-4,1.2391065E-3,-5.902074E-4],"categories":[],"categories_nodes":[],"categories_segments":[],"categories_sizes":[],"default_left":[0,0,0,0,0,0,0,0,0,0,0,0,0,0,0],"id":18,"left_children":[1,3,5,7,9,11,13,-1,-1,-1,-1,-1,-1,-1,-1],"loss_changes":[5.2828403E1,2.8884333E1,1.8018023E1,2.4242636E1,6.819729E0,8.011127E0,1.0793732E1,0E0,0E0,0E0,0E0,0E0,0E0,0E0,0E0],"parents":[2147483647,0,0,1,1,2,2,3,3,4,4,5,5,6,6],"right_children":[2,4,6,8,10,12,14,-1,-1,-1,-1,-1,-1,-1,-1],"split_conditions":[9.796048E-3,3.586025E-2,3.0483222E-2,6.6059E-1,2.2058222E-2,-9.232209E-2,-3.2477087E-1,6.5329083E-4,-1.582176E-3,2.1127446E-3,4.1744526E-4,-2.140358E-3,-9.3157793E-4,1.2391065E-3,-5.902074E-4],"split_indices":[0,1,1,2,12,1,7,0,0,0,0,0,0,0,0],"split_type":[0,0,0,0,0,0,0,0,0,0,0,0,0,0,0],"sum_hessian":[8.345921E3,4.4648296E3,3.881091E3,2.8032136E3,1.6616163E3,2.513607E3,1.367484E3,2.1803525E3,6.2286096E2,1.3741627E3,2.8745355E2,8.0979407E2,1.7038129E3,5.1899365E2,8.484904E2],"tree_param":{"num_deleted":"0","num_feature":"15","num_nodes":"15","size_leaf_vector":"1"}},{"base_weights":[-3.3925986E-3,-7.756186E-2,8.193015E-2,-1.5619312E-2,-1.819892E-1,1.3216996E-1,-1.0445998E-2,-6.532903E-4,1.5821755E-3,-2.112745E-3,-4.1744506E-4,2.1403576E-3,9.3157764E-4,-1.2391065E-3,5.9020764E-4],"categories":[],"categories_nodes":[],"categories_segments":[],"categories_sizes":[],"default_left":[0,0,0,0,0,0,0,0,0,0,0,0,0,0,0],"id":19,"left_children":[1,3,5,7,9,11,13,-1,-1,-1,-1,-1,-1,-1,-1],"loss_changes":[5.2828392E1,2.8884354E1,1.801801E1,2.4242615E1,6.819729E0,8.011124E0,1.0793735E1,0E0,0E0,0E0,0E0,0E0,0E0,0E0,0E0],"parents":[2147483647,0,0,1,1,2,2,3,3,4,4,5,5,6,6],"right_children":[2,4,6,8,10,12,14,-1,-1,-1,-1,-1,-1,-1,-1],"split_conditions":[9.796048E-3,3.586025E-2,3.0483222E-2,6.6059E-1,2.2058222E-2,-9.232209E-2,-3.2477087E-1,-6.532903E-4,1.5821755E-3,-2.112745E-3,-4.1744506E-4,2.1403576E-3,9.3157764E-4,-1.2391065E-3,5.9020764E-4],"split_indices":[0,1,1,2,12,1,7,0,0,0,0,0,0,0,0],"split_type":[0,0,0,0,0,0,0,0,0,0,0,0,0,0,0],"sum_hessian":[8.345921E3,4.4648296E3,3.881091E3,2.8032136E3,1.6616163E3,2.513607E3,1.367484E3,2.1803525E3,6.22861E2,1.3741627E3,2.8745355E2,8.0979407E2,1.7038129E3,5.1899365E2,8.484904E2],"tree_param":{"num_deleted":"0","num_feature":"15","num_nodes":"15","size_leaf_vector":"1"}},{"base_weights":[3.3586838E-3,7.907819E-2,-7.8588955E-2,1.1961385E-1,-8.5432604E-2,-2.136485E-1,-4.335366E-2,5.722933E-4,1.8882315E-3,-1.5485592E-3,1.2176714E-3,-8.3417183E-4,-2.6008948E-3,-7.559399E-4,4.6434696E-4],"categories":[],"categories_nodes":[],"categories_segments":[],"categories_sizes":[],"default_left":[0,0,0,0,0,0,0,0,0,0,0,0,0,0,0],"id":20,"left_children":[1,3,5,7,9,11,13,-1,-1,-1,-1,-1,-1,-1,-1],"loss_changes":[5.1797626E1,2.894301E1,1.9068949E1,1.5020405E1,1.2365062E1,4.993572E0,9.211166E0,0E0,0E0,0E0,0E0,0E0,0E0,0E0,0E0],"parents":[2147483647,0,0,1,1,2,2,3,3,4,4,5,5,6,6],"right_children":[2,4,6,8,10,12,14,-1,-1,-1,-1,-1,-1,-1,-1],"split_conditions":[6.3703093E-3,6.6059E-1,-9.232209E-2,1.4314453E-2,4.9922064E-2,1.557936E-1,6.8989284E-2,5.722933E-4,1.8882315E-3,-1.5485592E-3,1.2176714E-3,-8.3417183E-4,-2.6008948E-3,-7.559399E-4,4.6434696E-4],"split_indices":[0,2,1,3,1,9,1,0,0,0,0,0,0,0,0],"split_type":[0,0,0,0,0,0,0,0,0,0,0,0,0,0,0],"sum_hessian":[8.345676E3,4.3376904E3,4.0079854E3,3.4803909E3,8.572997E2,8.2823486E2,3.1797505E3,1.8314072E3,1.6489838E3,6.423348E2,2.1496487E2,2.184491E2,6.0978577E2,2.3397676E3,8.39983E2],"tree_param":{"num_deleted":"0","num_feature":"15","num_nodes":"15","size_leaf_vector":"1"}},{"base_weights":[-3.3586617E-3,-7.907815E-2,7.858896E-2,-1.1961382E-1,8.5432656E-2,2.1364854E-1,4.3353662E-2,-5.7229295E-4,-1.8882311E-3,1.54856E-3,-1.2176716E-3,8.3417183E-4,2.6008955E-3,7.559399E-4,-4.6434696E-4],"categories":[],"categories_nodes":[],"categories_segments":[],"categories_sizes":[],"default_left":[0,0,0,0,0,0,0,0,0,0,0,0,0,0,0],"id":21,"left_children":[1,3,5,7,9,11,13,-1,-1,-1,-1,-1,-1,-1,-1],"loss_changes":[5.179761E1,2.894301E1,1.906896E1,1.5020412E1,1.2365071E1,4.99358E0,9.211167E0,0E0,0E0,0E0,0E0,0E0,0E0,0E0,0E0],"parents":[2147483647,0,0,1,1,2,2,3,3,4,4,5,5,6,6],"right_children":[2,4,6,8,10,12,14,-1,-1,-1,-1,-1,-1,-1,-1],"split_conditions":[6.3703093E-3,6.6059E-1,-9.232209E-2,1.4314453E-2,4.9922064E-2,1.557936E-1,6.8989284E-2,-5.7229295E-4,-1.8882311E-3,1.54856E-3,-1.2176716E-3,8.3417183E-4,2.6008955E-3,7.559399E-4,-4.6434696E-4],"split_indices":[0,2,1,3,1,9,1,0,0,0,0,0,0,0,0],"split_type":[0,0,0,0,0,0,0,0,0,0,0,0,0,0,0],"sum_hessian":[8.345676E3,4.3376904E3,4.0079854E3,3.480391E3,8.572996E2,8.282348E2,3.1797505E3,1.8314071E3,1.6489839E3,6.423347E2,2.1496487E2,2.184491E2,6.097857E2,2.3397676E3,8.39983E2],"tree_param":{"num_deleted":"0","num_feature":"15","num_nodes":"15","size_leaf_vector":"1"}},{"base_weights":[3.3250018E-3,1.2833455E-1,-4.564185E-2,1.6589004E-1,-5.9395373E-2,-9.7165026E-2,4.6501216E-2,1.2595416E-3,3.506861E-3,-1.6615748E-3,2.1802455E-3,-6.5201765E-4,-1.9461684E-3,1.2364266E-3,-1.3620485E-5],"categories":[],"categories_nodes":[],"categories_segments":[],"categories_sizes":[],"default_left":[0,0,0,0,0,0,0,0,0,0,0,0,0,0,0],"id":22,"left_children":[1,3,5,7,9,11,13,-1,-1,-1,-1,-1,-1,-1,-1],"loss_changes":[5.109694E1,1.6573914E1,2.8480007E1,1.4406059E1,1.1657958E1,1.1971027E1,7.9449215E0,0E0,0E0,0E0,0E0,0E0,0E0,0E0,0E0],"parents":[2147483647,0,0,1,1,2,2,3,3,4,4,5,5,6,6],"right_children":[2,4,6,8,10,12,14,-1,-1,-1,-1,-1,-1,-1,-1],"split_conditions":[-5.926921E-2,2.0967832E0,3.0483222E-2,5.759451E-1,4.893555E-2,6.6059E-1,-3.2477087E-1,1.2595416E-3,3.506861E-3,-1.6615748E-3,2.1802455E-3,-6.5201765E-4,-1.9461684E-3,1.2364266E-3,-1.3620485E-5],"split_indices":[5,2,1,2,1,2,7,0,0,0,0,0,0,0,0],"split_type":[0,0,0,0,0,0,0,0,0,0,0,0,0,0,0],"sum_hessian":[8.345409E3,2.3484165E3,5.9969927E3,1.9570283E3,3.913883E2,3.8462502E3,2.1507427E3,1.6106384E3,3.4638992E2,2.829132E2,1.0847508E2,2.8975503E3,9.4869977E2,8.2289526E2,1.3278474E3],"tree_param":{"num_deleted":"0","num_feature":"15","num_nodes":"15","size_leaf_vector":"1"}},{"base_weights":[-3.3250027E-3,-1.283346E-1,4.564187E-2,-1.6589008E-1,5.9395347E-2,9.716503E-2,-4.6501186E-2,-1.259542E-3,-3.5068619E-3,1.6615747E-3,-2.1802464E-3,6.520176E-4,1.9461686E-3,-1.2364263E-3,1.3620811E-5],"categories":[],"categories_nodes":[],"categories_segments":[],"categories_sizes":[],"default_left":[0,0,0,0,0,0,0,0,0,0,0,0,0,0,0],"id":23,"left_children":[1,3,5,7,9,11,13,-1,-1,-1,-1,-1,-1,-1,-1],"loss_changes":[5.1096973E1,1.6573921E1,2.848E1,1.4406071E1,1.1657965E1,1.1971031E1,7.944922E0,0E0,0E0,0E0,0E0,0E0,0E0,0E0,0E0],"parents":[2147483647,0,0,1,1,2,2,3,3,4,4,5,5,6,6],"right_children":[2,4,6,8,10,12,14,-1,-1,-1,-1,-1,-1,-1,-1],"split_conditions":[-5.926921E-2,2.0967832E0,3.0483222E-2,5.759451E-1,4.893555E-2,6.6059E-1,-3.2477087E-1,-1.259542E-3,-3.5068619E-3,1.6615747E-3,-2.1802464E-3,6.520176E-4,1.9461686E-3,-1.2364263E-3,1.3620811E-5],"split_indices":[5,2,1,2,1,2,7,0,0,0,0,0,0,0,0],"split_type":[0,0,0,0,0,0,0,0,0,0,0,0,0,0,0],"sum_hessian":[8.345409E3,2.3484165E3,5.9969927E3,1.9570282E3,3.913883E2,3.84625E3,2.1507427E3,1.6106383E3,3.463899E2,2.829132E2,1.0847508E2,2.8975503E3,9.486997E2,8.2289526E2,1.3278474E3],"tree_param":{"num_deleted":"0","num_feature":"15","num_nodes":"15","size_leaf_vector":"1"}},{"base_weights":[3.2923222E-3,7.558653E-2,-7.987031E-2,1.517482E-2,1.7744292E-1,-1.4746422E-1,-1.4497271E-2,6.337155E-4,-1.5339247E-3,2.063126E-3,3.9210333E-4,-1.7803877E-3,-1.223162E-4,-3.2725272E-4,1.4214809E-3],"categories":[],"categories_nodes":[],"categories_segments":[],"categories_sizes":[],"default_left":[0,0,0,0,0,0,0,0,0,0,0,0,0,0,0],"id":24,"left_children":[1,3,5,7,9,11,13,-1,-1,-1,-1,-1,-1,-1,-1],"loss_changes":[5.0184715E1,2.7474049E1,1.7150928E1,2.2790638E1,6.6258545E0,7.8883743E0,5.6423264E0,0E0,0E0,0E0,0E0,0E0,0E0,0E0,0E0],"parents":[2147483647,0,0,1,1,2,2,3,3,4,4,5,5,6,6],"right_children":[2,4,6,8,10,12,14,-1,-1,-1,-1,-1,-1,-1,-1],"split_conditions":[9.796048E-3,3.586025E-2,-7.194617E-3,6.6059E-1,2.2058222E-2,2.049481E0,1.3619125E-1,6.337155E-4,-1.5339247E-3,2.063126E-3,3.9210333E-4,-1.7803877E-3,-1.223162E-4,-3.2725272E-4,1.4214809E-3],"split_indices":[0,1,1,2,12,4,1,0,0,0,0,0,0,0,0],"split_type":[0,0,0,0,0,0,0,0,0,0,0,0,0,0,0],"sum_hessian":[8.345175E3,4.464353E3,3.880821E3,2.8030151E3,1.6613381E3,1.9073837E3,1.9734374E3,2.1802598E3,6.227554E2,1.373907E3,2.8743118E2,1.5554072E3,3.5197644E2,1.768444E3,2.049935E2],"tree_param":{"num_deleted":"0","num_feature":"15","num_nodes":"15","size_leaf_vector":"1"}},{"base_weights":[-3.2923254E-3,-7.558653E-2,7.98703E-2,-1.5174823E-2,-1.774429E-1,1.4746422E-1,1.4497242E-2,-6.3371565E-4,1.5339255E-3,-2.0631258E-3,-3.9210307E-4,1.7803877E-3,1.2231625E-4,3.272524E-4,-1.4214808E-3],"categories":[],"categories_nodes":[],"categories_segments":[],"categories_sizes":[],"default_left":[0,0,0,0,0,0,0,0,0,0,0,0,0,0,0],"id":25,"left_children":[1,3,5,7,9,11,13,-1,-1,-1,-1,-1,-1,-1,-1],"loss_changes":[5.01847E1,2.7474041E1,1.7150932E1,2.2790659E1,6.6258545E0,7.8883743E0,5.642323E0,0E0,0E0,0E0,0E0,0E0,0E0,0E0,0E0],"parents":[2147483647,0,0,1,1,2,2,3,3,4,4,5,5,6,6],"right_children":[2,4,6,8,10,12,14,-1,-1,-1,-1,-1,-1,-1,-1],"split_conditions":[9.796048E-3,3.586025E-2,-7.194617E-3,6.6059E-1,2.2058222E-2,2.049481E0,1.3619125E-1,-6.3371565E-4,1.5339255E-3,-2.0631258E-3,-3.9210307E-4,1.7803877E-3,1.2231625E-4,3.272524E-4,-1.4214808E-3],"split_indices":[0,1,1,2,12,4,1,0,0,0,0,0,0,0,0],"split_type":[0,0,0,0,0,0,0,0,0,0,0,0,0,0,0],"sum_hessian":[8.345175E3,4.464353E3,3.880821E3,2.8030151E3,1.6613381E3,1.9073837E3,1.9734375E3,2.1802598E3,6.227553E2,1.373907E3,2.8743118E2,1.5554072E3,3.5197644E2,1.768444E3,2.049935E2],"tree_param":{"num_deleted":"0","num_feature":"15","num_nodes":"15","size_leaf_vector":"1"}},{"base_weights":[3.2595939E-3,1.261791E-1,-4.4886064E-2,1.6309352E-1,-5.835122E-2,-9.544714E-2,4.5533754E-2,2.6289438E-4,2.162985E-3,-1.6316848E-3,2.140213E-3,-6.403769E-4,-1.9121963E-3,1.2188322E-3,-1.8365427E-5],"categories":[],"categories_nodes":[],"categories_segments":[],"categories_sizes":[],"default_left":[0,0,0,0,0,0,0,0,0,0,0,0,0,0,0],"id":26,"left_children":[1,3,5,7,9,11,13,-1,-1,-1,-1,-1,-1,-1,-1],"loss_changes":[4.9396847E1,1.6011696E1,2.742413E1,1.424474E1,1.1235959E1,1.1560196E1,7.782182E0,0E0,0E0,0E0,0E0,0E0,0E0,0E0,0E0],"parents":[2147483647,0,0,1,1,2,2,3,3,4,4,5,5,6,6],"right_children":[2,4,6,8,10,12,14,-1,-1,-1,-1,-1,-1,-1,-1],"split_conditions":[-5.926921E-2,2.0967832E0,3.0483222E-2,-1.3455175E-1,4.893555E-2,6.6059E-1,-3.2477087E-1,2.6289438E-4,2.162985E-3,-1.6316848E-3,2.140213E-3,-6.403769E-4,-1.9121963E-3,1.2188322E-3,-1.8365427E-5],"split_indices":[5,2,1,2,1,2,7,0,0,0,0,0,0,0,0],"split_type":[0,0,0,0,0,0,0,0,0,0,0,0,0,0,0],"sum_hessian":[8.344867E3,2.3481755E3,5.996691E3,1.956836E3,3.9133957E2,3.8460154E3,2.1506758E3,5.483578E2,1.4084783E3,2.8287973E2,1.0845983E2,2.897442E3,9.485735E2,8.228567E2,1.327819E3],"tree_param":{"num_deleted":"0","num_feature":"15","num_nodes":"15","size_leaf_vector":"1"}},{"base_weights":[-3.2596109E-3,-1.2617913E-1,4.488605E-2,-1.6309352E-1,5.835115E-2,9.544712E-2,-4.5533776E-2,-2.6289452E-4,-2.1629853E-3,1.6316838E-3,-2.1402123E-3,6.403768E-4,1.9121958E-3,-1.2188322E-3,1.8365155E-5],"categories":[],"categories_nodes":[],"categories_segments":[],"categories_sizes":[],"default_left":[0,0,0,0,0,0,0,0,0,0,0,0,0,0,0],"id":27,"left_children":[1,3,5,7,9,11,13,-1,-1,-1,-1,-1,-1,-1,-1],"loss_changes":[4.9396847E1,1.6011688E1,2.742413E1,1.424474E1,1.1235949E1,1.1560192E1,7.7821803E0,0E0,0E0,0E0,0E0,0E0,0E0,0E0,0E0],"parents":[2147483647,0,0,1,1,2,2,3,3,4,4,5,5,6,6],"right_children":[2,4,6,8,10,12,14,-1,-1,-1,-1,-1,-1,-1,-1],"split_conditions":[-5.926921E-2,2.0967832E0,3.0483222E-2,-1.3455175E-1,4.893555E-2,6.6059E-1,-3.2477087E-1,-2.6289452E-4,-2.1629853E-3,1.6316838E-3,-2.1402123E-3,6.403768E-4,1.9121958E-3,-1.2188322E-3,1.8365155E-5],"split_indices":[5,2,1,2,1,2,7,0,0,0,0,0,0,0,0],"split_type":[0,0,0,0,0,0,0,0,0,0,0,0,0,0,0],"sum_hessian":[8.344867E3,2.3481755E3,5.996691E3,1.956836E3,3.9133957E2,3.8460154E3,2.1506758E3,5.483578E2,1.4084783E3,2.8287973E2,1.0845984E2,2.897442E3,9.485735E2,8.228567E2,1.327819E3],"tree_param":{"num_deleted":"0","num_feature":"15","num_nodes":"15","size_leaf_vector":"1"}},{"base_weights":[3.2272968E-3,7.4386E-2,-7.862669E-2,1.4973765E-2,1.7456457E-1,-2.0630273E-1,-4.4914898E-2,6.218516E-4,-1.501654E-3,2.030611E-3,3.8135934E-4,-1.6355903E-3,-3.6184592E-3,-7.511819E-4,5.476297E-4],"categories":[],"categories_nodes":[],"categories_segments":[],"categories_sizes":[],"default_left":[0,0,0,0,0,0,0,0,0,0,0,0,0,0,0],"id":28,"left_children":[1,3,5,7,9,11,13,-1,-1,-1,-1,-1,-1,-1,-1],"loss_changes":[4.8615784E1,2.6572195E1,1.6697922E1,2.1869473E1,6.4541664E0,5.329685E0,9.252893E0,0E0,0E0,0E0,0E0,0E0,0E0,0E0,0E0],"parents":[2147483647,0,0,1,1,2,2,3,3,4,4,5,5,6,6],"right_children":[2,4,6,8,10,12,14,-1,-1,-1,-1,-1,-1,-1,-1],"split_conditions":[9.796048E-3,3.586025E-2,-9.232209E-2,6.6059E-1,2.2058222E-2,-1.4163135E-2,7.693741E-2,6.218516E-4,-1.501654E-3,2.030611E-3,3.8135934E-4,-1.6355903E-3,-3.6184592E-3,-7.511819E-4,5.476297E-4],"split_indices":[0,1,1,2,12,11,1,0,0,0,0,0,0,0,0],"split_type":[0,0,0,0,0,0,0,0,0,0,0,0,0,0,0],"sum_hessian":[8.344592E3,4.46398E3,3.8806118E3,2.8028574E3,1.6611226E3,8.0953937E2,3.0710725E3,2.1801897E3,6.226678E2,1.3737019E3,2.8742056E2,6.366404E2,1.72899E2,2.3570972E3,7.139753E2],"tree_param":{"num_deleted":"0","num_feature":"15","num_nodes":"15","size_leaf_vector":"1"}},{"base_weights":[-3.2273158E-3,-7.438602E-2,7.862668E-2,-1.4973804E-2,-1.7456456E-1,2.0630275E-1,4.4914868E-2,-6.2185194E-4,1.5016536E-3,-2.030611E-3,-3.813592E-4,1.6355903E-3,3.6184597E-3,7.511815E-4,-5.476297E-4],"categories":[],"categories_nodes":[],"categories_segments":[],"categories_sizes":[],"default_left":[0,0,0,0,0,0,0,0,0,0,0,0,0,0,0],"id":29,"left_children":[1,3,5,7,9,11,13,-1,-1,-1,-1,-1,-1,-1,-1],"loss_changes":[4.861578E1,2.6572184E1,1.6697926E1,2.1869473E1,6.4541664E0,5.329685E0,9.25289E0,0E0,0E0,0E0,0E0,0E0,0E0,0E0,0E0],"parents":[2147483647,0,0,1,1,2,2,3,3,4,4,5,5,6,6],"right_children":[2,4,6,8,10,12,14,-1,-1,-1,-1,-1,-1,-1,-1],"split_conditions":[9.796048E-3,3.586025E-2,-9.232209E-2,6.6059E-1,2.2058222E-2,-1.4163135E-2,7.693741E-2,-6.2185194E-4,1.5016536E-3,-2.030611E-3,-3.813592E-4,1.6355903E-3,3.6184597E-3,7.511815E-4,-5.476297E-4],"split_indices":[0,1,1,2,12,11,1,0,0,0,0,0,0,0,0],"split_type":[0,0,0,0,0,0,0,0,0,0,0,0,0,0,0],"sum_hessian":[8.344592E3,4.46398E3,3.8806118E3,2.8028574E3,1.6611226E3,8.095394E2,3.0710725E3,2.1801897E3,6.226678E2,1.3737019E3,2.8742056E2,6.366404E2,1.72899E2,2.3570972E3,7.139753E2],"tree_param":{"num_deleted":"0","num_feature":"15","num_nodes":"15","size_leaf_vector":"1"}},{"base_weights":[3.1946998E-3,1.2405994E-1,-4.414332E-2,7.461333E-2,2.5881347E-1,-9.3762666E-2,4.45897E-2,-1.4165279E-3,1.1471016E-3,4.226065E-3,1.9370182E-3,-6.2858535E-4,-1.8800468E-3,7.208597E-4,-8.5245195E-4],"categories":[],"categories_nodes":[],"categories_segments":[],"categories_sizes":[],"default_left":[0,0,0,0,0,0,0,0,0,0,0,0,0,0,0],"id":30,"left_children":[1,3,5,7,9,11,13,-1,-1,-1,-1,-1,-1,-1,-1],"loss_changes":[4.775303E1,1.5631634E1,2.6409798E1,1.4929338E1,6.638386E0,1.1191746E1,7.6873026E0,0E0,0E0,0E0,0E0,0E0,0E0,0E0,0E0],"parents":[2147483647,0,0,1,1,2,2,3,3,4,4,5,5,6,6],"right_children":[2,4,6,8,10,12,14,-1,-1,-1,-1,-1,-1,-1,-1],"split_conditions":[-5.926921E-2,6.665248E-1,3.0483222E-2,-1.0883589E-1,-1.6350642E-1,6.6059E-1,9.9496916E-2,-1.4165279E-3,1.1471016E-3,4.226065E-3,1.9370182E-3,-6.2858535E-4,-1.8800468E-3,7.208597E-4,-8.5245195E-4],"split_indices":[5,4,1,3,0,2,0,0,0,0,0,0,0,0,0],"split_type":[0,0,0,0,0,0,0,0,0,0,0,0,0,0,0],"sum_hessian":[8.344256E3,2.3478965E3,5.9963594E3,1.7187648E3,6.291316E2,3.8457603E3,2.150599E3,2.6842987E2,1.450335E3,1.7739397E2,4.517376E2,2.8973271E3,9.484332E2,1.7751127E3,3.754864E2],"tree_param":{"num_deleted":"0","num_feature":"15","num_nodes":"15","size_leaf_vector":"1"}},{"base_weights":[-3.1946881E-3,-1.2405993E-1,4.414333E-2,-7.461333E-2,-2.5881347E-1,9.3762696E-2,-4.458971E-2,1.4165279E-3,-1.1471016E-3,-4.226065E-3,-1.9370182E-3,6.2858575E-4,1.8800468E-3,-7.208598E-4,8.524519E-4],"categories":[],"categories_nodes":[],"categories_segments":[],"categories_sizes":[],"default_left":[0,0,0,0,0,0,0,0,0,0,0,0,0,0,0],"id":31,"left_children":[1,3,5,7,9,11,13,-1,-1,-1,-1,-1,-1,-1,-1],"loss_changes":[4.7753036E1,1.5631634E1,2.6409817E1,1.4929339E1,6.638386E0,1.1191738E1,7.687302E0,0E0,0E0,0E0,0E0,0E0,0E0,0E0,0E0],"parents":[2147483647,0,0,1,1,2,2,3,3,4,4,5,5,6,6],"right_children":[2,4,6,8,10,12,14,-1,-1,-1,-1,-1,-1,-1,-1],"split_conditions":[-5.926921E-2,6.665248E-1,3.0483222E-2,-1.0883589E-1,-1.6350642E-1,6.6059E-1,9.9496916E-2,1.4165279E-3,-1.1471016E-3,-4.226065E-3,-1.9370182E-3,6.2858575E-4,1.8800468E-3,-7.208598E-4,8.524519E-4],"split_indices":[5,4,1,3,0,2,0,0,0,0,0,0,0,0,0],"split_type":[0,0,0,0,0,0,0,0,0,0,0,0,0,0,0],"sum_hessian":[8.344256E3,2.3478965E3,5.9963594E3,1.7187648E3,6.291316E2,3.8457605E3,2.150599E3,2.6842987E2,1.450335E3,1.7739397E2,4.517376E2,2.8973271E3,9.484332E2,1.7751128E3,3.754864E2],"tree_param":{"num_deleted":"0","num_feature":"15","num_nodes":"15","size_leaf_vector":"1"}},{"base_weights":[3.1632513E-3,7.315731E-2,-7.734859E-2,1.4754916E-2,1.7164281E-1,-2.0330241E-1,-4.4095717E-2,6.1247614E-4,-1.4788394E-3,1.9979367E-3,3.6889114E-4,-1.6097386E-3,-3.573573E-3,-7.3798676E-4,5.3927815E-4],"categories":[],"categories_nodes":[],"categories_segments":[],"categories_sizes":[],"default_left":[0,0,0,0,0,0,0,0,0,0,0,0,0,0,0],"id":32,"left_children":[1,3,5,7,9,11,13,-1,-1,-1,-1,-1,-1,-1,-1],"loss_changes":[4.703258E1,2.5676865E1,1.6247576E1,2.1209423E1,6.2968445E0,5.2271233E0,8.948322E0,0E0,0E0,0E0,0E0,0E0,0E0,0E0,0E0],"parents":[2147483647,0,0,1,1,2,2,3,3,4,4,5,5,6,6],"right_children":[2,4,6,8,10,12,14,-1,-1,-1,-1,-1,-1,-1,-1],"split_conditions":[9.796048E-3,3.586025E-2,-9.232209E-2,6.6059E-1,2.2058222E-2,-1.4163135E-2,7.693741E-2,6.1247614E-4,-1.4788394E-3,1.9979367E-3,3.6889114E-4,-1.6097386E-3,-3.573573E-3,-7.3798676E-4,5.3927815E-4],"split_indices":[0,1,1,2,12,11,1,0,0,0,0,0,0,0,0],"split_type":[0,0,0,0,0,0,0,0,0,0,0,0,0,0,0],"sum_hessian":[8.343986E3,4.463593E3,3.8803938E3,2.8027173E3,1.6608756E3,8.094143E2,3.0709795E3,2.180121E3,6.225961E2,1.3734672E3,2.8740848E2,6.36557E2,1.7285728E2,2.3570088E3,7.139705E2],"tree_param":{"num_deleted":"0","num_feature":"15","num_nodes":"15","size_leaf_vector":"1"}},{"base_weights":[-3.1632518E-3,-7.315731E-2,7.734858E-2,-1.4754902E-2,-1.7164283E-1,2.0330243E-1,4.4095706E-2,-6.1247597E-4,1.4788394E-3,-1.997937E-3,-3.6889088E-4,1.609739E-3,3.5735723E-3,7.3798664E-4,-5.392781E-4],"categories":[],"categories_nodes":[],"categories_segments":[],"categories_sizes":[],"default_left":[0,0,0,0,0,0,0,0,0,0,0,0,0,0,0],"id":33,"left_children":[1,3,5,7,9,11,13,-1,-1,-1,-1,-1,-1,-1,-1],"loss_changes":[4.7032578E1,2.5676872E1,1.6247581E1,2.1209417E1,6.296852E0,5.2271156E0,8.9483185E0,0E0,0E0,0E0,0E0,0E0,0E0,0E0,0E0],"parents":[2147483647,0,0,1,1,2,2,3,3,4,4,5,5,6,6],"right_children":[2,4,6,8,10,12,14,-1,-1,-1,-1,-1,-1,-1,-1],"split_conditions":[9.796048E-3,3.586025E-2,-9.232209E-2,6.6059E-1,2.2058222E-2,-1.4163135E-2,7.693741E-2,-6.1247597E-4,1.4788394E-3,-1.997937E-3,-3.6889088E-4,1.609739E-3,3.5735723E-3,7.3798664E-4,-5.392781E-4],"split_indices":[0,1,1,2,12,11,1,0,0,0,0,0,0,0,0],"split_type":[0,0,0,0,0,0,0,0,0,0,0,0,0,0,0],"sum_hessian":[8.343986E3,4.463593E3,3.8803936E3,2.8027173E3,1.6608756E3,8.094143E2,3.0709792E3,2.180121E3,6.225961E2,1.3734672E3,2.8740848E2,6.36557E2,1.7285728E2,2.3570088E3,7.139705E2],"tree_param":{"num_deleted":"0","num_feature":"15","num_nodes":"15","size_leaf_vector":"1"}},{"base_weights":[3.1312862E-3,1.2197662E-1,-4.3413162E-2,7.313355E-2,2.5510147E-1,-9.2107475E-2,4.3662716E-2,1.6944415E-3,-1.6195321E-4,4.1729934E-3,1.9063479E-3,-1.1774425E-3,1.9968062E-4,1.1920306E-3,-3.2026852E-5],"categories":[],"categories_nodes":[],"categories_segments":[],"categories_sizes":[],"default_left":[0,0,0,0,0,0,0,0,0,0,0,0,0,0,0],"id":34,"left_children":[1,3,5,7,9,11,13,-1,-1,-1,-1,-1,-1,-1,-1],"loss_changes":[4.616429E1,1.5252644E1,2.543185E1,1.4797184E1,6.5080223E0,1.1054253E1,7.617229E0,0E0,0E0,0E0,0E0,0E0,0E0,0E0,0E0],"parents":[2147483647,0,0,1,1,2,2,3,3,4,4,5,5,6,6],"right_children":[2,4,6,8,10,12,14,-1,-1,-1,-1,-1,-1,-1,-1],"split_conditions":[-5.926921E-2,6.665248E-1,3.0483222E-2,1.6617274E-1,-1.6350642E-1,2.049481E0,-3.2477087E-1,1.6944415E-3,-1.6195321E-4,4.1729934E-3,1.9063479E-3,-1.1774425E-3,1.9968062E-4,1.1920306E-3,-3.2026852E-5],"split_indices":[5,4,1,4,0,4,7,0,0,0,0,0,0,0,0],"split_type":[0,0,0,0,0,0,0,0,0,0,0,0,0,0,0],"sum_hessian":[8.343615E3,2.347627E3,5.995988E3,1.7186202E3,6.290068E2,3.845475E3,2.1505127E3,8.2656067E2,8.920596E2,1.77342E2,4.5166476E2,3.1295532E3,7.1592194E2,8.227743E2,1.3277385E3],"tree_param":{"num_deleted":"0","num_feature":"15","num_nodes":"15","size_leaf_vector":"1"}},{"base_weights":[-3.1312814E-3,-1.2197661E-1,4.3413162E-2,-7.313352E-2,-2.551015E-1,9.210746E-2,-4.3662697E-2,-1.6944413E-3,1.6195349E-4,-4.1729934E-3,-1.9063482E-3,1.1774423E-3,-1.9968027E-4,-1.1920304E-3,3.202695E-5],"categories":[],"categories_nodes":[],"categories_segments":[],"categories_sizes":[],"default_left":[0,0,0,0,0,0,0,0,0,0,0,0,0,0,0],"id":35,"left_children":[1,3,5,7,9,11,13,-1,-1,-1,-1,-1,-1,-1,-1],"loss_changes":[4.616428E1,1.5252655E1,2.5431835E1,1.4797181E1,6.508026E0,1.1054249E1,7.6172266E0,0E0,0E0,0E0,0E0,0E0,0E0,0E0,0E0],"parents":[2147483647,0,0,1,1,2,2,3,3,4,4,5,5,6,6],"right_children":[2,4,6,8,10,12,14,-1,-1,-1,-1,-1,-1,-1,-1],"split_conditions":[-5.926921E-2,6.665248E-1,3.0483222E-2,1.6617274E-1,-1.6350642E-1,2.049481E0,-3.2477087E-1,-1.6944413E-3,1.6195349E-4,-4.1729934E-3,-1.9063482E-3,1.1774423E-3,-1.9968027E-4,-1.1920304E-3,3.202695E-5],"split_indices":[5,4,1,4,0,4,7,0,0,0,0,0,0,0,0],"split_type":[0,0,0,0,0,0,0,0,0,0,0,0,0,0,0],"sum_hessian":[8.343615E3,2.347627E3,5.995988E3,1.7186202E3,6.290068E2,3.845475E3,2.1505127E3,8.2656067E2,8.920596E2,1.77342E2,4.5166476E2,3.1295532E3,7.1592194E2,8.227743E2,1.3277385E3],"tree_param":{"num_deleted":"0","num_feature":"15","num_nodes":"15","size_leaf_vector":"1"}},{"base_weights":[3.1010234E-3,7.199554E-2,-7.6143764E-2,1.4463355E-2,1.6902314E-1,-2.0034662E-1,-4.3357696E-2,6.0252805E-4,-1.4572772E-3,1.968214E-3,3.5977934E-4,-6.622373E-4,-2.4787101E-3,-7.2538696E-4,5.294056E-4],"categories":[],"categories_nodes":[],"categories_segments":[],"categories_sizes":[],"default_left":[0,0,0,0,0,0,0,0,0,0,0,0,0,0,0],"id":36,"left_children":[1,3,5,7,9,11,13,-1,-1,-1,-1,-1,-1,-1,-1],"loss_changes":[4.5561543E1,2.4917513E1,1.5795803E1,2.0573044E1,6.138298E0,5.1483574E0,8.636031E0,0E0,0E0,0E0,0E0,0E0,0E0,0E0,0E0],"parents":[2147483647,0,0,1,1,2,2,3,3,4,4,5,5,6,6],"right_children":[2,4,6,8,10,12,14,-1,-1,-1,-1,-1,-1,-1,-1],"split_conditions":[9.796048E-3,3.586025E-2,-9.232209E-2,6.6059E-1,2.2058222E-2,1.557936E-1,7.693741E-2,6.0252805E-4,-1.4572772E-3,1.968214E-3,3.5977934E-4,-6.622373E-4,-2.4787101E-3,-7.2538696E-4,5.294056E-4],"split_indices":[0,1,1,2,12,9,1,0,0,0,0,0,0,0,0],"split_type":[0,0,0,0,0,0,0,0,0,0,0,0,0,0,0],"sum_hessian":[8.343316E3,4.463175E3,3.8801418E3,2.802557E3,1.6606177E3,8.0927386E2,3.070868E3,2.180034E3,6.225229E2,1.3732196E3,2.8739807E2,2.1235663E2,5.9691724E2,2.3569075E3,7.139605E2],"tree_param":{"num_deleted":"0","num_feature":"15","num_nodes":"15","size_leaf_vector":"1"}},{"base_weights":[-3.1010283E-3,-7.199553E-2,7.6143734E-2,-1.4463311E-2,-1.6902316E-1,2.003466E-1,4.335766E-2,-6.0252764E-4,1.4572779E-3,-1.9682145E-3,-3.5977934E-4,6.622374E-4,2.47871E-3,7.253865E-4,-5.294058E-4],"categories":[],"categories_nodes":[],"categories_segments":[],"categories_sizes":[],"default_left":[0,0,0,0,0,0,0,0,0,0,0,0,0,0,0],"id":37,"left_children":[1,3,5,7,9,11,13,-1,-1,-1,-1,-1,-1,-1,-1],"loss_changes":[4.556151E1,2.4917536E1,1.5795809E1,2.0573048E1,6.138294E0,5.1483536E0,8.63603E0,0E0,0E0,0E0,0E0,0E0,0E0,0E0,0E0],"parents":[2147483647,0,0,1,1,2,2,3,3,4,4,5,5,6,6],"right_children":[2,4,6,8,10,12,14,-1,-1,-1,-1,-1,-1,-1,-1],"split_conditions":[9.796048E-3,3.586025E-2,-9.232209E-2,6.6059E-1,2.2058222E-2,1.557936E-1,7.693741E-2,-6.0252764E-4,1.4572779E-3,-1.9682145E-3,-3.5977934E-4,6.622374E-4,2.47871E-3,7.253865E-4,-5.294058E-4],"split_indices":[0,1,1,2,12,9,1,0,0,0,0,0,0,0,0],"split_type":[0,0,0,0,0,0,0,0,0,0,0,0,0,0,0],"sum_hessian":[8.343316E3,4.463175E3,3.8801418E3,2.802557E3,1.6606177E3,8.092739E2,3.070868E3,2.180034E3,6.225229E2,1.3732196E3,2.8739807E2,2.1235663E2,5.969173E2,2.3569075E3,7.139605E2],"tree_param":{"num_deleted":"0","num_feature":"15","num_nodes":"15","size_leaf_vector":"1"}},{"base_weights":[3.0699372E-3,7.507129E-2,-7.12835E-2,1.1262954E-1,-7.8569725E-2,-2.0052336E-1,-3.7818924E-2,8.710136E-4,2.731314E-3,-1.3582207E-3,1.3777454E-3,-7.5814675E-4,-2.4499483E-3,4.6649915E-5,-1.0544815E-3],"categories":[],"categories_nodes":[],"categories_segments":[],"categories_sizes":[],"default_left":[0,0,0,0,0,0,0,0,0,0,0,0,0,0,0],"id":38,"left_children":[1,3,5,7,9,11,13,-1,-1,-1,-1,-1,-1,-1,-1],"loss_changes":[4.467488E1,2.4472775E1,1.7748186E1,1.393626E1,1.0341063E1,4.663109E0,9.373474E0,0E0,0E0,0E0,0E0,0E0,0E0,0E0,0E0],"parents":[2147483647,0,0,1,1,2,2,3,3,4,4,5,5,6,6],"right_children":[2,4,6,8,10,12,14,-1,-1,-1,-1,-1,-1,-1,-1],"split_conditions":[3.391514E-3,6.6059E-1,-9.232209E-2,5.8389664E-1,7.00742E-2,1.557936E-1,9.1967255E-2,8.710136E-4,2.731314E-3,-1.3582207E-3,1.3777454E-3,-7.5814675E-4,-2.4499483E-3,4.6649915E-5,-1.0544815E-3],"split_indices":[0,2,1,2,3,9,6,0,0,0,0,0,0,0,0],"split_type":[0,0,0,0,0,0,0,0,0,0,0,0,0,0,0],"sum_hessian":[8.342911E3,4.2384907E3,4.1044204E3,3.4061167E3,8.3237384E2,8.431585E2,3.261262E3,2.9400396E3,4.6607715E2,6.5848706E2,1.7388678E2,2.2234755E2,6.20811E2,2.0035719E3,1.2576902E3],"tree_param":{"num_deleted":"0","num_feature":"15","num_nodes":"15","size_leaf_vector":"1"}},{"base_weights":[-3.0699566E-3,-7.5071305E-2,7.1283475E-2,-1.1262955E-1,7.856968E-2,2.0052335E-1,3.7818898E-2,-8.710136E-4,-2.7313142E-3,1.3582201E-3,-1.3777454E-3,7.581471E-4,2.449948E-3,-4.6650184E-5,1.0544813E-3],"categories":[],"categories_nodes":[],"categories_segments":[],"categories_sizes":[],"default_left":[0,0,0,0,0,0,0,0,0,0,0,0,0,0,0],"id":39,"left_children":[1,3,5,7,9,11,13,-1,-1,-1,-1,-1,-1,-1,-1],"loss_changes":[4.4674877E1,2.447277E1,1.7748184E1,1.3936264E1,1.0341059E1,4.663109E0,9.373476E0,0E0,0E0,0E0,0E0,0E0,0E0,0E0,0E0],"parents":[2147483647,0,0,1,1,2,2,3,3,4,4,5,5,6,6],"right_children":[2,4,6,8,10,12,14,-1,-1,-1,-1,-1,-1,-1,-1],"split_conditions":[3.391514E-3,6.6059E-1,-9.232209E-2,5.8389664E-1,7.00742E-2,1.557936E-1,9.1967255E-2,-8.710136E-4,-2.7313142E-3,1.3582201E-3,-1.3777454E-3,7.581471E-4,2.449948E-3,-4.6650184E-5,1.0544813E-3],"split_indices":[0,2,1,2,3,9,6,0,0,0,0,0,0,0,0],"split_type":[0,0,0,0,0,0,0,0,0,0,0,0,0,0,0],"sum_hessian":[8.342911E3,4.2384907E3,4.1044204E3,3.4061167E3,8.3237384E2,8.431585E2,3.261262E3,2.9400396E3,4.6607712E2,6.5848706E2,1.7388678E2,2.2234756E2,6.20811E2,2.0035719E3,1.2576901E3],"tree_param":{"num_deleted":"0","num_feature":"15","num_nodes":"15","size_leaf_vector":"1"}},{"base_weights":[3.0393063E-3,1.19100586E-1,-4.2410497E-2,-3.2068215E-2,1.6135304E-1,-9.0010665E-2,4.2703357E-2,2.0906389E-4,-2.8200801E-3,1.915422E-3,1.0594238E-4,-5.3882453E-4,-1.6711227E-3,1.1746966E-3,-3.6797832E-5],"categories":[],"categories_nodes":[],"categories_segments":[],"categories_sizes":[],"default_left":[0,0,0,0,0,0,0,0,0,0,0,0,0,0,0],"id":40,"left_children":[1,3,5,7,9,11,13,-1,-1,-1,-1,-1,-1,-1,-1],"loss_changes":[4.401693E1,1.5003502E1,2.4297775E1,6.8086596E0,8.351307E0,1.0704187E1,7.4612045E0,0E0,0E0,0E0,0E0,0E0,0E0,0E0,0E0],"parents":[2147483647,0,0,1,1,2,2,3,3,4,4,5,5,6,6],"right_children":[2,4,6,8,10,12,14,-1,-1,-1,-1,-1,-1,-1,-1],"split_conditions":[-5.926921E-2,-7.726386E-2,3.0483222E-2,2.0967832E0,6.6059E-1,9.356111E-2,-3.2477087E-1,2.0906389E-4,-2.8200801E-3,1.915422E-3,1.0594238E-4,-5.3882453E-4,-1.6711227E-3,1.1746966E-3,-3.6797832E-5],"split_indices":[5,3,1,2,2,6,7,0,0,0,0,0,0,0,0],"split_type":[0,0,0,0,0,0,0,0,0,0,0,0,0,0,0],"sum_hessian":[8.342544E3,2.347166E3,5.995378E3,5.12786E2,1.8343801E3,3.8449956E3,2.1503826E3,4.238645E2,8.8921486E1,1.5281086E3,3.0627148E2,2.6193306E3,1.2256649E3,8.2270624E2,1.3276763E3],"tree_param":{"num_deleted":"0","num_feature":"15","num_nodes":"15","size_leaf_vector":"1"}},{"base_weights":[-3.0393098E-3,-1.191006E-1,4.2410497E-2,3.206821E-2,-1.6135307E-1,9.001067E-2,-4.2703364E-2,-2.0906393E-4,2.8200801E-3,-1.9154224E-3,-1.05942345E-4,5.3882453E-4,1.671123E-3,-1.1746968E-3,3.679789E-5],"categories":[],"categories_nodes":[],"categories_segments":[],"categories_sizes":[],"default_left":[0,0,0,0,0,0,0,0,0,0,0,0,0,0,0],"id":41,"left_children":[1,3,5,7,9,11,13,-1,-1,-1,-1,-1,-1,-1,-1],"loss_changes":[4.4016945E1,1.5003506E1,2.4297775E1,6.8086596E0,8.351311E0,1.0704187E1,7.4612074E0,0E0,0E0,0E0,0E0,0E0,0E0,0E0,0E0],"parents":[2147483647,0,0,1,1,2,2,3,3,4,4,5,5,6,6],"right_children":[2,4,6,8,10,12,14,-1,-1,-1,-1,-1,-1,-1,-1],"split_conditions":[-5.926921E-2,-7.726386E-2,3.0483222E-2,2.0967832E0,6.6059E-1,9.356111E-2,-3.2477087E-1,-2.0906393E-4,2.8200801E-3,-1.9154224E-3,-1.05942345E-4,5.3882453E-4,1.671123E-3,-1.1746968E-3,3.679789E-5],"split_indices":[5,3,1,2,2,6,7,0,0,0,0,0,0,0,0],"split_type":[0,0,0,0,0,0,0,0,0,0,0,0,0,0,0],"sum_hessian":[8.342544E3,2.347166E3,5.995378E3,5.1278595E2,1.8343801E3,3.8449956E3,2.1503826E3,4.238645E2,8.8921486E1,1.5281085E3,3.0627148E2,2.6193306E3,1.225665E3,8.2270624E2,1.3276763E3],"tree_param":{"num_deleted":"0","num_feature":"15","num_nodes":"15","size_leaf_vector":"1"}},{"base_weights":[3.0088467E-3,7.011148E-2,-7.417094E-2,1.37006715E-2,1.6526198E-1,-1.9538522E-1,-4.218283E-2,5.825512E-4,-1.4219098E-3,1.9265244E-3,3.419987E-4,-1.5347474E-3,-3.479802E-3,-7.0839265E-4,5.2379386E-4],"categories":[],"categories_nodes":[],"categories_segments":[],"categories_sizes":[],"default_left":[0,0,0,0,0,0,0,0,0,0,0,0,0,0,0],"id":42,"left_children":[1,3,5,7,9,11,13,-1,-1,-1,-1,-1,-1,-1,-1],"loss_changes":[4.3214325E1,2.3955477E1,1.5038937E1,1.9478825E1,5.9568825E0,5.1268463E0,8.327504E0,0E0,0E0,0E0,0E0,0E0,0E0,0E0,0E0],"parents":[2147483647,0,0,1,1,2,2,3,3,4,4,5,5,6,6],"right_children":[2,4,6,8,10,12,14,-1,-1,-1,-1,-1,-1,-1,-1],"split_conditions":[9.796048E-3,3.586025E-2,-9.232209E-2,6.6059E-1,2.2058222E-2,-1.4163135E-2,7.693741E-2,5.825512E-4,-1.4219098E-3,1.9265244E-3,3.419987E-4,-1.5347474E-3,-3.479802E-3,-7.0839265E-4,5.2379386E-4],"split_indices":[0,1,1,2,12,11,1,0,0,0,0,0,0,0,0],"split_type":[0,0,0,0,0,0,0,0,0,0,0,0,0,0,0],"sum_hessian":[8.342192E3,4.462468E3,3.8797244E3,2.8022644E3,1.6602032E3,8.0900604E2,3.0707185E3,2.1798743E3,6.2239026E2,1.3728281E3,2.8737512E2,6.3626154E2,1.7274452E2,2.356767E3,7.1395135E2],"tree_param":{"num_deleted":"0","num_feature":"15","num_nodes":"15","size_leaf_vector":"1"}},{"base_weights":[-3.0088588E-3,-7.0111506E-2,7.417094E-2,-1.3700681E-2,-1.6526203E-1,1.9538522E-1,4.2182826E-2,-5.8255135E-4,1.4219102E-3,-1.9265249E-3,-3.4199885E-4,1.5347474E-3,3.479802E-3,7.0839265E-4,-5.2379386E-4],"categories":[],"categories_nodes":[],"categories_segments":[],"categories_sizes":[],"default_left":[0,0,0,0,0,0,0,0,0,0,0,0,0,0,0],"id":43,"left_children":[1,3,5,7,9,11,13,-1,-1,-1,-1,-1,-1,-1,-1],"loss_changes":[4.3214333E1,2.3955482E1,1.5038944E1,1.9478832E1,5.9568825E0,5.126848E0,8.327503E0,0E0,0E0,0E0,0E0,0E0,0E0,0E0,0E0],"parents":[2147483647,0,0,1,1,2,2,3,3,4,4,5,5,6,6],"right_children":[2,4,6,8,10,12,14,-1,-1,-1,-1,-1,-1,-1,-1],"split_conditions":[9.796048E-3,3.586025E-2,-9.232209E-2,6.6059E-1,2.2058222E-2,-1.4163135E-2,7.693741E-2,-5.8255135E-4,1.4219102E-3,-1.9265249E-3,-3.4199885E-4,1.5347474E-3,3.479802E-3,7.0839265E-4,-5.2379386E-4],"split_indices":[0,1,1,2,12,11,1,0,0,0,0,0,0,0,0],"split_type":[0,0,0,0,0,0,0,0,0,0,0,0,0,0,0],"sum_hessian":[8.342192E3,4.462468E3,3.8797246E3,2.8022646E3,1.6602034E3,8.0900604E2,3.0707185E3,2.1798743E3,6.2239026E2,1.3728282E3,2.8737512E2,6.3626154E2,1.7274452E2,2.356767E3,7.1395135E2],"tree_param":{"num_deleted":"0","num_feature":"15","num_nodes":"15","size_leaf_vector":"1"}},{"base_weights":[2.978481E-3,1.1710315E-1,-4.1709196E-2,-3.197431E-2,1.5877588E-1,-8.8420875E-2,4.18127E-2,-9.074092E-4,1.8724189E-3,1.1764803E-3,2.662047E-3,-1.1355315E-3,2.1429194E-4,6.699685E-4,-9.4220473E-4],"categories":[],"categories_nodes":[],"categories_segments":[],"categories_sizes":[],"default_left":[0,0,0,0,0,0,0,0,0,0,0,0,0,0,0],"id":44,"left_children":[1,3,5,7,9,11,13,-1,-1,-1,-1,-1,-1,-1,-1],"loss_changes":[4.255259E1,1.4590691E1,2.3396555E1,6.6354256E0,8.076504E0,1.0619467E1,7.3763437E0,0E0,0E0,0E0,0E0,0E0,0E0,0E0,0E0],"parents":[2147483647,0,0,1,1,2,2,3,3,4,4,5,5,6,6],"right_children":[2,4,6,8,10,12,14,-1,-1,-1,-1,-1,-1,-1,-1],"split_conditions":[-5.926921E-2,-7.726386E-2,3.0483222E-2,2.2146814E0,6.665248E-1,2.049481E0,1.3148904E-1,-9.074092E-4,1.8724189E-3,1.1764803E-3,2.662047E-3,-1.1355315E-3,2.1429194E-4,6.699685E-4,-9.4220473E-4],"split_indices":[5,3,1,4,4,4,12,0,0,0,0,0,0,0,0],"split_type":[0,0,0,0,0,0,0,0,0,0,0,0,0,0,0],"sum_hessian":[8.341741E3,2.3467988E3,5.994943E3,5.1275024E2,1.8340486E3,3.844662E3,2.1502808E3,4.048151E2,1.0793515E2,1.3278081E3,5.0624042E2,3.1287996E3,7.158626E2,1.8148082E3,3.354724E2],"tree_param":{"num_deleted":"0","num_feature":"15","num_nodes":"15","size_leaf_vector":"1"}},{"base_weights":[-2.9784776E-3,-1.1710315E-1,4.17092E-2,3.1974297E-2,-1.5877587E-1,8.842088E-2,-4.1812707E-2,9.0740895E-4,-1.8724188E-3,-1.1764802E-3,-2.6620468E-3,1.1355317E-3,-2.1429195E-4,-6.6996866E-4,9.4220473E-4],"categories":[],"categories_nodes":[],"categories_segments":[],"categories_sizes":[],"default_left":[0,0,0,0,0,0,0,0,0,0,0,0,0,0,0],"id":45,"left_children":[1,3,5,7,9,11,13,-1,-1,-1,-1,-1,-1,-1,-1],"loss_changes":[4.2552586E1,1.4590691E1,2.339656E1,6.6354237E0,8.076508E0,1.0619467E1,7.3763437E0,0E0,0E0,0E0,0E0,0E0,0E0,0E0,0E0],"parents":[2147483647,0,0,1,1,2,2,3,3,4,4,5,5,6,6],"right_children":[2,4,6,8,10,12,14,-1,-1,-1,-1,-1,-1,-1,-1],"split_conditions":[-5.926921E-2,-7.726386E-2,3.0483222E-2,2.2146814E0,6.665248E-1,2.049481E0,1.3148904E-1,9.0740895E-4,-1.8724188E-3,-1.1764802E-3,-2.6620468E-3,1.1355317E-3,-2.1429195E-4,-6.6996866E-4,9.4220473E-4],"split_indices":[5,3,1,4,4,4,12,0,0,0,0,0,0,0,0],"split_type":[0,0,0,0,0,0,0,0,0,0,0,0,0,0,0],"sum_hessian":[8.341741E3,2.3467988E3,5.994943E3,5.1275024E2,1.8340486E3,3.844662E3,2.1502808E3,4.048151E2,1.0793515E2,1.3278082E3,5.0624042E2,3.1287996E3,7.158626E2,1.8148082E3,3.354724E2],"tree_param":{"num_deleted":"0","num_feature":"15","num_nodes":"15","size_leaf_vector":"1"}},{"base_weights":[2.949264E-3,6.896255E-2,-7.2974786E-2,1.3540523E-2,1.624586E-1,-1.9255108E-1,-4.142449E-2,5.7529524E-4,-1.4038533E-3,1.8949897E-3,3.3098194E-4,-1.5104744E-3,-3.436976E-3,-6.96066E-4,5.1568804E-4],"categories":[],"categories_nodes":[],"categories_segments":[],"categories_sizes":[],"default_left":[0,0,0,0,0,0,0,0,0,0,0,0,0,0,0],"id":46,"left_children":[1,3,5,7,9,11,13,-1,-1,-1,-1,-1,-1,-1,-1],"loss_changes":[4.1817055E1,2.3123707E1,1.4631582E1,1.8987968E1,5.80336E0,5.028269E0,8.053463E0,0E0,0E0,0E0,0E0,0E0,0E0,0E0,0E0],"parents":[2147483647,0,0,1,1,2,2,3,3,4,4,5,5,6,6],"right_children":[2,4,6,8,10,12,14,-1,-1,-1,-1,-1,-1,-1,-1],"split_conditions":[9.796048E-3,3.586025E-2,-9.232209E-2,6.6059E-1,2.2058222E-2,-1.4163135E-2,7.693741E-2,5.7529524E-4,-1.4038533E-3,1.8949897E-3,3.3098194E-4,-1.5104744E-3,-3.436976E-3,-6.96066E-4,5.1568804E-4],"split_indices":[0,1,1,2,12,11,1,0,0,0,0,0,0,0,0],"split_type":[0,0,0,0,0,0,0,0,0,0,0,0,0,0,0],"sum_hessian":[8.341389E3,4.461962E3,3.879427E3,2.8020967E3,1.6598654E3,8.088324E2,3.0705945E3,2.1797834E3,6.223133E2,1.3725042E3,2.8736127E2,6.3615E2,1.7268239E2,2.3566506E3,7.13944E2],"tree_param":{"num_deleted":"0","num_feature":"15","num_nodes":"15","size_leaf_vector":"1"}},{"base_weights":[-2.949263E-3,-6.896256E-2,7.29748E-2,-1.3540525E-2,-1.6245861E-1,1.925511E-1,4.1424498E-2,-5.7529536E-4,1.4038538E-3,-1.8949897E-3,-3.3098235E-4,1.5104746E-3,3.436976E-3,6.9606607E-4,-5.1568804E-4],"categories":[],"categories_nodes":[],"categories_segments":[],"categories_sizes":[],"default_left":[0,0,0,0,0,0,0,0,0,0,0,0,0,0,0],"id":47,"left_children":[1,3,5,7,9,11,13,-1,-1,-1,-1,-1,-1,-1,-1],"loss_changes":[4.1817062E1,2.312371E1,1.463159E1,1.8987978E1,5.80336E0,5.028269E0,8.053465E0,0E0,0E0,0E0,0E0,0E0,0E0,0E0,0E0],"parents":[2147483647,0,0,1,1,2,2,3,3,4,4,5,5,6,6],"right_children":[2,4,6,8,10,12,14,-1,-1,-1,-1,-1,-1,-1,-1],"split_conditions":[9.796048E-3,3.586025E-2,-9.232209E-2,6.6059E-1,2.2058222E-2,-1.4163135E-2,7.693741E-2,-5.7529536E-4,1.4038538E-3,-1.8949897E-3,-3.3098235E-4,1.5104746E-3,3.436976E-3,6.9606607E-4,-5.1568804E-4],"split_indices":[0,1,1,2,12,11,1,0,0,0,0,0,0,0,0],"split_type":[0,0,0,0,0,0,0,0,0,0,0,0,0,0,0],"sum_hessian":[8.341389E3,4.461962E3,3.879427E3,2.8020967E3,1.6598654E3,8.088324E2,3.0705945E3,2.1797834E3,6.223133E2,1.3725042E3,2.8736127E2,6.3615E2,1.7268239E2,2.3566506E3,7.139439E2],"tree_param":{"num_deleted":"0","num_feature":"15","num_nodes":"15","size_leaf_vector":"1"}},{"base_weights":[2.9194916E-3,1.151409E-1,-4.101948E-2,-3.1871002E-2,1.5624207E-1,-8.68583E-2,4.0938217E-2,-8.9962315E-4,1.8484913E-3,1.8562211E-3,9.562139E-5,-1.116928E-3,2.1680357E-4,1.1491997E-3,-4.9546168E-5],"categories":[],"categories_nodes":[],"categories_segments":[],"categories_sizes":[],"default_left":[0,0,0,0,0,0,0,0,0,0,0,0,0,0,0],"id":48,"left_children":[1,3,5,7,9,11,13,-1,-1,-1,-1,-1,-1,-1,-1],"loss_changes":[4.1137783E1,1.4189014E1,2.252763E1,6.4842043E0,7.904827E0,1.0367447E1,7.3043013E0,0E0,0E0,0E0,0E0,0E0,0E0,0E0,0E0],"parents":[2147483647,0,0,1,1,2,2,3,3,4,4,5,5,6,6],"right_children":[2,4,6,8,10,12,14,-1,-1,-1,-1,-1,-1,-1,-1],"split_conditions":[-5.926921E-2,-7.726386E-2,3.0483222E-2,2.2146814E0,6.6059E-1,2.049481E0,-3.2477087E-1,-8.9962315E-4,1.8484913E-3,1.8562211E-3,9.562139E-5,-1.116928E-3,2.1680357E-4,1.1491997E-3,-4.9546168E-5],"split_indices":[5,3,1,4,2,4,7,0,0,0,0,0,0,0,0],"split_type":[0,0,0,0,0,0,0,0,0,0,0,0,0,0,0],"sum_hessian":[8.340909E3,2.3464324E3,5.9944766E3,5.1272534E2,1.833707E3,3.8443035E3,2.150173E3,4.0480362E2,1.0792175E2,1.5274856E3,3.0622147E2,3.1284587E3,7.158448E2,8.2259735E2,1.3275758E3],"tree_param":{"num_deleted":"0","num_feature":"15","num_nodes":"15","size_leaf_vector":"1"}},{"base_weights":[-2.9194814E-3,-1.1514087E-1,4.1019484E-2,3.1871032E-2,-1.5624204E-1,8.6858295E-2,-4.093819E-2,8.996233E-4,-1.8484904E-3,-1.8562209E-3,-9.562073E-5,1.1169277E-3,-2.168032E-4,-1.1491996E-3,4.9546532E-5],"categories":[],"categories_nodes":[],"categories_segments":[],"categories_sizes":[],"default_left":[0,0,0,0,0,0,0,0,0,0,0,0,0,0,0],"id":49,"left_children":[1,3,5,7,9,11,13,-1,-1,-1,-1,-1,-1,-1,-1],"loss_changes":[4.113777E1,1.4189013E1,2.2527615E1,6.4842014E0,7.904831E0,1.0367437E1,7.304306E0,0E0,0E0,0E0,0E0,0E0,0E0,0E0,0E0],"parents":[2147483647,0,0,1,1,2,2,3,3,4,4,5,5,6,6],"right_children":[2,4,6,8,10,12,14,-1,-1,-1,-1,-1,-1,-1,-1],"split_conditions":[-5.926921E-2,-7.726386E-2,3.0483222E-2,2.2146814E0,6.6059E-1,2.049481E0,-3.2477087E-1,8.996233E-4,-1.8484904E-3,-1.8562209E-3,-9.562073E-5,1.1169277E-3,-2.168032E-4,-1.1491996E-3,4.9546532E-5],"split_indices":[5,3,1,4,2,4,7,0,0,0,0,0,0,0,0],"split_type":[0,0,0,0,0,0,0,0,0,0,0,0,0,0,0],"sum_hessian":[8.340909E3,2.3464324E3,5.9944766E3,5.1272534E2,1.833707E3,3.8443035E3,2.150173E3,4.0480362E2,1.0792175E2,1.5274856E3,3.0622144E2,3.1284587E3,7.158448E2,8.2259735E2,1.3275758E3],"tree_param":{"num_deleted":"0","num_feature":"15","num_nodes":"15","size_leaf_vector":"1"}},{"base_weights":[2.890822E-3,6.9886275E-2,-6.959629E-2,1.0609797E-1,-7.7099696E-2,-1.9175626E-1,-3.776063E-2,8.13911E-4,2.6302692E-3,-1.3822707E-3,1.0531722E-3,-6.5551064E-4,-2.3681216E-3,2.7837326E-5,-1.0106699E-3],"categories":[],"categories_nodes":[],"categories_segments":[],"categories_sizes":[],"default_left":[0,0,0,0,0,0,0,0,0,0,0,0,0,0,0],"id":50,"left_children":[1,3,5,7,9,11,13,-1,-1,-1,-1,-1,-1,-1,-1],"loss_changes":[4.0513805E1,2.3084171E1,1.557634E1,1.3467129E1,9.576781E0,4.693495E0,8.162211E0,0E0,0E0,0E0,0E0,0E0,0E0,0E0,0E0],"parents":[2147483647,0,0,1,1,2,2,3,3,4,4,5,5,6,6],"right_children":[2,4,6,8,10,12,14,-1,-1,-1,-1,-1,-1,-1,-1],"split_conditions":[6.3703093E-3,6.6059E-1,-9.232209E-2,5.8389664E-1,4.9922064E-2,1.557936E-1,9.1967255E-2,8.13911E-4,2.6302692E-3,-1.3822707E-3,1.0531722E-3,-6.5551064E-4,-2.3681216E-3,2.7837326E-5,-1.0106699E-3],"split_indices":[0,2,1,2,1,9,6,0,0,0,0,0,0,0,0],"split_type":[0,0,0,0,0,0,0,0,0,0,0,0,0,0,0],"sum_hessian":[8.340512E3,4.334465E3,4.0060474E3,3.4779177E3,8.565471E2,8.271355E2,3.1789119E3,3.006149E3,4.7176877E2,6.417431E2,2.1480402E2,2.1825125E2,6.088842E2,1.9384155E3,1.2404962E3],"tree_param":{"num_deleted":"0","num_feature":"15","num_nodes":"15","size_leaf_vector":"1"}},{"base_weights":[-2.8908222E-3,-6.9886275E-2,6.95963E-2,-1.06097974E-1,7.70997E-2,1.9175623E-1,3.7760645E-2,-8.1391115E-4,-2.630269E-3,1.3822707E-3,-1.053172E-3,6.555107E-4,2.3681212E-3,-2.7837154E-5,1.01067E-3],"categories":[],"categories_nodes":[],"categories_segments":[],"categories_sizes":[],"default_left":[0,0,0,0,0,0,0,0,0,0,0,0,0,0,0],"id":51,"left_children":[1,3,5,7,9,11,13,-1,-1,-1,-1,-1,-1,-1,-1],"loss_changes":[4.051381E1,2.3084177E1,1.5576334E1,1.3467125E1,9.57678E0,4.693491E0,8.162212E0,0E0,0E0,0E0,0E0,0E0,0E0,0E0,0E0],"parents":[2147483647,0,0,1,1,2,2,3,3,4,4,5,5,6,6],"right_children":[2,4,6,8,10,12,14,-1,-1,-1,-1,-1,-1,-1,-1],"split_conditions":[6.3703093E-3,6.6059E-1,-9.232209E-2,5.8389664E-1,4.9922064E-2,1.557936E-1,9.1967255E-2,-8.1391115E-4,-2.630269E-3,1.3822707E-3,-1.053172E-3,6.555107E-4,2.3681212E-3,-2.7837154E-5,1.01067E-3],"split_indices":[0,2,1,2,1,9,6,0,0,0,0,0,0,0,0],"split_type":[0,0,0,0,0,0,0,0,0,0,0,0,0,0,0],"sum_hessian":[8.340512E3,4.334465E3,4.0060474E3,3.4779177E3,8.565471E2,8.271355E2,3.1789119E3,3.006149E3,4.7176877E2,6.417431E2,2.1480402E2,2.1825125E2,6.088843E2,1.9384155E3,1.2404962E3],"tree_param":{"num_deleted":"0","num_feature":"15","num_nodes":"15","size_leaf_vector":"1"}},{"base_weights":[2.8619561E-3,1.1322491E-1,-4.0345356E-2,-3.2176737E-2,1.5388118E-1,-8.554333E-2,4.0461645E-2,1.8934827E-4,-2.734311E-3,1.1367943E-3,2.5892993E-3,-5.045589E-4,-1.6044045E-3,1.137124E-3,-4.9758506E-5],"categories":[],"categories_nodes":[],"categories_segments":[],"categories_sizes":[],"default_left":[0,0,0,0,0,0,0,0,0,0,0,0,0,0,0],"id":52,"left_children":[1,3,5,7,9,11,13,-1,-1,-1,-1,-1,-1,-1,-1],"loss_changes":[3.9778805E1,1.3879429E1,2.189916E1,6.3394012E0,7.717289E0,1.009618E1,7.1601157E0,0E0,0E0,0E0,0E0,0E0,0E0,0E0,0E0],"parents":[2147483647,0,0,1,1,2,2,3,3,4,4,5,5,6,6],"right_children":[2,4,6,8,10,12,14,-1,-1,-1,-1,-1,-1,-1,-1],"split_conditions":[-5.926921E-2,-7.726386E-2,3.0483222E-2,2.0967832E0,6.665248E-1,9.356111E-2,-3.2477087E-1,1.8934827E-4,-2.734311E-3,1.1367943E-3,2.5892993E-3,-5.045589E-4,-1.6044045E-3,1.137124E-3,-4.9758506E-5],"split_indices":[5,3,1,2,4,6,7,0,0,0,0,0,0,0,0],"split_type":[0,0,0,0,0,0,0,0,0,0,0,0,0,0,0],"sum_hessian":[8.340062E3,2.3460374E3,5.994024E3,5.126876E2,1.8333499E3,3.8439304E3,2.1500933E3,4.238197E2,8.88679E1,1.3274299E3,5.0591986E2,2.618774E3,1.2251564E3,8.2254626E2,1.327547E3],"tree_param":{"num_deleted":"0","num_feature":"15","num_nodes":"15","size_leaf_vector":"1"}},{"base_weights":[-2.8619615E-3,-1.13224894E-1,4.034534E-2,3.2176744E-2,-1.5388115E-1,8.5543305E-2,-4.0461645E-2,-1.8934825E-4,2.7343114E-3,-1.1367941E-3,-2.589299E-3,5.0455856E-4,1.6044045E-3,-1.137124E-3,4.9758455E-5],"categories":[],"categories_nodes":[],"categories_segments":[],"categories_sizes":[],"default_left":[0,0,0,0,0,0,0,0,0,0,0,0,0,0,0],"id":53,"left_children":[1,3,5,7,9,11,13,-1,-1,-1,-1,-1,-1,-1,-1],"loss_changes":[3.9778786E1,1.3879429E1,2.1899155E1,6.3394036E0,7.717285E0,1.0096188E1,7.1601152E0,0E0,0E0,0E0,0E0,0E0,0E0,0E0,0E0],"parents":[2147483647,0,0,1,1,2,2,3,3,4,4,5,5,6,6],"right_children":[2,4,6,8,10,12,14,-1,-1,-1,-1,-1,-1,-1,-1],"split_conditions":[-5.926921E-2,-7.726386E-2,3.0483222E-2,2.0967832E0,6.665248E-1,9.356111E-2,-3.2477087E-1,-1.8934825E-4,2.7343114E-3,-1.1367941E-3,-2.589299E-3,5.0455856E-4,1.6044045E-3,-1.137124E-3,4.9758455E-5],"split_indices":[5,3,1,2,4,6,7,0,0,0,0,0,0,0,0],"split_type":[0,0,0,0,0,0,0,0,0,0,0,0,0,0,0],"sum_hessian":[8.340062E3,2.3460374E3,5.994024E3,5.126876E2,1.8333497E3,3.8439304E3,2.1500933E3,4.2381973E2,8.88679E1,1.3274299E3,5.0591986E2,2.6187742E3,1.2251564E3,8.2254626E2,1.327547E3],"tree_param":{"num_deleted":"0","num_feature":"15","num_nodes":"15","size_leaf_vector":"1"}},{"base_weights":[2.8335052E-3,6.674802E-2,-7.0671044E-2,1.2809513E-2,1.5776312E-1,-1.869186E-1,-4.0011115E-2,5.5464235E-4,-1.364729E-3,1.8434109E-3,3.066185E-4,-1.4580964E-3,-3.3668743E-3,-6.747781E-4,5.061421E-4],"categories":[],"categories_nodes":[],"categories_segments":[],"categories_sizes":[],"default_left":[0,0,0,0,0,0,0,0,0,0,0,0,0,0,0],"id":54,"left_children":[1,3,5,7,9,11,13,-1,-1,-1,-1,-1,-1,-1,-1],"loss_changes":[3.918914E1,2.1902277E1,1.3820587E1,1.7853775E1,5.6026993E0,4.934538E0,7.6484995E0,0E0,0E0,0E0,0E0,0E0,0E0,0E0,0E0],"parents":[2147483647,0,0,1,1,2,2,3,3,4,4,5,5,6,6],"right_children":[2,4,6,8,10,12,14,-1,-1,-1,-1,-1,-1,-1,-1],"split_conditions":[9.796048E-3,3.586025E-2,-9.232209E-2,6.6059E-1,2.2058222E-2,-1.4163135E-2,7.693741E-2,5.5464235E-4,-1.364729E-3,1.8434109E-3,3.066185E-4,-1.4580964E-3,-3.3668743E-3,-6.747781E-4,5.061421E-4],"split_indices":[0,1,1,2,12,11,1,0,0,0,0,0,0,0,0],"split_type":[0,0,0,0,0,0,0,0,0,0,0,0,0,0,0],"sum_hessian":[8.3396455E3,4.46087E3,3.878775E3,2.8016575E3,1.6592126E3,8.084456E2,3.0703293E3,2.1795261E3,6.2213135E2,1.3718887E3,2.8732404E2,6.3588086E2,1.7256473E2,2.356406E3,7.139233E2],"tree_param":{"num_deleted":"0","num_feature":"15","num_nodes":"15","size_leaf_vector":"1"}},{"base_weights":[-2.8335128E-3,-6.674803E-2,7.067104E-2,-1.28095E-2,-1.5776317E-1,1.869186E-1,4.0011104E-2,-5.5464223E-4,1.364729E-3,-1.8434115E-3,-3.0661843E-4,1.4580963E-3,3.3668748E-3,6.747778E-4,-5.061418E-4],"categories":[],"categories_nodes":[],"categories_segments":[],"categories_sizes":[],"default_left":[0,0,0,0,0,0,0,0,0,0,0,0,0,0,0],"id":55,"left_children":[1,3,5,7,9,11,13,-1,-1,-1,-1,-1,-1,-1,-1],"loss_changes":[3.9189133E1,2.1902292E1,1.3820589E1,1.7853771E1,5.602707E0,4.93454E0,7.648492E0,0E0,0E0,0E0,0E0,0E0,0E0,0E0,0E0],"parents":[2147483647,0,0,1,1,2,2,3,3,4,4,5,5,6,6],"right_children":[2,4,6,8,10,12,14,-1,-1,-1,-1,-1,-1,-1,-1],"split_conditions":[9.796048E-3,3.586025E-2,-9.232209E-2,6.6059E-1,2.2058222E-2,-1.4163135E-2,7.693741E-2,-5.5464223E-4,1.364729E-3,-1.8434115E-3,-3.0661843E-4,1.4580963E-3,3.3668748E-3,6.747778E-4,-5.061418E-4],"split_indices":[0,1,1,2,12,11,1,0,0,0,0,0,0,0,0],"split_type":[0,0,0,0,0,0,0,0,0,0,0,0,0,0,0],"sum_hessian":[8.3396455E3,4.46087E3,3.878775E3,2.8016575E3,1.6592126E3,8.084456E2,3.0703293E3,2.1795261E3,6.2213135E2,1.3718885E3,2.8732404E2,6.3588086E2,1.7256473E2,2.3564062E3,7.139233E2],"tree_param":{"num_deleted":"0","num_feature":"15","num_nodes":"15","size_leaf_vector":"1"}},{"base_weights":[2.8049194E-3,1.1132728E-1,-3.967769E-2,6.523575E-2,2.3705389E-1,-8.4029905E-2,3.9613426E-2,1.5763654E-3,-2.0446355E-4,3.977744E-3,1.7322984E-3,-1.0842093E-3,2.255237E-4,6.4264535E-4,-9.35192E-4],"categories":[],"categories_nodes":[],"categories_segments":[],"categories_sizes":[],"default_left":[0,0,0,0,0,0,0,0,0,0,0,0,0,0,0],"id":56,"left_children":[1,3,5,7,9,11,13,-1,-1,-1,-1,-1,-1,-1,-1],"loss_changes":[3.845496E1,1.3582972E1,2.1084429E1,1.360869E1,6.3844604E0,9.996895E0,7.0652227E0,0E0,0E0,0E0,0E0,0E0,0E0,0E0,0E0],"parents":[2147483647,0,0,1,1,2,2,3,3,4,4,5,5,6,6],"right_children":[2,4,6,8,10,12,14,-1,-1,-1,-1,-1,-1,-1,-1],"split_conditions":[-5.926921E-2,6.665248E-1,3.0483222E-2,1.6617274E-1,-1.6350642E-1,2.049481E0,1.3148904E-1,1.5763654E-3,-2.0446355E-4,3.977744E-3,1.7322984E-3,-1.0842093E-3,2.255237E-4,6.4264535E-4,-9.35192E-4],"split_indices":[5,4,1,4,0,4,12,0,0,0,0,0,0,0,0],"split_type":[0,0,0,0,0,0,0,0,0,0,0,0,0,0,0],"sum_hessian":[8.339115E3,2.3456084E3,5.993507E3,1.7174923E3,6.28116E2,3.8435322E3,2.1499746E3,8.2594336E2,8.9154895E2,1.7704709E2,4.5106894E2,3.1277407E3,7.1579144E2,1.8145131E3,3.3546164E2],"tree_param":{"num_deleted":"0","num_feature":"15","num_nodes":"15","size_leaf_vector":"1"}},{"base_weights":[-2.8049147E-3,-1.1132728E-1,3.9677694E-2,-6.523576E-2,-2.3705387E-1,8.40299E-2,-3.9613407E-2,-1.5763654E-3,2.0446349E-4,-3.9777434E-3,-1.732298E-3,1.0842093E-3,-2.255237E-4,-6.426451E-4,9.351919E-4],"categories":[],"categories_nodes":[],"categories_segments":[],"categories_sizes":[],"default_left":[0,0,0,0,0,0,0,0,0,0,0,0,0,0,0],"id":57,"left_children":[1,3,5,7,9,11,13,-1,-1,-1,-1,-1,-1,-1,-1],"loss_changes":[3.845496E1,1.3582972E1,2.1084421E1,1.3608689E1,6.3844566E0,9.996893E0,7.065221E0,0E0,0E0,0E0,0E0,0E0,0E0,0E0,0E0],"parents":[2147483647,0,0,1,1,2,2,3,3,4,4,5,5,6,6],"right_children":[2,4,6,8,10,12,14,-1,-1,-1,-1,-1,-1,-1,-1],"split_conditions":[-5.926921E-2,6.665248E-1,3.0483222E-2,1.6617274E-1,-1.6350642E-1,2.049481E0,1.3148904E-1,-1.5763654E-3,2.0446349E-4,-3.9777434E-3,-1.732298E-3,1.0842093E-3,-2.255237E-4,-6.426451E-4,9.351919E-4],"split_indices":[5,4,1,4,0,4,12,0,0,0,0,0,0,0,0],"split_type":[0,0,0,0,0,0,0,0,0,0,0,0,0,0,0],"sum_hessian":[8.339115E3,2.3456084E3,5.993507E3,1.7174923E3,6.28116E2,3.8435322E3,2.1499749E3,8.2594336E2,8.915489E2,1.7704709E2,4.5106897E2,3.1277407E3,7.157915E2,1.8145131E3,3.3546164E2],"tree_param":{"num_deleted":"0","num_feature":"15","num_nodes":"15","size_leaf_vector":"1"}},{"base_weights":[2.7777457E-3,6.565589E-2,-6.953159E-2,1.2548218E-2,1.5528198E-1,-1.8422134E-1,-3.9288864E-2,5.455019E-4,-1.3446376E-3,1.8153284E-3,2.9774097E-4,-5.4010603E-4,-2.3040609E-3,-6.630394E-4,4.984237E-4],"categories":[],"categories_nodes":[],"categories_segments":[],"categories_sizes":[],"default_left":[0,0,0,0,0,0,0,0,0,0,0,0,0,0,0],"id":58,"left_children":[1,3,5,7,9,11,13,-1,-1,-1,-1,-1,-1,-1,-1],"loss_changes":[3.79224E1,2.12329E1,1.3448658E1,1.7311726E1,5.463238E0,4.8541164E0,7.398368E0,0E0,0E0,0E0,0E0,0E0,0E0,0E0,0E0],"parents":[2147483647,0,0,1,1,2,2,3,3,4,4,5,5,6,6],"right_children":[2,4,6,8,10,12,14,-1,-1,-1,-1,-1,-1,-1,-1],"split_conditions":[9.796048E-3,3.586025E-2,-9.232209E-2,6.6059E-1,2.2058222E-2,1.557936E-1,7.693741E-2,5.455019E-4,-1.3446376E-3,1.8153284E-3,2.9774097E-4,-5.4010603E-4,-2.3040609E-3,-6.630394E-4,4.984237E-4],"split_indices":[0,1,1,2,12,9,1,0,0,0,0,0,0,0,0],"split_type":[0,0,0,0,0,0,0,0,0,0,0,0,0,0,0],"sum_hessian":[8.338682E3,4.4602593E3,3.878422E3,2.801424E3,1.6588352E3,8.082391E2,3.070183E3,2.179391E3,6.220328E2,1.3715247E3,2.8731055E2,2.1218521E2,5.9605383E2,2.3562698E3,7.1391345E2],"tree_param":{"num_deleted":"0","num_feature":"15","num_nodes":"15","size_leaf_vector":"1"}},{"base_weights":[-2.777747E-3,-6.565588E-2,6.953158E-2,-1.25482185E-2,-1.5528196E-1,1.8422131E-1,3.928886E-2,-5.455019E-4,1.3446374E-3,-1.8153283E-3,-2.9774095E-4,5.401056E-4,2.3040606E-3,6.630394E-4,-4.9842376E-4],"categories":[],"categories_nodes":[],"categories_segments":[],"categories_sizes":[],"default_left":[0,0,0,0,0,0,0,0,0,0,0,0,0,0,0],"id":59,"left_children":[1,3,5,7,9,11,13,-1,-1,-1,-1,-1,-1,-1,-1],"loss_changes":[3.7922394E1,2.1232895E1,1.3448654E1,1.7311724E1,5.463238E0,4.8541203E0,7.398368E0,0E0,0E0,0E0,0E0,0E0,0E0,0E0,0E0],"parents":[2147483647,0,0,1,1,2,2,3,3,4,4,5,5,6,6],"right_children":[2,4,6,8,10,12,14,-1,-1,-1,-1,-1,-1,-1,-1],"split_conditions":[9.796048E-3,3.586025E-2,-9.232209E-2,6.6059E-1,2.2058222E-2,1.557936E-1,7.693741E-2,-5.455019E-4,1.3446374E-3,-1.8153283E-3,-2.9774095E-4,5.401056E-4,2.3040606E-3,6.630394E-4,-4.9842376E-4],"split_indices":[0,1,1,2,12,9,1,0,0,0,0,0,0,0,0],"split_type":[0,0,0,0,0,0,0,0,0,0,0,0,0,0,0],"sum_hessian":[8.338682E3,4.4602593E3,3.878422E3,2.801424E3,1.6588352E3,8.08239E2,3.070183E3,2.179391E3,6.220328E2,1.3715247E3,2.8731055E2,2.1218521E2,5.9605383E2,2.3562698E3,7.1391345E2],"tree_param":{"num_deleted":"0","num_feature":"15","num_nodes":"15","size_leaf_vector":"1"}},{"base_weights":[2.7499523E-3,1.0946456E-1,-3.9020848E-2,-3.3335544E-2,1.4940411E-1,-8.254166E-2,3.8779933E-2,-8.993728E-4,1.778979E-3,1.1025028E-3,2.5176085E-3,-1.0664704E-3,2.2781354E-4,1.1126486E-3,-6.178422E-5],"categories":[],"categories_nodes":[],"categories_segments":[],"categories_sizes":[],"default_left":[0,0,0,0,0,0,0,0,0,0,0,0,0,0,0],"id":60,"left_children":[1,3,5,7,9,11,13,-1,-1,-1,-1,-1,-1,-1,-1],"loss_changes":[3.7176384E1,1.3386015E1,2.0298477E1,6.1566277E0,7.320553E0,9.762056E0,7.0098877E0,0E0,0E0,0E0,0E0,0E0,0E0,0E0,0E0],"parents":[2147483647,0,0,1,1,2,2,3,3,4,4,5,5,6,6],"right_children":[2,4,6,8,10,12,14,-1,-1,-1,-1,-1,-1,-1,-1],"split_conditions":[-5.926921E-2,-7.726386E-2,3.0483222E-2,2.2146814E0,6.665248E-1,2.049481E0,-3.2477087E-1,-8.993728E-4,1.778979E-3,1.1025028E-3,2.5176085E-3,-1.0664704E-3,2.2781354E-4,1.1126486E-3,-6.178422E-5],"split_indices":[5,3,1,4,4,4,7,0,0,0,0,0,0,0,0],"split_type":[0,0,0,0,0,0,0,0,0,0,0,0,0,0,0],"sum_hessian":[8.338126E3,2.3451628E3,5.992963E3,5.125944E2,1.8325685E3,3.8431118E3,2.149851E3,4.047205E2,1.0787396E2,1.327027E3,5.055415E2,3.1273416E3,7.157701E2,8.2241797E2,1.3274332E3],"tree_param":{"num_deleted":"0","num_feature":"15","num_nodes":"15","size_leaf_vector":"1"}},{"base_weights":[-2.7499548E-3,-1.09464586E-1,3.902085E-2,3.333552E-2,-1.4940412E-1,8.254167E-2,-3.8779933E-2,8.993727E-4,-1.7789794E-3,-1.1025029E-3,-2.5176087E-3,1.0664704E-3,-2.2781343E-4,-1.1126485E-3,6.1784194E-5],"categories":[],"categories_nodes":[],"categories_segments":[],"categories_sizes":[],"default_left":[0,0,0,0,0,0,0,0,0,0,0,0,0,0,0],"id":61,"left_children":[1,3,5,7,9,11,13,-1,-1,-1,-1,-1,-1,-1,-1],"loss_changes":[3.717639E1,1.3386017E1,2.0298481E1,6.1566286E0,7.3205605E0,9.762056E0,7.0098867E0,0E0,0E0,0E0,0E0,0E0,0E0,0E0,0E0],"parents":[2147483647,0,0,1,1,2,2,3,3,4,4,5,5,6,6],"right_children":[2,4,6,8,10,12,14,-1,-1,-1,-1,-1,-1,-1,-1],"split_conditions":[-5.926921E-2,-7.726386E-2,3.0483222E-2,2.2146814E0,6.665248E-1,2.049481E0,-3.2477087E-1,8.993727E-4,-1.7789794E-3,-1.1025029E-3,-2.5176087E-3,1.0664704E-3,-2.2781343E-4,-1.1126485E-3,6.1784194E-5],"split_indices":[5,3,1,4,4,4,7,0,0,0,0,0,0,0,0],"split_type":[0,0,0,0,0,0,0,0,0,0,0,0,0,0,0],"sum_hessian":[8.338126E3,2.3451628E3,5.992963E3,5.125944E2,1.8325685E3,3.8431116E3,2.149851E3,4.047205E2,1.0787396E2,1.327027E3,5.0554147E2,3.1273416E3,7.157701E2,8.2241797E2,1.3274332E3],"tree_param":{"num_deleted":"0","num_feature":"15","num_nodes":"15","size_leaf_vector":"1"}},{"base_weights":[2.7231816E-3,6.461683E-2,-6.845099E-2,9.8490484E-2,-7.203586E-2,-1.8156435E-1,-3.863042E-2,7.4643915E-4,2.5068517E-3,-1.2226546E-3,1.1945368E-3,-1.4085884E-3,-3.299283E-3,-6.517468E-4,4.89441E-4],"categories":[],"categories_nodes":[],"categories_segments":[],"categories_sizes":[],"default_left":[0,0,0,0,0,0,0,0,0,0,0,0,0,0,0],"id":62,"left_children":[1,3,5,7,9,11,13,-1,-1,-1,-1,-1,-1,-1,-1],"loss_changes":[3.6738197E1,2.0655033E1,1.3077404E1,1.2956066E1,8.542757E0,4.8393917E0,7.142087E0,0E0,0E0,0E0,0E0,0E0,0E0,0E0,0E0],"parents":[2147483647,0,0,1,1,2,2,3,3,4,4,5,5,6,6],"right_children":[2,4,6,8,10,12,14,-1,-1,-1,-1,-1,-1,-1,-1],"split_conditions":[9.796048E-3,6.6059E-1,-9.232209E-2,5.8389664E-1,7.00742E-2,-1.4163135E-2,7.693741E-2,7.4643915E-4,2.5068517E-3,-1.2226546E-3,1.1945368E-3,-1.4085884E-3,-3.299283E-3,-6.517468E-4,4.89441E-4],"split_indices":[0,2,1,2,3,11,1,0,0,0,0,0,0,0,0],"split_type":[0,0,0,0,0,0,0,0,0,0,0,0,0,0,0],"sum_hessian":[8.337676E3,4.4596333E3,3.878042E3,3.5739878E3,8.8564557E2,8.080215E2,3.0700205E3,3.0911436E3,4.828441E2,7.0189343E2,1.8375212E2,6.355891E2,1.7243239E2,2.3561238E3,7.138969E2],"tree_param":{"num_deleted":"0","num_feature":"15","num_nodes":"15","size_leaf_vector":"1"}},{"base_weights":[-2.7231819E-3,-6.461683E-2,6.845098E-2,-9.8490484E-2,7.203587E-2,1.8156433E-1,3.8630415E-2,-7.464391E-4,-2.5068521E-3,1.2226548E-3,-1.1945368E-3,1.4085883E-3,3.2992826E-3,6.5174676E-4,-4.8944086E-4],"categories":[],"categories_nodes":[],"categories_segments":[],"categories_sizes":[],"default_left":[0,0,0,0,0,0,0,0,0,0,0,0,0,0,0],"id":63,"left_children":[1,3,5,7,9,11,13,-1,-1,-1,-1,-1,-1,-1,-1],"loss_changes":[3.6738197E1,2.0655035E1,1.30774E1,1.2956074E1,8.542758E0,4.8393917E0,7.142085E0,0E0,0E0,0E0,0E0,0E0,0E0,0E0,0E0],"parents":[2147483647,0,0,1,1,2,2,3,3,4,4,5,5,6,6],"right_children":[2,4,6,8,10,12,14,-1,-1,-1,-1,-1,-1,-1,-1],"split_conditions":[9.796048E-3,6.6059E-1,-9.232209E-2,5.8389664E-1,7.00742E-2,-1.4163135E-2,7.693741E-2,-7.464391E-4,-2.5068521E-3,1.2226548E-3,-1.1945368E-3,1.4085883E-3,3.2992826E-3,6.5174676E-4,-4.8944086E-4],"split_indices":[0,2,1,2,3,11,1,0,0,0,0,0,0,0,0],"split_type":[0,0,0,0,0,0,0,0,0,0,0,0,0,0,0],"sum_hessian":[8.337676E3,4.4596333E3,3.878042E3,3.5739878E3,8.8564557E2,8.080215E2,3.0700205E3,3.0911436E3,4.828441E2,7.0189343E2,1.8375212E2,6.355891E2,1.7243239E2,2.3561238E3,7.1389685E2],"tree_param":{"num_deleted":"0","num_feature":"15","num_nodes":"15","size_leaf_vector":"1"}},{"base_weights":[2.695922E-3,6.5887384E-2,-6.5665066E-2,1.0036586E-1,-7.406662E-2,-1.8191545E-1,-3.5393223E-2,7.6583965E-4,2.5153724E-3,-1.3208684E-3,9.906923E-4,-5.829608E-4,-2.2608042E-3,4.354454E-5,-9.7462814E-4],"categories":[],"categories_nodes":[],"categories_segments":[],"categories_sizes":[],"default_left":[0,0,0,0,0,0,0,0,0,0,0,0,0,0,0],"id":64,"left_children":[1,3,5,7,9,11,13,-1,-1,-1,-1,-1,-1,-1,-1],"loss_changes":[3.6023705E1,2.0917828E1,1.4090231E1,1.24820595E1,8.623177E0,4.5038834E0,7.844367E0,0E0,0E0,0E0,0E0,0E0,0E0,0E0,0E0],"parents":[2147483647,0,0,1,1,2,2,3,3,4,4,5,5,6,6],"right_children":[2,4,6,8,10,12,14,-1,-1,-1,-1,-1,-1,-1,-1],"split_conditions":[6.3703093E-3,6.6059E-1,-9.232209E-2,5.8389664E-1,4.9922064E-2,1.557936E-1,9.1967255E-2,7.6583965E-4,2.5153724E-3,-1.3208684E-3,9.906923E-4,-5.829608E-4,-2.2608042E-3,4.354454E-5,-9.7462814E-4],"split_indices":[0,2,1,2,1,9,6,0,0,0,0,0,0,0,0],"split_type":[0,0,0,0,0,0,0,0,0,0,0,0,0,0,0],"sum_hessian":[8.337145E3,4.332401E3,4.0047441E3,3.4762817E3,8.5611926E2,8.2635474E2,3.1783894E3,3.0050427E3,4.7123898E2,6.414107E2,2.1470857E2,2.1812761E2,6.082272E2,1.9381687E3,1.2402206E3],"tree_param":{"num_deleted":"0","num_feature":"15","num_nodes":"15","size_leaf_vector":"1"}},{"base_weights":[-2.695922E-3,-6.588738E-2,6.566506E-2,-1.0036585E-1,7.406661E-2,1.8191542E-1,3.5393223E-2,-7.658396E-4,-2.5153724E-3,1.3208684E-3,-9.906924E-4,5.8296113E-4,2.2608037E-3,-4.354456E-5,9.7462826E-4],"categories":[],"categories_nodes":[],"categories_segments":[],"categories_sizes":[],"default_left":[0,0,0,0,0,0,0,0,0,0,0,0,0,0,0],"id":65,"left_children":[1,3,5,7,9,11,13,-1,-1,-1,-1,-1,-1,-1,-1],"loss_changes":[3.6023697E1,2.0917824E1,1.4090225E1,1.24820595E1,8.623177E0,4.5038795E0,7.844367E0,0E0,0E0,0E0,0E0,0E0,0E0,0E0,0E0],"parents":[2147483647,0,0,1,1,2,2,3,3,4,4,5,5,6,6],"right_children":[2,4,6,8,10,12,14,-1,-1,-1,-1,-1,-1,-1,-1],"split_conditions":[6.3703093E-3,6.6059E-1,-9.232209E-2,5.8389664E-1,4.9922064E-2,1.557936E-1,9.1967255E-2,-7.658396E-4,-2.5153724E-3,1.3208684E-3,-9.906924E-4,5.8296113E-4,2.2608037E-3,-4.354456E-5,9.7462826E-4],"split_indices":[0,2,1,2,1,9,6,0,0,0,0,0,0,0,0],"split_type":[0,0,0,0,0,0,0,0,0,0,0,0,0,0,0],"sum_hessian":[8.337145E3,4.332401E3,4.0047441E3,3.4762817E3,8.5611926E2,8.2635474E2,3.1783894E3,3.0050427E3,4.71239E2,6.414107E2,2.1470856E2,2.1812761E2,6.082272E2,1.9381687E3,1.2402206E3],"tree_param":{"num_deleted":"0","num_feature":"15","num_nodes":"15","size_leaf_vector":"1"}},{"base_weights":[2.6690294E-3,1.06926635E-1,-3.81344E-2,-3.418665E-2,1.4640155E-1,-8.0766305E-2,3.806879E-2,-8.975092E-4,1.7324319E-3,1.0823411E-3,2.4622376E-3,-4.6846605E-4,-1.5319263E-3,1.0982195E-3,-6.43306E-5],"categories":[],"categories_nodes":[],"categories_segments":[],"categories_sizes":[],"default_left":[0,0,0,0,0,0,0,0,0,0,0,0,0,0,0],"id":66,"left_children":[1,3,5,7,9,11,13,-1,-1,-1,-1,-1,-1,-1,-1],"loss_changes":[3.5472855E1,1.3070492E1,1.9472809E1,5.9341793E0,6.956959E0,9.4348545E0,6.8682046E0,0E0,0E0,0E0,0E0,0E0,0E0,0E0,0E0],"parents":[2147483647,0,0,1,1,2,2,3,3,4,4,5,5,6,6],"right_children":[2,4,6,8,10,12,14,-1,-1,-1,-1,-1,-1,-1,-1],"split_conditions":[-5.926921E-2,-7.726386E-2,3.0483222E-2,2.2146814E0,6.665248E-1,9.356111E-2,-3.2477087E-1,-8.975092E-4,1.7324319E-3,1.0823411E-3,2.4622376E-3,-4.6846605E-4,-1.5319263E-3,1.0982195E-3,-6.43306E-5],"split_indices":[5,3,1,4,4,6,7,0,0,0,0,0,0,0,0],"split_type":[0,0,0,0,0,0,0,0,0,0,0,0,0,0,0],"sum_hessian":[8.336614E3,2.3445051E3,5.992109E3,5.125165E2,1.8319885E3,3.842411E3,2.149698E3,4.0468164E2,1.0783482E2,1.3267749E3,5.0521362E2,2.6179727E3,1.2244381E3,8.2233203E2,1.3273661E3],"tree_param":{"num_deleted":"0","num_feature":"15","num_nodes":"15","size_leaf_vector":"1"}},{"base_weights":[-2.6690194E-3,-1.0692661E-1,3.8134407E-2,3.4186706E-2,-1.4640154E-1,8.076631E-2,-3.8068786E-2,8.975098E-4,-1.7324316E-3,-1.082341E-3,-2.4622378E-3,4.684661E-4,1.5319266E-3,-1.0982193E-3,6.433049E-5],"categories":[],"categories_nodes":[],"categories_segments":[],"categories_sizes":[],"default_left":[0,0,0,0,0,0,0,0,0,0,0,0,0,0,0],"id":67,"left_children":[1,3,5,7,9,11,13,-1,-1,-1,-1,-1,-1,-1,-1],"loss_changes":[3.5472847E1,1.3070496E1,1.9472813E1,5.9341807E0,6.9569664E0,9.434853E0,6.868202E0,0E0,0E0,0E0,0E0,0E0,0E0,0E0,0E0],"parents":[2147483647,0,0,1,1,2,2,3,3,4,4,5,5,6,6],"right_children":[2,4,6,8,10,12,14,-1,-1,-1,-1,-1,-1,-1,-1],"split_conditions":[-5.926921E-2,-7.726386E-2,3.0483222E-2,2.2146814E0,6.665248E-1,9.356111E-2,-3.2477087E-1,8.975098E-4,-1.7324316E-3,-1.082341E-3,-2.4622378E-3,4.684661E-4,1.5319266E-3,-1.0982193E-3,6.433049E-5],"split_indices":[5,3,1,4,4,6,7,0,0,0,0,0,0,0,0],"split_type":[0,0,0,0,0,0,0,0,0,0,0,0,0,0,0],"sum_hessian":[8.336614E3,2.3445051E3,5.992109E3,5.125165E2,1.8319885E3,3.842411E3,2.1496982E3,4.0468164E2,1.0783482E2,1.3267749E3,5.0521362E2,2.6179727E3,1.2244381E3,8.2233203E2,1.3273661E3],"tree_param":{"num_deleted":"0","num_feature":"15","num_nodes":"15","size_leaf_vector":"1"}},{"base_weights":[2.642914E-3,6.2919416E-2,-6.666786E-2,1.137879E-2,1.4992921E-1,-1.7709899E-1,-3.7566382E-2,5.1788474E-4,-1.3008786E-3,1.7570356E-3,2.6761874E-4,-1.3332688E-3,-3.1255546E-3,-6.2299345E-4,5.4306554E-4],"categories":[],"categories_nodes":[],"categories_segments":[],"categories_sizes":[],"default_left":[0,0,0,0,0,0,0,0,0,0,0,0,0,0,0],"id":68,"left_children":[1,3,5,7,9,11,13,-1,-1,-1,-1,-1,-1,-1,-1],"loss_changes":[3.4835182E1,1.9997982E1,1.245752E1,1.6023438E1,5.2616425E0,4.7528896E0,6.9811435E0,0E0,0E0,0E0,0E0,0E0,0E0,0E0,0E0],"parents":[2147483647,0,0,1,1,2,2,3,3,4,4,5,5,6,6],"right_children":[2,4,6,8,10,12,14,-1,-1,-1,-1,-1,-1,-1,-1],"split_conditions":[9.796048E-3,3.586025E-2,-9.232209E-2,6.6059E-1,2.2058222E-2,-2.887774E-2,6.665248E-1,5.1788474E-4,-1.3008786E-3,1.7570356E-3,2.6761874E-4,-1.3332688E-3,-3.1255546E-3,-6.2299345E-4,5.4306554E-4],"split_indices":[0,1,1,2,12,11,4,0,0,0,0,0,0,0,0],"split_type":[0,0,0,0,0,0,0,0,0,0,0,0,0,0,0],"sum_hessian":[8.336137E3,4.4586978E3,3.8774392E3,2.8007766E3,1.6579213E3,8.076336E2,3.0698054E3,2.178987E3,6.217896E2,1.3706653E3,2.8725595E2,6.118889E2,1.9574467E2,2.418931E3,6.508745E2],"tree_param":{"num_deleted":"0","num_feature":"15","num_nodes":"15","size_leaf_vector":"1"}},{"base_weights":[-2.6429165E-3,-6.2919416E-2,6.6667855E-2,-1.1378784E-2,-1.4992921E-1,1.7709897E-1,3.7566375E-2,-5.178845E-4,1.3008782E-3,-1.7570356E-3,-2.6761903E-4,1.3332688E-3,3.1255542E-3,6.2299334E-4,-5.430656E-4],"categories":[],"categories_nodes":[],"categories_segments":[],"categories_sizes":[],"default_left":[0,0,0,0,0,0,0,0,0,0,0,0,0,0,0],"id":69,"left_children":[1,3,5,7,9,11,13,-1,-1,-1,-1,-1,-1,-1,-1],"loss_changes":[3.4835175E1,1.9997988E1,1.2457521E1,1.6023424E1,5.2616386E0,4.7528877E0,6.9811444E0,0E0,0E0,0E0,0E0,0E0,0E0,0E0,0E0],"parents":[2147483647,0,0,1,1,2,2,3,3,4,4,5,5,6,6],"right_children":[2,4,6,8,10,12,14,-1,-1,-1,-1,-1,-1,-1,-1],"split_conditions":[9.796048E-3,3.586025E-2,-9.232209E-2,6.6059E-1,2.2058222E-2,-2.887774E-2,6.665248E-1,-5.178845E-4,1.3008782E-3,-1.7570356E-3,-2.6761903E-4,1.3332688E-3,3.1255542E-3,6.2299334E-4,-5.430656E-4],"split_indices":[0,1,1,2,12,11,4,0,0,0,0,0,0,0,0],"split_type":[0,0,0,0,0,0,0,0,0,0,0,0,0,0,0],"sum_hessian":[8.336137E3,4.4586978E3,3.8774392E3,2.8007766E3,1.6579213E3,8.076336E2,3.0698057E3,2.178987E3,6.217896E2,1.3706653E3,2.8725595E2,6.118889E2,1.9574467E2,2.418931E3,6.508745E2],"tree_param":{"num_deleted":"0","num_feature":"15","num_nodes":"15","size_leaf_vector":"1"}},{"base_weights":[2.6162749E-3,1.0513709E-1,-3.7502915E-2,-3.403425E-2,1.4407595E-1,-1.5117028E-1,-9.816205E-3,-8.896261E-4,1.710524E-3,1.0637281E-3,2.4271202E-3,-3.33571E-4,-1.9798991E-3,-3.604327E-4,7.810924E-4],"categories":[],"categories_nodes":[],"categories_segments":[],"categories_sizes":[],"default_left":[0,0,0,0,0,0,0,0,0,0,0,0,0,0,0],"id":70,"left_children":[1,3,5,7,9,11,13,-1,-1,-1,-1,-1,-1,-1,-1],"loss_changes":[3.429263E1,1.2712965E1,1.8857487E1,5.799632E0,6.7891808E0,6.467354E0,1.1117544E1,0E0,0E0,0E0,0E0,0E0,0E0,0E0,0E0],"parents":[2147483647,0,0,1,1,2,2,3,3,4,4,5,5,6,6],"right_children":[2,4,6,8,10,12,14,-1,-1,-1,-1,-1,-1,-1,-1],"split_conditions":[-5.926921E-2,-7.726386E-2,-9.232209E-2,2.2146814E0,6.665248E-1,1.557936E-1,7.693741E-2,-8.896261E-4,1.710524E-3,1.0637281E-3,2.4271202E-3,-3.33571E-4,-1.9798991E-3,-3.604327E-4,7.810924E-4],"split_indices":[5,3,1,4,4,9,1,0,0,0,0,0,0,0,0],"split_type":[0,0,0,0,0,0,0,0,0,0,0,0,0,0,0],"sum_hessian":[8.335557E3,2.344018E3,5.991538E3,5.124822E2,1.8315359E3,1.1726757E3,4.8188623E3,4.0466653E2,1.07815636E2,1.3265481E3,5.0498785E2,3.3398206E2,8.386936E2,3.7121611E3,1.1067014E3],"tree_param":{"num_deleted":"0","num_feature":"15","num_nodes":"15","size_leaf_vector":"1"}},{"base_weights":[-2.6162681E-3,-1.051371E-1,3.750293E-2,3.4034286E-2,-1.4407597E-1,1.5117028E-1,9.816225E-3,8.8962656E-4,-1.710524E-3,-1.0637285E-3,-2.4271202E-3,3.3357093E-4,1.9798991E-3,3.604329E-4,-7.8109215E-4],"categories":[],"categories_nodes":[],"categories_segments":[],"categories_sizes":[],"default_left":[0,0,0,0,0,0,0,0,0,0,0,0,0,0,0],"id":71,"left_children":[1,3,5,7,9,11,13,-1,-1,-1,-1,-1,-1,-1,-1],"loss_changes":[3.4292645E1,1.2712976E1,1.8857483E1,5.7996335E0,6.789177E0,6.467354E0,1.1117544E1,0E0,0E0,0E0,0E0,0E0,0E0,0E0,0E0],"parents":[2147483647,0,0,1,1,2,2,3,3,4,4,5,5,6,6],"right_children":[2,4,6,8,10,12,14,-1,-1,-1,-1,-1,-1,-1,-1],"split_conditions":[-5.926921E-2,-7.726386E-2,-9.232209E-2,2.2146814E0,6.665248E-1,1.557936E-1,7.693741E-2,8.8962656E-4,-1.710524E-3,-1.0637285E-3,-2.4271202E-3,3.3357093E-4,1.9798991E-3,3.604329E-4,-7.8109215E-4],"split_indices":[5,3,1,4,4,9,1,0,0,0,0,0,0,0,0],"split_type":[0,0,0,0,0,0,0,0,0,0,0,0,0,0,0],"sum_hessian":[8.335557E3,2.344018E3,5.991538E3,5.124822E2,1.8315359E3,1.1726757E3,4.8188623E3,4.0466653E2,1.07815636E2,1.326548E3,5.0498785E2,3.3398206E2,8.386936E2,3.7121611E3,1.1067013E3],"tree_param":{"num_deleted":"0","num_feature":"15","num_nodes":"15","size_leaf_vector":"1"}},{"base_weights":[2.5905492E-3,7.766397E-2,-5.1319934E-2,1.10471986E-1,-7.2948836E-2,-9.2052445E-2,2.3539625E-2,8.1078697E-4,2.7858727E-3,-1.3247952E-3,1.4109543E-3,-1.1489765E-3,1.1994152E-4,1.1249156E-3,-3.2729103E-4],"categories":[],"categories_nodes":[],"categories_segments":[],"categories_sizes":[],"default_left":[0,0,0,0,0,0,0,0,0,0,0,0,0,0,0],"id":72,"left_children":[1,3,5,7,9,11,13,-1,-1,-1,-1,-1,-1,-1,-1],"loss_changes":[3.3742104E1,1.7226364E1,1.4798511E1,1.4118336E1,7.9682674E0,7.4716454E0,8.566247E0,0E0,0E0,0E0,0E0,0E0,0E0,0E0,0E0],"parents":[2147483647,0,0,1,1,2,2,3,3,4,4,5,5,6,6],"right_children":[2,4,6,8,10,12,14,-1,-1,-1,-1,-1,-1,-1,-1],"split_conditions":[-1.960813E-2,6.6059E-1,3.0483222E-2,5.8389664E-1,7.00742E-2,2.049481E0,-3.2477087E-1,8.1078697E-4,2.7858727E-3,-1.3247952E-3,1.4109543E-3,-1.1489765E-3,1.1994152E-4,1.1249156E-3,-3.2729103E-4],"split_indices":[5,2,1,2,3,4,7,0,0,0,0,0,0,0,0],"split_type":[0,0,0,0,0,0,0,0,0,0,0,0,0,0,0],"sum_hessian":[8.33507E3,3.4835657E3,4.8515044E3,2.860688E3,6.2287756E2,3.1417751E3,1.7097294E3,2.4362212E3,4.2446677E2,4.8763577E2,1.3524179E2,2.5760542E3,5.6572095E2,6.620826E2,1.0476467E3],"tree_param":{"num_deleted":"0","num_feature":"15","num_nodes":"15","size_leaf_vector":"1"}},{"base_weights":[-2.5905597E-3,-7.766399E-2,5.1319923E-2,-1.10472E-1,7.294884E-2,9.205244E-2,-2.353963E-2,-8.1078714E-4,-2.7858731E-3,1.3247954E-3,-1.4109543E-3,1.1489763E-3,-1.199411E-4,-1.1249156E-3,3.2729097E-4],"categories":[],"categories_nodes":[],"categories_segments":[],"categories_sizes":[],"default_left":[0,0,0,0,0,0,0,0,0,0,0,0,0,0,0],"id":73,"left_children":[1,3,5,7,9,11,13,-1,-1,-1,-1,-1,-1,-1,-1],"loss_changes":[3.3742104E1,1.722637E1,1.479851E1,1.4118336E1,7.968268E0,7.471636E0,8.566245E0,0E0,0E0,0E0,0E0,0E0,0E0,0E0,0E0],"parents":[2147483647,0,0,1,1,2,2,3,3,4,4,5,5,6,6],"right_children":[2,4,6,8,10,12,14,-1,-1,-1,-1,-1,-1,-1,-1],"split_conditions":[-1.960813E-2,6.6059E-1,3.0483222E-2,5.8389664E-1,7.00742E-2,2.049481E0,-3.2477087E-1,-8.1078714E-4,-2.7858731E-3,1.3247954E-3,-1.4109543E-3,1.1489763E-3,-1.199411E-4,-1.1249156E-3,3.2729097E-4],"split_indices":[5,2,1,2,3,4,7,0,0,0,0,0,0,0,0],"split_type":[0,0,0,0,0,0,0,0,0,0,0,0,0,0,0],"sum_hessian":[8.33507E3,3.4835657E3,4.8515044E3,2.860688E3,6.2287756E2,3.1417751E3,1.7097294E3,2.4362212E3,4.2446677E2,4.8763577E2,1.3524179E2,2.5760542E3,5.6572095E2,6.620826E2,1.0476469E3],"tree_param":{"num_deleted":"0","num_feature":"15","num_nodes":"15","size_leaf_vector":"1"}},{"base_weights":[2.5652472E-3,6.145591E-2,-6.51471E-2,1.0984899E-2,1.4667937E-1,-1.21627E-1,-1.06077995E-2,5.0503894E-4,-1.2738374E-3,1.7206761E-3,2.5400647E-4,-1.4972694E-3,2.436011E-5,4.422186E-3,-1.6759125E-4],"categories":[],"categories_nodes":[],"categories_segments":[],"categories_sizes":[],"default_left":[0,0,0,0,0,0,0,0,0,0,0,0,0,0,0],"id":74,"left_children":[1,3,5,7,9,11,13,-1,-1,-1,-1,-1,-1,-1,-1],"loss_changes":[3.3242878E1,1.9176554E1,1.1943876E1,1.532486E1,5.1016464E0,6.6412563E0,5.5056815E0,0E0,0E0,0E0,0E0,0E0,0E0,0E0,0E0],"parents":[2147483647,0,0,1,1,2,2,3,3,4,4,5,5,6,6],"right_children":[2,4,6,8,10,12,14,-1,-1,-1,-1,-1,-1,-1,-1],"split_conditions":[9.796048E-3,3.586025E-2,-7.194617E-3,6.6059E-1,2.2058222E-2,2.049481E0,-8.230201E0,5.0503894E-4,-1.2738374E-3,1.7206761E-3,2.5400647E-4,-1.4972694E-3,2.436011E-5,4.422186E-3,-1.6759125E-4],"split_indices":[0,1,1,2,12,4,14,0,0,0,0,0,0,0,0],"split_type":[0,0,0,0,0,0,0,0,0,0,0,0,0,0,0],"sum_hessian":[8.334506E3,4.4576763E3,3.8768296E3,2.8003706E3,