{"learner":{"attributes":{},"feature_names":["corsiPercentage_For_seasonal_ema","fenwickPercentage_Against_seasonal_ema","eloExpectedAgainst","corsiPercentage_Against_seasonal_ema","eloExpectedFor","fenwickPercentage_For_seasonal_ema","xGoalsPercentage_For_seasonal_ema","dZoneGiveawaysAgainst_seasonal_ema","takeawaysFor_seasonal_ema","playStoppedFor_seasonal_ema","lowDangerxGoalsFor_seasonal_ema","playContinuedOutsideZoneAgainst_seasonal_ema","scoreAdjustedShotsAttemptsFor_seasonal_ema","hitsFor_seasonal_ema","highDangerShotsAgainst_seasonal_ema"],"feature_types":["float","float","float","float","float","float","float","float","float","float","float","float","float","float","float"],"gradient_booster":{"model":{"gbtree_model_param":{"num_parallel_tree":"1","num_trees":"1500"},"iteration_indptr":[0,2,4,6,8,10,12,14,16,18,20,22,24,26,28,30,32,34,36,38,40,42,44,46,48,50,52,54,56,58,60,62,64,66,68,70,72,74,76,78,80,82,84,86,88,90,92,94,96,98,100,102,104,106,108,110,112,114,116,118,120,122,124,126,128,130,132,134,136,138,140,142,144,146,148,150,152,154,156,158,160,162,164,166,168,170,172,174,176,178,180,182,184,186,188,190,192,194,196,198,200,202,204,206,208,210,212,214,216,218,220,222,224,226,228,230,232,234,236,238,240,242,244,246,248,250,252,254,256,258,260,262,264,266,268,270,272,274,276,278,280,282,284,286,288,290,292,294,296,298,300,302,304,306,308,310,312,314,316,318,320,322,324,326,328,330,332,334,336,338,340,342,344,346,348,350,352,354,356,358,360,362,364,366,368,370,372,374,376,378,380,382,384,386,388,390,392,394,396,398,400,402,404,406,408,410,412,414,416,418,420,422,424,426,428,430,432,434,436,438,440,442,444,446,448,450,452,454,456,458,460,462,464,466,468,470,472,474,476,478,480,482,484,486,488,490,492,494,496,498,500,502,504,506,508,510,512,514,516,518,520,522,524,526,528,530,532,534,536,538,540,542,544,546,548,550,552,554,556,558,560,562,564,566,568,570,572,574,576,578,580,582,584,586,588,590,592,594,596,598,600,602,604,606,608,610,612,614,616,618,620,622,624,626,628,630,632,634,636,638,640,642,644,646,648,650,652,654,656,658,660,662,664,666,668,670,672,674,676,678,680,682,684,686,688,690,692,694,696,698,700,702,704,706,708,710,712,714,716,718,720,722,724,726,728,730,732,734,736,738,740,742,744,746,748,750,752,754,756,758,760,762,764,766,768,770,772,774,776,778,780,782,784,786,788,790,792,794,796,798,800,802,804,806,808,810,812,814,816,818,820,822,824,826,828,830,832,834,836,838,840,842,844,846,848,850,852,854,856,858,860,862,864,866,868,870,872,874,876,878,880,882,884,886,888,890,892,894,896,898,900,902,904,906,908,910,912,914,916,918,920,922,924,926,928,930,932,934,936,938,940,942,944,946,948,950,952,954,956,958,960,962,964,966,968,970,972,974,976,978,980,982,984,986,988,990,992,994,996,998,1000,1002,1004,1006,1008,1010,1012,1014,1016,1018,1020,1022,1024,1026,1028,1030,1032,1034,1036,1038,1040,1042,1044,1046,1048,1050,1052,1054,1056,1058,1060,1062,1064,1066,1068,1070,1072,1074,1076,1078,1080,1082,1084,1086,1088,1090,1092,1094,1096,1098,1100,1102,1104,1106,1108,1110,1112,1114,1116,1118,1120,1122,1124,1126,1128,1130,1132,1134,1136,1138,1140,1142,1144,1146,1148,1150,1152,1154,1156,1158,1160,1162,1164,1166,1168,1170,1172,1174,1176,1178,1180,1182,1184,1186,1188,1190,1192,1194,1196,1198,1200,1202,1204,1206,1208,1210,1212,1214,1216,1218,1220,1222,1224,1226,1228,1230,1232,1234,1236,1238,1240,1242,1244,1246,1248,1250,1252,1254,1256,1258,1260,1262,1264,1266,1268,1270,1272,1274,1276,1278,1280,1282,1284,1286,1288,1290,1292,1294,1296,1298,1300,1302,1304,1306,1308,1310,1312,1314,1316,1318,1320,1322,1324,1326,1328,1330,1332,1334,1336,1338,1340,1342,1344,1346,1348,1350,1352,1354,1356,1358,1360,1362,1364,1366,1368,1370,1372,1374,1376,1378,1380,1382,1384,1386,1388,1390,1392,1394,1396,1398,1400,1402,1404,1406,1408,1410,1412,1414,1416,1418,1420,1422,1424,1426,1428,1430,1432,1434,1436,1438,1440,1442,1444,1446,1448,1450,1452,1454,1456,1458,1460,1462,1464,1466,1468,1470,1472,1474,1476,1478,1480,1482,1484,1486,1488,1490,1492,1494,1496,1498,1500],"tree_info":[0,1,0,1,0,1,0,1,0,1,0,1,0,1,0,1,0,1,0,1,0,1,0,1,0,1,0,1,0,1,0,1,0,1,0,1,0,1,0,1,0,1,0,1,0,1,0,1,0,1,0,1,0,1,0,1,0,1,0,1,0,1,0,1,0,1,0,1,0,1,0,1,0,1,0,1,0,1,0,1,0,1,0,1,0,1,0,1,0,1,0,1,0,1,0,1,0,1,0,1,0,1,0,1,0,1,0,1,0,1,0,1,0,1,0,1,0,1,0,1,0,1,0,1,0,1,0,1,0,1,0,1,0,1,0,1,0,1,0,1,0,1,0,1,0,1,0,1,0,1,0,1,0,1,0,1,0,1,0,1,0,1,0,1,0,1,0,1,0,1,0,1,0,1,0,1,0,1,0,1,0,1,0,1,0,1,0,1,0,1,0,1,0,1,0,1,0,1,0,1,0,1,0,1,0,1,0,1,0,1,0,1,0,1,0,1,0,1,0,1,0,1,0,1,0,1,0,1,0,1,0,1,0,1,0,1,0,1,0,1,0,1,0,1,0,1,0,1,0,1,0,1,0,1,0,1,0,1,0,1,0,1,0,1,0,1,0,1,0,1,0,1,0,1,0,1,0,1,0,1,0,1,0,1,0,1,0,1,0,1,0,1,0,1,0,1,0,1,0,1,0,1,0,1,0,1,0,1,0,1,0,1,0,1,0,1,0,1,0,1,0,1,0,1,0,1,0,1,0,1,0,1,0,1,0,1,0,1,0,1,0,1,0,1,0,1,0,1,0,1,0,1,0,1,0,1,0,1,0,1,0,1,0,1,0,1,0,1,0,1,0,1,0,1,0,1,0,1,0,1,0,1,0,1,0,1,0,1,0,1,0,1,0,1,0,1,0,1,0,1,0,1,0,1,0,1,0,1,0,1,0,1,0,1,0,1,0,1,0,1,0,1,0,1,0,1,0,1,0,1,0,1,0,1,0,1,0,1,0,1,0,1,0,1,0,1,0,1,0,1,0,1,0,1,0,1,0,1,0,1,0,1,0,1,0,1,0,1,0,1,0,1,0,1,0,1,0,1,0,1,0,1,0,1,0,1,0,1,0,1,0,1,0,1,0,1,0,1,0,1,0,1,0,1,0,1,0,1,0,1,0,1,0,1,0,1,0,1,0,1,0,1,0,1,0,1,0,1,0,1,0,1,0,1,0,1,0,1,0,1,0,1,0,1,0,1,0,1,0,1,0,1,0,1,0,1,0,1,0,1,0,1,0,1,0,1,0,1,0,1,0,1,0,1,0,1,0,1,0,1,0,1,0,1,0,1,0,1,0,1,0,1,0,1,0,1,0,1,0,1,0,1,0,1,0,1,0,1,0,1,0,1,0,1,0,1,0,1,0,1,0,1,0,1,0,1,0,1,0,1,0,1,0,1,0,1,0,1,0,1,0,1,0,1,0,1,0,1,0,1,0,1,0,1,0,1,0,1,0,1,0,1,0,1,0,1,0,1,0,1,0,1,0,1,0,1,0,1,0,1,0,1,0,1,0,1,0,1,0,1,0,1,0,1,0,1,0,1,0,1,0,1,0,1,0,1,0,1,0,1,0,1,0,1,0,1,0,1,0,1,0,1,0,1,0,1,0,1,0,1,0,1,0,1,0,1,0,1,0,1,0,1,0,1,0,1,0,1,0,1,0,1,0,1,0,1,0,1,0,1,0,1,0,1,0,1,0,1,0,1,0,1,0,1,0,1,0,1,0,1,0,1,0,1,0,1,0,1,0,1,0,1,0,1,0,1,0,1,0,1,0,1,0,1,0,1,0,1,0,1,0,1,0,1,0,1,0,1,0,1,0,1,0,1,0,1,0,1,0,1,0,1,0,1,0,1,0,1,0,1,0,1,0,1,0,1,0,1,0,1,0,1,0,1,0,1,0,1,0,1,0,1,0,1,0,1,0,1,0,1,0,1,0,1,0,1,0,1,0,1,0,1,0,1,0,1,0,1,0,1,0,1,0,1,0,1,0,1,0,1,0,1,0,1,0,1,0,1,0,1,0,1,0,1,0,1,0,1,0,1,0,1,0,1,0,1,0,1,0,1,0,1,0,1,0,1,0,1,0,1,0,1,0,1,0,1,0,1,0,1,0,1,0,1,0,1,0,1,0,1,0,1,0,1,0,1,0,1,0,1,0,1,0,1,0,1,0,1,0,1,0,1,0,1,0,1,0,1,0,1,0,1,0,1,0,1,0,1,0,1,0,1,0,1,0,1,0,1,0,1,0,1,0,1,0,1,0,1,0,1,0,1,0,1,0,1,0,1,0,1,0,1,0,1,0,1,0,1,0,1,0,1,0,1,0,1,0,1,0,1,0,1,0,1,0,1,0,1,0,1,0,1,0,1,0,1,0,1,0,1,0,1,0,1,0,1,0,1,0,1,0,1,0,1,0,1,0,1,0,1,0,1,0,1,0,1,0,1,0,1,0,1,0,1,0,1,0,1,0,1,0,1,0,1,0,1,0,1,0,1,0,1,0,1,0,1,0,1,0,1,0,1,0,1,0,1,0,1,0,1,0,1,0,1,0,1,0,1,0,1,0,1,0,1,0,1,0,1,0,1,0,1,0,1,0,1,0,1,0,1,0,1,0,1,0,1,0,1,0,1,0,1,0,1,0,1,0,1,0,1,0,1,0,1,0,1,0,1,0,1,0,1,0,1,0,1,0,1,0,1,0,1,0,1,0,1,0,1,0,1,0,1,0,1,0,1,0,1,0,1,0,1,0,1,0,1,0,1,0,1,0,1,0,1,0,1,0,1,0,1,0,1,0,1,0,1,0,1,0,1,0,1,0,1,0,1,0,1,0,1,0,1,0,1,0,1,0,1,0,1,0,1,0,1,0,1,0,1,0,1,0,1,0,1,0,1,0,1,0,1,0,1,0,1,0,1,0,1,0,1,0,1,0,1,0,1,0,1,0,1,0,1,0,1,0,1,0,1,0,1,0,1,0,1,0,1,0,1,0,1,0,1,0,1,0,1,0,1,0,1,0,1,0,1,0,1,0,1,0,1,0,1,0,1,0,1,0,1,0,1,0,1,0,1,0,1,0,1,0,1,0,1,0,1,0,1,0,1,0,1,0,1,0,1,0,1,0,1,0,1,0,1,0,1,0,1,0,1,0,1,0,1,0,1,0,1,0,1,0,1,0,1,0,1,0,1,0,1,0,1,0,1,0,1,0,1,0,1,0,1,0,1,0,1,0,1,0,1,0,1,0,1,0,1,0,1,0,1,0,1,0,1,0,1,0,1,0,1,0,1,0,1,0,1,0,1,0,1,0,1,0,1,0,1,0,1,0,1,0,1,0,1,0,1,0,1,0,1,0,1],"trees":[{"base_weights":[8.984188E-3,1.4549549E-1,-4.046337E-2,1.7060367E-2,2.124743E-1,-9.67824E-2,6.0268365E-2,-4.1450775E-4,2.0108696E-3,2.9601518E-3,1.6505895E-3,-6.107258E-4,-2.0470829E-3,9.245077E-4,-9.825033E-4],"categories":[],"categories_nodes":[],"categories_segments":[],"categories_sizes":[],"default_left":[0,0,0,0,0,0,0,0,0,0,0,0,0,0,0],"id":0,"left_children":[1,3,5,7,9,11,13,-1,-1,-1,-1,-1,-1,-1,-1],"loss_changes":[5.6356148E1,1.9093777E1,3.4776344E1,8.213251E0,5.7304077E0,1.5139553E1,1.1224759E1,0E0,0E0,0E0,0E0,0E0,0E0,0E0,0E0],"parents":[2147483647,0,0,1,1,2,2,3,3,4,4,5,5,6,6],"right_children":[2,4,6,8,10,12,14,-1,-1,-1,-1,-1,-1,-1,-1],"split_conditions":[-6.459809E-2,-3.2257196E-2,3.07596E-2,2.1114573E0,-1.7682602E-1,6.5432537E-1,9.9294454E-2,-4.1450775E-4,2.0108696E-3,2.9601518E-3,1.6505895E-3,-6.107258E-4,-2.0470829E-3,9.245077E-4,-9.825033E-4],"split_indices":[5,3,1,4,12,2,0,0,0,0,0,0,0,0,0],"split_type":[0,0,0,0,0,0,0,0,0,0,0,0,0,0,0],"sum_hessian":[8.347E3,2.219E3,6.128E3,7.61E2,1.458E3,3.9305E3,2.1975E3,5.78E2,1.83E2,5.26E2,9.32E2,2.9545E3,9.76E2,1.827E3,3.705E2],"tree_param":{"num_deleted":"0","num_feature":"15","num_nodes":"15","size_leaf_vector":"1"}},{"base_weights":[-8.984188E-3,-1.4549549E-1,4.046337E-2,-1.7060367E-2,-2.124743E-1,9.67824E-2,-6.0268365E-2,4.1450775E-4,-2.0108696E-3,-2.9601518E-3,-1.6505895E-3,6.107258E-4,2.0470829E-3,-9.245077E-4,9.825033E-4],"categories":[],"categories_nodes":[],"categories_segments":[],"categories_sizes":[],"default_left":[0,0,0,0,0,0,0,0,0,0,0,0,0,0,0],"id":1,"left_children":[1,3,5,7,9,11,13,-1,-1,-1,-1,-1,-1,-1,-1],"loss_changes":[5.6356148E1,1.9093777E1,3.4776344E1,8.213251E0,5.7304077E0,1.5139553E1,1.1224759E1,0E0,0E0,0E0,0E0,0E0,0E0,0E0,0E0],"parents":[2147483647,0,0,1,1,2,2,3,3,4,4,5,5,6,6],"right_children":[2,4,6,8,10,12,14,-1,-1,-1,-1,-1,-1,-1,-1],"split_conditions":[-6.459809E-2,-3.2257196E-2,3.07596E-2,2.1114573E0,-1.7682602E-1,6.5432537E-1,9.9294454E-2,4.1450775E-4,-2.0108696E-3,-2.9601518E-3,-1.6505895E-3,6.107258E-4,2.0470829E-3,-9.245077E-4,9.825033E-4],"split_indices":[5,3,1,4,12,2,0,0,0,0,0,0,0,0,0],"split_type":[0,0,0,0,0,0,0,0,0,0,0,0,0,0,0],"sum_hessian":[8.347E3,2.219E3,6.128E3,7.61E2,1.458E3,3.9305E3,2.1975E3,5.78E2,1.83E2,5.26E2,9.32E2,2.9545E3,9.76E2,1.827E3,3.705E2],"tree_param":{"num_deleted":"0","num_feature":"15","num_nodes":"15","size_leaf_vector":"1"}},{"base_weights":[8.894786E-3,1.4404388E-1,-4.0059227E-2,1.6891876E-2,2.1035378E-1,-9.581539E-2,5.9665736E-2,-4.1037006E-4,1.9908785E-3,2.9306328E-3,1.6341058E-3,-1.2516035E-3,3.4473042E-4,9.152688E-4,-9.727058E-4],"categories":[],"categories_nodes":[],"categories_segments":[],"categories_sizes":[],"default_left":[0,0,0,0,0,0,0,0,0,0,0,0,0,0,0],"id":2,"left_children":[1,3,5,7,9,11,13,-1,-1,-1,-1,-1,-1,-1,-1],"loss_changes":[5.5236794E1,1.8714165E1,3.4084644E1,8.050623E0,5.6168747E0,1.5035633E1,1.1001767E1,0E0,0E0,0E0,0E0,0E0,0E0,0E0,0E0],"parents":[2147483647,0,0,1,1,2,2,3,3,4,4,5,5,6,6],"right_children":[2,4,6,8,10,12,14,-1,-1,-1,-1,-1,-1,-1,-1],"split_conditions":[-6.459809E-2,-3.2257196E-2,3.07596E-2,2.1114573E0,-1.7682602E-1,2.060659E0,9.9294454E-2,-4.1037006E-4,1.9908785E-3,2.9306328E-3,1.6341058E-3,-1.2516035E-3,3.4473042E-4,9.152688E-4,-9.727058E-4],"split_indices":[5,3,1,4,12,4,0,0,0,0,0,0,0,0,0],"split_type":[0,0,0,0,0,0,0,0,0,0,0,0,0,0,0],"sum_hessian":[8.346985E3,2.218992E3,6.127993E3,7.6099915E2,1.4579928E3,3.9304949E3,2.197498E3,5.779999E2,1.8299925E2,5.2599536E2,9.3199744E2,3.207995E3,7.2249976E2,1.8269985E3,3.7049966E2],"tree_param":{"num_deleted":"0","num_feature":"15","num_nodes":"15","size_leaf_vector":"1"}},{"base_weights":[-8.894756E-3,-1.4404383E-1,4.005925E-2,-1.6891867E-2,-2.1035373E-1,9.581539E-2,-5.966567E-2,4.1037006E-4,-1.9908785E-3,-2.9306316E-3,-1.6341057E-3,1.2516035E-3,-3.4473042E-4,-9.152679E-4,9.727055E-4],"categories":[],"categories_nodes":[],"categories_segments":[],"categories_sizes":[],"default_left":[0,0,0,0,0,0,0,0,0,0,0,0,0,0,0],"id":3,"left_children":[1,3,5,7,9,11,13,-1,-1,-1,-1,-1,-1,-1,-1],"loss_changes":[5.523678E1,1.8714157E1,3.4084618E1,8.05062E0,5.6168594E0,1.5035633E1,1.1001755E1,0E0,0E0,0E0,0E0,0E0,0E0,0E0,0E0],"parents":[2147483647,0,0,1,1,2,2,3,3,4,4,5,5,6,6],"right_children":[2,4,6,8,10,12,14,-1,-1,-1,-1,-1,-1,-1,-1],"split_conditions":[-6.459809E-2,-3.2257196E-2,3.07596E-2,2.1114573E0,-1.7682602E-1,2.060659E0,9.9294454E-2,4.1037006E-4,-1.9908785E-3,-2.9306316E-3,-1.6341057E-3,1.2516035E-3,-3.4473042E-4,-9.152679E-4,9.727055E-4],"split_indices":[5,3,1,4,12,4,0,0,0,0,0,0,0,0,0],"split_type":[0,0,0,0,0,0,0,0,0,0,0,0,0,0,0],"sum_hessian":[8.346985E3,2.218992E3,6.127993E3,7.6099915E2,1.4579928E3,3.9304949E3,2.1974983E3,5.779999E2,1.8299925E2,5.2599536E2,9.319974E2,3.207995E3,7.2249976E2,1.8269985E3,3.7049963E2],"tree_param":{"num_deleted":"0","num_feature":"15","num_nodes":"15","size_leaf_vector":"1"}},{"base_weights":[8.806506E-3,8.763926E-2,-7.373912E-2,1.298106E-1,-8.1594236E-2,-1.6935815E-1,-2.0615695E-2,5.8601174E-4,2.0885253E-3,-1.4922919E-3,1.550239E-3,-7.163593E-4,-2.0378714E-3,-5.791973E-4,6.6484784E-4],"categories":[],"categories_nodes":[],"categories_segments":[],"categories_sizes":[],"default_left":[0,0,0,0,0,0,0,0,0,0,0,0,0,0,0],"id":4,"left_children":[1,3,5,7,9,11,13,-1,-1,-1,-1,-1,-1,-1,-1],"loss_changes":[5.432902E1,3.0488026E1,2.071361E1,1.9231525E1,1.3666115E1,4.885742E0,8.526466E0,0E0,0E0,0E0,0E0,0E0,0E0,0E0,0E0],"parents":[2147483647,0,0,1,1,2,2,3,3,4,4,5,5,6,6],"right_children":[2,4,6,8,10,12,14,-1,-1,-1,-1,-1,-1,-1,-1],"split_conditions":[3.7899069E-3,2.0589774E0,-4.2338565E-2,1.3961401E-2,6.909107E-2,1.1817164E-2,7.448403E-2,5.8601174E-4,2.0885253E-3,-1.4922919E-3,1.550239E-3,-7.163593E-4,-2.0378714E-3,-5.791973E-4,6.6484784E-4],"split_indices":[0,2,1,3,3,12,1,0,0,0,0,0,0,0,0],"split_type":[0,0,0,0,0,0,0,0,0,0,0,0,0,0,0],"sum_hessian":[8.346942E3,4.2694595E3,4.0774827E3,3.4179683E3,8.5149146E2,1.455493E3,2.6219895E3,1.7989885E3,1.6189797E3,6.624936E2,1.8899791E2,3.7999826E2,1.0754948E3,1.8359923E3,7.8599725E2],"tree_param":{"num_deleted":"0","num_feature":"15","num_nodes":"15","size_leaf_vector":"1"}},{"base_weights":[-8.806484E-3,-8.763924E-2,7.373915E-2,-1.2981059E-1,8.159427E-2,1.6935816E-1,2.0615732E-2,-5.860118E-4,-2.088525E-3,1.4922923E-3,-1.5502387E-3,7.1635935E-4,2.0378716E-3,5.7919754E-4,-6.6484726E-4],"categories":[],"categories_nodes":[],"categories_segments":[],"categories_sizes":[],"default_left":[0,0,0,0,0,0,0,0,0,0,0,0,0,0,0],"id":5,"left_children":[1,3,5,7,9,11,13,-1,-1,-1,-1,-1,-1,-1,-1],"loss_changes":[5.432903E1,3.048803E1,2.0713606E1,1.9231522E1,1.3666117E1,4.885746E0,8.526462E0,0E0,0E0,0E0,0E0,0E0,0E0,0E0,0E0],"parents":[2147483647,0,0,1,1,2,2,3,3,4,4,5,5,6,6],"right_children":[2,4,6,8,10,12,14,-1,-1,-1,-1,-1,-1,-1,-1],"split_conditions":[3.7899069E-3,2.0589774E0,-4.2338565E-2,1.3961401E-2,6.909107E-2,1.1817164E-2,7.448403E-2,-5.860118E-4,-2.088525E-3,1.4922923E-3,-1.5502387E-3,7.1635935E-4,2.0378716E-3,5.7919754E-4,-6.6484726E-4],"split_indices":[0,2,1,3,3,12,1,0,0,0,0,0,0,0,0],"split_type":[0,0,0,0,0,0,0,0,0,0,0,0,0,0,0],"sum_hessian":[8.346942E3,4.26946E3,4.0774827E3,3.4179683E3,8.5149146E2,1.455493E3,2.6219897E3,1.7989885E3,1.6189797E3,6.624935E2,1.8899791E2,3.7999826E2,1.0754948E3,1.8359924E3,7.8599725E2],"tree_param":{"num_deleted":"0","num_feature":"15","num_nodes":"15","size_leaf_vector":"1"}},{"base_weights":[8.718493E-3,1.4164224E-1,-3.9428808E-2,1.6496267E-2,2.0690767E-1,-9.413762E-2,5.842272E-2,-4.074546E-4,1.9653493E-3,2.8868876E-3,1.6049382E-3,-1.231432E-3,3.4642144E-4,8.985606E-4,-9.6404593E-4],"categories":[],"categories_nodes":[],"categories_segments":[],"categories_sizes":[],"default_left":[0,0,0,0,0,0,0,0,0,0,0,0,0,0,0],"id":6,"left_children":[1,3,5,7,9,11,13,-1,-1,-1,-1,-1,-1,-1,-1],"loss_changes":[5.3431423E1,1.8128452E1,3.2815826E1,7.860923E0,5.491516E0,1.4689587E1,1.0708116E1,0E0,0E0,0E0,0E0,0E0,0E0,0E0,0E0],"parents":[2147483647,0,0,1,1,2,2,3,3,4,4,5,5,6,6],"right_children":[2,4,6,8,10,12,14,-1,-1,-1,-1,-1,-1,-1,-1],"split_conditions":[-6.459809E-2,-3.2257196E-2,3.07596E-2,2.1114573E0,-1.7682602E-1,2.060659E0,9.9294454E-2,-4.074546E-4,1.9653493E-3,2.8868876E-3,1.6049382E-3,-1.231432E-3,3.4642144E-4,8.985606E-4,-9.6404593E-4],"split_indices":[5,3,1,4,12,4,0,0,0,0,0,0,0,0,0],"split_type":[0,0,0,0,0,0,0,0,0,0,0,0,0,0,0],"sum_hessian":[8.346892E3,2.2189456E3,6.127946E3,7.609954E2,1.4579502E3,3.930462E3,2.1974841E3,5.7799927E2,1.8299615E2,5.2597095E2,9.3197925E2,3.2079631E3,7.224987E2,1.8269855E3,3.7049857E2],"tree_param":{"num_deleted":"0","num_feature":"15","num_nodes":"15","size_leaf_vector":"1"}},{"base_weights":[-8.718496E-3,-1.4164221E-1,3.9428793E-2,-1.6496196E-2,-2.0690766E-1,9.413758E-2,-5.8422692E-2,4.0745552E-4,-1.9653493E-3,-2.886888E-3,-1.6049377E-3,1.2314316E-3,-3.4642182E-4,-8.985604E-4,9.640461E-4],"categories":[],"categories_nodes":[],"categories_segments":[],"categories_sizes":[],"default_left":[0,0,0,0,0,0,0,0,0,0,0,0,0,0,0],"id":7,"left_children":[1,3,5,7,9,11,13,-1,-1,-1,-1,-1,-1,-1,-1],"loss_changes":[5.3431393E1,1.8128464E1,3.2815807E1,7.8609295E0,5.49152E0,1.4689583E1,1.0708115E1,0E0,0E0,0E0,0E0,0E0,0E0,0E0,0E0],"parents":[2147483647,0,0,1,1,2,2,3,3,4,4,5,5,6,6],"right_children":[2,4,6,8,10,12,14,-1,-1,-1,-1,-1,-1,-1,-1],"split_conditions":[-6.459809E-2,-3.2257196E-2,3.07596E-2,2.1114573E0,-1.7682602E-1,2.060659E0,9.9294454E-2,4.0745552E-4,-1.9653493E-3,-2.886888E-3,-1.6049377E-3,1.2314316E-3,-3.4642182E-4,-8.985604E-4,9.640461E-4],"split_indices":[5,3,1,4,12,4,0,0,0,0,0,0,0,0,0],"split_type":[0,0,0,0,0,0,0,0,0,0,0,0,0,0,0],"sum_hessian":[8.346892E3,2.2189456E3,6.127946E3,7.609954E2,1.4579502E3,3.930462E3,2.1974841E3,5.7799927E2,1.8299615E2,5.2597095E2,9.3197925E2,3.2079631E3,7.224987E2,1.8269855E3,3.704986E2],"tree_param":{"num_deleted":"0","num_feature":"15","num_nodes":"15","size_leaf_vector":"1"}},{"base_weights":[8.63201E-3,8.616534E-2,-7.255212E-2,1.2781203E-1,-8.096152E-2,-1.6671535E-1,-2.0238167E-2,5.793249E-4,2.0537972E-3,-1.4757045E-3,1.5207356E-3,-1.0761683E-3,-2.228577E-3,-5.6917476E-4,6.540358E-4],"categories":[],"categories_nodes":[],"categories_segments":[],"categories_sizes":[],"default_left":[0,0,0,0,0,0,0,0,0,0,0,0,0,0,0],"id":8,"left_children":[1,3,5,7,9,11,13,-1,-1,-1,-1,-1,-1,-1,-1],"loss_changes":[5.2551308E1,2.9733292E1,2.0087217E1,1.8519848E1,1.3254759E1,4.80846E0,8.243212E0,0E0,0E0,0E0,0E0,0E0,0E0,0E0,0E0],"parents":[2147483647,0,0,1,1,2,2,3,3,4,4,5,5,6,6],"right_children":[2,4,6,8,10,12,14,-1,-1,-1,-1,-1,-1,-1,-1],"split_conditions":[3.7899069E-3,2.0589774E0,-4.2338565E-2,1.3961401E-2,6.909107E-2,6.431384E-2,7.448403E-2,5.793249E-4,2.0537972E-3,-1.4757045E-3,1.5207356E-3,-1.0761683E-3,-2.228577E-3,-5.6917476E-4,6.540358E-4],"split_indices":[0,2,1,3,3,6,1,0,0,0,0,0,0,0,0],"split_type":[0,0,0,0,0,0,0,0,0,0,0,0,0,0,0],"sum_hessian":[8.346804E3,4.2693667E3,4.077437E3,3.4178909E3,8.51476E2,1.4554653E3,2.6219717E3,1.798972E3,1.6189188E3,6.624836E2,1.8899239E2,7.104857E2,7.449796E2,1.8359795E3,7.859922E2],"tree_param":{"num_deleted":"0","num_feature":"15","num_nodes":"15","size_leaf_vector":"1"}},{"base_weights":[-8.632029E-3,-8.616538E-2,7.255213E-2,-1.2781207E-1,8.096152E-2,1.6671538E-1,2.0238157E-2,-5.7932554E-4,-2.0537977E-3,1.4757045E-3,-1.5207359E-3,1.0761687E-3,2.228577E-3,5.691748E-4,-6.5403606E-4],"categories":[],"categories_nodes":[],"categories_segments":[],"categories_sizes":[],"default_left":[0,0,0,0,0,0,0,0,0,0,0,0,0,0,0],"id":9,"left_children":[1,3,5,7,9,11,13,-1,-1,-1,-1,-1,-1,-1,-1],"loss_changes":[5.2551334E1,2.9733309E1,2.0087225E1,1.8519833E1,1.3254761E1,4.808464E0,8.2432165E0,0E0,0E0,0E0,0E0,0E0,0E0,0E0,0E0],"parents":[2147483647,0,0,1,1,2,2,3,3,4,4,5,5,6,6],"right_children":[2,4,6,8,10,12,14,-1,-1,-1,-1,-1,-1,-1,-1],"split_conditions":[3.7899069E-3,2.0589774E0,-4.2338565E-2,1.3961401E-2,6.909107E-2,6.431384E-2,7.448403E-2,-5.7932554E-4,-2.0537977E-3,1.4757045E-3,-1.5207359E-3,1.0761687E-3,2.228577E-3,5.691748E-4,-6.5403606E-4],"split_indices":[0,2,1,3,3,6,1,0,0,0,0,0,0,0,0],"split_type":[0,0,0,0,0,0,0,0,0,0,0,0,0,0,0],"sum_hessian":[8.346804E3,4.2693667E3,4.077437E3,3.4178906E3,8.5147595E2,1.4554653E3,2.6219717E3,1.7989719E3,1.6189187E3,6.624836E2,1.8899239E2,7.104857E2,7.449796E2,1.8359795E3,7.859922E2],"tree_param":{"num_deleted":"0","num_feature":"15","num_nodes":"15","size_leaf_vector":"1"}},{"base_weights":[8.545721E-3,1.3928333E-1,-3.8808577E-2,1.6107673E-2,2.0352428E-1,-9.248904E-2,5.7203352E-2,-4.0455366E-4,1.9401753E-3,1.6513218E-3,3.0151727E-3,-5.7730544E-4,-1.9754516E-3,8.821537E-4,-9.5546007E-4],"categories":[],"categories_nodes":[],"categories_segments":[],"categories_sizes":[],"default_left":[0,0,0,0,0,0,0,0,0,0,0,0,0,0,0],"id":10,"left_children":[1,3,5,7,9,11,13,-1,-1,-1,-1,-1,-1,-1,-1],"loss_changes":[5.1685963E1,1.7562275E1,3.159317E1,7.6758323E0,5.4387093E0,1.4344448E1,1.0422657E1,0E0,0E0,0E0,0E0,0E0,0E0,0E0,0E0],"parents":[2147483647,0,0,1,1,2,2,3,3,4,4,5,5,6,6],"right_children":[2,4,6,8,10,12,14,-1,-1,-1,-1,-1,-1,-1,-1],"split_conditions":[-6.459809E-2,-3.2257196E-2,3.07596E-2,2.1114573E0,6.728893E-1,6.5432537E-1,9.9294454E-2,-4.0455366E-4,1.9401753E-3,1.6513218E-3,3.0151727E-3,-5.7730544E-4,-1.9754516E-3,8.821537E-4,-9.5546007E-4],"split_indices":[5,3,1,4,4,2,0,0,0,0,0,0,0,0,0],"split_type":[0,0,0,0,0,0,0,0,0,0,0,0,0,0,0],"sum_hessian":[8.346708E3,2.2188574E3,6.12785E3,7.6098846E2,1.4578691E3,3.930395E3,2.197455E3,5.779977E2,1.8299072E2,1.0494115E3,4.0845764E2,2.9544468E3,9.759483E2,1.8269584E3,3.7049673E2],"tree_param":{"num_deleted":"0","num_feature":"15","num_nodes":"15","size_leaf_vector":"1"}},{"base_weights":[-8.5457275E-3,-1.392833E-1,3.8808558E-2,-1.6107673E-2,-2.0352423E-1,9.248903E-2,-5.720337E-2,4.0455366E-4,-1.9401753E-3,-1.6513213E-3,-3.0151722E-3,5.773051E-4,1.975452E-3,-8.8215404E-4,9.554604E-4],"categories":[],"categories_nodes":[],"categories_segments":[],"categories_sizes":[],"default_left":[0,0,0,0,0,0,0,0,0,0,0,0,0,0,0],"id":11,"left_children":[1,3,5,7,9,11,13,-1,-1,-1,-1,-1,-1,-1,-1],"loss_changes":[5.1685936E1,1.7562275E1,3.1593168E1,7.6758323E0,5.4387054E0,1.4344463E1,1.0422664E1,0E0,0E0,0E0,0E0,0E0,0E0,0E0,0E0],"parents":[2147483647,0,0,1,1,2,2,3,3,4,4,5,5,6,6],"right_children":[2,4,6,8,10,12,14,-1,-1,-1,-1,-1,-1,-1,-1],"split_conditions":[-6.459809E-2,-3.2257196E-2,3.07596E-2,2.1114573E0,6.728893E-1,6.5432537E-1,9.9294454E-2,4.0455366E-4,-1.9401753E-3,-1.6513213E-3,-3.0151722E-3,5.773051E-4,1.975452E-3,-8.8215404E-4,9.554604E-4],"split_indices":[5,3,1,4,4,2,0,0,0,0,0,0,0,0,0],"split_type":[0,0,0,0,0,0,0,0,0,0,0,0,0,0,0],"sum_hessian":[8.346708E3,2.2188577E3,6.12785E3,7.6098846E2,1.4578691E3,3.930395E3,2.197455E3,5.779977E2,1.8299072E2,1.0494115E3,4.0845764E2,2.9544468E3,9.759483E2,1.8269584E3,3.704967E2],"tree_param":{"num_deleted":"0","num_feature":"15","num_nodes":"15","size_leaf_vector":"1"}},{"base_weights":[8.460843E-3,8.471785E-2,-7.138553E-2,1.2575227E-1,-7.99513E-2,-1.6412643E-1,-1.9862983E-2,5.7143334E-4,2.0191327E-3,-1.4549143E-3,1.4934908E-3,-6.7651446E-4,-1.9811965E-3,-5.592714E-4,6.434237E-4],"categories":[],"categories_nodes":[],"categories_segments":[],"categories_sizes":[],"default_left":[0,0,0,0,0,0,0,0,0,0,0,0,0,0,0],"id":12,"left_children":[1,3,5,7,9,11,13,-1,-1,-1,-1,-1,-1,-1,-1],"loss_changes":[5.0833168E1,2.8864359E1,1.948416E1,1.7852646E1,1.2832647E1,4.762909E0,7.968945E0,0E0,0E0,0E0,0E0,0E0,0E0,0E0,0E0],"parents":[2147483647,0,0,1,1,2,2,3,3,4,4,5,5,6,6],"right_children":[2,4,6,8,10,12,14,-1,-1,-1,-1,-1,-1,-1,-1],"split_conditions":[3.7899069E-3,2.0589774E0,-4.2338565E-2,1.3961401E-2,6.909107E-2,1.1817164E-2,7.448403E-2,5.7143334E-4,2.0191327E-3,-1.4549143E-3,1.4934908E-3,-6.7651446E-4,-1.9811965E-3,-5.592714E-4,6.434237E-4],"split_indices":[0,2,1,3,3,12,1,0,0,0,0,0,0,0,0],"split_type":[0,0,0,0,0,0,0,0,0,0,0,0,0,0,0],"sum_hessian":[8.346579E3,4.2692173E3,4.077362E3,3.4177688E3,8.514484E2,1.4554171E3,2.621945E3,1.7989508E3,1.618818E3,6.624641E2,1.8898434E2,3.7998495E2,1.0754321E3,1.8359606E3,7.859844E2],"tree_param":{"num_deleted":"0","num_feature":"15","num_nodes":"15","size_leaf_vector":"1"}},{"base_weights":[-8.460849E-3,-8.471785E-2,7.138552E-2,-1.2575227E-1,7.995129E-2,1.6412644E-1,1.9862957E-2,-5.714336E-4,-2.0191325E-3,1.4549143E-3,-1.4934907E-3,6.765144E-4,1.9811965E-3,5.59271E-4,-6.434237E-4],"categories":[],"categories_nodes":[],"categories_segments":[],"categories_sizes":[],"default_left":[0,0,0,0,0,0,0,0,0,0,0,0,0,0,0],"id":13,"left_children":[1,3,5,7,9,11,13,-1,-1,-1,-1,-1,-1,-1,-1],"loss_changes":[5.0833157E1,2.8864353E1,1.9484169E1,1.7852638E1,1.2832647E1,4.762909E0,7.96894E0,0E0,0E0,0E0,0E0,0E0,0E0,0E0,0E0],"parents":[2147483647,0,0,1,1,2,2,3,3,4,4,5,5,6,6],"right_children":[2,4,6,8,10,12,14,-1,-1,-1,-1,-1,-1,-1,-1],"split_conditions":[3.7899069E-3,2.0589774E0,-4.2338565E-2,1.3961401E-2,6.909107E-2,1.1817164E-2,7.448403E-2,-5.714336E-4,-2.0191325E-3,1.4549143E-3,-1.4934907E-3,6.765144E-4,1.9811965E-3,5.59271E-4,-6.434237E-4],"split_indices":[0,2,1,3,3,12,1,0,0,0,0,0,0,0,0],"split_type":[0,0,0,0,0,0,0,0,0,0,0,0,0,0,0],"sum_hessian":[8.346579E3,4.2692173E3,4.077362E3,3.4177688E3,8.514484E2,1.4554171E3,2.621945E3,1.7989507E3,1.618818E3,6.6246405E2,1.8898436E2,3.7998495E2,1.0754321E3,1.8359606E3,7.859844E2],"tree_param":{"num_deleted":"0","num_feature":"15","num_nodes":"15","size_leaf_vector":"1"}},{"base_weights":[8.376388E-3,1.3696599E-1,-3.8198337E-2,1.5725516E-2,2.002019E-1,-9.086914E-2,5.600724E-2,-4.0167014E-4,1.9153401E-3,2.8091874E-3,1.5440002E-3,-1.1940603E-3,3.582245E-4,8.660431E-4,-9.4694895E-4],"categories":[],"categories_nodes":[],"categories_segments":[],"categories_sizes":[],"default_left":[0,0,0,0,0,0,0,0,0,0,0,0,0,0,0],"id":14,"left_children":[1,3,5,7,9,11,13,-1,-1,-1,-1,-1,-1,-1,-1],"loss_changes":[4.9998257E1,1.7014984E1,3.0415022E1,7.4951825E0,5.349617E0,1.4217415E1,1.0145177E1,0E0,0E0,0E0,0E0,0E0,0E0,0E0,0E0],"parents":[2147483647,0,0,1,1,2,2,3,3,4,4,5,5,6,6],"right_children":[2,4,6,8,10,12,14,-1,-1,-1,-1,-1,-1,-1,-1],"split_conditions":[-6.459809E-2,-3.2257196E-2,3.07596E-2,2.1114573E0,-1.7682602E-1,2.060659E0,9.9294454E-2,-4.0167014E-4,1.9153401E-3,2.8091874E-3,1.5440002E-3,-1.1940603E-3,3.582245E-4,8.660431E-4,-9.4694895E-4],"split_indices":[5,3,1,4,12,4,0,0,0,0,0,0,0,0,0],"split_type":[0,0,0,0,0,0,0,0,0,0,0,0,0,0,0],"sum_hessian":[8.346439E3,2.2187322E3,6.127707E3,7.609783E2,1.4577539E3,3.930295E3,2.197412E3,5.7799524E2,1.8298305E2,5.2587286E2,9.318811E2,3.2078047E3,7.2249036E2,1.826918E3,3.7049405E2],"tree_param":{"num_deleted":"0","num_feature":"15","num_nodes":"15","size_leaf_vector":"1"}},{"base_weights":[-8.376384E-3,-1.36966E-1,3.819835E-2,-1.5725575E-2,-2.0020191E-1,9.086916E-2,-5.600722E-2,4.0166973E-4,-1.9153412E-3,-2.8091872E-3,-1.5440005E-3,1.1940605E-3,-3.5822488E-4,-8.6604274E-4,9.4694813E-4],"categories":[],"categories_nodes":[],"categories_segments":[],"categories_sizes":[],"default_left":[0,0,0,0,0,0,0,0,0,0,0,0,0,0,0],"id":15,"left_children":[1,3,5,7,9,11,13,-1,-1,-1,-1,-1,-1,-1,-1],"loss_changes":[4.999828E1,1.7014977E1,3.0415016E1,7.4951878E0,5.3496056E0,1.421743E1,1.01451645E1,0E0,0E0,0E0,0E0,0E0,0E0,0E0,0E0],"parents":[2147483647,0,0,1,1,2,2,3,3,4,4,5,5,6,6],"right_children":[2,4,6,8,10,12,14,-1,-1,-1,-1,-1,-1,-1,-1],"split_conditions":[-6.459809E-2,-3.2257196E-2,3.07596E-2,2.1114573E0,-1.7682602E-1,2.060659E0,9.9294454E-2,4.0166973E-4,-1.9153412E-3,-2.8091872E-3,-1.5440005E-3,1.1940605E-3,-3.5822488E-4,-8.6604274E-4,9.4694813E-4],"split_indices":[5,3,1,4,12,4,0,0,0,0,0,0,0,0,0],"split_type":[0,0,0,0,0,0,0,0,0,0,0,0,0,0,0],"sum_hessian":[8.346439E3,2.2187322E3,6.127707E3,7.609783E2,1.4577539E3,3.930295E3,2.197412E3,5.7799524E2,1.8298305E2,5.2587286E2,9.318811E2,3.2078044E3,7.2249036E2,1.826918E3,3.7049405E2],"tree_param":{"num_deleted":"0","num_feature":"15","num_nodes":"15","size_leaf_vector":"1"}},{"base_weights":[8.293382E-3,8.329521E-2,-7.023697E-2,1.2382022E-1,-7.932763E-2,-1.6157322E-1,-1.9496499E-2,5.6491385E-4,1.9856517E-3,-1.4387479E-3,1.4650822E-3,-3.0736087E-3,-1.393271E-3,-5.495843E-4,6.330265E-4],"categories":[],"categories_nodes":[],"categories_segments":[],"categories_sizes":[],"default_left":[0,0,0,0,0,0,0,0,0,0,0,0,0,0,0],"id":16,"left_children":[1,3,5,7,9,11,13,-1,-1,-1,-1,-1,-1,-1,-1],"loss_changes":[4.917061E1,2.8150454E1,1.8897306E1,1.7192844E1,1.2446775E1,4.680416E0,7.7049117E0,0E0,0E0,0E0,0E0,0E0,0E0,0E0,0E0],"parents":[2147483647,0,0,1,1,2,2,3,3,4,4,5,5,6,6],"right_children":[2,4,6,8,10,12,14,-1,-1,-1,-1,-1,-1,-1,-1],"split_conditions":[3.7899069E-3,2.0589774E0,-4.2338565E-2,1.3961401E-2,6.909107E-2,-2.0778131E-1,7.448403E-2,5.6491385E-4,1.9856517E-3,-1.4387479E-3,1.4650822E-3,-3.0736087E-3,-1.393271E-3,-5.495843E-4,6.330265E-4],"split_indices":[0,2,1,3,3,1,1,0,0,0,0,0,0,0,0],"split_type":[0,0,0,0,0,0,0,0,0,0,0,0,0,0,0],"sum_hessian":[8.3462705E3,4.269012E3,4.077258E3,3.4175981E3,8.514142E2,1.4553486E3,2.6219094E3,1.7989203E3,1.6186779E3,6.6244165E2,1.8897253E2,1.9097786E2,1.2643708E3,1.8359353E3,7.85974E2],"tree_param":{"num_deleted":"0","num_feature":"15","num_nodes":"15","size_leaf_vector":"1"}},{"base_weights":[-8.293399E-3,-8.3295226E-2,7.023695E-2,-1.2382025E-1,7.932766E-2,1.6157322E-1,1.9496473E-2,-5.649142E-4,-1.985652E-3,1.4387482E-3,-1.4650817E-3,3.0736087E-3,1.393271E-3,5.4958434E-4,-6.330273E-4],"categories":[],"categories_nodes":[],"categories_segments":[],"categories_sizes":[],"default_left":[0,0,0,0,0,0,0,0,0,0,0,0,0,0,0],"id":17,"left_children":[1,3,5,7,9,11,13,-1,-1,-1,-1,-1,-1,-1,-1],"loss_changes":[4.917061E1,2.8150469E1,1.8897318E1,1.7192837E1,1.2446775E1,4.680416E0,7.7049236E0,0E0,0E0,0E0,0E0,0E0,0E0,0E0,0E0],"parents":[2147483647,0,0,1,1,2,2,3,3,4,4,5,5,6,6],"right_children":[2,4,6,8,10,12,14,-1,-1,-1,-1,-1,-1,-1,-1],"split_conditions":[3.7899069E-3,2.0589774E0,-4.2338565E-2,1.3961401E-2,6.909107E-2,-2.0778131E-1,7.448403E-2,-5.649142E-4,-1.985652E-3,1.4387482E-3,-1.4650817E-3,3.0736087E-3,1.393271E-3,5.4958434E-4,-6.330273E-4],"split_indices":[0,2,1,3,3,1,1,0,0,0,0,0,0,0,0],"split_type":[0,0,0,0,0,0,0,0,0,0,0,0,0,0,0],"sum_hessian":[8.3462705E3,4.269012E3,4.0772578E3,3.4175981E3,8.5141425E2,1.4553486E3,2.6219092E3,1.7989203E3,1.6186779E3,6.624417E2,1.8897253E2,1.9097786E2,1.2643708E3,1.8359353E3,7.85974E2],"tree_param":{"num_deleted":"0","num_feature":"15","num_nodes":"15","size_leaf_vector":"1"}},{"base_weights":[8.210413E-3,1.3468999E-1,-3.7598044E-2,1.5351435E-2,1.9693938E-1,-8.927745E-2,5.4833796E-2,-3.987874E-4,1.890858E-3,1.5921197E-3,2.9325127E-3,-1.1748504E-3,3.5947634E-4,8.5022126E-4,-9.385104E-4],"categories":[],"categories_nodes":[],"categories_segments":[],"categories_sizes":[],"default_left":[0,0,0,0,0,0,0,0,0,0,0,0,0,0,0],"id":18,"left_children":[1,3,5,7,9,11,13,-1,-1,-1,-1,-1,-1,-1,-1],"loss_changes":[4.8366722E1,1.6485596E1,2.9279766E1,7.318885E0,5.2532845E0,1.3890282E1,9.8754015E0,0E0,0E0,0E0,0E0,0E0,0E0,0E0,0E0],"parents":[2147483647,0,0,1,1,2,2,3,3,4,4,5,5,6,6],"right_children":[2,4,6,8,10,12,14,-1,-1,-1,-1,-1,-1,-1,-1],"split_conditions":[-6.459809E-2,-3.2257196E-2,3.07596E-2,2.1114573E0,6.728893E-1,2.060659E0,9.9294454E-2,-3.987874E-4,1.890858E-3,1.5921197E-3,2.9325127E-3,-1.1748504E-3,3.5947634E-4,8.5022126E-4,-9.385104E-4],"split_indices":[5,3,1,4,4,4,0,0,0,0,0,0,0,0,0],"split_type":[0,0,0,0,0,0,0,0,0,0,0,0,0,0,0],"sum_hessian":[8.346091E3,2.2185676E3,6.1275234E3,7.609651E2,1.4576025E3,3.9301677E3,2.1973555E3,5.779919E2,1.829732E2,1.0492444E3,4.083581E2,3.2076826E3,7.224851E2,1.8268649E3,3.7049063E2],"tree_param":{"num_deleted":"0","num_feature":"15","num_nodes":"15","size_leaf_vector":"1"}},{"base_weights":[-8.210424E-3,-1.3469E-1,3.7598033E-2,-1.5351449E-2,-1.969394E-1,8.927743E-2,-5.4833774E-2,3.9878747E-4,-1.8908591E-3,-1.59212E-3,-2.9325127E-3,1.1748502E-3,-3.5947684E-4,-8.502212E-4,9.385116E-4],"categories":[],"categories_nodes":[],"categories_segments":[],"categories_sizes":[],"default_left":[0,0,0,0,0,0,0,0,0,0,0,0,0,0,0],"id":19,"left_children":[1,3,5,7,9,11,13,-1,-1,-1,-1,-1,-1,-1,-1],"loss_changes":[4.8366726E1,1.6485596E1,2.9279745E1,7.318891E0,5.2532845E0,1.3890284E1,9.875415E0,0E0,0E0,0E0,0E0,0E0,0E0,0E0,0E0],"parents":[2147483647,0,0,1,1,2,2,3,3,4,4,5,5,6,6],"right_children":[2,4,6,8,10,12,14,-1,-1,-1,-1,-1,-1,-1,-1],"split_conditions":[-6.459809E-2,-3.2257196E-2,3.07596E-2,2.1114573E0,6.728893E-1,2.060659E0,9.9294454E-2,3.9878747E-4,-1.8908591E-3,-1.59212E-3,-2.9325127E-3,1.1748502E-3,-3.5947684E-4,-8.502212E-4,9.385116E-4],"split_indices":[5,3,1,4,4,4,0,0,0,0,0,0,0,0,0],"split_type":[0,0,0,0,0,0,0,0,0,0,0,0,0,0,0],"sum_hessian":[8.346091E3,2.2185676E3,6.127523E3,7.60965E2,1.4576025E3,3.9301677E3,2.1973555E3,5.779919E2,1.8297319E2,1.0492444E3,4.083581E2,3.2076826E3,7.224851E2,1.8268649E3,3.7049063E2],"tree_param":{"num_deleted":"0","num_feature":"15","num_nodes":"15","size_leaf_vector":"1"}},{"base_weights":[8.129135E-3,9.438415E-2,-5.7974122E-2,1.5254464E-2,1.8250296E-1,-1.0645853E-1,3.2066897E-2,6.519176E-4,-1.7337054E-3,2.6787585E-3,1.1581371E-3,-3.002152E-3,-9.1594004E-4,1.121439E-3,-2.956484E-4],"categories":[],"categories_nodes":[],"categories_segments":[],"categories_sizes":[],"default_left":[0,0,0,0,0,0,0,0,0,0,0,0,0,0,0],"id":20,"left_children":[1,3,5,7,9,11,13,-1,-1,-1,-1,-1,-1,-1,-1],"loss_changes":[4.7597218E1,2.5251492E1,2.0635454E1,1.7996115E1,9.724632E0,8.820629E0,8.170762E0,0E0,0E0,0E0,0E0,0E0,0E0,0E0,0E0],"parents":[2147483647,0,0,1,1,2,2,3,3,4,4,5,5,6,6],"right_children":[2,4,6,8,10,12,14,-1,-1,-1,-1,-1,-1,-1,-1],"split_conditions":[-1.5908895E-2,1.48283485E-2,3.1651594E-2,2.0589774E0,-1.0859686E-1,-2.0778131E-1,-2.249926E-1,6.519176E-4,-1.7337054E-3,2.6787585E-3,1.1581371E-3,-3.002152E-3,-9.1594004E-4,1.121439E-3,-2.956484E-4],"split_indices":[0,3,1,2,6,1,7,0,0,0,0,0,0,0,0],"split_type":[0,0,0,0,0,0,0,0,0,0,0,0,0,0,0],"sum_hessian":[8.345885E3,3.6208203E3,4.725065E3,1.9083326E3,1.7124877E3,3.0711562E3,1.6539086E3,1.5093864E3,3.9894626E2,7.497154E2,9.627723E2,2.1745605E2,2.8537002E3,7.1895874E2,9.349498E2],"tree_param":{"num_deleted":"0","num_feature":"15","num_nodes":"15","size_leaf_vector":"1"}},{"base_weights":[-8.129137E-3,-9.438415E-2,5.7974122E-2,-1.5254456E-2,-1.8250297E-1,1.0645853E-1,-3.20669E-2,-6.519174E-4,1.7337052E-3,-2.6787587E-3,-1.1581372E-3,3.0021523E-3,9.1594004E-4,-1.1214392E-3,2.9564838E-4],"categories":[],"categories_nodes":[],"categories_segments":[],"categories_sizes":[],"default_left":[0,0,0,0,0,0,0,0,0,0,0,0,0,0,0],"id":21,"left_children":[1,3,5,7,9,11,13,-1,-1,-1,-1,-1,-1,-1,-1],"loss_changes":[4.7597218E1,2.52515E1,2.0635458E1,1.799611E1,9.72464E0,8.820629E0,8.170763E0,0E0,0E0,0E0,0E0,0E0,0E0,0E0,0E0],"parents":[2147483647,0,0,1,1,2,2,3,3,4,4,5,5,6,6],"right_children":[2,4,6,8,10,12,14,-1,-1,-1,-1,-1,-1,-1,-1],"split_conditions":[-1.5908895E-2,1.48283485E-2,3.1651594E-2,2.0589774E0,-1.0859686E-1,-2.0778131E-1,-2.249926E-1,-6.519174E-4,1.7337052E-3,-2.6787587E-3,-1.1581372E-3,3.0021523E-3,9.1594004E-4,-1.1214392E-3,2.9564838E-4],"split_indices":[0,3,1,2,6,1,7,0,0,0,0,0,0,0,0],"split_type":[0,0,0,0,0,0,0,0,0,0,0,0,0,0,0],"sum_hessian":[8.345885E3,3.6208203E3,4.725065E3,1.9083326E3,1.7124877E3,3.0711562E3,1.6539086E3,1.5093864E3,3.9894626E2,7.497154E2,9.627723E2,2.1745605E2,2.8537002E3,7.1895874E2,9.349498E2],"tree_param":{"num_deleted":"0","num_feature":"15","num_nodes":"15","size_leaf_vector":"1"}},{"base_weights":[8.048012E-3,8.1183515E-2,-6.8524875E-2,1.2092224E-1,-7.828044E-2,-1.5788092E-1,-1.888785E-2,5.545394E-4,1.9361204E-3,-1.4138415E-3,1.4251951E-3,-1.2849651E-3,-2.6771703E-3,-5.351365E-4,6.195832E-4],"categories":[],"categories_nodes":[],"categories_segments":[],"categories_sizes":[],"default_left":[0,0,0,0,0,0,0,0,0,0,0,0,0,0,0],"id":22,"left_children":[1,3,5,7,9,11,13,-1,-1,-1,-1,-1,-1,-1,-1],"loss_changes":[4.6748604E1,2.7065584E1,1.8084713E1,1.6256397E1,1.1896177E1,4.665493E0,7.345609E0,0E0,0E0,0E0,0E0,0E0,0E0,0E0,0E0],"parents":[2147483647,0,0,1,1,2,2,3,3,4,4,5,5,6,6],"right_children":[2,4,6,8,10,12,14,-1,-1,-1,-1,-1,-1,-1,-1],"split_conditions":[3.7899069E-3,2.0589774E0,-4.2338565E-2,1.3961401E-2,6.909107E-2,1.495655E-1,7.448403E-2,5.545394E-4,1.9361204E-3,-1.4138415E-3,1.4251951E-3,-1.2849651E-3,-2.6771703E-3,-5.351365E-4,6.195832E-4],"split_indices":[0,2,1,3,3,12,1,0,0,0,0,0,0,0,0],"split_type":[0,0,0,0,0,0,0,0,0,0,0,0,0,0,0],"sum_hessian":[8.345679E3,4.268619E3,4.0770593E3,3.4172705E3,8.5134863E2,1.4552155E3,2.6218438E3,1.798873E3,1.6183975E3,6.6239777E2,1.8895088E2,1.1497842E3,3.0543124E2,1.8358859E3,7.8595795E2],"tree_param":{"num_deleted":"0","num_feature":"15","num_nodes":"15","size_leaf_vector":"1"}},{"base_weights":[-8.048014E-3,-8.118354E-2,6.85249E-2,-1.2092227E-1,7.8280434E-2,1.5788093E-1,1.8887874E-2,-5.5453985E-4,-1.9361204E-3,1.4138415E-3,-1.4251953E-3,1.2849652E-3,2.6771706E-3,5.351367E-4,-6.1958283E-4],"categories":[],"categories_nodes":[],"categories_segments":[],"categories_sizes":[],"default_left":[0,0,0,0,0,0,0,0,0,0,0,0,0,0,0],"id":23,"left_children":[1,3,5,7,9,11,13,-1,-1,-1,-1,-1,-1,-1,-1],"loss_changes":[4.6748627E1,2.7065598E1,1.808471E1,1.6256386E1,1.1896177E1,4.665489E0,7.345606E0,0E0,0E0,0E0,0E0,0E0,0E0,0E0,0E0],"parents":[2147483647,0,0,1,1,2,2,3,3,4,4,5,5,6,6],"right_children":[2,4,6,8,10,12,14,-1,-1,-1,-1,-1,-1,-1,-1],"split_conditions":[3.7899069E-3,2.0589774E0,-4.2338565E-2,1.3961401E-2,6.909107E-2,1.495655E-1,7.448403E-2,-5.5453985E-4,-1.9361204E-3,1.4138415E-3,-1.4251953E-3,1.2849652E-3,2.6771706E-3,5.351367E-4,-6.1958283E-4],"split_indices":[0,2,1,3,3,12,1,0,0,0,0,0,0,0,0],"split_type":[0,0,0,0,0,0,0,0,0,0,0,0,0,0,0],"sum_hessian":[8.345679E3,4.268619E3,4.0770593E3,3.4172703E3,8.5134863E2,1.4552155E3,2.6218438E3,1.7988729E3,1.6183975E3,6.6239777E2,1.8895088E2,1.1497842E3,3.0543124E2,1.8358859E3,7.8595795E2],"tree_param":{"num_deleted":"0","num_feature":"15","num_nodes":"15","size_leaf_vector":"1"}},{"base_weights":[7.967596E-3,1.3138436E-1,-3.6727816E-2,-2.7876785E-2,1.7611107E-1,-8.6959474E-2,5.3113174E-2,-8.369544E-4,1.5682767E-3,1.3517755E-3,2.8321233E-3,-1.1481482E-3,3.669378E-4,8.2837127E-4,-9.32759E-4],"categories":[],"categories_nodes":[],"categories_segments":[],"categories_sizes":[],"default_left":[0,0,0,0,0,0,0,0,0,0,0,0,0,0,0],"id":24,"left_children":[1,3,5,7,9,11,13,-1,-1,-1,-1,-1,-1,-1,-1],"loss_changes":[4.604515E1,1.5813194E1,2.7660261E1,5.0388336E0,7.5583534E0,1.3543911E1,9.572922E0,0E0,0E0,0E0,0E0,0E0,0E0,0E0,0E0],"parents":[2147483647,0,0,1,1,2,2,3,3,4,4,5,5,6,6],"right_children":[2,4,6,8,10,12,14,-1,-1,-1,-1,-1,-1,-1,-1],"split_conditions":[-6.459809E-2,-7.7265345E-2,3.07596E-2,2.1843057E0,6.728893E-1,2.060659E0,9.9294454E-2,-8.369544E-4,1.5682767E-3,1.3517755E-3,2.8321233E-3,-1.1481482E-3,3.669378E-4,8.2837127E-4,-9.32759E-4],"split_indices":[5,3,1,4,4,4,0,0,0,0,0,0,0,0,0],"split_type":[0,0,0,0,0,0,0,0,0,0,0,0,0,0,0],"sum_hessian":[8.345441E3,2.2182583E3,6.1271826E3,4.864617E2,1.7317968E3,3.9299253E3,2.1972576E3,3.7398758E2,1.1247413E2,1.2545692E3,4.772275E2,3.207454E3,7.224713E2,1.8267703E3,3.704872E2],"tree_param":{"num_deleted":"0","num_feature":"15","num_nodes":"15","size_leaf_vector":"1"}},{"base_weights":[-7.967589E-3,-1.313844E-1,3.672784E-2,2.7876712E-2,-1.7611112E-1,8.695948E-2,-5.3113125E-2,8.369534E-4,-1.5682767E-3,-1.3517758E-3,-2.8321235E-3,1.1481484E-3,-3.6693833E-4,-8.283707E-4,9.327591E-4],"categories":[],"categories_nodes":[],"categories_segments":[],"categories_sizes":[],"default_left":[0,0,0,0,0,0,0,0,0,0,0,0,0,0,0],"id":25,"left_children":[1,3,5,7,9,11,13,-1,-1,-1,-1,-1,-1,-1,-1],"loss_changes":[4.6045185E1,1.581319E1,2.7660248E1,5.03883E0,7.5583496E0,1.3543922E1,9.572914E0,0E0,0E0,0E0,0E0,0E0,0E0,0E0,0E0],"parents":[2147483647,0,0,1,1,2,2,3,3,4,4,5,5,6,6],"right_children":[2,4,6,8,10,12,14,-1,-1,-1,-1,-1,-1,-1,-1],"split_conditions":[-6.459809E-2,-7.7265345E-2,3.07596E-2,2.1843057E0,6.728893E-1,2.060659E0,9.9294454E-2,8.369534E-4,-1.5682767E-3,-1.3517758E-3,-2.8321235E-3,1.1481484E-3,-3.6693833E-4,-8.283707E-4,9.327591E-4],"split_indices":[5,3,1,4,4,4,0,0,0,0,0,0,0,0,0],"split_type":[0,0,0,0,0,0,0,0,0,0,0,0,0,0,0],"sum_hessian":[8.345441E3,2.2182583E3,6.1271826E3,4.864617E2,1.7317966E3,3.9299253E3,2.1972573E3,3.7398755E2,1.1247413E2,1.2545692E3,4.7722748E2,3.207454E3,7.224713E2,1.8267703E3,3.704872E2],"tree_param":{"num_deleted":"0","num_feature":"15","num_nodes":"15","size_leaf_vector":"1"}},{"base_weights":[7.888644E-3,7.98228E-2,-6.742391E-2,1.1904676E-1,-7.757191E-2,-1.5543637E-1,-1.8535996E-2,2.2869795E-3,7.6279655E-4,-1.3976701E-3,1.400589E-3,-1.3943753E-3,-3.5592811E-3,-5.2586396E-4,6.0966506E-4],"categories":[],"categories_nodes":[],"categories_segments":[],"categories_sizes":[],"default_left":[0,0,0,0,0,0,0,0,0,0,0,0,0,0,0],"id":26,"left_children":[1,3,5,7,9,11,13,-1,-1,-1,-1,-1,-1,-1,-1],"loss_changes":[4.5221256E1,2.6366379E1,1.754325E1,1.6011147E1,1.155593E1,4.6210136E0,7.1033354E0,0E0,0E0,0E0,0E0,0E0,0E0,0E0,0E0],"parents":[2147483647,0,0,1,1,2,2,3,3,4,4,5,5,6,6],"right_children":[2,4,6,8,10,12,14,-1,-1,-1,-1,-1,-1,-1,-1],"split_conditions":[3.7899069E-3,2.0589774E0,-4.2338565E-2,-1.6305535E-1,6.909107E-2,1.5304923E-1,7.448403E-2,2.2869795E-3,7.6279655E-4,-1.3976701E-3,1.400589E-3,-1.3943753E-3,-3.5592811E-3,-5.2586396E-4,6.0966506E-4],"split_indices":[0,2,1,12,3,5,1,0,0,0,0,0,0,0,0],"split_type":[0,0,0,0,0,0,0,0,0,0,0,0,0,0,0],"sum_hessian":[8.345192E3,4.268301E3,4.0768916E3,3.4170017E3,8.5129913E2,1.4551034E3,2.6217883E3,9.5755786E2,2.4594438E3,6.623646E2,1.8893451E2,1.3491403E3,1.05963135E2,1.8358461E3,7.8594226E2],"tree_param":{"num_deleted":"0","num_feature":"15","num_nodes":"15","size_leaf_vector":"1"}},{"base_weights":[-7.888649E-3,-7.98228E-2,6.74239E-2,-1.19046755E-1,7.757193E-2,1.5543635E-1,1.8535981E-2,-2.2869795E-3,-7.627966E-4,1.3976704E-3,-1.400589E-3,1.3943752E-3,3.5592811E-3,5.2586384E-4,-6.096652E-4],"categories":[],"categories_nodes":[],"categories_segments":[],"categories_sizes":[],"default_left":[0,0,0,0,0,0,0,0,0,0,0,0,0,0,0],"id":27,"left_children":[1,3,5,7,9,11,13,-1,-1,-1,-1,-1,-1,-1,-1],"loss_changes":[4.522125E1,2.6366379E1,1.754325E1,1.601115E1,1.1555933E1,4.6210175E0,7.103336E0,0E0,0E0,0E0,0E0,0E0,0E0,0E0,0E0],"parents":[2147483647,0,0,1,1,2,2,3,3,4,4,5,5,6,6],"right_children":[2,4,6,8,10,12,14,-1,-1,-1,-1,-1,-1,-1,-1],"split_conditions":[3.7899069E-3,2.0589774E0,-4.2338565E-2,-1.6305535E-1,6.909107E-2,1.5304923E-1,7.448403E-2,-2.2869795E-3,-7.627966E-4,1.3976704E-3,-1.400589E-3,1.3943752E-3,3.5592811E-3,5.2586384E-4,-6.096652E-4],"split_indices":[0,2,1,12,3,5,1,0,0,0,0,0,0,0,0],"split_type":[0,0,0,0,0,0,0,0,0,0,0,0,0,0,0],"sum_hessian":[8.345192E3,4.268301E3,4.0768916E3,3.4170017E3,8.5129913E2,1.4551034E3,2.6217883E3,9.5755786E2,2.4594438E3,6.623646E2,1.8893451E2,1.3491403E3,1.05963135E2,1.8358461E3,7.859423E2],"tree_param":{"num_deleted":"0","num_feature":"15","num_nodes":"15","size_leaf_vector":"1"}},{"base_weights":[7.8097824E-3,1.2903447E-1,-3.608888E-2,1.3381457E-2,1.8937857E-1,-8.5479535E-2,5.224618E-2,-4.040183E-4,1.8260222E-3,-3.2833135E-3,1.960758E-3,-1.1301188E-3,3.6733705E-4,8.162599E-4,-9.244447E-4],"categories":[],"categories_nodes":[],"categories_segments":[],"categories_sizes":[],"default_left":[0,0,0,0,0,0,0,0,0,0,0,0,0,0,0],"id":28,"left_children":[1,3,5,7,9,11,13,-1,-1,-1,-1,-1,-1,-1,-1],"loss_changes":[4.4418453E1,1.5483948E1,2.6740156E1,6.9417186E0,5.119957E0,1.32303505E1,9.352028E0,0E0,0E0,0E0,0E0,0E0,0E0,0E0,0E0],"parents":[2147483647,0,0,1,1,2,2,3,3,4,4,5,5,6,6],"right_children":[2,4,6,8,10,12,14,-1,-1,-1,-1,-1,-1,-1,-1],"split_conditions":[-6.459809E-2,-3.2257196E-2,3.07596E-2,2.1114573E0,-7.4094184E-2,2.060659E0,9.9294454E-2,-4.040183E-4,1.8260222E-3,-3.2833135E-3,1.960758E-3,-1.1301188E-3,3.6733705E-4,8.162599E-4,-9.244447E-4],"split_indices":[5,3,1,4,1,4,0,0,0,0,0,0,0,0,0],"split_type":[0,0,0,0,0,0,0,0,0,0,0,0,0,0,0],"sum_hessian":[8.344944E3,2.2180193E3,6.1269253E3,7.609109E2,1.4571085E3,3.9297322E3,2.197193E3,5.7797485E2,1.82936E2,1.7995457E1,1.439113E3,3.2072698E3,7.224623E2,1.8267108E3,3.7048245E2],"tree_param":{"num_deleted":"0","num_feature":"15","num_nodes":"15","size_leaf_vector":"1"}},{"base_weights":[-7.809768E-3,-1.2903446E-1,3.6088895E-2,-1.3381422E-2,-1.8937857E-1,8.547954E-2,-5.2246142E-2,4.0401885E-4,-1.8260225E-3,3.2833132E-3,-1.960758E-3,1.1301188E-3,-3.6733696E-4,-8.1625936E-4,9.244444E-4],"categories":[],"categories_nodes":[],"categories_segments":[],"categories_sizes":[],"default_left":[0,0,0,0,0,0,0,0,0,0,0,0,0,0,0],"id":29,"left_children":[1,3,5,7,9,11,13,-1,-1,-1,-1,-1,-1,-1,-1],"loss_changes":[4.441845E1,1.5483955E1,2.674014E1,6.9417233E0,5.119957E0,1.3230349E1,9.352021E0,0E0,0E0,0E0,0E0,0E0,0E0,0E0,0E0],"parents":[2147483647,0,0,1,1,2,2,3,3,4,4,5,5,6,6],"right_children":[2,4,6,8,10,12,14,-1,-1,-1,-1,-1,-1,-1,-1],"split_conditions":[-6.459809E-2,-3.2257196E-2,3.07596E-2,2.1114573E0,-7.4094184E-2,2.060659E0,9.9294454E-2,4.0401885E-4,-1.8260225E-3,3.2833132E-3,-1.960758E-3,1.1301188E-3,-3.6733696E-4,-8.1625936E-4,9.244444E-4],"split_indices":[5,3,1,4,1,4,0,0,0,0,0,0,0,0,0],"split_type":[0,0,0,0,0,0,0,0,0,0,0,0,0,0,0],"sum_hessian":[8.344945E3,2.2180193E3,6.1269253E3,7.609109E2,1.4571085E3,3.9297322E3,2.1971934E3,5.7797485E2,1.82936E2,1.7995457E1,1.439113E3,3.2072698E3,7.224623E2,1.8267108E3,3.7048245E2],"tree_param":{"num_deleted":"0","num_feature":"15","num_nodes":"15","size_leaf_vector":"1"}},{"base_weights":[7.731862E-3,7.848417E-2,-6.634087E-2,1.1722522E-1,-7.6970726E-2,-1.5303189E-1,-1.8190091E-2,2.2535506E-3,7.505594E-4,-1.3820541E-3,1.3731417E-3,-5.8287656E-4,-1.8642677E-3,-5.167463E-4,5.9991016E-4],"categories":[],"categories_nodes":[],"categories_segments":[],"categories_sizes":[],"default_left":[0,0,0,0,0,0,0,0,0,0,0,0,0,0,0],"id":30,"left_children":[1,3,5,7,9,11,13,-1,-1,-1,-1,-1,-1,-1,-1],"loss_changes":[4.3743275E1,2.5718773E1,1.7018513E1,1.5567062E1,1.1201764E1,4.5957985E0,6.869024E0,0E0,0E0,0E0,0E0,0E0,0E0,0E0,0E0],"parents":[2147483647,0,0,1,1,2,2,3,3,4,4,5,5,6,6],"right_children":[2,4,6,8,10,12,14,-1,-1,-1,-1,-1,-1,-1,-1],"split_conditions":[3.7899069E-3,2.0589774E0,-4.2338565E-2,-1.6305535E-1,6.909107E-2,1.1817164E-2,7.448403E-2,2.2535506E-3,7.505594E-4,-1.3820541E-3,1.3731417E-3,-5.8287656E-4,-1.8642677E-3,-5.167463E-4,5.9991016E-4],"split_indices":[0,2,1,12,3,12,1,0,0,0,0,0,0,0,0],"split_type":[0,0,0,0,0,0,0,0,0,0,0,0,0,0,0],"sum_hessian":[8.344659E3,4.2679585E3,4.0767002E3,3.4167205E3,8.5123816E2,1.4549749E3,2.6217253E3,9.5740717E2,2.4593132E3,6.623252E2,1.88913E2,3.7990277E2,1.075072E3,1.8358009E3,7.8592444E2],"tree_param":{"num_deleted":"0","num_feature":"15","num_nodes":"15","size_leaf_vector":"1"}},{"base_weights":[-7.731849E-3,-7.8484155E-2,6.6340886E-2,-1.17225215E-1,7.697073E-2,1.530319E-1,1.8190103E-2,-2.25355E-3,-7.505595E-4,1.3820542E-3,-1.3731414E-3,5.8287685E-4,1.864268E-3,5.1674654E-4,-5.999103E-4],"categories":[],"categories_nodes":[],"categories_segments":[],"categories_sizes":[],"default_left":[0,0,0,0,0,0,0,0,0,0,0,0,0,0,0],"id":31,"left_children":[1,3,5,7,9,11,13,-1,-1,-1,-1,-1,-1,-1,-1],"loss_changes":[4.374328E1,2.5718771E1,1.7018518E1,1.5567051E1,1.1201763E1,4.5957947E0,6.869028E0,0E0,0E0,0E0,0E0,0E0,0E0,0E0,0E0],"parents":[2147483647,0,0,1,1,2,2,3,3,4,4,5,5,6,6],"right_children":[2,4,6,8,10,12,14,-1,-1,-1,-1,-1,-1,-1,-1],"split_conditions":[3.7899069E-3,2.0589774E0,-4.2338565E-2,-1.6305535E-1,6.909107E-2,1.1817164E-2,7.448403E-2,-2.25355E-3,-7.505595E-4,1.3820542E-3,-1.3731414E-3,5.8287685E-4,1.864268E-3,5.1674654E-4,-5.999103E-4],"split_indices":[0,2,1,12,3,12,1,0,0,0,0,0,0,0,0],"split_type":[0,0,0,0,0,0,0,0,0,0,0,0,0,0,0],"sum_hessian":[8.344659E3,4.2679585E3,4.0767002E3,3.4167205E3,8.5123816E2,1.4549749E3,2.6217253E3,9.5740717E2,2.4593132E3,6.623252E2,1.88913E2,3.7990277E2,1.075072E3,1.8358009E3,7.8592444E2],"tree_param":{"num_deleted":"0","num_feature":"15","num_nodes":"15","size_leaf_vector":"1"}},{"base_weights":[7.6548755E-3,8.957907E-2,-5.5121772E-2,1.3323691E-2,1.745204E-1,-1.5941355E-1,-1.670396E-2,6.0981663E-4,-1.667057E-3,2.5771742E-3,1.0955045E-3,-4.0177302E-4,-1.9111198E-3,-4.912265E-4,7.0020475E-4],"categories":[],"categories_nodes":[],"categories_segments":[],"categories_sizes":[],"default_left":[0,0,0,0,0,0,0,0,0,0,0,0,0,0,0],"id":32,"left_children":[1,3,5,7,9,11,13,-1,-1,-1,-1,-1,-1,-1,-1],"loss_changes":[4.292459E1,2.3451204E1,1.893065E1,1.6389904E1,9.230095E0,4.7999344E0,9.715655E0,0E0,0E0,0E0,0E0,0E0,0E0,0E0,0E0],"parents":[2147483647,0,0,1,1,2,2,3,3,4,4,5,5,6,6],"right_children":[2,4,6,8,10,12,14,-1,-1,-1,-1,-1,-1,-1,-1],"split_conditions":[-1.5908895E-2,1.48283485E-2,-6.626314E-2,2.0589774E0,-1.0859686E-1,-9.540506E-2,7.2342664E-2,6.0981663E-4,-1.667057E-3,2.5771742E-3,1.0955045E-3,-4.0177302E-4,-1.9111198E-3,-4.912265E-4,7.0020475E-4],"split_indices":[0,3,1,2,6,9,1,0,0,0,0,0,0,0,0],"split_type":[0,0,0,0,0,0,0,0,0,0,0,0,0,0,0],"sum_hessian":[8.344376E3,3.619918E3,4.7244585E3,1.9080967E3,1.7118212E3,1.2709893E3,3.4534692E3,1.5092297E3,3.98867E2,7.4931793E2,9.6250323E2,2.6740204E2,1.00358716E3,2.5141E3,9.3936896E2],"tree_param":{"num_deleted":"0","num_feature":"15","num_nodes":"15","size_leaf_vector":"1"}},{"base_weights":[-7.654883E-3,-8.957907E-2,5.512176E-2,-1.3323703E-2,-1.7452039E-1,1.5941355E-1,1.6703948E-2,-6.098168E-4,1.667057E-3,-2.5771745E-3,-1.0955043E-3,4.01773E-4,1.9111197E-3,4.9122644E-4,-7.002049E-4],"categories":[],"categories_nodes":[],"categories_segments":[],"categories_sizes":[],"default_left":[0,0,0,0,0,0,0,0,0,0,0,0,0,0,0],"id":33,"left_children":[1,3,5,7,9,11,13,-1,-1,-1,-1,-1,-1,-1,-1],"loss_changes":[4.2924583E1,2.34512E1,1.8930649E1,1.6389908E1,9.230095E0,4.7999344E0,9.715656E0,0E0,0E0,0E0,0E0,0E0,0E0,0E0,0E0],"parents":[2147483647,0,0,1,1,2,2,3,3,4,4,5,5,6,6],"right_children":[2,4,6,8,10,12,14,-1,-1,-1,-1,-1,-1,-1,-1],"split_conditions":[-1.5908895E-2,1.48283485E-2,-6.626314E-2,2.0589774E0,-1.0859686E-1,-9.540506E-2,7.2342664E-2,-6.098168E-4,1.667057E-3,-2.5771745E-3,-1.0955043E-3,4.01773E-4,1.9111197E-3,4.9122644E-4,-7.002049E-4],"split_indices":[0,3,1,2,6,9,1,0,0,0,0,0,0,0,0],"split_type":[0,0,0,0,0,0,0,0,0,0,0,0,0,0,0],"sum_hessian":[8.344376E3,3.619918E3,4.7244585E3,1.9080967E3,1.7118212E3,1.2709893E3,3.453469E3,1.5092297E3,3.98867E2,7.4931793E2,9.6250323E2,2.6740204E2,1.0035872E3,2.5141E3,9.3936896E2],"tree_param":{"num_deleted":"0","num_feature":"15","num_nodes":"15","size_leaf_vector":"1"}},{"base_weights":[7.5786808E-3,1.2570184E-1,-3.519175E-2,-2.9761279E-2,1.6937476E-1,-8.3348714E-2,5.093382E-2,-8.4060914E-4,1.4997828E-3,1.293577E-3,2.7410956E-3,-1.1052632E-3,3.728006E-4,7.991925E-4,-9.1807224E-4],"categories":[],"categories_nodes":[],"categories_segments":[],"categories_sizes":[],"default_left":[0,0,0,0,0,0,0,0,0,0,0,0,0,0,0],"id":34,"left_children":[1,3,5,7,9,11,13,-1,-1,-1,-1,-1,-1,-1,-1],"loss_changes":[4.2165195E1,1.5068237E1,2.5418232E1,4.769671E0,7.224407E0,1.2889532E1,9.1017065E0,0E0,0E0,0E0,0E0,0E0,0E0,0E0,0E0],"parents":[2147483647,0,0,1,1,2,2,3,3,4,4,5,5,6,6],"right_children":[2,4,6,8,10,12,14,-1,-1,-1,-1,-1,-1,-1,-1],"split_conditions":[-6.459809E-2,-7.7265345E-2,3.07596E-2,2.1843057E0,6.728893E-1,2.060659E0,9.9294454E-2,-8.4060914E-4,1.4997828E-3,1.293577E-3,2.7410956E-3,-1.1052632E-3,3.728006E-4,7.991925E-4,-9.1807224E-4],"split_indices":[5,3,1,4,4,4,0,0,0,0,0,0,0,0,0],"split_type":[0,0,0,0,0,0,0,0,0,0,0,0,0,0,0],"sum_hessian":[8.344067E3,2.2175923E3,6.126475E3,4.8641446E2,1.731178E3,3.9293936E3,2.1970818E3,3.7396982E2,1.1244462E2,1.254206E3,4.7697183E2,3.2069521E3,7.224413E2,1.8266056E3,3.7047607E2],"tree_param":{"num_deleted":"0","num_feature":"15","num_nodes":"15","size_leaf_vector":"1"}},{"base_weights":[-7.578683E-3,-1.2570184E-1,3.5191745E-2,2.9761301E-2,-1.6937478E-1,8.3348714E-2,-5.0933816E-2,8.406094E-4,-1.4997828E-3,-1.293577E-3,-2.7410958E-3,1.1052632E-3,-3.7280057E-4,-7.991925E-4,9.180723E-4],"categories":[],"categories_nodes":[],"categories_segments":[],"categories_sizes":[],"default_left":[0,0,0,0,0,0,0,0,0,0,0,0,0,0,0],"id":35,"left_children":[1,3,5,7,9,11,13,-1,-1,-1,-1,-1,-1,-1,-1],"loss_changes":[4.2165195E1,1.5068241E1,2.5418228E1,4.769672E0,7.224411E0,1.2889526E1,9.101707E0,0E0,0E0,0E0,0E0,0E0,0E0,0E0,0E0],"parents":[2147483647,0,0,1,1,2,2,3,3,4,4,5,5,6,6],"right_children":[2,4,6,8,10,12,14,-1,-1,-1,-1,-1,-1,-1,-1],"split_conditions":[-6.459809E-2,-7.7265345E-2,3.07596E-2,2.1843057E0,6.728893E-1,2.060659E0,9.9294454E-2,8.406094E-4,-1.4997828E-3,-1.293577E-3,-2.7410958E-3,1.1052632E-3,-3.7280057E-4,-7.991925E-4,9.180723E-4],"split_indices":[5,3,1,4,4,4,0,0,0,0,0,0,0,0,0],"split_type":[0,0,0,0,0,0,0,0,0,0,0,0,0,0,0],"sum_hessian":[8.344067E3,2.2175923E3,6.126475E3,4.8641443E2,1.731178E3,3.9293933E3,2.1970818E3,3.7396982E2,1.1244462E2,1.254206E3,4.7697183E2,3.2069521E3,7.224413E2,1.8266056E3,3.7047607E2],"tree_param":{"num_deleted":"0","num_feature":"15","num_nodes":"15","size_leaf_vector":"1"}},{"base_weights":[7.5036506E-3,6.785501E-2,-7.511855E-2,1.0483769E-1,-9.189815E-2,-1.3197798E-1,5.4802448E-3,5.60207E-4,1.8753672E-3,-2.659382E-3,-1.9124536E-4,-3.3603655E-3,-1.1543339E-3,5.257542E-4,-1.238923E-3],"categories":[],"categories_nodes":[],"categories_segments":[],"categories_sizes":[],"default_left":[0,0,0,0,0,0,0,0,0,0,0,0,0,0,0],"id":36,"left_children":[1,3,5,7,9,11,13,-1,-1,-1,-1,-1,-1,-1,-1],"loss_changes":[4.161501E1,2.8503365E1,1.6145565E1,1.5801624E1,1.1484245E1,6.935173E0,8.89114E0,0E0,0E0,0E0,0E0,0E0,0E0,0E0,0E0],"parents":[2147483647,0,0,1,1,2,2,3,3,4,4,5,5,6,6],"right_children":[2,4,6,8,10,12,14,-1,-1,-1,-1,-1,-1,-1,-1],"split_conditions":[2.215959E-2,2.0589774E0,1.6828017E-2,3.8377233E-2,2.7905629E0,-2.1121003E-1,9.9294454E-2,5.60207E-4,1.8753672E-3,-2.659382E-3,-1.9124536E-4,-3.3603655E-3,-1.1543339E-3,5.257542E-4,-1.238923E-3],"split_indices":[12,2,3,1,2,3,0,0,0,0,0,0,0,0,0],"split_type":[0,0,0,0,0,0,0,0,0,0,0,0,0,0,0],"sum_hessian":[8.343743E3,4.821823E3,3.5219202E3,3.915689E3,9.0613416E2,2.0647083E3,1.4572117E3,2.4632925E3,1.4523967E3,2.6639322E2,6.3974097E2,1.5339871E2,1.9113097E3,1.0687506E3,3.8846106E2],"tree_param":{"num_deleted":"0","num_feature":"15","num_nodes":"15","size_leaf_vector":"1"}},{"base_weights":[-7.5036506E-3,-6.7855015E-2,7.5118564E-2,-1.048377E-1,9.189814E-2,1.31978E-1,-5.4802396E-3,-5.602071E-4,-1.8753674E-3,2.659382E-3,1.9124529E-4,3.3603658E-3,1.1543342E-3,-5.2575406E-4,1.2389229E-3],"categories":[],"categories_nodes":[],"categories_segments":[],"categories_sizes":[],"default_left":[0,0,0,0,0,0,0,0,0,0,0,0,0,0,0],"id":37,"left_children":[1,3,5,7,9,11,13,-1,-1,-1,-1,-1,-1,-1,-1],"loss_changes":[4.161502E1,2.8503359E1,1.614557E1,1.5801636E1,1.1484245E1,6.935173E0,8.891136E0,0E0,0E0,0E0,0E0,0E0,0E0,0E0,0E0],"parents":[2147483647,0,0,1,1,2,2,3,3,4,4,5,5,6,6],"right_children":[2,4,6,8,10,12,14,-1,-1,-1,-1,-1,-1,-1,-1],"split_conditions":[2.215959E-2,2.0589774E0,1.6828017E-2,3.8377233E-2,2.7905629E0,-2.1121003E-1,9.9294454E-2,-5.602071E-4,-1.8753674E-3,2.659382E-3,1.9124529E-4,3.3603658E-3,1.1543342E-3,-5.2575406E-4,1.2389229E-3],"split_indices":[12,2,3,1,2,3,0,0,0,0,0,0,0,0,0],"split_type":[0,0,0,0,0,0,0,0,0,0,0,0,0,0,0],"sum_hessian":[8.343743E3,4.821823E3,3.5219202E3,3.9156892E3,9.061342E2,2.0647083E3,1.4572117E3,2.4632925E3,1.4523967E3,2.6639322E2,6.3974097E2,1.5339871E2,1.9113097E3,1.0687506E3,3.8846106E2],"tree_param":{"num_deleted":"0","num_feature":"15","num_nodes":"15","size_leaf_vector":"1"}},{"base_weights":[7.4282074E-3,7.600054E-2,-6.43572E-2,1.1366191E-1,-7.5114034E-2,-1.4841717E-1,-1.7675037E-2,2.1975436E-3,7.229588E-4,-1.349213E-3,1.3417848E-3,-9.135717E-4,-2.026509E-3,-5.0051644E-4,5.792001E-4],"categories":[],"categories_nodes":[],"categories_segments":[],"categories_sizes":[],"default_left":[0,0,0,0,0,0,0,0,0,0,0,0,0,0,0],"id":38,"left_children":[1,3,5,7,9,11,13,-1,-1,-1,-1,-1,-1,-1,-1],"loss_changes":[4.108043E1,2.429963E1,1.5996954E1,1.4980381E1,1.0684277E1,4.4861755E0,6.4217134E0,0E0,0E0,0E0,0E0,0E0,0E0,0E0,0E0],"parents":[2147483647,0,0,1,1,2,2,3,3,4,4,5,5,6,6],"right_children":[2,4,6,8,10,12,14,-1,-1,-1,-1,-1,-1,-1,-1],"split_conditions":[3.7899069E-3,2.0589774E0,-4.2338565E-2,-1.6305535E-1,6.909107E-2,6.431384E-2,7.448403E-2,2.1975436E-3,7.229588E-4,-1.349213E-3,1.3417848E-3,-9.135717E-4,-2.026509E-3,-5.0051644E-4,5.792001E-4],"split_indices":[0,2,1,12,3,6,1,0,0,0,0,0,0,0,0],"split_type":[0,0,0,0,0,0,0,0,0,0,0,0,0,0,0],"sum_hessian":[8.343458E3,4.267198E3,4.0762598E3,3.416078E3,8.511204E2,1.4546718E3,2.621588E3,9.57091E2,2.4589868E3,6.622358E2,1.8888463E2,7.1017365E2,7.444981E2,1.8357095E3,7.858784E2],"tree_param":{"num_deleted":"0","num_feature":"15","num_nodes":"15","size_leaf_vector":"1"}},{"base_weights":[-7.428199E-3,-7.6000534E-2,6.4357206E-2,-1.1366189E-1,7.511405E-2,1.4841717E-1,1.7675038E-2,-2.1975434E-3,-7.2295865E-4,1.3492131E-3,-1.3417847E-3,9.135719E-4,2.026509E-3,5.0051656E-4,-5.7920016E-4],"categories":[],"categories_nodes":[],"categories_segments":[],"categories_sizes":[],"default_left":[0,0,0,0,0,0,0,0,0,0,0,0,0,0,0],"id":39,"left_children":[1,3,5,7,9,11,13,-1,-1,-1,-1,-1,-1,-1,-1],"loss_changes":[4.1080425E1,2.429963E1,1.5996956E1,1.4980381E1,1.0684277E1,4.4861755E0,6.421715E0,0E0,0E0,0E0,0E0,0E0,0E0,0E0,0E0],"parents":[2147483647,0,0,1,1,2,2,3,3,4,4,5,5,6,6],"right_children":[2,4,6,8,10,12,14,-1,-1,-1,-1,-1,-1,-1,-1],"split_conditions":[3.7899069E-3,2.0589774E0,-4.2338565E-2,-1.6305535E-1,6.909107E-2,6.431384E-2,7.448403E-2,-2.1975434E-3,-7.2295865E-4,1.3492131E-3,-1.3417847E-3,9.135719E-4,2.026509E-3,5.0051656E-4,-5.7920016E-4],"split_indices":[0,2,1,12,3,6,1,0,0,0,0,0,0,0,0],"split_type":[0,0,0,0,0,0,0,0,0,0,0,0,0,0,0],"sum_hessian":[8.343458E3,4.267198E3,4.0762598E3,3.416078E3,8.511204E2,1.4546718E3,2.621588E3,9.57091E2,2.4589868E3,6.622358E2,1.8888463E2,7.1017365E2,7.444981E2,1.8357095E3,7.858784E2],"tree_param":{"num_deleted":"0","num_feature":"15","num_nodes":"15","size_leaf_vector":"1"}},{"base_weights":[7.354235E-3,7.524494E-2,-6.3716434E-2,1.1253174E-1,-7.4366465E-2,-1.4694588E-1,-1.7498432E-2,-3.5128716E-4,1.4179293E-3,-1.3357983E-3,1.3285254E-3,-1.312263E-3,-3.4404176E-3,-3.2081315E-4,1.4722933E-3],"categories":[],"categories_nodes":[],"categories_segments":[],"categories_sizes":[],"default_left":[0,0,0,0,0,0,0,0,0,0,0,0,0,0,0],"id":40,"left_children":[1,3,5,7,9,11,13,-1,-1,-1,-1,-1,-1,-1,-1],"loss_changes":[4.0265472E1,2.3817476E1,1.568091E1,1.4768497E1,1.047288E1,4.464575E0,6.304659E0,0E0,0E0,0E0,0E0,0E0,0E0,0E0,0E0],"parents":[2147483647,0,0,1,1,2,2,3,3,4,4,5,5,6,6],"right_children":[2,4,6,8,10,12,14,-1,-1,-1,-1,-1,-1,-1,-1],"split_conditions":[3.7899069E-3,2.0589774E0,-4.2338565E-2,-9.5629185E-2,6.909107E-2,1.5304923E-1,1.3669114E-1,-3.5128716E-4,1.4179293E-3,-1.3357983E-3,1.3285254E-3,-1.312263E-3,-3.4404176E-3,-3.2081315E-4,1.4722933E-3],"split_indices":[0,2,1,3,3,5,1,0,0,0,0,0,0,0,0],"split_type":[0,0,0,0,0,0,0,0,0,0,0,0,0,0,0],"sum_hessian":[8.343117E3,4.2669893E3,4.0761274E3,3.4159094E3,8.510797E2,1.454565E3,2.6215625E3,5.649266E2,2.850983E3,6.622076E2,1.8887216E2,1.3486665E3,1.0589844E2,2.4090972E3,2.1246536E2],"tree_param":{"num_deleted":"0","num_feature":"15","num_nodes":"15","size_leaf_vector":"1"}},{"base_weights":[-7.3542404E-3,-7.524494E-2,6.371642E-2,-1.12531744E-1,7.4366465E-2,1.4694588E-1,1.7498417E-2,3.512873E-4,-1.4179293E-3,1.3357983E-3,-1.3285254E-3,1.312263E-3,3.4404183E-3,3.2081298E-4,-1.4722929E-3],"categories":[],"categories_nodes":[],"categories_segments":[],"categories_sizes":[],"default_left":[0,0,0,0,0,0,0,0,0,0,0,0,0,0,0],"id":41,"left_children":[1,3,5,7,9,11,13,-1,-1,-1,-1,-1,-1,-1,-1],"loss_changes":[4.026547E1,2.3817476E1,1.5680912E1,1.4768501E1,1.047288E1,4.4645824E0,6.304656E0,0E0,0E0,0E0,0E0,0E0,0E0,0E0,0E0],"parents":[2147483647,0,0,1,1,2,2,3,3,4,4,5,5,6,6],"right_children":[2,4,6,8,10,12,14,-1,-1,-1,-1,-1,-1,-1,-1],"split_conditions":[3.7899069E-3,2.0589774E0,-4.2338565E-2,-9.5629185E-2,6.909107E-2,1.5304923E-1,1.3669114E-1,3.512873E-4,-1.4179293E-3,1.3357983E-3,-1.3285254E-3,1.312263E-3,3.4404183E-3,3.2081298E-4,-1.4722929E-3],"split_indices":[0,2,1,3,3,5,1,0,0,0,0,0,0,0,0],"split_type":[0,0,0,0,0,0,0,0,0,0,0,0,0,0,0],"sum_hessian":[8.343116E3,4.2669893E3,4.0761274E3,3.4159094E3,8.510798E2,1.454565E3,2.6215625E3,5.649266E2,2.850983E3,6.622076E2,1.8887216E2,1.3486665E3,1.0589844E2,2.4090972E3,2.1246536E2],"tree_param":{"num_deleted":"0","num_feature":"15","num_nodes":"15","size_leaf_vector":"1"}},{"base_weights":[7.2806836E-3,6.628316E-2,-7.349285E-2,1.0234311E-1,-8.9480706E-2,-1.2898797E-1,5.164154E-3,5.4328423E-4,1.8369711E-3,-2.6167312E-3,-1.748633E-4,-3.3001518E-3,-1.1269341E-3,5.1671214E-4,-1.2259053E-3],"categories":[],"categories_nodes":[],"categories_segments":[],"categories_sizes":[],"default_left":[0,0,0,0,0,0,0,0,0,0,0,0,0,0,0],"id":42,"left_children":[1,3,5,7,9,11,13,-1,-1,-1,-1,-1,-1,-1,-1],"loss_changes":[3.9769928E1,2.7094734E1,1.5376926E1,1.5287334E1,1.1239839E1,6.7283745E0,8.669924E0,0E0,0E0,0E0,0E0,0E0,0E0,0E0,0E0],"parents":[2147483647,0,0,1,1,2,2,3,3,4,4,5,5,6,6],"right_children":[2,4,6,8,10,12,14,-1,-1,-1,-1,-1,-1,-1,-1],"split_conditions":[2.215959E-2,2.0589774E0,1.6828017E-2,3.8377233E-2,2.7905629E0,-2.1121003E-1,9.9294454E-2,5.4328423E-4,1.8369711E-3,-2.6167312E-3,-1.748633E-4,-3.3001518E-3,-1.1269341E-3,5.1671214E-4,-1.2259053E-3],"split_indices":[12,2,3,1,2,3,0,0,0,0,0,0,0,0,0],"split_type":[0,0,0,0,0,0,0,0,0,0,0,0,0,0,0],"sum_hessian":[8.3427705E3,4.8212104E3,3.52156E3,3.9151748E3,9.060356E2,2.0644102E3,1.4571498E3,2.4631218E3,1.452053E3,2.6635263E2,6.39683E2,1.5334381E2,1.9110664E3,1.0687015E3,3.8844824E2],"tree_param":{"num_deleted":"0","num_feature":"15","num_nodes":"15","size_leaf_vector":"1"}},{"base_weights":[-7.280689E-3,-6.628317E-2,7.349285E-2,-1.0234313E-1,8.9480706E-2,1.2898798E-1,-5.1641664E-3,-5.4328435E-4,-1.8369715E-3,2.6167312E-3,1.748633E-4,3.3001518E-3,1.1269342E-3,-5.167124E-4,1.2259056E-3],"categories":[],"categories_nodes":[],"categories_segments":[],"categories_sizes":[],"default_left":[0,0,0,0,0,0,0,0,0,0,0,0,0,0,0],"id":43,"left_children":[1,3,5,7,9,11,13,-1,-1,-1,-1,-1,-1,-1,-1],"loss_changes":[3.9769936E1,2.7094738E1,1.5376932E1,1.5287334E1,1.123984E1,6.728367E0,8.6699295E0,0E0,0E0,0E0,0E0,0E0,0E0,0E0,0E0],"parents":[2147483647,0,0,1,1,2,2,3,3,4,4,5,5,6,6],"right_children":[2,4,6,8,10,12,14,-1,-1,-1,-1,-1,-1,-1,-1],"split_conditions":[2.215959E-2,2.0589774E0,1.6828017E-2,3.8377233E-2,2.7905629E0,-2.1121003E-1,9.9294454E-2,-5.4328435E-4,-1.8369715E-3,2.6167312E-3,1.748633E-4,3.3001518E-3,1.1269342E-3,-5.167124E-4,1.2259056E-3],"split_indices":[12,2,3,1,2,3,0,0,0,0,0,0,0,0,0],"split_type":[0,0,0,0,0,0,0,0,0,0,0,0,0,0,0],"sum_hessian":[8.3427705E3,4.8212104E3,3.52156E3,3.9151748E3,9.060356E2,2.0644102E3,1.4571498E3,2.4631218E3,1.452053E3,2.6635263E2,6.39683E2,1.5334381E2,1.9110664E3,1.0687015E3,3.8844824E2],"tree_param":{"num_deleted":"0","num_feature":"15","num_nodes":"15","size_leaf_vector":"1"}},{"base_weights":[7.2075017E-3,1.2133835E-1,-3.411036E-2,-3.0504744E-2,1.6400756E-1,-8.034527E-2,4.8574306E-2,-8.3870604E-4,1.4617733E-3,1.2492425E-3,2.66332E-3,-1.0703497E-3,3.8101128E-4,7.650779E-4,-8.897396E-4],"categories":[],"categories_nodes":[],"categories_segments":[],"categories_sizes":[],"default_left":[0,0,0,0,0,0,0,0,0,0,0,0,0,0,0],"id":44,"left_children":[1,3,5,7,9,11,13,-1,-1,-1,-1,-1,-1,-1,-1],"loss_changes":[3.9348816E1,1.4374729E1,2.342522E1,4.6075635E0,6.8913574E0,1.2427174E1,8.45125E0,0E0,0E0,0E0,0E0,0E0,0E0,0E0,0E0],"parents":[2147483647,0,0,1,1,2,2,3,3,4,4,5,5,6,6],"right_children":[2,4,6,8,10,12,14,-1,-1,-1,-1,-1,-1,-1,-1],"split_conditions":[-6.459809E-2,-7.7265345E-2,3.07596E-2,2.1843057E0,6.728893E-1,2.060659E0,9.9294454E-2,-8.3870604E-4,1.4617733E-3,1.2492425E-3,2.66332E-3,-1.0703497E-3,3.8101128E-4,7.650779E-4,-8.897396E-4],"split_indices":[5,3,1,4,4,4,0,0,0,0,0,0,0,0,0],"split_type":[0,0,0,0,0,0,0,0,0,0,0,0,0,0,0],"sum_hessian":[8.342439E3,2.2168838E3,6.1255557E3,4.8636932E2,1.7305144E3,3.928743E3,2.196813E3,3.739462E2,1.1242312E2,1.2538293E3,4.7668512E2,3.206348E3,7.2239484E2,1.8263575E3,3.7045538E2],"tree_param":{"num_deleted":"0","num_feature":"15","num_nodes":"15","size_leaf_vector":"1"}},{"base_weights":[-7.2075087E-3,-1.2133836E-1,3.411035E-2,3.0504737E-2,-1.6400756E-1,8.034526E-2,-4.8574317E-2,8.3870586E-4,-1.4617732E-3,-1.2492423E-3,-2.6633202E-3,1.0703496E-3,-3.8101125E-4,-7.6507806E-4,8.8973966E-4],"categories":[],"categories_nodes":[],"categories_segments":[],"categories_sizes":[],"default_left":[0,0,0,0,0,0,0,0,0,0,0,0,0,0,0],"id":45,"left_children":[1,3,5,7,9,11,13,-1,-1,-1,-1,-1,-1,-1,-1],"loss_changes":[3.9348816E1,1.4374725E1,2.3425224E1,4.607563E0,6.891361E0,1.2427166E1,8.451254E0,0E0,0E0,0E0,0E0,0E0,0E0,0E0,0E0],"parents":[2147483647,0,0,1,1,2,2,3,3,4,4,5,5,6,6],"right_children":[2,4,6,8,10,12,14,-1,-1,-1,-1,-1,-1,-1,-1],"split_conditions":[-6.459809E-2,-7.7265345E-2,3.07596E-2,2.1843057E0,6.728893E-1,2.060659E0,9.9294454E-2,8.3870586E-4,-1.4617732E-3,-1.2492423E-3,-2.6633202E-3,1.0703496E-3,-3.8101125E-4,-7.6507806E-4,8.8973966E-4],"split_indices":[5,3,1,4,4,4,0,0,0,0,0,0,0,0,0],"split_type":[0,0,0,0,0,0,0,0,0,0,0,0,0,0,0],"sum_hessian":[8.342439E3,2.2168838E3,6.1255557E3,4.8636932E2,1.7305144E3,3.928743E3,2.196813E3,3.739462E2,1.1242311E2,1.2538292E3,4.7668512E2,3.2063481E3,7.2239484E2,1.8263575E3,3.7045538E2],"tree_param":{"num_deleted":"0","num_feature":"15","num_nodes":"15","size_leaf_vector":"1"}},{"base_weights":[7.136215E-3,1.2013785E-1,-3.3770423E-2,-3.0199016E-2,1.623875E-1,-7.954471E-2,4.8089646E-2,-8.3034387E-4,1.4473969E-3,1.2368417E-3,2.63733E-3,-1.0596946E-3,3.7720532E-4,7.5745035E-4,-8.808819E-4],"categories":[],"categories_nodes":[],"categories_segments":[],"categories_sizes":[],"default_left":[0,0,0,0,0,0,0,0,0,0,0,0,0,0,0],"id":46,"left_children":[1,3,5,7,9,11,13,-1,-1,-1,-1,-1,-1,-1,-1],"loss_changes":[3.8569973E1,1.4090935E1,2.2959866E1,4.5166583E0,6.7583504E0,1.2180698E1,8.283552E0,0E0,0E0,0E0,0E0,0E0,0E0,0E0,0E0],"parents":[2147483647,0,0,1,1,2,2,3,3,4,4,5,5,6,6],"right_children":[2,4,6,8,10,12,14,-1,-1,-1,-1,-1,-1,-1,-1],"split_conditions":[-6.459809E-2,-7.7265345E-2,3.07596E-2,2.1843057E0,6.728893E-1,2.060659E0,9.9294454E-2,-8.3034387E-4,1.4473969E-3,1.2368417E-3,2.63733E-3,-1.0596946E-3,3.7720532E-4,7.5745035E-4,-8.808819E-4],"split_indices":[5,3,1,4,4,4,0,0,0,0,0,0,0,0,0],"split_type":[0,0,0,0,0,0,0,0,0,0,0,0,0,0,0],"sum_hessian":[8.342056E3,2.2166855E3,6.12537E3,4.8635938E2,1.7303262E3,3.9286094E3,2.1967607E3,3.73945E2,1.12414345E2,1.253747E3,4.7657925E2,3.2062124E3,7.223971E2,1.8263118E3,3.7044894E2],"tree_param":{"num_deleted":"0","num_feature":"15","num_nodes":"15","size_leaf_vector":"1"}},{"base_weights":[-7.1362117E-3,-1.2013784E-1,3.3770427E-2,3.0198995E-2,-1.6238749E-1,7.9544716E-2,-4.8089642E-2,8.3034363E-4,-1.4473969E-3,-1.2368414E-3,-2.63733E-3,1.0596947E-3,-3.7720514E-4,-7.574503E-4,8.808817E-4],"categories":[],"categories_nodes":[],"categories_segments":[],"categories_sizes":[],"default_left":[0,0,0,0,0,0,0,0,0,0,0,0,0,0,0],"id":47,"left_children":[1,3,5,7,9,11,13,-1,-1,-1,-1,-1,-1,-1,-1],"loss_changes":[3.8569973E1,1.4090927E1,2.2959864E1,4.516657E0,6.758358E0,1.21806965E1,8.28355E0,0E0,0E0,0E0,0E0,0E0,0E0,0E0,0E0],"parents":[2147483647,0,0,1,1,2,2,3,3,4,4,5,5,6,6],"right_children":[2,4,6,8,10,12,14,-1,-1,-1,-1,-1,-1,-1,-1],"split_conditions":[-6.459809E-2,-7.7265345E-2,3.07596E-2,2.1843057E0,6.728893E-1,2.060659E0,9.9294454E-2,8.3034363E-4,-1.4473969E-3,-1.2368414E-3,-2.63733E-3,1.0596947E-3,-3.7720514E-4,-7.574503E-4,8.808817E-4],"split_indices":[5,3,1,4,4,4,0,0,0,0,0,0,0,0,0],"split_type":[0,0,0,0,0,0,0,0,0,0,0,0,0,0,0],"sum_hessian":[8.342056E3,2.2166855E3,6.12537E3,4.8635938E2,1.7303262E3,3.9286094E3,2.1967607E3,3.73945E2,1.12414345E2,1.253747E3,4.7657925E2,3.2062124E3,7.223971E2,1.8263118E3,3.7044894E2],"tree_param":{"num_deleted":"0","num_feature":"15","num_nodes":"15","size_leaf_vector":"1"}},{"base_weights":[7.0656417E-3,6.484988E-2,-7.203688E-2,1.00351445E-1,-8.84926E-2,-1.8547414E-1,-3.5199594E-2,5.363279E-4,1.7952515E-3,-2.5877936E-3,-1.7300382E-4,-1.9291163E-3,5.0389594E-3,-3.9892064E-5,-1.2136636E-3],"categories":[],"categories_nodes":[],"categories_segments":[],"categories_sizes":[],"default_left":[0,0,0,0,0,0,0,0,0,0,0,0,0,0,0],"id":48,"left_children":[1,3,5,7,9,11,13,-1,-1,-1,-1,-1,-1,-1,-1],"loss_changes":[3.8137936E1,2.6256529E1,1.4711649E1,1.4473522E1,1.0990454E1,4.5228252E0,7.153064E0,0E0,0E0,0E0,0E0,0E0,0E0,0E0,0E0],"parents":[2147483647,0,0,1,1,2,2,3,3,4,4,5,5,6,6],"right_children":[2,4,6,8,10,12,14,-1,-1,-1,-1,-1,-1,-1,-1],"split_conditions":[2.215959E-2,2.0589774E0,-7.656549E-2,3.8377233E-2,2.7905629E0,5.0353515E-1,9.9294454E-2,5.363279E-4,1.7952515E-3,-2.5877936E-3,-1.7300382E-4,-1.9291163E-3,5.0389594E-3,-3.9892064E-5,-1.2136636E-3],"split_indices":[12,2,1,1,2,13,0,0,0,0,0,0,0,0,0],"split_type":[0,0,0,0,0,0,0,0,0,0,0,0,0,0,0],"sum_hessian":[8.341654E3,4.8204814E3,3.5211726E3,3.9145403E3,9.0594135E2,8.6216724E2,2.6590054E3,2.4629094E3,1.4516309E3,2.663105E2,6.3963086E2,8.536772E2,8.490008E0,1.9527484E3,7.0625696E2],"tree_param":{"num_deleted":"0","num_feature":"15","num_nodes":"15","size_leaf_vector":"1"}},{"base_weights":[-7.065642E-3,-6.484988E-2,7.203687E-2,-1.0035144E-1,8.849259E-2,1.8547417E-1,3.5199583E-2,-5.363278E-4,-1.7952516E-3,2.5877934E-3,1.7300369E-4,1.9291166E-3,-5.0389594E-3,3.9891896E-5,1.2136636E-3],"categories":[],"categories_nodes":[],"categories_segments":[],"categories_sizes":[],"default_left":[0,0,0,0,0,0,0,0,0,0,0,0,0,0,0],"id":49,"left_children":[1,3,5,7,9,11,13,-1,-1,-1,-1,-1,-1,-1,-1],"loss_changes":[3.813793E1,2.6256527E1,1.4711651E1,1.4473526E1,1.0990456E1,4.522829E0,7.1530657E0,0E0,0E0,0E0,0E0,0E0,0E0,0E0,0E0],"parents":[2147483647,0,0,1,1,2,2,3,3,4,4,5,5,6,6],"right_children":[2,4,6,8,10,12,14,-1,-1,-1,-1,-1,-1,-1,-1],"split_conditions":[2.215959E-2,2.0589774E0,-7.656549E-2,3.8377233E-2,2.7905629E0,5.0353515E-1,9.9294454E-2,-5.363278E-4,-1.7952516E-3,2.5877934E-3,1.7300369E-4,1.9291166E-3,-5.0389594E-3,3.9891896E-5,1.2136636E-3],"split_indices":[12,2,1,1,2,13,0,0,0,0,0,0,0,0,0],"split_type":[0,0,0,0,0,0,0,0,0,0,0,0,0,0,0],"sum_hessian":[8.341654E3,4.8204814E3,3.5211726E3,3.9145403E3,9.0594135E2,8.6216724E2,2.6590054E3,2.4629094E3,1.4516309E3,2.663105E2,6.3963086E2,8.536772E2,8.490008E0,1.9527484E3,7.0625696E2],"tree_param":{"num_deleted":"0","num_feature":"15","num_nodes":"15","size_leaf_vector":"1"}},{"base_weights":[6.9954554E-3,8.362785E-2,-5.1712796E-2,1.1342853E-2,1.6418794E-1,-1.552173E-1,-1.7309884E-2,5.626807E-4,-1.5839235E-3,2.4449157E-3,1.0151421E-3,-3.2890862E-4,-1.89098E-3,-4.7327846E-4,6.59626E-4],"categories":[],"categories_nodes":[],"categories_segments":[],"categories_sizes":[],"default_left":[0,0,0,0,0,0,0,0,0,0,0,0,0,0,0],"id":50,"left_children":[1,3,5,7,9,11,13,-1,-1,-1,-1,-1,-1,-1,-1],"loss_changes":[3.7535988E1,2.107331E1,1.6819468E1,1.4562773E1,8.589119E0,4.8776207E0,8.868952E0,0E0,0E0,0E0,0E0,0E0,0E0,0E0,0E0],"parents":[2147483647,0,0,1,1,2,2,3,3,4,4,5,5,6,6],"right_children":[2,4,6,8,10,12,14,-1,-1,-1,-1,-1,-1,-1,-1],"split_conditions":[-1.5908895E-2,1.48283485E-2,-7.4094184E-2,2.0589774E0,-1.0859686E-1,-6.024395E-2,7.2342664E-2,5.626807E-4,-1.5839235E-3,2.4449157E-3,1.0151421E-3,-3.2890862E-4,-1.89098E-3,-4.7327846E-4,6.59626E-4],"split_indices":[0,3,1,2,6,9,1,0,0,0,0,0,0,0,0],"split_type":[0,0,0,0,0,0,0,0,0,0,0,0,0,0,0],"sum_hessian":[8.341309E3,3.6181204E3,4.7231885E3,1.9076047E3,1.7105156E3,1.1773887E3,3.5457998E3,1.5089001E3,3.987046E2,7.4852814E2,9.619875E2,2.5579836E2,9.215903E2,2.6066055E3,9.3919434E2],"tree_param":{"num_deleted":"0","num_feature":"15","num_nodes":"15","size_leaf_vector":"1"}},{"base_weights":[-6.995458E-3,-8.362785E-2,5.1712796E-2,-1.1342857E-2,-1.6418795E-1,1.552173E-1,1.730988E-2,-5.626807E-4,1.5839232E-3,-2.4449157E-3,-1.0151422E-3,3.2890847E-4,1.89098E-3,4.7327843E-4,-6.59626E-4],"categories":[],"categories_nodes":[],"categories_segments":[],"categories_sizes":[],"default_left":[0,0,0,0,0,0,0,0,0,0,0,0,0,0,0],"id":51,"left_children":[1,3,5,7,9,11,13,-1,-1,-1,-1,-1,-1,-1,-1],"loss_changes":[3.7535988E1,2.1073313E1,1.6819473E1,1.4562768E1,8.589111E0,4.8776207E0,8.868952E0,0E0,0E0,0E0,0E0,0E0,0E0,0E0,0E0],"parents":[2147483647,0,0,1,1,2,2,3,3,4,4,5,5,6,6],"right_children":[2,4,6,8,10,12,14,-1,-1,-1,-1,-1,-1,-1,-1],"split_conditions":[-1.5908895E-2,1.48283485E-2,-7.4094184E-2,2.0589774E0,-1.0859686E-1,-6.024395E-2,7.2342664E-2,-5.626807E-4,1.5839232E-3,-2.4449157E-3,-1.0151422E-3,3.2890847E-4,1.89098E-3,4.7327843E-4,-6.59626E-4],"split_indices":[0,3,1,2,6,9,1,0,0,0,0,0,0,0,0],"split_type":[0,0,0,0,0,0,0,0,0,0,0,0,0,0,0],"sum_hessian":[8.341309E3,3.6181204E3,4.7231885E3,1.9076047E3,1.7105156E3,1.1773887E3,3.5457998E3,1.5089001E3,3.987046E2,7.4852814E2,9.619875E2,2.5579836E2,9.215903E2,2.6066055E3,9.3919434E2],"tree_param":{"num_deleted":"0","num_feature":"15","num_nodes":"15","size_leaf_vector":"1"}},{"base_weights":[6.9259177E-3,6.1576344E-2,-7.413786E-2,-2.1710203E-3,1.3576433E-1,-1.050785E-1,5.6036383E-2,3.901716E-4,-1.527773E-3,2.5964063E-3,1.0301861E-3,-1.2925714E-3,-3.1189145E-5,8.2235516E-4,-1.988627E-3],"categories":[],"categories_nodes":[],"categories_segments":[],"categories_sizes":[],"default_left":[0,0,0,0,0,0,0,0,0,0,0,0,0,0,0],"id":52,"left_children":[1,3,5,7,9,11,13,-1,-1,-1,-1,-1,-1,-1,-1],"loss_changes":[3.6960537E1,2.3567558E1,1.3537376E1,1.6638037E1,9.31538E0,6.692219E0,4.3293476E0,0E0,0E0,0E0,0E0,0E0,0E0,0E0,0E0],"parents":[2147483647,0,0,1,1,2,2,3,3,4,4,5,5,6,6],"right_children":[2,4,6,8,10,12,14,-1,-1,-1,-1,-1,-1,-1,-1],"split_conditions":[2.4304297E-2,1.48283485E-2,7.448403E-2,6.5432537E-1,-1.7682602E-1,2.060659E0,3.9821917E-1,3.901716E-4,-1.527773E-3,2.5964063E-3,1.0301861E-3,-1.2925714E-3,-3.1189145E-5,8.2235516E-4,-1.988627E-3],"split_indices":[0,3,1,2,12,4,8,0,0,0,0,0,0,0,0],"split_type":[0,0,0,0,0,0,0,0,0,0,0,0,0,0,0],"sum_hessian":[8.340886E3,4.982258E3,3.3586277E3,2.6802097E3,2.302048E3,2.7137896E3,6.448381E2,2.1052122E3,5.749977E2,4.7985165E2,1.8221965E3,2.193384E3,5.204056E2,5.853516E2,5.9486458E1],"tree_param":{"num_deleted":"0","num_feature":"15","num_nodes":"15","size_leaf_vector":"1"}},{"base_weights":[-6.9259135E-3,-6.1576337E-2,7.413786E-2,2.1710256E-3,-1.357643E-1,1.0507851E-1,-5.603641E-2,-3.9017154E-4,1.5277732E-3,-2.5964058E-3,-1.0301858E-3,1.2925715E-3,3.1188963E-5,-8.2235545E-4,1.9886268E-3],"categories":[],"categories_nodes":[],"categories_segments":[],"categories_sizes":[],"default_left":[0,0,0,0,0,0,0,0,0,0,0,0,0,0,0],"id":53,"left_children":[1,3,5,7,9,11,13,-1,-1,-1,-1,-1,-1,-1,-1],"loss_changes":[3.696053E1,2.3567556E1,1.3537382E1,1.663804E1,9.315372E0,6.6922207E0,4.3293476E0,0E0,0E0,0E0,0E0,0E0,0E0,0E0,0E0],"parents":[2147483647,0,0,1,1,2,2,3,3,4,4,5,5,6,6],"right_children":[2,4,6,8,10,12,14,-1,-1,-1,-1,-1,-1,-1,-1],"split_conditions":[2.4304297E-2,1.48283485E-2,7.448403E-2,6.5432537E-1,-1.7682602E-1,2.060659E0,3.9821917E-1,-3.9017154E-4,1.5277732E-3,-2.5964058E-3,-1.0301858E-3,1.2925715E-3,3.1188963E-5,-8.2235545E-4,1.9886268E-3],"split_indices":[0,3,1,2,12,4,8,0,0,0,0,0,0,0,0],"split_type":[0,0,0,0,0,0,0,0,0,0,0,0,0,0,0],"sum_hessian":[8.340886E3,4.982258E3,3.3586277E3,2.6802097E3,2.302048E3,2.7137896E3,6.448381E2,2.1052122E3,5.749977E2,4.7985165E2,1.8221965E3,2.193384E3,5.204056E2,5.853516E2,5.9486458E1],"tree_param":{"num_deleted":"0","num_feature":"15","num_nodes":"15","size_leaf_vector":"1"}},{"base_weights":[6.8570105E-3,6.3369185E-2,-7.050059E-2,9.814523E-2,-8.6836465E-2,-1.2367575E-1,4.85409E-3,5.2588887E-4,1.7537012E-3,-2.5522497E-3,-1.6445696E-4,-3.2108417E-3,-1.0768236E-3,4.96468E-4,-1.1819259E-3],"categories":[],"categories_nodes":[],"categories_segments":[],"categories_sizes":[],"default_left":[0,0,0,0,0,0,0,0,0,0,0,0,0,0,0],"id":54,"left_children":[1,3,5,7,9,11,13,-1,-1,-1,-1,-1,-1,-1,-1],"loss_changes":[3.6470406E1,2.518974E1,1.4112297E1,1.3763699E1,1.07442045E1,6.484417E0,8.041665E0,0E0,0E0,0E0,0E0,0E0,0E0,0E0,0E0],"parents":[2147483647,0,0,1,1,2,2,3,3,4,4,5,5,6,6],"right_children":[2,4,6,8,10,12,14,-1,-1,-1,-1,-1,-1,-1,-1],"split_conditions":[2.215959E-2,2.0589774E0,1.6828017E-2,3.8377233E-2,2.7905629E0,-2.1121003E-1,9.9294454E-2,5.2588887E-4,1.7537012E-3,-2.5522497E-3,-1.6445696E-4,-3.2108417E-3,-1.0768236E-3,4.96468E-4,-1.1819259E-3],"split_indices":[12,2,3,1,2,3,0,0,0,0,0,0,0,0,0],"split_type":[0,0,0,0,0,0,0,0,0,0,0,0,0,0,0],"sum_hessian":[8.340466E3,4.8197017E3,3.5207637E3,3.9138928E3,9.058091E2,2.0637832E3,1.4569805E3,2.4627522E3,1.4511404E3,2.662533E2,6.395558E2,1.5324046E2,1.9105427E3,1.0685812E3,3.8839932E2],"tree_param":{"num_deleted":"0","num_feature":"15","num_nodes":"15","size_leaf_vector":"1"}},{"base_weights":[-6.8570105E-3,-6.3369185E-2,7.050059E-2,-9.8145224E-2,8.6836465E-2,1.23675756E-1,-4.854109E-3,-5.2588875E-4,-1.7537012E-3,2.5522495E-3,1.6445699E-4,3.2108417E-3,1.0768236E-3,-4.964682E-4,1.1819258E-3],"categories":[],"categories_nodes":[],"categories_segments":[],"categories_sizes":[],"default_left":[0,0,0,0,0,0,0,0,0,0,0,0,0,0,0],"id":55,"left_children":[1,3,5,7,9,11,13,-1,-1,-1,-1,-1,-1,-1,-1],"loss_changes":[3.64704E1,2.5189737E1,1.4112301E1,1.3763706E1,1.0744204E1,6.484421E0,8.041666E0,0E0,0E0,0E0,0E0,0E0,0E0,0E0,0E0],"parents":[2147483647,0,0,1,1,2,2,3,3,4,4,5,5,6,6],"right_children":[2,4,6,8,10,12,14,-1,-1,-1,-1,-1,-1,-1,-1],"split_conditions":[2.215959E-2,2.0589774E0,1.6828017E-2,3.8377233E-2,2.7905629E0,-2.1121003E-1,9.9294454E-2,-5.2588875E-4,-1.7537012E-3,2.5522495E-3,1.6445699E-4,3.2108417E-3,1.0768236E-3,-4.964682E-4,1.1819258E-3],"split_indices":[12,2,3,1,2,3,0,0,0,0,0,0,0,0,0],"split_type":[0,0,0,0,0,0,0,0,0,0,0,0,0,0,0],"sum_hessian":[8.340466E3,4.8197017E3,3.5207637E3,3.9138928E3,9.058091E2,2.0637832E3,1.4569805E3,2.4627522E3,1.4511404E3,2.662533E2,6.395558E2,1.5324046E2,1.9105427E3,1.0685812E3,3.8839932E2],"tree_param":{"num_deleted":"0","num_feature":"15","num_nodes":"15","size_leaf_vector":"1"}},{"base_weights":[6.7881276E-3,1.15941174E-1,-3.2716464E-2,-3.0449897E-2,1.5709813E-1,-7.664449E-2,4.5839E-2,-8.2390464E-4,1.4155147E-3,1.1923036E-3,2.5629736E-3,-2.8117995E-3,-6.188773E-4,7.247127E-4,-8.5289223E-4],"categories":[],"categories_nodes":[],"categories_segments":[],"categories_sizes":[],"default_left":[0,0,0,0,0,0,0,0,0,0,0,0,0,0,0],"id":56,"left_children":[1,3,5,7,9,11,13,-1,-1,-1,-1,-1,-1,-1,-1],"loss_changes":[3.5970814E1,1.3360971E1,2.11405E1,4.365188E0,6.469921E0,1.184096E1,7.6800976E0,0E0,0E0,0E0,0E0,0E0,0E0,0E0,0E0],"parents":[2147483647,0,0,1,1,2,2,3,3,4,4,5,5,6,6],"right_children":[2,4,6,8,10,12,14,-1,-1,-1,-1,-1,-1,-1,-1],"split_conditions":[-6.459809E-2,-7.7265345E-2,3.07596E-2,2.1843057E0,6.728893E-1,-2.0778131E-1,9.9294454E-2,-8.2390464E-4,1.4155147E-3,1.1923036E-3,2.5629736E-3,-2.8117995E-3,-6.188773E-4,7.247127E-4,-8.5289223E-4],"split_indices":[5,3,1,4,4,1,0,0,0,0,0,0,0,0,0],"split_type":[0,0,0,0,0,0,0,0,0,0,0,0,0,0,0],"sum_hessian":[8.340057E3,2.2157898E3,6.1242666E3,4.8630682E2,1.729483E3,3.927848E3,2.1964185E3,3.7391412E2,1.1239271E2,1.2532689E3,4.7621405E2,2.6310037E2,3.6647476E3,1.8260029E3,3.704156E2],"tree_param":{"num_deleted":"0","num_feature":"15","num_nodes":"15","size_leaf_vector":"1"}},{"base_weights":[-6.788127E-3,-1.1594116E-1,3.271646E-2,3.0449899E-2,-1.5709811E-1,7.664449E-2,-4.5839015E-2,8.2390464E-4,-1.4155147E-3,-1.1923034E-3,-2.5629736E-3,2.8117993E-3,6.1887736E-4,-7.247128E-4,8.5289223E-4],"categories":[],"categories_nodes":[],"categories_segments":[],"categories_sizes":[],"default_left":[0,0,0,0,0,0,0,0,0,0,0,0,0,0,0],"id":57,"left_children":[1,3,5,7,9,11,13,-1,-1,-1,-1,-1,-1,-1,-1],"loss_changes":[3.597081E1,1.3360964E1,2.1140507E1,4.365188E0,6.469925E0,1.1840956E1,7.6801E0,0E0,0E0,0E0,0E0,0E0,0E0,0E0,0E0],"parents":[2147483647,0,0,1,1,2,2,3,3,4,4,5,5,6,6],"right_children":[2,4,6,8,10,12,14,-1,-1,-1,-1,-1,-1,-1,-1],"split_conditions":[-6.459809E-2,-7.7265345E-2,3.07596E-2,2.1843057E0,6.728893E-1,-2.0778131E-1,9.9294454E-2,8.2390464E-4,-1.4155147E-3,-1.1923034E-3,-2.5629736E-3,2.8117993E-3,6.1887736E-4,-7.247128E-4,8.5289223E-4],"split_indices":[5,3,1,4,4,1,0,0,0,0,0,0,0,0,0],"split_type":[0,0,0,0,0,0,0,0,0,0,0,0,0,0,0],"sum_hessian":[8.340057E3,2.2157898E3,6.1242666E3,4.8630682E2,1.729483E3,3.927848E3,2.1964185E3,3.7391412E2,1.1239271E2,1.253269E3,4.7621405E2,2.6310037E2,3.6647476E3,1.8260029E3,3.7041556E2],"tree_param":{"num_deleted":"0","num_feature":"15","num_nodes":"15","size_leaf_vector":"1"}},{"base_weights":[6.72071E-3,6.237512E-2,-6.9460854E-2,9.6733056E-2,-8.601729E-2,-1.7893891E-1,-3.3921666E-2,5.2037224E-4,1.7251337E-3,-1.2807613E-3,1.9105375E-3,-1.8631677E-3,5.0408295E-3,-3.6475056E-5,-1.1750876E-3],"categories":[],"categories_nodes":[],"categories_segments":[],"categories_sizes":[],"default_left":[0,0,0,0,0,0,0,0,0,0,0,0,0,0,0],"id":58,"left_children":[1,3,5,7,9,11,13,-1,-1,-1,-1,-1,-1,-1,-1],"loss_changes":[3.5367214E1,2.4583706E1,1.3695068E1,1.3249416E1,1.05910015E1,4.441599E0,6.729998E0,0E0,0E0,0E0,0E0,0E0,0E0,0E0,0E0],"parents":[2147483647,0,0,1,1,2,2,3,3,4,4,5,5,6,6],"right_children":[2,4,6,8,10,12,14,-1,-1,-1,-1,-1,-1,-1,-1],"split_conditions":[2.215959E-2,2.0589774E0,-7.656549E-2,3.8377233E-2,9.382276E-2,5.0353515E-1,9.9294454E-2,5.2037224E-4,1.7251337E-3,-1.2807613E-3,1.9105375E-3,-1.8631677E-3,5.0408295E-3,-3.6475056E-5,-1.1750876E-3],"split_indices":[12,2,1,1,3,13,0,0,0,0,0,0,0,0,0],"split_type":[0,0,0,0,0,0,0,0,0,0,0,0,0,0,0],"sum_hessian":[8.339617E3,4.8191616E3,3.5204556E3,3.9134192E3,9.0574255E2,8.617646E2,2.658691E3,2.4626284E3,1.4507908E3,7.868396E2,1.1890297E2,8.532749E2,8.489677E0,1.9525474E3,7.061436E2],"tree_param":{"num_deleted":"0","num_feature":"15","num_nodes":"15","size_leaf_vector":"1"}},{"base_weights":[-6.720702E-3,-6.237511E-2,6.9460854E-2,-9.673304E-2,8.60173E-2,1.7893893E-1,3.3921663E-2,-5.203722E-4,-1.7251335E-3,1.2807614E-3,-1.9105375E-3,1.8631679E-3,-5.0408305E-3,3.6475034E-5,1.1750876E-3],"categories":[],"categories_nodes":[],"categories_segments":[],"categories_sizes":[],"default_left":[0,0,0,0,0,0,0,0,0,0,0,0,0,0,0],"id":59,"left_children":[1,3,5,7,9,11,13,-1,-1,-1,-1,-1,-1,-1,-1],"loss_changes":[3.5367207E1,2.4583702E1,1.3695076E1,1.3249413E1,1.0591003E1,4.441595E0,6.7299976E0,0E0,0E0,0E0,0E0,0E0,0E0,0E0,0E0],"parents":[2147483647,0,0,1,1,2,2,3,3,4,4,5,5,6,6],"right_children":[2,4,6,8,10,12,14,-1,-1,-1,-1,-1,-1,-1,-1],"split_conditions":[2.215959E-2,2.0589774E0,-7.656549E-2,3.8377233E-2,9.382276E-2,5.0353515E-1,9.9294454E-2,-5.203722E-4,-1.7251335E-3,1.2807614E-3,-1.9105375E-3,1.8631679E-3,-5.0408305E-3,3.6475034E-5,1.1750876E-3],"split_indices":[12,2,1,1,3,13,0,0,0,0,0,0,0,0,0],"split_type":[0,0,0,0,0,0,0,0,0,0,0,0,0,0,0],"sum_hessian":[8.339617E3,4.8191616E3,3.5204556E3,3.9134192E3,9.0574255E2,8.617645E2,2.658691E3,2.4626284E3,1.4507908E3,7.868396E2,1.1890297E2,8.532749E2,8.489677E0,1.9525474E3,7.061436E2],"tree_param":{"num_deleted":"0","num_feature":"15","num_nodes":"15","size_leaf_vector":"1"}},{"base_weights":[6.6544274E-3,1.1418472E-1,-3.22587E-2,-3.024049E-2,1.5479599E-1,-7.543645E-2,4.4954557E-2,-8.156285E-4,1.3973018E-3,1.1741817E-3,2.5273613E-3,-1.0121212E-3,3.8918492E-4,7.104577E-4,-8.350748E-4],"categories":[],"categories_nodes":[],"categories_segments":[],"categories_sizes":[],"default_left":[0,0,0,0,0,0,0,0,0,0,0,0,0,0,0],"id":60,"left_children":[1,3,5,7,9,11,13,-1,-1,-1,-1,-1,-1,-1,-1],"loss_changes":[3.4901882E1,1.30044365E1,2.0422848E1,4.262107E0,6.3038673E0,1.1583612E1,7.370567E0,0E0,0E0,0E0,0E0,0E0,0E0,0E0,0E0],"parents":[2147483647,0,0,1,1,2,2,3,3,4,4,5,5,6,6],"right_children":[2,4,6,8,10,12,14,-1,-1,-1,-1,-1,-1,-1,-1],"split_conditions":[-6.459809E-2,-7.7265345E-2,3.07596E-2,2.1843057E0,6.728893E-1,2.060659E0,9.9294454E-2,-8.156285E-4,1.3973018E-3,1.1741817E-3,2.5273613E-3,-1.0121212E-3,3.8918492E-4,7.104577E-4,-8.350748E-4],"split_indices":[5,3,1,4,4,4,0,0,0,0,0,0,0,0,0],"split_type":[0,0,0,0,0,0,0,0,0,0,0,0,0,0,0],"sum_hessian":[8.339191E3,2.2153865E3,6.1238057E3,4.8628256E2,1.7291038E3,3.9275422E3,2.1962634E3,3.7390323E2,1.12379326E2,1.2530785E3,4.7602524E2,3.2052024E3,7.223397E2,1.8258683E3,3.7039502E2],"tree_param":{"num_deleted":"0","num_feature":"15","num_nodes":"15","size_leaf_vector":"1"}},{"base_weights":[-6.6544297E-3,-1.1418473E-1,3.22587E-2,3.0240461E-2,-1.5479599E-1,7.543646E-2,-4.4954572E-2,8.1562815E-4,-1.3973017E-3,-1.1741818E-3,-2.5273608E-3,1.0121212E-3,-3.8918457E-4,-7.1045785E-4,8.3507464E-4],"categories":[],"categories_nodes":[],"categories_segments":[],"categories_sizes":[],"default_left":[0,0,0,0,0,0,0,0,0,0,0,0,0,0,0],"id":61,"left_children":[1,3,5,7,9,11,13,-1,-1,-1,-1,-1,-1,-1,-1],"loss_changes":[3.4901886E1,1.3004433E1,2.0422855E1,4.262105E0,6.3038597E0,1.1583609E1,7.3705664E0,0E0,0E0,0E0,0E0,0E0,0E0,0E0,0E0],"parents":[2147483647,0,0,1,1,2,2,3,3,4,4,5,5,6,6],"right_children":[2,4,6,8,10,12,14,-1,-1,-1,-1,-1,-1,-1,-1],"split_conditions":[-6.459809E-2,-7.7265345E-2,3.07596E-2,2.1843057E0,6.728893E-1,2.060659E0,9.9294454E-2,8.1562815E-4,-1.3973017E-3,-1.1741818E-3,-2.5273608E-3,1.0121212E-3,-3.8918457E-4,-7.1045785E-4,8.3507464E-4],"split_indices":[5,3,1,4,4,4,0,0,0,0,0,0,0,0,0],"split_type":[0,0,0,0,0,0,0,0,0,0,0,0,0,0,0],"sum_hessian":[8.339191E3,2.2153865E3,6.1238057E3,4.8628256E2,1.7291038E3,3.9275422E3,2.1962634E3,3.7390323E2,1.12379326E2,1.2530785E3,4.7602527E2,3.2052024E3,7.223397E2,1.8258683E3,3.7039502E2],"tree_param":{"num_deleted":"0","num_feature":"15","num_nodes":"15","size_leaf_vector":"1"}},{"base_weights":[6.5887067E-3,5.9359614E-2,-7.168071E-2,9.3078874E-2,-7.259012E-2,-1.0172165E-1,5.4693222E-2,3.6521576E-4,1.568554E-3,-1.0774278E-3,1.6048244E-3,-1.2531324E-3,-2.2600616E-5,8.056813E-4,-1.9702401E-3],"categories":[],"categories_nodes":[],"categories_segments":[],"categories_sizes":[],"default_left":[0,0,0,0,0,0,0,0,0,0,0,0,0,0,0],"id":62,"left_children":[1,3,5,7,9,11,13,-1,-1,-1,-1,-1,-1,-1,-1],"loss_changes":[3.4450188E1,2.2172009E1,1.2757336E1,1.4307938E1,8.32943E0,6.3683643E0,4.221825E0,0E0,0E0,0E0,0E0,0E0,0E0,0E0,0E0],"parents":[2147483647,0,0,1,1,2,2,3,3,4,4,5,5,6,6],"right_children":[2,4,6,8,10,12,14,-1,-1,-1,-1,-1,-1,-1,-1],"split_conditions":[2.4304297E-2,2.0589774E0,7.448403E-2,1.3961401E-2,9.502722E-2,2.060659E0,3.9821917E-1,3.6521576E-4,1.568554E-3,-1.0774278E-3,1.6048244E-3,-1.2531324E-3,-2.2600616E-5,8.056813E-4,-1.9702401E-3],"split_indices":[0,2,1,3,3,4,8,0,0,0,0,0,0,0,0],"split_type":[0,0,0,0,0,0,0,0,0,0,0,0,0,0,0],"sum_hessian":[8.338717E3,4.980798E3,3.3579185E3,3.9672712E3,1.0135267E3,2.7131562E3,6.44762E2,2.103474E3,1.8637972E3,8.811647E2,1.3236198E2,2.1927837E3,5.203726E2,5.8527905E2,5.948297E1],"tree_param":{"num_deleted":"0","num_feature":"15","num_nodes":"15","size_leaf_vector":"1"}},{"base_weights":[-6.5887007E-3,-5.935961E-2,7.168072E-2,-9.307887E-2,7.259012E-2,1.0172166E-1,-5.4693207E-2,-3.6521562E-4,-1.568554E-3,1.0774276E-3,-1.6048244E-3,1.2531324E-3,2.2600705E-5,-8.056811E-4,1.9702401E-3],"categories":[],"categories_nodes":[],"categories_segments":[],"categories_sizes":[],"default_left":[0,0,0,0,0,0,0,0,0,0,0,0,0,0,0],"id":63,"left_children":[1,3,5,7,9,11,13,-1,-1,-1,-1,-1,-1,-1,-1],"loss_changes":[3.445019E1,2.2172009E1,1.2757332E1,1.4307938E1,8.32943E0,6.3683624E0,4.221824E0,0E0,0E0,0E0,0E0,0E0,0E0,0E0,0E0],"parents":[2147483647,0,0,1,1,2,2,3,3,4,4,5,5,6,6],"right_children":[2,4,6,8,10,12,14,-1,-1,-1,-1,-1,-1,-1,-1],"split_conditions":[2.4304297E-2,2.0589774E0,7.448403E-2,1.3961401E-2,9.502722E-2,2.060659E0,3.9821917E-1,-3.6521562E-4,-1.568554E-3,1.0774276E-3,-1.6048244E-3,1.2531324E-3,2.2600705E-5,-8.056811E-4,1.9702401E-3],"split_indices":[0,2,1,3,3,4,8,0,0,0,0,0,0,0,0],"split_type":[0,0,0,0,0,0,0,0,0,0,0,0,0,0,0],"sum_hessian":[8.338717E3,4.980798E3,3.3579185E3,3.9672712E3,1.0135267E3,2.7131562E3,6.44762E2,2.103474E3,1.8637972E3,8.811647E2,1.3236198E2,2.1927837E3,5.203726E2,5.8527905E2,5.948297E1],"tree_param":{"num_deleted":"0","num_feature":"15","num_nodes":"15","size_leaf_vector":"1"}},{"base_weights":[6.5231924E-3,6.0995825E-2,-6.803685E-2,9.464575E-2,-8.433311E-2,-1.7557368E-1,-3.313453E-2,5.1127636E-4,1.6845089E-3,-2.5081167E-3,-1.4753806E-4,-1.8288734E-3,5.0101154E-3,-3.4942885E-5,-1.1497595E-3],"categories":[],"categories_nodes":[],"categories_segments":[],"categories_sizes":[],"default_left":[0,0,0,0,0,0,0,0,0,0,0,0,0,0,0],"id":64,"left_children":[1,3,5,7,9,11,13,-1,-1,-1,-1,-1,-1,-1,-1],"loss_changes":[3.387386E1,2.357568E1,1.32094345E1,1.2561531E1,1.0497892E1,4.3596783E0,6.4509106E0,0E0,0E0,0E0,0E0,0E0,0E0,0E0,0E0],"parents":[2147483647,0,0,1,1,2,2,3,3,4,4,5,5,6,6],"right_children":[2,4,6,8,10,12,14,-1,-1,-1,-1,-1,-1,-1,-1],"split_conditions":[2.215959E-2,2.0589774E0,-7.656549E-2,3.8377233E-2,2.7905629E0,5.0353515E-1,9.9294454E-2,5.1127636E-4,1.6845089E-3,-2.5081167E-3,-1.4753806E-4,-1.8288734E-3,5.0101154E-3,-3.4942885E-5,-1.1497595E-3],"split_indices":[12,2,1,1,2,13,0,0,0,0,0,0,0,0,0],"split_type":[0,0,0,0,0,0,0,0,0,0,0,0,0,0,0],"sum_hessian":[8.33825E3,4.8182666E3,3.5199834E3,3.9126643E3,9.056021E2,8.6152515E2,2.6584583E3,2.4624243E3,1.4502399E3,2.6616324E2,6.394389E2,8.530338E2,8.491325E0,1.9524048E3,7.060534E2],"tree_param":{"num_deleted":"0","num_feature":"15","num_nodes":"15","size_leaf_vector":"1"}},{"base_weights":[-6.523191E-3,-6.0995825E-2,6.8036854E-2,-9.464575E-2,8.433311E-2,1.7557368E-1,3.313453E-2,-5.112765E-4,-1.6845086E-3,2.5081167E-3,1.4753809E-4,1.8288734E-3,-5.0101154E-3,3.4942903E-5,1.1497595E-3],"categories":[],"categories_nodes":[],"categories_segments":[],"categories_sizes":[],"default_left":[0,0,0,0,0,0,0,0,0,0,0,0,0,0,0],"id":65,"left_children":[1,3,5,7,9,11,13,-1,-1,-1,-1,-1,-1,-1,-1],"loss_changes":[3.3873863E1,2.3575678E1,1.32094345E1,1.2561527E1,1.0497892E1,4.3596783E0,6.45091E0,0E0,0E0,0E0,0E0,0E0,0E0,0E0,0E0],"parents":[2147483647,0,0,1,1,2,2,3,3,4,4,5,5,6,6],"right_children":[2,4,6,8,10,12,14,-1,-1,-1,-1,-1,-1,-1,-1],"split_conditions":[2.215959E-2,2.0589774E0,-7.656549E-2,3.8377233E-2,2.7905629E0,5.0353515E-1,9.9294454E-2,-5.112765E-4,-1.6845086E-3,2.5081167E-3,1.4753809E-4,1.8288734E-3,-5.0101154E-3,3.4942903E-5,1.1497595E-3],"split_indices":[12,2,1,1,2,13,0,0,0,0,0,0,0,0,0],"split_type":[0,0,0,0,0,0,0,0,0,0,0,0,0,0,0],"sum_hessian":[8.33825E3,4.8182666E3,3.5199834E3,3.9126643E3,9.056021E2,8.6152515E2,2.6584583E3,2.4624243E3,1.4502399E3,2.6616324E2,6.394389E2,8.530338E2,8.491325E0,1.9524048E3,7.060534E2],"tree_param":{"num_deleted":"0","num_feature":"15","num_nodes":"15","size_leaf_vector":"1"}},{"base_weights":[6.4584753E-3,1.11797184E-1,-3.165603E-2,-3.0213779E-2,1.5174018E-1,-7.3778234E-2,4.3668725E-2,-8.087161E-4,1.3757643E-3,2.3122744E-3,1.0688268E-3,-2.7471944E-3,-5.928716E-4,6.9110055E-4,-8.1587385E-4],"categories":[],"categories_nodes":[],"categories_segments":[],"categories_sizes":[],"default_left":[0,0,0,0,0,0,0,0,0,0,0,0,0,0,0],"id":66,"left_children":[1,3,5,7,9,11,13,-1,-1,-1,-1,-1,-1,-1,-1],"loss_changes":[3.34833E1,1.2573273E1,1.9433807E1,4.1526833E0,6.1421165E0,1.1421541E1,7.0067883E0,0E0,0E0,0E0,0E0,0E0,0E0,0E0,0E0],"parents":[2147483647,0,0,1,1,2,2,3,3,4,4,5,5,6,6],"right_children":[2,4,6,8,10,12,14,-1,-1,-1,-1,-1,-1,-1,-1],"split_conditions":[-6.459809E-2,-7.7265345E-2,3.07596E-2,2.1843057E0,-1.7682602E-1,-2.0778131E-1,9.9294454E-2,-8.087161E-4,1.3757643E-3,2.3122744E-3,1.0688268E-3,-2.7471944E-3,-5.928716E-4,6.9110055E-4,-8.1587385E-4],"split_indices":[5,3,1,4,12,1,0,0,0,0,0,0,0,0,0],"split_type":[0,0,0,0,0,0,0,0,0,0,0,0,0,0,0],"sum_hessian":[8.33781E3,2.2147834E3,6.1230264E3,4.8624838E2,1.728535E3,3.9270237E3,2.1960024E3,3.7388586E2,1.1236251E2,6.2207196E2,1.1064631E3,2.629436E2,3.66408E3,1.8256373E3,3.7036517E2],"tree_param":{"num_deleted":"0","num_feature":"15","num_nodes":"15","size_leaf_vector":"1"}},{"base_weights":[-6.4584804E-3,-1.1179719E-1,3.1656027E-2,3.0213794E-2,-1.517402E-1,7.377823E-2,-4.366872E-2,8.087162E-4,-1.3757641E-3,-2.3122746E-3,-1.0688269E-3,2.7471944E-3,5.9287157E-4,-6.9110055E-4,8.15874E-4],"categories":[],"categories_nodes":[],"categories_segments":[],"categories_sizes":[],"default_left":[0,0,0,0,0,0,0,0,0,0,0,0,0,0,0],"id":67,"left_children":[1,3,5,7,9,11,13,-1,-1,-1,-1,-1,-1,-1,-1],"loss_changes":[3.34833E1,1.25732765E1,1.9433804E1,4.152683E0,6.1421204E0,1.1421541E1,7.0067887E0,0E0,0E0,0E0,0E0,0E0,0E0,0E0,0E0],"parents":[2147483647,0,0,1,1,2,2,3,3,4,4,5,5,6,6],"right_children":[2,4,6,8,10,12,14,-1,-1,-1,-1,-1,-1,-1,-1],"split_conditions":[-6.459809E-2,-7.7265345E-2,3.07596E-2,2.1843057E0,-1.7682602E-1,-2.0778131E-1,9.9294454E-2,8.087162E-4,-1.3757641E-3,-2.3122746E-3,-1.0688269E-3,2.7471944E-3,5.9287157E-4,-6.9110055E-4,8.15874E-4],"split_indices":[5,3,1,4,12,1,0,0,0,0,0,0,0,0,0],"split_type":[0,0,0,0,0,0,0,0,0,0,0,0,0,0,0],"sum_hessian":[8.33781E3,2.2147834E3,6.1230264E3,4.8624838E2,1.728535E3,3.9270237E3,2.1960024E3,3.7388586E2,1.1236251E2,6.2207196E2,1.1064631E3,2.629436E2,3.66408E3,1.8256373E3,3.7036517E2],"tree_param":{"num_deleted":"0","num_feature":"15","num_nodes":"15","size_leaf_vector":"1"}},{"base_weights":[6.394335E-3,6.785163E-2,-5.792046E-2,1.01955235E-1,-6.894419E-2,-1.3253471E-1,-1.4824902E-2,2.02826E-3,6.2661775E-4,-1.0992995E-3,1.9894761E-3,-1.6064466E-3,-1.1311506E-4,-2.8864466E-4,1.412924E-3],"categories":[],"categories_nodes":[],"categories_segments":[],"categories_sizes":[],"default_left":[0,0,0,0,0,0,0,0,0,0,0,0,0,0,0],"id":68,"left_children":[1,3,5,7,9,11,13,-1,-1,-1,-1,-1,-1,-1,-1],"loss_changes":[3.2962116E1,1.9901192E1,1.3101315E1,1.3518032E1,9.371813E0,5.0815887E0,5.668151E0,0E0,0E0,0E0,0E0,0E0,0E0,0E0,0E0],"parents":[2147483647,0,0,1,1,2,2,3,3,4,4,5,5,6,6],"right_children":[2,4,6,8,10,12,14,-1,-1,-1,-1,-1,-1,-1,-1],"split_conditions":[3.7899069E-3,2.0589774E0,-4.0534284E-2,-1.6305535E-1,9.502722E-2,2.060659E0,1.3669114E-1,2.02826E-3,6.2661775E-4,-1.0992995E-3,1.9894761E-3,-1.6064466E-3,-1.1311506E-4,-2.8864466E-4,1.412924E-3],"split_indices":[0,2,3,12,3,4,1,0,0,0,0,0,0,0,0],"split_type":[0,0,0,0,0,0,0,0,0,0,0,0,0,0,0],"sum_hessian":[8.337328E3,4.2633467E3,4.0739817E3,3.4127842E3,8.5056244E2,1.4907938E3,2.583188E3,9.555689E2,2.4572153E3,7.382105E2,1.1235191E2,1.2099081E3,2.8088574E2,2.370798E3,2.1238979E2],"tree_param":{"num_deleted":"0","num_feature":"15","num_nodes":"15","size_leaf_vector":"1"}},{"base_weights":[-6.3943355E-3,-6.785163E-2,5.7920456E-2,-1.01955235E-1,6.894419E-2,1.3253473E-1,1.4824897E-2,-2.02826E-3,-6.2661775E-4,1.0992996E-3,-1.9894764E-3,1.6064468E-3,1.1311502E-4,2.886446E-4,-1.412924E-3],"categories":[],"categories_nodes":[],"categories_segments":[],"categories_sizes":[],"default_left":[0,0,0,0,0,0,0,0,0,0,0,0,0,0,0],"id":69,"left_children":[1,3,5,7,9,11,13,-1,-1,-1,-1,-1,-1,-1,-1],"loss_changes":[3.2962116E1,1.9901192E1,1.3101319E1,1.3518032E1,9.371815E0,5.081587E0,5.668151E0,0E0,0E0,0E0,0E0,0E0,0E0,0E0,0E0],"parents":[2147483647,0,0,1,1,2,2,3,3,4,4,5,5,6,6],"right_children":[2,4,6,8,10,12,14,-1,-1,-1,-1,-1,-1,-1,-1],"split_conditions":[3.7899069E-3,2.0589774E0,-4.0534284E-2,-1.6305535E-1,9.502722E-2,2.060659E0,1.3669114E-1,-2.02826E-3,-6.2661775E-4,1.0992996E-3,-1.9894764E-3,1.6064468E-3,1.1311502E-4,2.886446E-4,-1.412924E-3],"split_indices":[0,2,3,12,3,4,1,0,0,0,0,0,0,0,0],"split_type":[0,0,0,0,0,0,0,0,0,0,0,0,0,0,0],"sum_hessian":[8.337328E3,4.2633467E3,4.0739817E3,3.4127842E3,8.5056244E2,1.4907938E3,2.583188E3,9.5556885E2,2.4572153E3,7.382105E2,1.1235192E2,1.2099081E3,2.8088574E2,2.370798E3,2.1238979E2],"tree_param":{"num_deleted":"0","num_feature":"15","num_nodes":"15","size_leaf_vector":"1"}},{"base_weights":[6.331117E-3,5.9613686E-2,-6.6595994E-2,9.26194E-2,-8.292451E-2,-1.1706192E-1,4.896679E-3,4.999174E-4,1.6493362E-3,-2.4762691E-3,-1.4098315E-4,-3.0760583E-3,-1.0164015E-3,4.743487E-4,-1.1196729E-3],"categories":[],"categories_nodes":[],"categories_segments":[],"categories_sizes":[],"default_left":[0,0,0,0,0,0,0,0,0,0,0,0,0,0,0],"id":70,"left_children":[1,3,5,7,9,11,13,-1,-1,-1,-1,-1,-1,-1,-1],"loss_changes":[3.240272E1,2.267595E1,1.27023535E1,1.2053528E1,1.0272125E1,6.0331917E0,7.251947E0,0E0,0E0,0E0,0E0,0E0,0E0,0E0,0E0],"parents":[2147483647,0,0,1,1,2,2,3,3,4,4,5,5,6,6],"right_children":[2,4,6,8,10,12,14,-1,-1,-1,-1,-1,-1,-1,-1],"split_conditions":[2.215959E-2,2.0589774E0,1.6828017E-2,3.8377233E-2,2.7905629E0,-2.1121003E-1,9.9294454E-2,4.999174E-4,1.6493362E-3,-2.4762691E-3,-1.4098315E-4,-3.0760583E-3,-1.0164015E-3,4.743487E-4,-1.1196729E-3],"split_indices":[12,2,3,1,2,3,0,0,0,0,0,0,0,0,0],"split_type":[0,0,0,0,0,0,0,0,0,0,0,0,0,0,0],"sum_hessian":[8.336851E3,4.817346E3,3.5195042E3,3.9118745E3,9.0547156E2,2.0627754E3,1.4567289E3,2.4621702E3,1.4497043E3,2.660974E2,6.3937415E2,1.530326E2,1.9097428E3,1.0684207E3,3.8830832E2],"tree_param":{"num_deleted":"0","num_feature":"15","num_nodes":"15","size_leaf_vector":"1"}},{"base_weights":[-6.331115E-3,-5.9613686E-2,6.6595994E-2,-9.26194E-2,8.2924515E-2,1.1706192E-1,-4.896679E-3,-4.999174E-4,-1.6493361E-3,2.4762691E-3,1.4098322E-4,3.0760583E-3,1.0164015E-3,-4.743487E-4,1.1196729E-3],"categories":[],"categories_nodes":[],"categories_segments":[],"categories_sizes":[],"default_left":[0,0,0,0,0,0,0,0,0,0,0,0,0,0,0],"id":71,"left_children":[1,3,5,7,9,11,13,-1,-1,-1,-1,-1,-1,-1,-1],"loss_changes":[3.2402718E1,2.2675951E1,1.2702355E1,1.2053524E1,1.0272124E1,6.03319E0,7.251946E0,0E0,0E0,0E0,0E0,0E0,0E0,0E0,0E0],"parents":[2147483647,0,0,1,1,2,2,3,3,4,4,5,5,6,6],"right_children":[2,4,6,8,10,12,14,-1,-1,-1,-1,-1,-1,-1,-1],"split_conditions":[2.215959E-2,2.0589774E0,1.6828017E-2,3.8377233E-2,2.7905629E0,-2.1121003E-1,9.9294454E-2,-4.999174E-4,-1.6493361E-3,2.4762691E-3,1.4098322E-4,3.0760583E-3,1.0164015E-3,-4.743487E-4,1.1196729E-3],"split_indices":[12,2,3,1,2,3,0,0,0,0,0,0,0,0,0],"split_type":[0,0,0,0,0,0,0,0,0,0,0,0,0,0,0],"sum_hessian":[8.336851E3,4.817346E3,3.5195044E3,3.9118745E3,9.054715E2,2.0627754E3,1.4567289E3,2.4621702E3,1.4497043E3,2.660974E2,6.3937415E2,1.530326E2,1.9097428E3,1.0684207E3,3.8830832E2],"tree_param":{"num_deleted":"0","num_feature":"15","num_nodes":"15","size_leaf_vector":"1"}},{"base_weights":[6.267559E-3,7.7036776E-2,-4.7930133E-2,9.761114E-3,1.5207954E-1,-1.442997E-1,-1.591866E-2,5.1619206E-4,-1.4844665E-3,2.2937022E-3,9.1813644E-4,-2.4049278E-4,-1.7762368E-3,-4.3673257E-4,6.107968E-4],"categories":[],"categories_nodes":[],"categories_segments":[],"categories_sizes":[],"default_left":[0,0,0,0,0,0,0,0,0,0,0,0,0,0,0],"id":72,"left_children":[1,3,5,7,9,11,13,-1,-1,-1,-1,-1,-1,-1,-1],"loss_changes":[3.1981838E1,1.8255404E1,1.4565026E1,1.2642168E1,7.9412346E0,4.713497E0,7.580189E0,0E0,0E0,0E0,0E0,0E0,0E0,0E0,0E0],"parents":[2147483647,0,0,1,1,2,2,3,3,4,4,5,5,6,6],"right_children":[2,4,6,8,10,12,14,-1,-1,-1,-1,-1,-1,-1,-1],"split_conditions":[-1.5908895E-2,1.48283485E-2,-7.4094184E-2,2.0589774E0,-1.0859686E-1,-6.024395E-2,7.2342664E-2,5.1619206E-4,-1.4844665E-3,2.2937022E-3,9.1813644E-4,-2.4049278E-4,-1.7762368E-3,-4.3673257E-4,6.107968E-4],"split_indices":[0,3,1,2,6,9,1,0,0,0,0,0,0,0,0],"split_type":[0,0,0,0,0,0,0,0,0,0,0,0,0,0,0],"sum_hessian":[8.336352E3,3.6152627E3,4.7210894E3,1.9068798E3,1.7083829E3,1.1763163E3,3.544773E3,1.508452E3,3.9842764E2,7.4724255E2,9.6114044E2,2.5562144E2,9.206949E2,2.6058933E3,9.3887976E2],"tree_param":{"num_deleted":"0","num_feature":"15","num_nodes":"15","size_leaf_vector":"1"}},{"base_weights":[-6.2675634E-3,-7.7036776E-2,4.793013E-2,-9.761127E-3,-1.5207954E-1,1.442997E-1,1.5918655E-2,-5.161922E-4,1.4844661E-3,-2.2937022E-3,-9.1813644E-4,2.404928E-4,1.7762367E-3,4.367325E-4,-6.1079685E-4],"categories":[],"categories_nodes":[],"categories_segments":[],"categories_sizes":[],"default_left":[0,0,0,0,0,0,0,0,0,0,0,0,0,0,0],"id":73,"left_children":[1,3,5,7,9,11,13,-1,-1,-1,-1,-1,-1,-1,-1],"loss_changes":[3.1981838E1,1.8255402E1,1.4565025E1,1.2642164E1,7.941231E0,4.713501E0,7.5801897E0,0E0,0E0,0E0,0E0,0E0,0E0,0E0,0E0],"parents":[2147483647,0,0,1,1,2,2,3,3,4,4,5,5,6,6],"right_children":[2,4,6,8,10,12,14,-1,-1,-1,-1,-1,-1,-1,-1],"split_conditions":[-1.5908895E-2,1.48283485E-2,-7.4094184E-2,2.0589774E0,-1.0859686E-1,-6.024395E-2,7.2342664E-2,-5.161922E-4,1.4844661E-3,-2.2937022E-3,-9.1813644E-4,2.404928E-4,1.7762367E-3,4.367325E-4,-6.1079685E-4],"split_indices":[0,3,1,2,6,9,1,0,0,0,0,0,0,0,0],"split_type":[0,0,0,0,0,0,0,0,0,0,0,0,0,0,0],"sum_hessian":[8.336352E3,3.6152627E3,4.7210894E3,1.9068796E3,1.7083829E3,1.1763164E3,3.544773E3,1.508452E3,3.9842764E2,7.4724255E2,9.6114044E2,2.5562144E2,9.206949E2,2.6058933E3,9.3887976E2],"tree_param":{"num_deleted":"0","num_feature":"15","num_nodes":"15","size_leaf_vector":"1"}},{"base_weights":[6.2053404E-3,5.6657515E-2,-6.861749E-2,8.890778E-2,-6.9531016E-2,-9.7507045E-2,5.2888703E-2,-4.7274097E-4,1.1396945E-3,-1.0356728E-3,1.5613902E-3,-1.2059764E-3,-1.881182E-6,7.8455865E-4,-1.9579742E-3],"categories":[],"categories_nodes":[],"categories_segments":[],"categories_sizes":[],"default_left":[0,0,0,0,0,0,0,0,0,0,0,0,0,0,0],"id":74,"left_children":[1,3,5,7,9,11,13,-1,-1,-1,-1,-1,-1,-1,-1],"loss_changes":[3.147516E1,2.0272318E1,1.1792434E1,1.3543348E1,7.806321E0,6.0971127E0,4.1207094E0,0E0,0E0,0E0,0E0,0E0,0E0,0E0,0E0],"parents":[2147483647,0,0,1,1,2,2,3,3,4,4,5,5,6,6],"right_children":[2,4,6,8,10,12,14,-1,-1,-1,-1,-1,-1,-1,-1],"split_conditions":[2.4304297E-2,2.0589774E0,7.448403E-2,-9.9123456E-2,9.502722E-2,2.060659E0,3.9821917E-1,-4.7274097E-4,1.1396945E-3,