{"learner":{"attributes":{},"feature_names":["eloExpectedFor","eloExpectedAgainst","fenwickPercentage_Against_seasonal_ema","corsiPercentage_For_seasonal_ema","fenwickPercentage_For_seasonal_ema","corsiPercentage_Against_seasonal_ema","xGoalsPercentage_Against_seasonal_ema","takeawaysFor_seasonal_ema","xGoalsPercentage_For_seasonal_ema","faceOffsWonFor_seasonal_ema","hitsAgainst_seasonal_ema","lowDangerGoalsAgainst_seasonal_ema","faceOffsWonAgainst_seasonal_ema","playStoppedAgainst_seasonal_ema","lowDangerGoalsFor_seasonal_ema"],"feature_types":["float","float","float","float","float","float","float","float","float","float","float","float","float","float","float"],"gradient_booster":{"model":{"gbtree_model_param":{"num_parallel_tree":"1","num_trees":"1500"},"iteration_indptr":[0,2,4,6,8,10,12,14,16,18,20,22,24,26,28,30,32,34,36,38,40,42,44,46,48,50,52,54,56,58,60,62,64,66,68,70,72,74,76,78,80,82,84,86,88,90,92,94,96,98,100,102,104,106,108,110,112,114,116,118,120,122,124,126,128,130,132,134,136,138,140,142,144,146,148,150,152,154,156,158,160,162,164,166,168,170,172,174,176,178,180,182,184,186,188,190,192,194,196,198,200,202,204,206,208,210,212,214,216,218,220,222,224,226,228,230,232,234,236,238,240,242,244,246,248,250,252,254,256,258,260,262,264,266,268,270,272,274,276,278,280,282,284,286,288,290,292,294,296,298,300,302,304,306,308,310,312,314,316,318,320,322,324,326,328,330,332,334,336,338,340,342,344,346,348,350,352,354,356,358,360,362,364,366,368,370,372,374,376,378,380,382,384,386,388,390,392,394,396,398,400,402,404,406,408,410,412,414,416,418,420,422,424,426,428,430,432,434,436,438,440,442,444,446,448,450,452,454,456,458,460,462,464,466,468,470,472,474,476,478,480,482,484,486,488,490,492,494,496,498,500,502,504,506,508,510,512,514,516,518,520,522,524,526,528,530,532,534,536,538,540,542,544,546,548,550,552,554,556,558,560,562,564,566,568,570,572,574,576,578,580,582,584,586,588,590,592,594,596,598,600,602,604,606,608,610,612,614,616,618,620,622,624,626,628,630,632,634,636,638,640,642,644,646,648,650,652,654,656,658,660,662,664,666,668,670,672,674,676,678,680,682,684,686,688,690,692,694,696,698,700,702,704,706,708,710,712,714,716,718,720,722,724,726,728,730,732,734,736,738,740,742,744,746,748,750,752,754,756,758,760,762,764,766,768,770,772,774,776,778,780,782,784,786,788,790,792,794,796,798,800,802,804,806,808,810,812,814,816,818,820,822,824,826,828,830,832,834,836,838,840,842,844,846,848,850,852,854,856,858,860,862,864,866,868,870,872,874,876,878,880,882,884,886,888,890,892,894,896,898,900,902,904,906,908,910,912,914,916,918,920,922,924,926,928,930,932,934,936,938,940,942,944,946,948,950,952,954,956,958,960,962,964,966,968,970,972,974,976,978,980,982,984,986,988,990,992,994,996,998,1000,1002,1004,1006,1008,1010,1012,1014,1016,1018,1020,1022,1024,1026,1028,1030,1032,1034,1036,1038,1040,1042,1044,1046,1048,1050,1052,1054,1056,1058,1060,1062,1064,1066,1068,1070,1072,1074,1076,1078,1080,1082,1084,1086,1088,1090,1092,1094,1096,1098,1100,1102,1104,1106,1108,1110,1112,1114,1116,1118,1120,1122,1124,1126,1128,1130,1132,1134,1136,1138,1140,1142,1144,1146,1148,1150,1152,1154,1156,1158,1160,1162,1164,1166,1168,1170,1172,1174,1176,1178,1180,1182,1184,1186,1188,1190,1192,1194,1196,1198,1200,1202,1204,1206,1208,1210,1212,1214,1216,1218,1220,1222,1224,1226,1228,1230,1232,1234,1236,1238,1240,1242,1244,1246,1248,1250,1252,1254,1256,1258,1260,1262,1264,1266,1268,1270,1272,1274,1276,1278,1280,1282,1284,1286,1288,1290,1292,1294,1296,1298,1300,1302,1304,1306,1308,1310,1312,1314,1316,1318,1320,1322,1324,1326,1328,1330,1332,1334,1336,1338,1340,1342,1344,1346,1348,1350,1352,1354,1356,1358,1360,1362,1364,1366,1368,1370,1372,1374,1376,1378,1380,1382,1384,1386,1388,1390,1392,1394,1396,1398,1400,1402,1404,1406,1408,1410,1412,1414,1416,1418,1420,1422,1424,1426,1428,1430,1432,1434,1436,1438,1440,1442,1444,1446,1448,1450,1452,1454,1456,1458,1460,1462,1464,1466,1468,1470,1472,1474,1476,1478,1480,1482,1484,1486,1488,1490,1492,1494,1496,1498,1500],"tree_info":[0,1,0,1,0,1,0,1,0,1,0,1,0,1,0,1,0,1,0,1,0,1,0,1,0,1,0,1,0,1,0,1,0,1,0,1,0,1,0,1,0,1,0,1,0,1,0,1,0,1,0,1,0,1,0,1,0,1,0,1,0,1,0,1,0,1,0,1,0,1,0,1,0,1,0,1,0,1,0,1,0,1,0,1,0,1,0,1,0,1,0,1,0,1,0,1,0,1,0,1,0,1,0,1,0,1,0,1,0,1,0,1,0,1,0,1,0,1,0,1,0,1,0,1,0,1,0,1,0,1,0,1,0,1,0,1,0,1,0,1,0,1,0,1,0,1,0,1,0,1,0,1,0,1,0,1,0,1,0,1,0,1,0,1,0,1,0,1,0,1,0,1,0,1,0,1,0,1,0,1,0,1,0,1,0,1,0,1,0,1,0,1,0,1,0,1,0,1,0,1,0,1,0,1,0,1,0,1,0,1,0,1,0,1,0,1,0,1,0,1,0,1,0,1,0,1,0,1,0,1,0,1,0,1,0,1,0,1,0,1,0,1,0,1,0,1,0,1,0,1,0,1,0,1,0,1,0,1,0,1,0,1,0,1,0,1,0,1,0,1,0,1,0,1,0,1,0,1,0,1,0,1,0,1,0,1,0,1,0,1,0,1,0,1,0,1,0,1,0,1,0,1,0,1,0,1,0,1,0,1,0,1,0,1,0,1,0,1,0,1,0,1,0,1,0,1,0,1,0,1,0,1,0,1,0,1,0,1,0,1,0,1,0,1,0,1,0,1,0,1,0,1,0,1,0,1,0,1,0,1,0,1,0,1,0,1,0,1,0,1,0,1,0,1,0,1,0,1,0,1,0,1,0,1,0,1,0,1,0,1,0,1,0,1,0,1,0,1,0,1,0,1,0,1,0,1,0,1,0,1,0,1,0,1,0,1,0,1,0,1,0,1,0,1,0,1,0,1,0,1,0,1,0,1,0,1,0,1,0,1,0,1,0,1,0,1,0,1,0,1,0,1,0,1,0,1,0,1,0,1,0,1,0,1,0,1,0,1,0,1,0,1,0,1,0,1,0,1,0,1,0,1,0,1,0,1,0,1,0,1,0,1,0,1,0,1,0,1,0,1,0,1,0,1,0,1,0,1,0,1,0,1,0,1,0,1,0,1,0,1,0,1,0,1,0,1,0,1,0,1,0,1,0,1,0,1,0,1,0,1,0,1,0,1,0,1,0,1,0,1,0,1,0,1,0,1,0,1,0,1,0,1,0,1,0,1,0,1,0,1,0,1,0,1,0,1,0,1,0,1,0,1,0,1,0,1,0,1,0,1,0,1,0,1,0,1,0,1,0,1,0,1,0,1,0,1,0,1,0,1,0,1,0,1,0,1,0,1,0,1,0,1,0,1,0,1,0,1,0,1,0,1,0,1,0,1,0,1,0,1,0,1,0,1,0,1,0,1,0,1,0,1,0,1,0,1,0,1,0,1,0,1,0,1,0,1,0,1,0,1,0,1,0,1,0,1,0,1,0,1,0,1,0,1,0,1,0,1,0,1,0,1,0,1,0,1,0,1,0,1,0,1,0,1,0,1,0,1,0,1,0,1,0,1,0,1,0,1,0,1,0,1,0,1,0,1,0,1,0,1,0,1,0,1,0,1,0,1,0,1,0,1,0,1,0,1,0,1,0,1,0,1,0,1,0,1,0,1,0,1,0,1,0,1,0,1,0,1,0,1,0,1,0,1,0,1,0,1,0,1,0,1,0,1,0,1,0,1,0,1,0,1,0,1,0,1,0,1,0,1,0,1,0,1,0,1,0,1,0,1,0,1,0,1,0,1,0,1,0,1,0,1,0,1,0,1,0,1,0,1,0,1,0,1,0,1,0,1,0,1,0,1,0,1,0,1,0,1,0,1,0,1,0,1,0,1,0,1,0,1,0,1,0,1,0,1,0,1,0,1,0,1,0,1,0,1,0,1,0,1,0,1,0,1,0,1,0,1,0,1,0,1,0,1,0,1,0,1,0,1,0,1,0,1,0,1,0,1,0,1,0,1,0,1,0,1,0,1,0,1,0,1,0,1,0,1,0,1,0,1,0,1,0,1,0,1,0,1,0,1,0,1,0,1,0,1,0,1,0,1,0,1,0,1,0,1,0,1,0,1,0,1,0,1,0,1,0,1,0,1,0,1,0,1,0,1,0,1,0,1,0,1,0,1,0,1,0,1,0,1,0,1,0,1,0,1,0,1,0,1,0,1,0,1,0,1,0,1,0,1,0,1,0,1,0,1,0,1,0,1,0,1,0,1,0,1,0,1,0,1,0,1,0,1,0,1,0,1,0,1,0,1,0,1,0,1,0,1,0,1,0,1,0,1,0,1,0,1,0,1,0,1,0,1,0,1,0,1,0,1,0,1,0,1,0,1,0,1,0,1,0,1,0,1,0,1,0,1,0,1,0,1,0,1,0,1,0,1,0,1,0,1,0,1,0,1,0,1,0,1,0,1,0,1,0,1,0,1,0,1,0,1,0,1,0,1,0,1,0,1,0,1,0,1,0,1,0,1,0,1,0,1,0,1,0,1,0,1,0,1,0,1,0,1,0,1,0,1,0,1,0,1,0,1,0,1,0,1,0,1,0,1,0,1,0,1,0,1,0,1,0,1,0,1,0,1,0,1,0,1,0,1,0,1,0,1,0,1,0,1,0,1,0,1,0,1,0,1,0,1,0,1,0,1,0,1,0,1,0,1,0,1,0,1,0,1,0,1,0,1,0,1,0,1,0,1,0,1,0,1,0,1,0,1,0,1,0,1,0,1,0,1,0,1,0,1,0,1,0,1,0,1,0,1,0,1,0,1,0,1,0,1,0,1,0,1,0,1,0,1,0,1,0,1,0,1,0,1,0,1,0,1,0,1,0,1,0,1,0,1,0,1,0,1,0,1,0,1,0,1,0,1,0,1,0,1,0,1,0,1,0,1,0,1,0,1,0,1,0,1,0,1,0,1,0,1,0,1,0,1,0,1,0,1,0,1,0,1,0,1,0,1,0,1,0,1,0,1,0,1,0,1,0,1,0,1,0,1,0,1,0,1,0,1,0,1,0,1,0,1,0,1,0,1,0,1,0,1,0,1,0,1,0,1,0,1,0,1,0,1,0,1,0,1,0,1,0,1,0,1,0,1,0,1,0,1,0,1,0,1,0,1,0,1,0,1,0,1,0,1,0,1,0,1,0,1,0,1,0,1,0,1,0,1,0,1,0,1,0,1,0,1,0,1,0,1,0,1,0,1,0,1,0,1,0,1,0,1,0,1,0,1,0,1,0,1,0,1,0,1,0,1,0,1,0,1,0,1,0,1,0,1,0,1,0,1,0,1,0,1],"trees":[{"base_weights":[5.9894584E-3,-5.8322288E-2,1.1668839E-1,4.144621E-2,-1.3337757E-1,1.8383233E-1,3.645461E-2,1.2068965E-3,-8.437856E-4,-2.0421608E-3,-6.145624E-4,2.1735905E-3,4.334365E-4,8.520179E-4,-4.92126E-4],"categories":[],"categories_nodes":[],"categories_segments":[],"categories_sizes":[],"default_left":[0,0,0,0,0,0,0,0,0,0,0,0,0,0,0],"id":0,"left_children":[1,3,5,7,9,11,13,-1,-1,-1,-1,-1,-1,-1,-1],"loss_changes":[5.9438236E1,3.955046E1,1.6521267E1,2.2623932E1,1.5343178E1,7.8564873E0,5.846466E0,0E0,0E0,0E0,0E0,0E0,0E0,0E0,0E0],"parents":[2147483647,0,0,1,1,2,2,3,3,4,4,5,5,6,6],"right_children":[2,4,6,8,10,12,14,-1,-1,-1,-1,-1,-1,-1,-1],"split_conditions":[5.161417E-1,4.944399E-1,5.0204474E-1,5.728417E-1,4.6865672E-1,7.166789E-1,5.4954445E-1,1.2068965E-3,-8.437856E-4,-2.0421608E-3,-6.145624E-4,2.1735905E-3,4.334365E-4,8.520179E-4,-4.92126E-4],"split_indices":[2,4,3,0,1,0,8,0,0,0,0,0,0,0,0],"split_type":[0,0,0,0,0,0,0,0,0,0,0,0,0,0,0],"sum_hessian":[8.347E3,5.28E3,3.067E3,2.267E3,3.013E3,1.669E3,1.398E3,1.391E3,8.76E2,1.517E3,1.496E3,1.347E3,3.22E2,8.91E2,5.07E2],"tree_param":{"num_deleted":"0","num_feature":"15","num_nodes":"15","size_leaf_vector":"1"}},{"base_weights":[-5.9894584E-3,5.8322288E-2,-1.1668839E-1,-4.144621E-2,1.3337757E-1,-1.8383233E-1,-3.645461E-2,-1.2068965E-3,8.437856E-4,2.0421608E-3,6.145624E-4,-2.1735905E-3,-4.334365E-4,-8.520179E-4,4.92126E-4],"categories":[],"categories_nodes":[],"categories_segments":[],"categories_sizes":[],"default_left":[0,0,0,0,0,0,0,0,0,0,0,0,0,0,0],"id":1,"left_children":[1,3,5,7,9,11,13,-1,-1,-1,-1,-1,-1,-1,-1],"loss_changes":[5.9438236E1,3.955046E1,1.6521267E1,2.2623932E1,1.5343178E1,7.8564873E0,5.846466E0,0E0,0E0,0E0,0E0,0E0,0E0,0E0,0E0],"parents":[2147483647,0,0,1,1,2,2,3,3,4,4,5,5,6,6],"right_children":[2,4,6,8,10,12,14,-1,-1,-1,-1,-1,-1,-1,-1],"split_conditions":[5.161417E-1,4.944399E-1,5.0204474E-1,5.728417E-1,4.6865672E-1,7.166789E-1,5.4954445E-1,-1.2068965E-3,8.437856E-4,2.0421608E-3,6.145624E-4,-2.1735905E-3,-4.334365E-4,-8.520179E-4,4.92126E-4],"split_indices":[2,4,3,0,1,0,8,0,0,0,0,0,0,0,0],"split_type":[0,0,0,0,0,0,0,0,0,0,0,0,0,0,0],"sum_hessian":[8.347E3,5.28E3,3.067E3,2.267E3,3.013E3,1.669E3,1.398E3,1.391E3,8.76E2,1.517E3,1.496E3,1.347E3,3.22E2,8.91E2,5.07E2],"tree_param":{"num_deleted":"0","num_feature":"15","num_nodes":"15","size_leaf_vector":"1"}},{"base_weights":[5.929664E-3,-5.773958E-2,1.1552273E-1,4.103197E-2,-1.3204494E-1,1.8199621E-1,3.609036E-2,1.1948382E-3,-8.3535793E-4,-2.021761E-3,-6.0842064E-4,2.1518802E-3,4.2911558E-4,8.4350817E-4,-4.8721454E-4],"categories":[],"categories_nodes":[],"categories_segments":[],"categories_sizes":[],"default_left":[0,0,0,0,0,0,0,0,0,0,0,0,0,0,0],"id":2,"left_children":[1,3,5,7,9,11,13,-1,-1,-1,-1,-1,-1,-1,-1],"loss_changes":[5.825645E1,3.876396E1,1.6192883E1,2.2174147E1,1.5038197E1,7.700245E0,5.7302938E0,0E0,0E0,0E0,0E0,0E0,0E0,0E0,0E0],"parents":[2147483647,0,0,1,1,2,2,3,3,4,4,5,5,6,6],"right_children":[2,4,6,8,10,12,14,-1,-1,-1,-1,-1,-1,-1,-1],"split_conditions":[5.161417E-1,4.944399E-1,5.0204474E-1,5.728417E-1,4.6865672E-1,7.166789E-1,5.4954445E-1,1.1948382E-3,-8.3535793E-4,-2.021761E-3,-6.0842064E-4,2.1518802E-3,4.2911558E-4,8.4350817E-4,-4.8721454E-4],"split_indices":[2,4,3,0,1,0,8,0,0,0,0,0,0,0,0],"split_type":[0,0,0,0,0,0,0,0,0,0,0,0,0,0,0],"sum_hessian":[8.346983E3,5.2799907E3,3.066993E3,2.2669973E3,3.0129932E3,1.6689937E3,1.3979993E3,1.390998E3,8.759993E2,1.5169937E3,1.4959995E3,1.3469937E3,3.2199994E2,8.909994E2,5.0699985E2],"tree_param":{"num_deleted":"0","num_feature":"15","num_nodes":"15","size_leaf_vector":"1"}},{"base_weights":[-5.9296484E-3,5.7739608E-2,-1.15522735E-1,-4.1031957E-2,1.3204499E-1,-1.8199623E-1,-3.6090348E-2,-1.1948382E-3,8.3535817E-4,2.021761E-3,6.084215E-4,-2.1518804E-3,-4.2911558E-4,-8.4350817E-4,4.872148E-4],"categories":[],"categories_nodes":[],"categories_segments":[],"categories_sizes":[],"default_left":[0,0,0,0,0,0,0,0,0,0,0,0,0,0,0],"id":3,"left_children":[1,3,5,7,9,11,13,-1,-1,-1,-1,-1,-1,-1,-1],"loss_changes":[5.8256477E1,3.8763973E1,1.6192894E1,2.2174154E1,1.5038181E1,7.7002373E0,5.730296E0,0E0,0E0,0E0,0E0,0E0,0E0,0E0,0E0],"parents":[2147483647,0,0,1,1,2,2,3,3,4,4,5,5,6,6],"right_children":[2,4,6,8,10,12,14,-1,-1,-1,-1,-1,-1,-1,-1],"split_conditions":[5.161417E-1,4.944399E-1,5.0204474E-1,5.728417E-1,4.6865672E-1,7.166789E-1,5.4954445E-1,-1.1948382E-3,8.3535817E-4,2.021761E-3,6.084215E-4,-2.1518804E-3,-4.2911558E-4,-8.4350817E-4,4.872148E-4],"split_indices":[2,4,3,0,1,0,8,0,0,0,0,0,0,0,0],"split_type":[0,0,0,0,0,0,0,0,0,0,0,0,0,0,0],"sum_hessian":[8.346983E3,5.2799907E3,3.066993E3,2.2669973E3,3.0129932E3,1.6689937E3,1.3979993E3,1.390998E3,8.759994E2,1.5169937E3,1.4959995E3,1.3469938E3,3.2199994E2,8.909994E2,5.0699988E2],"tree_param":{"num_deleted":"0","num_feature":"15","num_nodes":"15","size_leaf_vector":"1"}},{"base_weights":[5.870465E-3,-5.7162948E-2,1.1436926E-1,4.062195E-2,-1.3072631E-1,1.8017986E-1,3.5729777E-2,1.1829035E-3,-8.2701555E-4,-2.0015817E-3,-6.0234184E-4,2.1304074E-3,4.2483755E-4,8.350841E-4,-4.8235178E-4],"categories":[],"categories_nodes":[],"categories_segments":[],"categories_sizes":[],"default_left":[0,0,0,0,0,0,0,0,0,0,0,0,0,0,0],"id":4,"left_children":[1,3,5,7,9,11,13,-1,-1,-1,-1,-1,-1,-1,-1],"loss_changes":[5.7098473E1,3.799331E1,1.5871269E1,2.1733358E1,1.4739532E1,7.5472794E0,5.6164284E0,0E0,0E0,0E0,0E0,0E0,0E0,0E0,0E0],"parents":[2147483647,0,0,1,1,2,2,3,3,4,4,5,5,6,6],"right_children":[2,4,6,8,10,12,14,-1,-1,-1,-1,-1,-1,-1,-1],"split_conditions":[5.161417E-1,4.944399E-1,5.0204474E-1,5.728417E-1,4.6865672E-1,7.166789E-1,5.4954445E-1,1.1829035E-3,-8.2701555E-4,-2.0015817E-3,-6.0234184E-4,2.1304074E-3,4.2483755E-4,8.350841E-4,-4.8235178E-4],"split_indices":[2,4,3,0,1,0,8,0,0,0,0,0,0,0,0],"split_type":[0,0,0,0,0,0,0,0,0,0,0,0,0,0,0],"sum_hessian":[8.346934E3,5.2799624E3,3.0669714E3,2.2669895E3,3.0129727E3,1.6689746E3,1.397997E3,1.390992E3,8.759976E2,1.5169749E3,1.4959978E3,1.3469747E3,3.2199976E2,8.9099744E2,5.0699954E2],"tree_param":{"num_deleted":"0","num_feature":"15","num_nodes":"15","size_leaf_vector":"1"}},{"base_weights":[-5.870501E-3,5.7162885E-2,-1.1436925E-1,-4.0621962E-2,1.307262E-1,-1.8017986E-1,-3.5729744E-2,-1.1829035E-3,8.2701526E-4,2.0015808E-3,6.023407E-4,-2.1304074E-3,-4.2483784E-4,-8.350841E-4,4.8235265E-4],"categories":[],"categories_nodes":[],"categories_segments":[],"categories_sizes":[],"default_left":[0,0,0,0,0,0,0,0,0,0,0,0,0,0,0],"id":5,"left_children":[1,3,5,7,9,11,13,-1,-1,-1,-1,-1,-1,-1,-1],"loss_changes":[5.7098423E1,3.799327E1,1.5871277E1,2.1733353E1,1.4739532E1,7.5472755E0,5.616436E0,0E0,0E0,0E0,0E0,0E0,0E0,0E0,0E0],"parents":[2147483647,0,0,1,1,2,2,3,3,4,4,5,5,6,6],"right_children":[2,4,6,8,10,12,14,-1,-1,-1,-1,-1,-1,-1,-1],"split_conditions":[5.161417E-1,4.944399E-1,5.0204474E-1,5.728417E-1,4.6865672E-1,7.166789E-1,5.4954445E-1,-1.1829035E-3,8.2701526E-4,2.0015808E-3,6.023407E-4,-2.1304074E-3,-4.2483784E-4,-8.350841E-4,4.8235265E-4],"split_indices":[2,4,3,0,1,0,8,0,0,0,0,0,0,0,0],"split_type":[0,0,0,0,0,0,0,0,0,0,0,0,0,0,0],"sum_hessian":[8.346934E3,5.2799624E3,3.0669714E3,2.2669895E3,3.0129727E3,1.6689746E3,1.397997E3,1.390992E3,8.7599756E2,1.516975E3,1.4959978E3,1.3469747E3,3.219998E2,8.9099744E2,5.069995E2],"tree_param":{"num_deleted":"0","num_feature":"15","num_nodes":"15","size_leaf_vector":"1"}},{"base_weights":[5.811931E-3,-5.659222E-2,1.1322786E-1,4.0216096E-2,-1.294213E-1,1.7838302E-1,3.5372827E-2,1.1710911E-3,-8.187579E-4,-1.9816186E-3,-5.9632305E-4,2.1091683E-3,4.2060367E-4,1.1925657E-4,2.0481192E-3],"categories":[],"categories_nodes":[],"categories_segments":[],"categories_sizes":[],"default_left":[0,0,0,0,0,0,0,0,0,0,0,0,0,0,0],"id":6,"left_children":[1,3,5,7,9,11,13,-1,-1,-1,-1,-1,-1,-1,-1],"loss_changes":[5.5963734E1,3.723809E1,1.5556278E1,2.1301384E1,1.444706E1,7.3974953E0,5.5555716E0,0E0,0E0,0E0,0E0,0E0,0E0,0E0,0E0],"parents":[2147483647,0,0,1,1,2,2,3,3,4,4,5,5,6,6],"right_children":[2,4,6,8,10,12,14,-1,-1,-1,-1,-1,-1,-1,-1],"split_conditions":[5.161417E-1,4.944399E-1,5.0204474E-1,5.728417E-1,4.6865672E-1,7.166789E-1,5.767819E-1,1.1710911E-3,-8.187579E-4,-1.9816186E-3,-5.9632305E-4,2.1091683E-3,4.2060367E-4,1.1925657E-4,2.0481192E-3],"split_indices":[2,4,3,0,1,0,5,0,0,0,0,0,0,0,0],"split_type":[0,0,0,0,0,0,0,0,0,0,0,0,0,0,0],"sum_hessian":[8.346853E3,5.2799155E3,3.0669365E3,2.2669766E3,3.0129392E3,1.6689434E3,1.3979933E3,1.390982E3,8.759945E2,1.5169442E3,1.4959949E3,1.3469438E3,3.2199945E2,1.228994E3,1.6899919E2],"tree_param":{"num_deleted":"0","num_feature":"15","num_nodes":"15","size_leaf_vector":"1"}},{"base_weights":[-5.811924E-3,5.659223E-2,-1.1322785E-1,-4.0216096E-2,1.2942131E-1,-1.7838301E-1,-3.537284E-2,-1.1710911E-3,8.187579E-4,1.9816186E-3,5.963233E-4,-2.1091683E-3,-4.2060277E-4,-1.19256685E-4,-2.0481192E-3],"categories":[],"categories_nodes":[],"categories_segments":[],"categories_sizes":[],"default_left":[0,0,0,0,0,0,0,0,0,0,0,0,0,0,0],"id":7,"left_children":[1,3,5,7,9,11,13,-1,-1,-1,-1,-1,-1,-1,-1],"loss_changes":[5.5963734E1,3.72381E1,1.5556274E1,2.1301384E1,1.4447044E1,7.397499E0,5.555572E0,0E0,0E0,0E0,0E0,0E0,0E0,0E0,0E0],"parents":[2147483647,0,0,1,1,2,2,3,3,4,4,5,5,6,6],"right_children":[2,4,6,8,10,12,14,-1,-1,-1,-1,-1,-1,-1,-1],"split_conditions":[5.161417E-1,4.944399E-1,5.0204474E-1,5.728417E-1,4.6865672E-1,7.166789E-1,5.767819E-1,-1.1710911E-3,8.187579E-4,1.9816186E-3,5.963233E-4,-2.1091683E-3,-4.2060277E-4,-1.19256685E-4,-2.0481192E-3],"split_indices":[2,4,3,0,1,0,5,0,0,0,0,0,0,0,0],"split_type":[0,0,0,0,0,0,0,0,0,0,0,0,0,0,0],"sum_hessian":[8.346853E3,5.279916E3,3.0669365E3,2.2669766E3,3.0129392E3,1.6689434E3,1.3979933E3,1.390982E3,8.759945E2,1.5169442E3,1.495995E3,1.3469438E3,3.2199948E2,1.228994E3,1.6899918E2],"tree_param":{"num_deleted":"0","num_feature":"15","num_nodes":"15","size_leaf_vector":"1"}},{"base_weights":[5.754156E-3,-5.6027435E-2,1.12098746E-1,3.981437E-2,-1.2812994E-1,1.7660527E-1,3.5020664E-2,1.1593995E-3,-8.105838E-4,-1.9618708E-3,-5.903656E-4,2.0881589E-3,4.164103E-4,8.2323124E-4,-4.810633E-4],"categories":[],"categories_nodes":[],"categories_segments":[],"categories_sizes":[],"default_left":[0,0,0,0,0,0,0,0,0,0,0,0,0,0,0],"id":8,"left_children":[1,3,5,7,9,11,13,-1,-1,-1,-1,-1,-1,-1,-1],"loss_changes":[5.4852104E1,3.649808E1,1.5247494E1,2.0878042E1,1.4160641E1,7.2508316E0,5.5049505E0,0E0,0E0,0E0,0E0,0E0,0E0,0E0,0E0],"parents":[2147483647,0,0,1,1,2,2,3,3,4,4,5,5,6,6],"right_children":[2,4,6,8,10,12,14,-1,-1,-1,-1,-1,-1,-1,-1],"split_conditions":[5.161417E-1,4.944399E-1,5.0204474E-1,5.728417E-1,4.6865672E-1,7.166789E-1,5.4954445E-1,1.1593995E-3,-8.105838E-4,-1.9618708E-3,-5.903656E-4,2.0881589E-3,4.164103E-4,8.2323124E-4,-4.810633E-4],"split_indices":[2,4,3,0,1,0,8,0,0,0,0,0,0,0,0],"split_type":[0,0,0,0,0,0,0,0,0,0,0,0,0,0,0],"sum_hessian":[8.346743E3,5.279852E3,3.0668916E3,2.266959E3,3.012893E3,1.6689003E3,1.3979915E3,1.3909686E3,8.7599036E2,1.5169019E3,1.4959912E3,1.3469011E3,3.2199905E2,8.9099225E2,5.069992E2],"tree_param":{"num_deleted":"0","num_feature":"15","num_nodes":"15","size_leaf_vector":"1"}},{"base_weights":[-5.754184E-3,5.6027398E-2,-1.1209876E-1,-3.981439E-2,1.281299E-1,-1.7660527E-1,-3.502071E-2,-1.1593997E-3,8.105838E-4,1.9618708E-3,5.903647E-4,-2.0881589E-3,-4.164103E-4,-8.2323235E-4,4.810642E-4],"categories":[],"categories_nodes":[],"categories_segments":[],"categories_sizes":[],"default_left":[0,0,0,0,0,0,0,0,0,0,0,0,0,0,0],"id":9,"left_children":[1,3,5,7,9,11,13,-1,-1,-1,-1,-1,-1,-1,-1],"loss_changes":[5.48521E1,3.6498074E1,1.5247482E1,2.0878046E1,1.4160656E1,7.2508316E0,5.5049677E0,0E0,0E0,0E0,0E0,0E0,0E0,0E0,0E0],"parents":[2147483647,0,0,1,1,2,2,3,3,4,4,5,5,6,6],"right_children":[2,4,6,8,10,12,14,-1,-1,-1,-1,-1,-1,-1,-1],"split_conditions":[5.161417E-1,4.944399E-1,5.0204474E-1,5.728417E-1,4.6865672E-1,7.166789E-1,5.4954445E-1,-1.1593997E-3,8.105838E-4,1.9618708E-3,5.903647E-4,-2.0881589E-3,-4.164103E-4,-8.2323235E-4,4.810642E-4],"split_indices":[2,4,3,0,1,0,8,0,0,0,0,0,0,0,0],"split_type":[0,0,0,0,0,0,0,0,0,0,0,0,0,0,0],"sum_hessian":[8.346744E3,5.279852E3,3.0668916E3,2.266959E3,3.012893E3,1.6689003E3,1.3979915E3,1.3909686E3,8.7599036E2,1.5169019E3,1.4959912E3,1.3469011E3,3.2199905E2,8.9099225E2,5.0699918E2],"tree_param":{"num_deleted":"0","num_feature":"15","num_nodes":"15","size_leaf_vector":"1"}},{"base_weights":[5.6968136E-3,-5.5468414E-2,1.109809E-1,3.9416797E-2,-1.2685195E-1,1.7484649E-1,3.4670886E-2,1.1478286E-3,-8.024925E-4,-1.9423341E-3,-5.8446726E-4,2.0673762E-3,4.1225986E-4,-3.7581904E-4,8.8580645E-4],"categories":[],"categories_nodes":[],"categories_segments":[],"categories_sizes":[],"default_left":[0,0,0,0,0,0,0,0,0,0,0,0,0,0,0],"id":10,"left_children":[1,3,5,7,9,11,13,-1,-1,-1,-1,-1,-1,-1,-1],"loss_changes":[5.376242E1,3.5772938E1,1.4945267E1,2.0463184E1,1.3880146E1,7.1072083E0,5.4525614E0,0E0,0E0,0E0,0E0,0E0,0E0,0E0,0E0],"parents":[2147483647,0,0,1,1,2,2,3,3,4,4,5,5,6,6],"right_children":[2,4,6,8,10,12,14,-1,-1,-1,-1,-1,-1,-1,-1],"split_conditions":[5.161417E-1,4.944399E-1,5.0204474E-1,5.728417E-1,4.6865672E-1,7.166789E-1,5.3537476E-1,1.1478286E-3,-8.024925E-4,-1.9423341E-3,-5.8446726E-4,2.0673762E-3,4.1225986E-4,-3.7581904E-4,8.8580645E-4],"split_indices":[2,4,3,0,1,0,6,0,0,0,0,0,0,0,0],"split_type":[0,0,0,0,0,0,0,0,0,0,0,0,0,0,0],"sum_hessian":[8.346603E3,5.2797705E3,3.0668315E3,2.2669363E3,3.0128345E3,1.6688457E3,1.397986E3,1.3909513E3,8.75985E2,1.516848E3,1.4959865E3,1.3468472E3,3.2199854E2,5.974944E2,8.004916E2],"tree_param":{"num_deleted":"0","num_feature":"15","num_nodes":"15","size_leaf_vector":"1"}},{"base_weights":[-5.696799E-3,5.546842E-2,-1.1098088E-1,-3.9416775E-2,1.2685195E-1,-1.7484646E-1,-3.4670867E-2,-1.1478278E-3,8.0249156E-4,1.9423341E-3,5.8446726E-4,-2.067376E-3,-4.1225986E-4,3.7581925E-4,-8.858063E-4],"categories":[],"categories_nodes":[],"categories_segments":[],"categories_sizes":[],"default_left":[0,0,0,0,0,0,0,0,0,0,0,0,0,0,0],"id":11,"left_children":[1,3,5,7,9,11,13,-1,-1,-1,-1,-1,-1,-1,-1],"loss_changes":[5.3762413E1,3.577293E1,1.4945274E1,2.0463148E1,1.3880146E1,7.1072006E0,5.4525623E0,0E0,0E0,0E0,0E0,0E0,0E0,0E0,0E0],"parents":[2147483647,0,0,1,1,2,2,3,3,4,4,5,5,6,6],"right_children":[2,4,6,8,10,12,14,-1,-1,-1,-1,-1,-1,-1,-1],"split_conditions":[5.161417E-1,4.944399E-1,5.0204474E-1,5.728417E-1,4.6865672E-1,7.166789E-1,5.3537476E-1,-1.1478278E-3,8.0249156E-4,1.9423341E-3,5.8446726E-4,-2.067376E-3,-4.1225986E-4,3.7581925E-4,-8.858063E-4],"split_indices":[2,4,3,0,1,0,6,0,0,0,0,0,0,0,0],"split_type":[0,0,0,0,0,0,0,0,0,0,0,0,0,0,0],"sum_hessian":[8.346603E3,5.279771E3,3.0668315E3,2.2669365E3,3.0128345E3,1.6688456E3,1.3979858E3,1.3909514E3,8.75985E2,1.516848E3,1.4959865E3,1.346847E3,3.2199854E2,5.974944E2,8.004915E2],"tree_param":{"num_deleted":"0","num_feature":"15","num_nodes":"15","size_leaf_vector":"1"}},{"base_weights":[5.6400327E-3,-5.4915193E-2,1.0987452E-1,3.9023213E-2,-1.2558724E-1,1.7060041E-1,3.1186955E-2,1.1363748E-3,-7.944821E-4,-1.9230063E-3,-5.786288E-4,4.5507084E-4,2.0633882E-3,7.147039E-5,2.01975E-3],"categories":[],"categories_nodes":[],"categories_segments":[],"categories_sizes":[],"default_left":[0,0,0,0,0,0,0,0,0,0,0,0,0,0,0],"id":12,"left_children":[1,3,5,7,9,11,13,-1,-1,-1,-1,-1,-1,-1,-1],"loss_changes":[5.2694572E1,3.506234E1,1.4653599E1,2.0056572E1,1.3605431E1,7.73053E0,5.4899054E0,0E0,0E0,0E0,0E0,0E0,0E0,0E0,0E0],"parents":[2147483647,0,0,1,1,2,2,3,3,4,4,5,5,6,6],"right_children":[2,4,6,8,10,12,14,-1,-1,-1,-1,-1,-1,-1,-1],"split_conditions":[5.161417E-1,4.944399E-1,5.040622E-1,5.728417E-1,4.6865672E-1,3.0910885E-1,5.767819E-1,1.1363748E-3,-7.944821E-4,-1.9230063E-3,-5.786288E-4,4.5507084E-4,2.0633882E-3,7.147039E-5,2.01975E-3],"split_indices":[2,4,3,0,1,1,5,0,0,0,0,0,0,0,0],"split_type":[0,0,0,0,0,0,0,0,0,0,0,0,0,0,0],"sum_hessian":[8.346437E3,5.2796733E3,3.0667634E3,2.2669092E3,3.012764E3,1.7302792E3,1.3364841E3,1.3909307E3,8.759786E2,1.5167832E3,1.4959807E3,3.8499036E2,1.3452888E3,1.172488E3,1.6399612E2],"tree_param":{"num_deleted":"0","num_feature":"15","num_nodes":"15","size_leaf_vector":"1"}},{"base_weights":[-5.6400527E-3,5.491515E-2,-1.09874494E-1,-3.902332E-2,1.2558724E-1,-1.7060038E-1,-3.118696E-2,-1.136376E-3,7.944812E-4,1.9230066E-3,5.786285E-4,-4.5507005E-4,-2.063388E-3,-7.147047E-5,-2.01975E-3],"categories":[],"categories_nodes":[],"categories_segments":[],"categories_sizes":[],"default_left":[0,0,0,0,0,0,0,0,0,0,0,0,0,0,0],"id":13,"left_children":[1,3,5,7,9,11,13,-1,-1,-1,-1,-1,-1,-1,-1],"loss_changes":[5.2694534E1,3.5062386E1,1.4653591E1,2.0056576E1,1.3605434E1,7.7305336E0,5.4899054E0,0E0,0E0,0E0,0E0,0E0,0E0,0E0,0E0],"parents":[2147483647,0,0,1,1,2,2,3,3,4,4,5,5,6,6],"right_children":[2,4,6,8,10,12,14,-1,-1,-1,-1,-1,-1,-1,-1],"split_conditions":[5.161417E-1,4.944399E-1,5.040622E-1,5.728417E-1,4.6865672E-1,3.0910885E-1,5.767819E-1,-1.136376E-3,7.944812E-4,1.9230066E-3,5.786285E-4,-4.5507005E-4,-2.063388E-3,-7.147047E-5,-2.01975E-3],"split_indices":[2,4,3,0,1,1,5,0,0,0,0,0,0,0,0],"split_type":[0,0,0,0,0,0,0,0,0,0,0,0,0,0,0],"sum_hessian":[8.346437E3,5.2796733E3,3.0667632E3,2.2669092E3,3.012764E3,1.730279E3,1.3364841E3,1.3909307E3,8.7597864E2,1.5167833E3,1.4959806E3,3.8499036E2,1.3452887E3,1.172488E3,1.6399612E2],"tree_param":{"num_deleted":"0","num_feature":"15","num_nodes":"15","size_leaf_vector":"1"}},{"base_weights":[5.5840765E-3,-5.43676E-2,1.0878012E-1,3.8633734E-2,-1.2433559E-1,1.7140588E-1,3.3957463E-2,1.12504E-3,-7.8655354E-4,-1.9038836E-3,-5.728487E-4,2.0268534E-3,4.0361477E-4,8.0766453E-4,-4.83E-4],"categories":[],"categories_nodes":[],"categories_segments":[],"categories_sizes":[],"default_left":[0,0,0,0,0,0,0,0,0,0,0,0,0,0,0],"id":14,"left_children":[1,3,5,7,9,11,13,-1,-1,-1,-1,-1,-1,-1,-1],"loss_changes":[5.1648438E1,3.436602E1,1.4368813E1,1.9658142E1,1.33363495E1,6.83593E0,5.3905134E0,0E0,0E0,0E0,0E0,0E0,0E0,0E0,0E0],"parents":[2147483647,0,0,1,1,2,2,3,3,4,4,5,5,6,6],"right_children":[2,4,6,8,10,12,14,-1,-1,-1,-1,-1,-1,-1,-1],"split_conditions":[5.161417E-1,4.944399E-1,5.0204474E-1,5.728417E-1,4.6865672E-1,7.166789E-1,5.4954445E-1,1.12504E-3,-7.8655354E-4,-1.9038836E-3,-5.728487E-4,2.0268534E-3,4.0361477E-4,8.0766453E-4,-4.83E-4],"split_indices":[2,4,3,0,1,0,8,0,0,0,0,0,0,0,0],"split_type":[0,0,0,0,0,0,0,0,0,0,0,0,0,0,0],"sum_hessian":[8.346243E3,5.2795596E3,3.0666836E3,2.2668777E3,3.0126821E3,1.6687048E3,1.3979788E3,1.3909065E3,8.759712E2,1.516708E3,1.495974E3,1.3467078E3,3.2199713E2,8.9098035E2,5.069984E2],"tree_param":{"num_deleted":"0","num_feature":"15","num_nodes":"15","size_leaf_vector":"1"}},{"base_weights":[-5.584087E-3,5.4367576E-2,-1.08780116E-1,-3.8633764E-2,1.2433557E-1,-1.714059E-1,-3.3957418E-2,-1.12504E-3,7.865526E-4,1.9038836E-3,5.728485E-4,-2.0268534E-3,-4.036157E-4,-8.076641E-4,4.8300053E-4],"categories":[],"categories_nodes":[],"categories_segments":[],"categories_sizes":[],"default_left":[0,0,0,0,0,0,0,0,0,0,0,0,0,0,0],"id":15,"left_children":[1,3,5,7,9,11,13,-1,-1,-1,-1,-1,-1,-1,-1],"loss_changes":[5.164842E1,3.4366028E1,1.4368824E1,1.9658123E1,1.33363495E1,6.835926E0,5.390514E0,0E0,0E0,0E0,0E0,0E0,0E0,0E0,0E0],"parents":[2147483647,0,0,1,1,2,2,3,3,4,4,5,5,6,6],"right_children":[2,4,6,8,10,12,14,-1,-1,-1,-1,-1,-1,-1,-1],"split_conditions":[5.161417E-1,4.944399E-1,5.0204474E-1,5.728417E-1,4.6865672E-1,7.166789E-1,5.4954445E-1,-1.12504E-3,7.865526E-4,1.9038836E-3,5.728485E-4,-2.0268534E-3,-4.036157E-4,-8.076641E-4,4.8300053E-4],"split_indices":[2,4,3,0,1,0,8,0,0,0,0,0,0,0,0],"split_type":[0,0,0,0,0,0,0,0,0,0,0,0,0,0,0],"sum_hessian":[8.346243E3,5.2795596E3,3.0666836E3,2.2668777E3,3.012682E3,1.6687048E3,1.3979788E3,1.3909065E3,8.7597125E2,1.516708E3,1.495974E3,1.3467078E3,3.219971E2,8.9098035E2,5.069984E2],"tree_param":{"num_deleted":"0","num_feature":"15","num_nodes":"15","size_leaf_vector":"1"}},{"base_weights":[5.5284468E-3,-5.3825695E-2,1.0769658E-1,3.8248148E-2,-1.2309696E-1,1.672388E-1,3.0549489E-2,1.1138195E-3,-7.7870436E-4,-1.8849645E-3,-5.6712795E-4,4.4458298E-4,2.0232028E-3,6.749383E-5,1.9963975E-3],"categories":[],"categories_nodes":[],"categories_segments":[],"categories_sizes":[],"default_left":[0,0,0,0,0,0,0,0,0,0,0,0,0,0,0],"id":16,"left_children":[1,3,5,7,9,11,13,-1,-1,-1,-1,-1,-1,-1,-1],"loss_changes":[5.0622974E1,3.3683662E1,1.4085892E1,1.9267626E1,1.3072781E1,7.4474792E0,5.3811355E0,0E0,0E0,0E0,0E0,0E0,0E0,0E0,0E0],"parents":[2147483647,0,0,1,1,2,2,3,3,4,4,5,5,6,6],"right_children":[2,4,6,8,10,12,14,-1,-1,-1,-1,-1,-1,-1,-1],"split_conditions":[5.161417E-1,4.944399E-1,5.040622E-1,5.728417E-1,4.6865672E-1,3.0910885E-1,5.767819E-1,1.1138195E-3,-7.7870436E-4,-1.8849645E-3,-5.6712795E-4,4.4458298E-4,2.0232028E-3,6.749383E-5,1.9963975E-3],"split_indices":[2,4,3,0,1,1,5,0,0,0,0,0,0,0,0],"split_type":[0,0,0,0,0,0,0,0,0,0,0,0,0,0,0],"sum_hessian":[8.34602E3,5.27943E3,3.0665894E3,2.2668418E3,3.0125886E3,1.7301158E3,1.3364734E3,1.390879E3,8.759627E2,1.5166223E3,1.4959662E3,3.849854E2,1.3451304E3,1.1724819E3,1.6399144E2],"tree_param":{"num_deleted":"0","num_feature":"15","num_nodes":"15","size_leaf_vector":"1"}},{"base_weights":[-5.528456E-3,5.382565E-2,-1.0769653E-1,-3.8248133E-2,1.2309686E-1,-1.6723876E-1,-3.0549442E-2,-1.1138195E-3,7.787046E-4,1.8849636E-3,5.671271E-4,-4.4458202E-4,-2.0232026E-3,-6.749324E-5,-1.9963977E-3],"categories":[],"categories_nodes":[],"categories_segments":[],"categories_sizes":[],"default_left":[0,0,0,0,0,0,0,0,0,0,0,0,0,0,0],"id":17,"left_children":[1,3,5,7,9,11,13,-1,-1,-1,-1,-1,-1,-1,-1],"loss_changes":[5.062292E1,3.3683624E1,1.4085892E1,1.9267632E1,1.3072773E1,7.447483E0,5.3811407E0,0E0,0E0,0E0,0E0,0E0,0E0,0E0,0E0],"parents":[2147483647,0,0,1,1,2,2,3,3,4,4,5,5,6,6],"right_children":[2,4,6,8,10,12,14,-1,-1,-1,-1,-1,-1,-1,-1],"split_conditions":[5.161417E-1,4.944399E-1,5.040622E-1,5.728417E-1,4.6865672E-1,3.0910885E-1,5.767819E-1,-1.1138195E-3,7.787046E-4,1.8849636E-3,5.671271E-4,-4.4458202E-4,-2.0232026E-3,-6.749324E-5,-1.9963977E-3],"split_indices":[2,4,3,0,1,1,5,0,0,0,0,0,0,0,0],"split_type":[0,0,0,0,0,0,0,0,0,0,0,0,0,0,0],"sum_hessian":[8.34602E3,5.2794307E3,3.066589E3,2.2668418E3,3.0125886E3,1.7301157E3,1.3364734E3,1.390879E3,8.7596277E2,1.5166224E3,1.4959663E3,3.849854E2,1.3451304E3,1.1724819E3,1.6399146E2],"tree_param":{"num_deleted":"0","num_feature":"15","num_nodes":"15","size_leaf_vector":"1"}},{"base_weights":[5.473619E-3,-5.3289272E-2,1.06624626E-1,3.7866514E-2,-1.21871E-1,1.6803727E-1,3.3258658E-2,1.1027143E-3,-7.709347E-4,-1.8662452E-3,-5.614631E-4,1.987184E-3,3.951615E-4,-3.799192E-4,8.642254E-4],"categories":[],"categories_nodes":[],"categories_segments":[],"categories_sizes":[],"default_left":[0,0,0,0,0,0,0,0,0,0,0,0,0,0,0],"id":18,"left_children":[1,3,5,7,9,11,13,-1,-1,-1,-1,-1,-1,-1,-1],"loss_changes":[4.9618286E1,3.3014965E1,1.3815273E1,1.8884932E1,1.2814625E1,6.5753593E0,5.302502E0,0E0,0E0,0E0,0E0,0E0,0E0,0E0,0E0],"parents":[2147483647,0,0,1,1,2,2,3,3,4,4,5,5,6,6],"right_children":[2,4,6,8,10,12,14,-1,-1,-1,-1,-1,-1,-1,-1],"split_conditions":[5.161417E-1,4.944399E-1,5.0204474E-1,5.728417E-1,4.6865672E-1,7.166789E-1,5.3537476E-1,1.1027143E-3,-7.709347E-4,-1.8662452E-3,-5.614631E-4,1.987184E-3,3.951615E-4,-3.799192E-4,8.642254E-4],"split_indices":[2,4,3,0,1,0,6,0,0,0,0,0,0,0,0],"split_type":[0,0,0,0,0,0,0,0,0,0,0,0,0,0,0],"sum_hessian":[8.345773E3,5.279286E3,3.066487E3,2.2668018E3,3.0124844E3,1.6685226E3,1.3979646E3,1.3908484E3,8.7595337E2,1.5165267E3,1.4959578E3,1.3465273E3,3.2199527E2,5.9749005E2,8.0047455E2],"tree_param":{"num_deleted":"0","num_feature":"15","num_nodes":"15","size_leaf_vector":"1"}},{"base_weights":[-5.473607E-3,5.3289294E-2,-1.06624626E-1,-3.786649E-2,1.2187102E-1,-1.6803727E-1,-3.3258654E-2,-1.1027141E-3,7.709347E-4,1.8662454E-3,5.614631E-4,-1.987184E-3,-3.951618E-4,3.799187E-4,-8.642249E-4],"categories":[],"categories_nodes":[],"categories_segments":[],"categories_sizes":[],"default_left":[0,0,0,0,0,0,0,0,0,0,0,0,0,0,0],"id":19,"left_children":[1,3,5,7,9,11,13,-1,-1,-1,-1,-1,-1,-1,-1],"loss_changes":[4.9618298E1,3.301496E1,1.3815273E1,1.8884926E1,1.2814629E1,6.575363E0,5.302493E0,0E0,0E0,0E0,0E0,0E0,0E0,0E0,0E0],"parents":[2147483647,0,0,1,1,2,2,3,3,4,4,5,5,6,6],"right_children":[2,4,6,8,10,12,14,-1,-1,-1,-1,-1,-1,-1,-1],"split_conditions":[5.161417E-1,4.944399E-1,5.0204474E-1,5.728417E-1,4.6865672E-1,7.166789E-1,5.3537476E-1,-1.1027141E-3,7.709347E-4,1.8662454E-3,5.614631E-4,-1.987184E-3,-3.951618E-4,3.799187E-4,-8.642249E-4],"split_indices":[2,4,3,0,1,0,6,0,0,0,0,0,0,0,0],"split_type":[0,0,0,0,0,0,0,0,0,0,0,0,0,0,0],"sum_hessian":[8.345773E3,5.279286E3,3.066487E3,2.2668018E3,3.0124846E3,1.6685226E3,1.3979646E3,1.3908484E3,8.7595337E2,1.5165269E3,1.4959578E3,1.3465273E3,3.2199527E2,5.9749E2,8.004746E2],"tree_param":{"num_deleted":"0","num_feature":"15","num_nodes":"15","size_leaf_vector":"1"}},{"base_weights":[5.419166E-3,-5.2758355E-2,1.0556319E-1,3.748875E-2,-1.2065769E-1,1.6395561E-1,2.9914217E-2,6.733587E-4,-2.358308E-3,-1.8477238E-3,-5.5585516E-4,4.3449484E-4,1.9839194E-3,6.392518E-5,1.970346E-3],"categories":[],"categories_nodes":[],"categories_segments":[],"categories_sizes":[],"default_left":[0,0,0,0,0,0,0,0,0,0,0,0,0,0,0],"id":20,"left_children":[1,3,5,7,9,11,13,-1,-1,-1,-1,-1,-1,-1,-1],"loss_changes":[4.8633392E1,3.235966E1,1.3544693E1,1.8515797E1,1.2561752E1,7.174305E0,5.256249E0,0E0,0E0,0E0,0E0,0E0,0E0,0E0,0E0],"parents":[2147483647,0,0,1,1,2,2,3,3,4,4,5,5,6,6],"right_children":[2,4,6,8,10,12,14,-1,-1,-1,-1,-1,-1,-1,-1],"split_conditions":[5.161417E-1,4.944399E-1,5.040622E-1,8.4715825E-1,4.6865672E-1,3.0910885E-1,5.767819E-1,6.733587E-4,-2.358308E-3,-1.8477238E-3,-5.5585516E-4,4.3449484E-4,1.9839194E-3,6.392518E-5,1.970346E-3],"split_indices":[2,4,3,0,1,1,5,0,0,0,0,0,0,0,0],"split_type":[0,0,0,0,0,0,0,0,0,0,0,0,0,0,0],"sum_hessian":[8.345503E3,5.2791274E3,3.0663752E3,2.2667578E3,3.0123699E3,1.7299121E3,1.3364633E3,2.0442722E3,2.2248552E2,1.5164216E3,1.4959482E3,3.8497964E2,1.3449324E3,1.1724786E3,1.6398462E2],"tree_param":{"num_deleted":"0","num_feature":"15","num_nodes":"15","size_leaf_vector":"1"}},{"base_weights":[-5.419142E-3,5.2758392E-2,-1.0556319E-1,-3.7488677E-2,1.20657705E-1,-1.6395561E-1,-2.9914226E-2,-6.733578E-4,2.358308E-3,1.8477238E-3,5.5585545E-4,-4.3449484E-4,-1.9839194E-3,-6.392521E-5,-1.9703468E-3],"categories":[],"categories_nodes":[],"categories_segments":[],"categories_sizes":[],"default_left":[0,0,0,0,0,0,0,0,0,0,0,0,0,0,0],"id":21,"left_children":[1,3,5,7,9,11,13,-1,-1,-1,-1,-1,-1,-1,-1],"loss_changes":[4.8633415E1,3.2359642E1,1.3544693E1,1.8515787E1,1.25617485E1,7.174301E0,5.2562523E0,0E0,0E0,0E0,0E0,0E0,0E0,0E0,0E0],"parents":[2147483647,0,0,1,1,2,2,3,3,4,4,5,5,6,6],"right_children":[2,4,6,8,10,12,14,-1,-1,-1,-1,-1,-1,-1,-1],"split_conditions":[5.161417E-1,4.944399E-1,5.040622E-1,8.4715825E-1,4.6865672E-1,3.0910885E-1,5.767819E-1,-6.733578E-4,2.358308E-3,1.8477238E-3,5.5585545E-4,-4.3449484E-4,-1.9839194E-3,-6.392521E-5,-1.9703468E-3],"split_indices":[2,4,3,0,1,1,5,0,0,0,0,0,0,0,0],"split_type":[0,0,0,0,0,0,0,0,0,0,0,0,0,0,0],"sum_hessian":[8.345503E3,5.279128E3,3.0663752E3,2.2667578E3,3.0123699E3,1.7299121E3,1.3364633E3,2.0442722E3,2.2248552E2,1.5164216E3,1.4959484E3,3.8497964E2,1.3449324E3,1.1724786E3,1.6398462E2],"tree_param":{"num_deleted":"0","num_feature":"15","num_nodes":"15","size_leaf_vector":"1"}},{"base_weights":[5.3652097E-3,7.590311E-2,-7.577788E-2,1.2139099E-1,-9.291446E-2,-1.3767321E-1,1.8904055E-2,-2.8028933E-4,1.613665E-3,-1.5253557E-3,1.0001283E-3,-9.053304E-5,-1.757698E-3,-5.6949095E-4,7.9659355E-4],"categories":[],"categories_nodes":[],"categories_segments":[],"categories_sizes":[],"default_left":[0,0,0,0,0,0,0,0,0,0,0,0,0,0,0],"id":22,"left_children":[1,3,5,7,9,11,13,-1,-1,-1,-1,-1,-1,-1,-1],"loss_changes":[4.7776764E1,3.430168E1,2.2751623E1,2.1018097E1,1.0924005E1,1.1500919E1,7.080303E0,0E0,0E0,0E0,0E0,0E0,0E0,0E0,0E0],"parents":[2147483647,0,0,1,1,2,2,3,3,4,4,5,5,6,6],"right_children":[2,4,6,8,10,12,14,-1,-1,-1,-1,-1,-1,-1,-1],"split_conditions":[5.040622E-1,7.3274255E-1,5.0975364E-1,4.6899924E-1,5.285626E-1,2.868149E-1,5.2871346E-1,-2.8028933E-4,1.613665E-3,-1.5253557E-3,1.0001283E-3,-9.053304E-5,-1.757698E-3,-5.6949095E-4,7.9659355E-4],"split_indices":[3,0,5,5,2,0,6,0,0,0,0,0,0,0,0],"split_type":[0,0,0,0,0,0,0,0,0,0,0,0,0,0,0],"sum_hessian":[8.3452295E3,4.464389E3,3.8808406E3,3.5170117E3,9.473775E2,2.3464614E3,1.5343793E3,7.4239545E2,2.7746162E3,7.238825E2,2.23495E2,5.364755E2,1.8099858E3,6.8242834E2,8.5195087E2],"tree_param":{"num_deleted":"0","num_feature":"15","num_nodes":"15","size_leaf_vector":"1"}},{"base_weights":[-5.3651696E-3,-7.590306E-2,7.577791E-2,-1.21390924E-1,9.291447E-2,1.3767326E-1,-1.8904043E-2,2.8029017E-4,-1.6136644E-3,1.5253559E-3,-1.0001286E-3,9.0533074E-5,1.7576985E-3,5.6949095E-4,-7.9659343E-4],"categories":[],"categories_nodes":[],"categories_segments":[],"categories_sizes":[],"default_left":[0,0,0,0,0,0,0,0,0,0,0,0,0,0,0],"id":23,"left_children":[1,3,5,7,9,11,13,-1,-1,-1,-1,-1,-1,-1,-1],"loss_changes":[4.7776745E1,3.4301666E1,2.2751633E1,2.10181E1,1.0924009E1,1.1500927E1,7.080302E0,0E0,0E0,0E0,0E0,0E0,0E0,0E0,0E0],"parents":[2147483647,0,0,1,1,2,2,3,3,4,4,5,5,6,6],"right_children":[2,4,6,8,10,12,14,-1,-1,-1,-1,-1,-1,-1,-1],"split_conditions":[5.040622E-1,7.3274255E-1,5.0975364E-1,4.6899924E-1,5.285626E-1,2.868149E-1,5.2871346E-1,2.8029017E-4,-1.6136644E-3,1.5253559E-3,-1.0001286E-3,9.0533074E-5,1.7576985E-3,5.6949095E-4,-7.9659343E-4],"split_indices":[3,0,5,5,2,0,6,0,0,0,0,0,0,0,0],"split_type":[0,0,0,0,0,0,0,0,0,0,0,0,0,0,0],"sum_hessian":[8.3452295E3,4.464389E3,3.8808406E3,3.5170117E3,9.473775E2,2.3464614E3,1.5343793E3,7.423955E2,2.7746162E3,7.238825E2,2.2349501E2,5.364755E2,1.8099858E3,6.8242834E2,8.519509E2],"tree_param":{"num_deleted":"0","num_feature":"15","num_nodes":"15","size_leaf_vector":"1"}},{"base_weights":[5.3116004E-3,-5.1823612E-2,1.0366345E-1,3.678914E-2,-1.1849643E-1,1.6335838E-1,3.2362282E-2,2.768567E-3,3.5263463E-5,-1.81609E-3,-5.4449175E-4,1.9323673E-3,3.822894E-4,7.863386E-4,-4.894635E-4],"categories":[],"categories_nodes":[],"categories_segments":[],"categories_sizes":[],"default_left":[0,0,0,0,0,0,0,0,0,0,0,0,0,0,0],"id":24,"left_children":[1,3,5,7,9,11,13,-1,-1,-1,-1,-1,-1,-1,-1],"loss_changes":[4.6904343E1,3.1197933E1,1.3049442E1,1.8107265E1,1.2169792E1,6.233181E0,5.267063E0,0E0,0E0,0E0,0E0,0E0,0E0,0E0,0E0],"parents":[2147483647,0,0,1,1,2,2,3,3,4,4,5,5,6,6],"right_children":[2,4,6,8,10,12,14,-1,-1,-1,-1,-1,-1,-1,-1],"split_conditions":[5.161417E-1,4.944399E-1,5.0204474E-1,1.5837714E-1,4.6865672E-1,7.166789E-1,5.4954445E-1,2.768567E-3,3.5263463E-5,-1.81609E-3,-5.4449175E-4,1.9323673E-3,3.822894E-4,7.863386E-4,-4.894635E-4],"split_indices":[2,4,3,0,1,0,8,0,0,0,0,0,0,0,0],"split_type":[0,0,0,0,0,0,0,0,0,0,0,0,0,0,0],"sum_hessian":[8.344973E3,5.278832E3,3.066141E3,2.2666914E3,3.0121404E3,1.6681978E3,1.3979432E3,2.749526E2,1.9917389E3,1.516216E3,1.4959244E3,1.3462067E3,3.2199112E2,8.909496E2,5.069937E2],"tree_param":{"num_deleted":"0","num_feature":"15","num_nodes":"15","size_leaf_vector":"1"}},{"base_weights":[-5.311605E-3,5.182358E-2,-1.03663415E-1,-3.678911E-2,1.1849635E-1,-1.6335832E-1,-3.2362264E-2,-2.7685666E-3,-3.5263212E-5,1.8160893E-3,5.4449093E-4,-1.9323664E-3,-3.8229E-4,-7.8633835E-4,4.894636E-4],"categories":[],"categories_nodes":[],"categories_segments":[],"categories_sizes":[],"default_left":[0,0,0,0,0,0,0,0,0,0,0,0,0,0,0],"id":25,"left_children":[1,3,5,7,9,11,13,-1,-1,-1,-1,-1,-1,-1,-1],"loss_changes":[4.6904305E1,3.1197895E1,1.3049435E1,1.810726E1,1.2169788E1,6.2331696E0,5.267063E0,0E0,0E0,0E0,0E0,0E0,0E0,0E0,0E0],"parents":[2147483647,0,0,1,1,2,2,3,3,4,4,5,5,6,6],"right_children":[2,4,6,8,10,12,14,-1,-1,-1,-1,-1,-1,-1,-1],"split_conditions":[5.161417E-1,4.944399E-1,5.0204474E-1,1.5837714E-1,4.6865672E-1,7.166789E-1,5.4954445E-1,-2.7685666E-3,-3.5263212E-5,1.8160893E-3,5.4449093E-4,-1.9323664E-3,-3.8229E-4,-7.8633835E-4,4.894636E-4],"split_indices":[2,4,3,0,1,0,8,0,0,0,0,0,0,0,0],"split_type":[0,0,0,0,0,0,0,0,0,0,0,0,0,0,0],"sum_hessian":[8.344973E3,5.278832E3,3.066141E3,2.2666914E3,3.0121404E3,1.6681978E3,1.3979432E3,2.7495264E2,1.9917389E3,1.5162161E3,1.4959244E3,1.3462067E3,3.2199112E2,8.909496E2,5.069937E2],"tree_param":{"num_deleted":"0","num_feature":"15","num_nodes":"15","size_leaf_vector":"1"}},{"base_weights":[5.259042E-3,7.4510075E-2,-7.4402526E-2,1.19325E-1,-9.180345E-2,-1.3526702E-1,1.8696398E-2,-2.7959014E-4,1.5873263E-3,-1.506562E-3,9.863056E-4,-8.55526E-5,-1.7280233E-3,-5.617474E-4,7.8664586E-4],"categories":[],"categories_nodes":[],"categories_segments":[],"categories_sizes":[],"default_left":[0,0,0,0,0,0,0,0,0,0,0,0,0,0,0],"id":26,"left_children":[1,3,5,7,9,11,13,-1,-1,-1,-1,-1,-1,-1,-1],"loss_changes":[4.604562E1,3.329049E1,2.1997355E1,2.0421696E1,1.0643386E1,1.1162479E1,6.897958E0,0E0,0E0,0E0,0E0,0E0,0E0,0E0,0E0],"parents":[2147483647,0,0,1,1,2,2,3,3,4,4,5,5,6,6],"right_children":[2,4,6,8,10,12,14,-1,-1,-1,-1,-1,-1,-1,-1],"split_conditions":[5.040622E-1,7.3274255E-1,5.0975364E-1,4.6899924E-1,5.285626E-1,2.868149E-1,5.2871346E-1,-2.7959014E-4,1.5873263E-3,-1.506562E-3,9.863056E-4,-8.55526E-5,-1.7280233E-3,-5.617474E-4,7.8664586E-4],"split_indices":[3,0,5,5,2,0,6,0,0,0,0,0,0,0,0],"split_type":[0,0,0,0,0,0,0,0,0,0,0,0,0,0,0],"sum_hessian":[8.344666E3,4.464057E3,3.8806091E3,3.5167217E3,9.473351E2,2.346261E3,1.5343481E3,7.423854E2,2.7743364E3,7.238435E2,2.2349162E2,5.3647064E2,1.8097903E3,6.8241125E2,8.519369E2],"tree_param":{"num_deleted":"0","num_feature":"15","num_nodes":"15","size_leaf_vector":"1"}},{"base_weights":[-5.2590286E-3,-7.4510045E-2,7.4402526E-2,-1.19324975E-1,9.180347E-2,1.3526702E-1,-1.8696405E-2,2.7959023E-4,-1.587326E-3,1.5065623E-3,-9.863055E-4,8.555233E-5,1.7280234E-3,5.617472E-4,-7.8664586E-4],"categories":[],"categories_nodes":[],"categories_segments":[],"categories_sizes":[],"default_left":[0,0,0,0,0,0,0,0,0,0,0,0,0,0,0],"id":27,"left_children":[1,3,5,7,9,11,13,-1,-1,-1,-1,-1,-1,-1,-1],"loss_changes":[4.604561E1,3.329049E1,2.1997356E1,2.0421696E1,1.064339E1,1.1162487E1,6.8979564E0,0E0,0E0,0E0,0E0,0E0,0E0,0E0,0E0],"parents":[2147483647,0,0,1,1,2,2,3,3,4,4,5,5,6,6],"right_children":[2,4,6,8,10,12,14,-1,-1,-1,-1,-1,-1,-1,-1],"split_conditions":[5.040622E-1,7.3274255E-1,5.0975364E-1,4.6899924E-1,5.285626E-1,2.868149E-1,5.2871346E-1,2.7959023E-4,-1.587326E-3,1.5065623E-3,-9.863055E-4,8.555233E-5,1.7280234E-3,5.617472E-4,-7.8664586E-4],"split_indices":[3,0,5,5,2,0,6,0,0,0,0,0,0,0,0],"split_type":[0,0,0,0,0,0,0,0,0,0,0,0,0,0,0],"sum_hessian":[8.344666E3,4.464057E3,3.8806091E3,3.516722E3,9.4733514E2,2.346261E3,1.5343481E3,7.423853E2,2.7743364E3,7.238435E2,2.2349162E2,5.3647064E2,1.8097903E3,6.8241125E2,8.519369E2],"tree_param":{"num_deleted":"0","num_feature":"15","num_nodes":"15","size_leaf_vector":"1"}},{"base_weights":[5.2065193E-3,-5.0903782E-2,1.0179643E-1,3.610616E-2,-1.16374314E-1,1.6038254E-1,3.182915E-2,1.0627015E-3,-7.52881E-4,-1.785019E-3,-5.333524E-4,1.8975459E-3,3.7395037E-4,7.7612634E-4,-4.862027E-4],"categories":[],"categories_nodes":[],"categories_segments":[],"categories_sizes":[],"default_left":[0,0,0,0,0,0,0,0,0,0,0,0,0,0,0],"id":28,"left_children":[1,3,5,7,9,11,13,-1,-1,-1,-1,-1,-1,-1,-1],"loss_changes":[4.523447E1,3.00793E1,1.25663395E1,1.7731407E1,1.1790298E1,6.021801E0,5.1563673E0,0E0,0E0,0E0,0E0,0E0,0E0,0E0,0E0],"parents":[2147483647,0,0,1,1,2,2,3,3,4,4,5,5,6,6],"right_children":[2,4,6,8,10,12,14,-1,-1,-1,-1,-1,-1,-1,-1],"split_conditions":[5.161417E-1,4.944399E-1,5.0204474E-1,5.728417E-1,4.6865672E-1,7.166789E-1,5.4954445E-1,1.0627015E-3,-7.52881E-4,-1.785019E-3,-5.333524E-4,1.8975459E-3,3.7395037E-4,7.7612634E-4,-4.862027E-4],"split_indices":[2,4,3,0,1,0,8,0,0,0,0,0,0,0,0],"split_type":[0,0,0,0,0,0,0,0,0,0,0,0,0,0,0],"sum_hessian":[8.344364E3,5.278494E3,3.0658708E3,2.2666191E3,3.0118748E3,1.667947E3,1.3979237E3,1.3907024E3,8.7591675E2,1.5159814E3,1.4958934E3,1.3459601E3,3.2198694E2,8.909324E2,5.0699133E2],"tree_param":{"num_deleted":"0","num_feature":"15","num_nodes":"15","size_leaf_vector":"1"}},{"base_weights":[-5.2065374E-3,5.0903793E-2,-1.017965E-1,-3.6106147E-2,1.16374314E-1,-1.6038263E-1,-3.1829182E-2,-1.0627012E-3,7.52881E-4,1.7850192E-3,5.333522E-4,-1.8975469E-3,-3.7395026E-4,-7.7612675E-4,4.8620233E-4],"categories":[],"categories_nodes":[],"categories_segments":[],"categories_sizes":[],"default_left":[0,0,0,0,0,0,0,0,0,0,0,0,0,0,0],"id":29,"left_children":[1,3,5,7,9,11,13,-1,-1,-1,-1,-1,-1,-1,-1],"loss_changes":[4.523451E1,3.0079296E1,1.2566353E1,1.7731403E1,1.179031E1,6.021805E0,5.156367E0,0E0,0E0,0E0,0E0,0E0,0E0,0E0,0E0],"parents":[2147483647,0,0,1,1,2,2,3,3,4,4,5,5,6,6],"right_children":[2,4,6,8,10,12,14,-1,-1,-1,-1,-1,-1,-1,-1],"split_conditions":[5.161417E-1,4.944399E-1,5.0204474E-1,5.728417E-1,4.6865672E-1,7.166789E-1,5.4954445E-1,-1.0627012E-3,7.52881E-4,1.7850192E-3,5.333522E-4,-1.8975469E-3,-3.7395026E-4,-7.7612675E-4,4.8620233E-4],"split_indices":[2,4,3,0,1,0,8,0,0,0,0,0,0,0,0],"split_type":[0,0,0,0,0,0,0,0,0,0,0,0,0,0,0],"sum_hessian":[8.344365E3,5.278494E3,3.0658708E3,2.2666191E3,3.011875E3,1.667947E3,1.3979237E3,1.3907024E3,8.7591675E2,1.5159814E3,1.4958934E3,1.3459601E3,3.2198694E2,8.909324E2,5.0699133E2],"tree_param":{"num_deleted":"0","num_feature":"15","num_nodes":"15","size_leaf_vector":"1"}},{"base_weights":[5.154781E-3,7.314641E-2,-7.305628E-2,1.1719495E-1,-9.031655E-2,-1.3291031E-1,1.8490031E-2,-2.8058465E-4,1.5606318E-3,-1.4829285E-3,9.7270636E-4,-8.076515E-5,-1.6989378E-3,-5.5410597E-4,7.768034E-4],"categories":[],"categories_nodes":[],"categories_segments":[],"categories_sizes":[],"default_left":[0,0,0,0,0,0,0,0,0,0,0,0,0,0,0],"id":30,"left_children":[1,3,5,7,9,11,13,-1,-1,-1,-1,-1,-1,-1,-1],"loss_changes":[4.4381477E1,3.2157417E1,2.1269945E1,1.9862545E1,1.0327524E1,1.0834362E1,6.720071E0,0E0,0E0,0E0,0E0,0E0,0E0,0E0,0E0],"parents":[2147483647,0,0,1,1,2,2,3,3,4,4,5,5,6,6],"right_children":[2,4,6,8,10,12,14,-1,-1,-1,-1,-1,-1,-1,-1],"split_conditions":[5.040622E-1,7.3274255E-1,5.0975364E-1,4.6899924E-1,5.285626E-1,2.868149E-1,5.2871346E-1,-2.8058465E-4,1.5606318E-3,-1.4829285E-3,9.7270636E-4,-8.076515E-5,-1.6989378E-3,-5.5410597E-4,7.768034E-4],"split_indices":[3,0,5,5,2,0,6,0,0,0,0,0,0,0,0],"split_type":[0,0,0,0,0,0,0,0,0,0,0,0,0,0,0],"sum_hessian":[8.34399E3,4.4636484E3,3.8803418E3,3.516371E3,9.472774E2,2.346029E3,1.5343127E3,7.423675E2,2.7740037E3,7.2379E2,2.2348746E2,5.3646533E2,1.8095637E3,6.823923E2,8.519205E2],"tree_param":{"num_deleted":"0","num_feature":"15","num_nodes":"15","size_leaf_vector":"1"}},{"base_weights":[-5.1547824E-3,-7.31464E-2,7.305628E-2,-1.1719495E-1,9.031654E-2,1.3291033E-1,-1.8490057E-2,2.8058447E-4,-1.5606317E-3,1.4829285E-3,-9.7270636E-4,8.07659E-5,1.6989378E-3,5.541058E-4,-7.7680376E-4],"categories":[],"categories_nodes":[],"categories_segments":[],"categories_sizes":[],"default_left":[0,0,0,0,0,0,0,0,0,0,0,0,0,0,0],"id":31,"left_children":[1,3,5,7,9,11,13,-1,-1,-1,-1,-1,-1,-1,-1],"loss_changes":[4.438147E1,3.2157417E1,2.1269955E1,1.9862541E1,1.0327525E1,1.0834351E1,6.720073E0,0E0,0E0,0E0,0E0,0E0,0E0,0E0,0E0],"parents":[2147483647,0,0,1,1,2,2,3,3,4,4,5,5,6,6],"right_children":[2,4,6,8,10,12,14,-1,-1,-1,-1,-1,-1,-1,-1],"split_conditions":[5.040622E-1,7.3274255E-1,5.0975364E-1,4.6899924E-1,5.285626E-1,2.868149E-1,5.2871346E-1,2.8058447E-4,-1.5606317E-3,1.4829285E-3,-9.7270636E-4,8.07659E-5,1.6989378E-3,5.541058E-4,-7.7680376E-4],"split_indices":[3,0,5,5,2,0,6,0,0,0,0,0,0,0,0],"split_type":[0,0,0,0,0,0,0,0,0,0,0,0,0,0,0],"sum_hessian":[8.34399E3,4.4636484E3,3.8803418E3,3.516371E3,9.472774E2,2.346029E3,1.5343127E3,7.4236743E2,2.7740037E3,7.2379E2,2.2348746E2,5.3646533E2,1.8095637E3,6.823923E2,8.519205E2],"tree_param":{"num_deleted":"0","num_feature":"15","num_nodes":"15","size_leaf_vector":"1"}},{"base_weights":[5.1033446E-3,-5.000043E-2,9.996249E-2,3.5436846E-2,-1.1429069E-1,1.9836482E-1,5.9712607E-2,2.7138323E-3,2.74909E-5,-1.7545038E-3,-5.2243023E-4,3.8531004E-3,1.5030527E-3,8.359932E-4,-5.896262E-4],"categories":[],"categories_nodes":[],"categories_segments":[],"categories_sizes":[],"default_left":[0,0,0,0,0,0,0,0,0,0,0,0,0,0,0],"id":32,"left_children":[1,3,5,7,9,11,13,-1,-1,-1,-1,-1,-1,-1,-1],"loss_changes":[4.3623272E1,2.9000889E1,1.2133858E1,1.7487501E1,1.1423004E1,7.9362717E0,6.1784506E0,0E0,0E0,0E0,0E0,0E0,0E0,0E0,0E0],"parents":[2147483647,0,0,1,1,2,2,3,3,4,4,5,5,6,6],"right_children":[2,4,6,8,10,12,14,-1,-1,-1,-1,-1,-1,-1,-1],"split_conditions":[5.161417E-1,4.944399E-1,4.711202E-1,1.5837714E-1,4.6865672E-1,1.8374087E-1,5.498289E-1,2.7138323E-3,2.74909E-5,-1.7545038E-3,-5.2243023E-4,3.8531004E-3,1.5030527E-3,8.359932E-4,-5.896262E-4],"split_indices":[2,4,4,0,1,0,3,0,0,0,0,0,0,0,0],"split_type":[0,0,0,0,0,0,0,0,0,0,0,0,0,0,0],"sum_hessian":[8.3436455E3,5.2780776E3,3.0655679E3,2.2665024E3,3.0115752E3,8.887751E2,2.1767927E3,2.7490247E2,1.9916001E3,1.5157195E3,1.4958556E3,1.8032344E2,7.0845166E2,1.8123102E3,3.644826E2],"tree_param":{"num_deleted":"0","num_feature":"15","num_nodes":"15","size_leaf_vector":"1"}},{"base_weights":[-5.103337E-3,5.000045E-2,-9.996251E-2,-3.5436835E-2,1.1429072E-1,-1.9836481E-1,-5.9712633E-2,-2.7138318E-3,-2.7490754E-5,1.7545038E-3,5.224307E-4,-3.8531004E-3,-1.5030527E-3,-8.3599344E-4,5.8962574E-4],"categories":[],"categories_nodes":[],"categories_segments":[],"categories_sizes":[],"default_left":[0,0,0,0,0,0,0,0,0,0,0,0,0,0,0],"id":33,"left_children":[1,3,5,7,9,11,13,-1,-1,-1,-1,-1,-1,-1,-1],"loss_changes":[4.3623295E1,2.9000896E1,1.2133854E1,1.74875E1,1.1422993E1,7.9362717E0,6.178449E0,0E0,0E0,0E0,0E0,0E0,0E0,0E0,0E0],"parents":[2147483647,0,0,1,1,2,2,3,3,4,4,5,5,6,6],"right_children":[2,4,6,8,10,12,14,-1,-1,-1,-1,-1,-1,-1,-1],"split_conditions":[5.161417E-1,4.944399E-1,4.711202E-1,1.5837714E-1,4.6865672E-1,1.8374087E-1,5.498289E-1,-2.7138318E-3,-2.7490754E-5,1.7545038E-3,5.224307E-4,-3.8531004E-3,-1.5030527E-3,-8.3599344E-4,5.8962574E-4],"split_indices":[2,4,4,0,1,0,3,0,0,0,0,0,0,0,0],"split_type":[0,0,0,0,0,0,0,0,0,0,0,0,0,0,0],"sum_hessian":[8.3436455E3,5.2780776E3,3.0655679E3,2.2665024E3,3.0115752E3,8.887751E2,2.1767927E3,2.749025E2,1.9916001E3,1.5157196E3,1.4958556E3,1.8032344E2,7.0845166E2,1.8123102E3,3.6448257E2],"tree_param":{"num_deleted":"0","num_feature":"15","num_nodes":"15","size_leaf_vector":"1"}},{"base_weights":[5.053247E-3,7.1850464E-2,-7.178285E-2,1.1532653E-1,-8.9482106E-2,-1.3059504E-1,1.816218E-2,-5.206887E-4,1.4815498E-3,-1.465484E-3,9.5156964E-4,-7.60246E-5,-1.6703794E-3,-5.478233E-4,7.6586386E-4],"categories":[],"categories_nodes":[],"categories_segments":[],"categories_sizes":[],"default_left":[0,0,0,0,0,0,0,0,0,0,0,0,0,0,0],"id":34,"left_children":[1,3,5,7,9,11,13,-1,-1,-1,-1,-1,-1,-1,-1],"loss_changes":[4.2831726E1,3.1323034E1,2.0532581E1,1.933496E1,1.0005007E1,1.0517437E1,6.547121E0,0E0,0E0,0E0,0E0,0E0,0E0,0E0,0E0],"parents":[2147483647,0,0,1,1,2,2,3,3,4,4,5,5,6,6],"right_children":[2,4,6,8,10,12,14,-1,-1,-1,-1,-1,-1,-1,-1],"split_conditions":[5.040622E-1,7.3274255E-1,5.0975364E-1,4.6130434E-1,5.285626E-1,2.868149E-1,5.2871346E-1,-5.206887E-4,1.4815498E-3,-1.465484E-3,9.5156964E-4,-7.60246E-5,-1.6703794E-3,-5.478233E-4,7.6586386E-4],"split_indices":[3,0,5,5,2,0,6,0,0,0,0,0,0,0,0],"split_type":[0,0,0,0,0,0,0,0,0,0,0,0,0,0,0],"sum_hessian":[8.343295E3,4.4632485E3,3.8800461E3,3.5160303E3,9.472184E2,2.3457698E3,1.5342762E3,5.7638776E2,2.9396423E3,7.237391E2,2.2347935E2,5.364597E2,1.8093102E3,6.8237335E2,8.519029E2],"tree_param":{"num_deleted":"0","num_feature":"15","num_nodes":"15","size_leaf_vector":"1"}},{"base_weights":[-5.0532552E-3,-7.1850464E-2,7.178283E-2,-1.1532653E-1,8.9482084E-2,1.3059501E-1,-1.8162187E-2,5.206886E-4,-1.4815497E-3,1.465484E-3,-9.5157063E-4,7.6023825E-5,1.6703793E-3,5.4782315E-4,-7.6586386E-4],"categories":[],"categories_nodes":[],"categories_segments":[],"categories_sizes":[],"default_left":[0,0,0,0,0,0,0,0,0,0,0,0,0,0,0],"id":35,"left_children":[1,3,5,7,9,11,13,-1,-1,-1,-1,-1,-1,-1,-1],"loss_changes":[4.2831715E1,3.1323027E1,2.0532572E1,1.9334957E1,1.0005015E1,1.0517448E1,6.547119E0,0E0,0E0,0E0,0E0,0E0,0E0,0E0,0E0],"parents":[2147483647,0,0,1,1,2,2,3,3,4,4,5,5,6,6],"right_children":[2,4,6,8,10,12,14,-1,-1,-1,-1,-1,-1,-1,-1],"split_conditions":[5.040622E-1,7.3274255E-1,5.0975364E-1,4.6130434E-1,5.285626E-1,2.868149E-1,5.2871346E-1,5.206886E-4,-1.4815497E-3,1.465484E-3,-9.5157063E-4,7.6023825E-5,1.6703793E-3,5.4782315E-4,-7.6586386E-4],"split_indices":[3,0,5,5,2,0,6,0,0,0,0,0,0,0,0],"split_type":[0,0,0,0,0,0,0,0,0,0,0,0,0,0,0],"sum_hessian":[8.343295E3,4.4632485E3,3.8800461E3,3.51603E3,9.4721844E2,2.34577E3,1.5342762E3,5.7638776E2,2.9396423E3,7.237391E2,2.2347934E2,5.364598E2,1.8093103E3,6.8237335E2,8.519029E2],"tree_param":{"num_deleted":"0","num_feature":"15","num_nodes":"15","size_leaf_vector":"1"}},{"base_weights":[5.002802E-3,-9.229425E-2,5.691054E-2,-5.3175885E-2,-2.4064408E-1,1.499249E-1,1.1495892E-3,7.733859E-4,-1.0883942E-3,-1.6201441E-3,-3.01318E-3,3.433426E-3,1.0761364E-3,-3.7086115E-4,9.839737E-4],"categories":[],"categories_nodes":[],"categories_segments":[],"categories_sizes":[],"default_left":[0,0,0,0,0,0,0,0,0,0,0,0,0,0,0],"id":36,"left_children":[1,3,5,7,9,11,13,-1,-1,-1,-1,-1,-1,-1,-1],"loss_changes":[4.2145958E1,1.6835037E1,2.8223688E1,1.6708088E1,2.8399658E0,1.6654198E1,1.2657793E1,0E0,0E0,0E0,0E0,0E0,0E0,0E0,0E0],"parents":[2147483647,0,0,1,1,2,2,3,3,4,4,5,5,6,6],"right_children":[2,4,6,8,10,12,14,-1,-1,-1,-1,-1,-1,-1,-1],"split_conditions":[4.8355517E-1,7.593699E-1,4.837071E-1,4.782236E-1,5.0288266E-1,1.8374087E-1,5.393899E-1,7.733859E-4,-1.0883942E-3,-1.6201441E-3,-3.01318E-3,3.433426E-3,1.0761364E-3,-3.7086115E-4,9.839737E-4],"split_indices":[5,0,4,3,4,0,2,0,0,0,0,0,0,0,0],"split_type":[0,0,0,0,0,0,0,0,0,0,0,0,0,0,0],"sum_hessian":[8.342916E3,2.9021958E3,5.4407207E3,2.2976792E3,6.0451666E2,2.0385479E3,3.4021726E3,6.868442E2,1.6108351E3,2.648969E2,3.3961975E2,3.646243E2,1.6739236E3,2.4424666E3,9.597059E2],"tree_param":{"num_deleted":"0","num_feature":"15","num_nodes":"15","size_leaf_vector":"1"}},{"base_weights":[-5.0028213E-3,9.229424E-2,-5.6910563E-2,5.317587E-2,2.4064405E-1,-1.499249E-1,-1.14962E-3,-7.733855E-4,1.0883939E-3,1.6201445E-3,3.0131792E-3,-3.4334261E-3,-1.0761365E-3,3.7086083E-4,-9.839741E-4],"categories":[],"categories_nodes":[],"categories_segments":[],"categories_sizes":[],"default_left":[0,0,0,0,0,0,0,0,0,0,0,0,0,0,0],"id":37,"left_children":[1,3,5,7,9,11,13,-1,-1,-1,-1,-1,-1,-1,-1],"loss_changes":[4.2145958E1,1.6835035E1,2.8223679E1,1.6708076E1,2.8399582E0,1.6654202E1,1.2657795E1,0E0,0E0,0E0,0E0,0E0,0E0,0E0,0E0],"parents":[2147483647,0,0,1,1,2,2,3,3,4,4,5,5,6,6],"right_children":[2,4,6,8,10,12,14,-1,-1,-1,-1,-1,-1,-1,-1],"split_conditions":[4.8355517E-1,7.593699E-1,4.837071E-1,4.782236E-1,5.0288266E-1,1.8374087E-1,5.393899E-1,-7.733855E-4,1.0883939E-3,1.6201445E-3,3.0131792E-3,-3.4334261E-3,-1.0761365E-3,3.7086083E-4,-9.839741E-4],"split_indices":[5,0,4,3,4,0,2,0,0,0,0,0,0,0,0],"split_type":[0,0,0,0,0,0,0,0,0,0,0,0,0,0,0],"sum_hessian":[8.342916E3,2.902196E3,5.4407207E3,2.2976792E3,6.0451666E2,2.0385479E3,3.4021726E3,6.868442E2,1.6108351E3,2.648969E2,3.3961975E2,3.6462427E2,1.6739236E3,2.4424668E3,9.597059E2],"tree_param":{"num_deleted":"0","num_feature":"15","num_nodes":"15","size_leaf_vector":"1"}},{"base_weights":[4.9530095E-3,-4.8740104E-2,9.738598E-2,3.4350496E-2,-1.112704E-1,1.9358832E-1,5.8045074E-2,2.6652452E-3,2.191352E-5,-1.7125923E-3,-5.0424825E-4,3.7683432E-3,1.4649949E-3,8.1582484E-4,-5.888316E-4],"categories":[],"categories_nodes":[],"categories_segments":[],"categories_sizes":[],"default_left":[0,0,0,0,0,0,0,0,0,0,0,0,0,0,0],"id":38,"left_children":[1,3,5,7,9,11,13,-1,-1,-1,-1,-1,-1,-1,-1],"loss_changes":[4.1414043E1,2.7428953E1,1.1593096E1,1.6928663E1,1.0985676E1,7.620182E0,5.9980373E0,0E0,0E0,0E0,0E0,0E0,0E0,0E0,0E0],"parents":[2147483647,0,0,1,1,2,2,3,3,4,4,5,5,6,6],"right_children":[2,4,6,8,10,12,14,-1,-1,-1,-1,-1,-1,-1,-1],"split_conditions":[5.161417E-1,4.944399E-1,4.711202E-1,1.5837714E-1,4.6865672E-1,1.8374087E-1,5.498289E-1,2.6652452E-3,2.191352E-5,-1.7125923E-3,-5.0424825E-4,3.7683432E-3,1.4649949E-3,8.1582484E-4,-5.888316E-4],"split_indices":[2,4,4,0,1,0,3,0,0,0,0,0,0,0,0],"split_type":[0,0,0,0,0,0,0,0,0,0,0,0,0,0,0],"sum_hessian":[8.342578E3,5.277449E3,3.065129E3,2.266355E3,3.0110942E3,8.885041E2,2.176625E3,2.7484128E2,1.9915137E3,1.5153079E3,1.4957864E3,1.8021095E2,7.082931E2,1.8121459E3,3.6447897E2],"tree_param":{"num_deleted":"0","num_feature":"15","num_nodes":"15","size_leaf_vector":"1"}},{"base_weights":[-4.9530086E-3,4.8740096E-2,-9.738597E-2,-3.4350496E-2,1.1127039E-1,-1.9358826E-1,-5.8045078E-2,-2.6652454E-3,-2.1913484E-5,1.7125921E-3,5.042483E-4,-3.768342E-3,-1.4649945E-3,-8.1582484E-4,5.888312E-4],"categories":[],"categories_nodes":[],"categories_segments":[],"categories_sizes":[],"default_left":[0,0,0,0,0,0,0,0,0,0,0,0,0,0,0],"id":39,"left_children":[1,3,5,7,9,11,13,-1,-1,-1,-1,-1,-1,-1,-1],"loss_changes":[4.1414036E1,2.7428947E1,1.1593092E1,1.6928663E1,1.0985668E1,7.6201744E0,5.998034E0,0E0,0E0,0E0,0E0,0E0,0E0,0E0,0E0],"parents":[2147483647,0,0,1,1,2,2,3,3,4,4,5,5,6,6],"right_children":[2,4,6,8,10,12,14,-1,-1,-1,-1,-1,-1,-1,-1],"split_conditions":[5.161417E-1,4.944399E-1,4.711202E-1,1.5837714E-1,4.6865672E-1,1.8374087E-1,5.498289E-1,-2.6652454E-3,-2.1913484E-5,1.7125921E-3,5.042483E-4,-3.768342E-3,-1.4649945E-3,-8.1582484E-4,5.888312E-4],"split_indices":[2,4,4,0,1,0,3,0,0,0,0,0,0,0,0],"split_type":[0,0,0,0,0,0,0,0,0,0,0,0,0,0,0],"sum_hessian":[8.342578E3,5.277449E3,3.065129E3,2.266355E3,3.0110942E3,8.88504E2,2.176625E3,2.748413E2,1.9915138E3,1.515308E3,1.4957864E3,1.8021095E2,7.082931E2,1.8121459E3,3.6447897E2],"tree_param":{"num_deleted":"0","num_feature":"15","num_nodes":"15","size_leaf_vector":"1"}},{"base_weights":[4.9044415E-3,-9.088252E-2,5.6005996E-2,-5.2300684E-2,-2.3722193E-1,1.4734274E-1,1.2563847E-3,7.616293E-4,-1.0709161E-3,-2.479447E-3,1.8720261E-3,3.3734234E-3,1.0579361E-3,-3.634375E-4,9.688765E-4],"categories":[],"categories_nodes":[],"categories_segments":[],"categories_sizes":[],"default_left":[0,0,0,0,0,0,0,0,0,0,0,0,0,0,0],"id":40,"left_children":[1,3,5,7,9,11,13,-1,-1,-1,-1,-1,-1,-1,-1],"loss_changes":[4.0843796E1,1.6377592E1,2.720966E1,1.618674E1,2.8015137E0,1.6062744E1,1.2239913E1,0E0,0E0,0E0,0E0,0E0,0E0,0E0,0E0],"parents":[2147483647,0,0,1,1,2,2,3,3,4,4,5,5,6,6],"right_children":[2,4,6,8,10,12,14,-1,-1,-1,-1,-1,-1,-1,-1],"split_conditions":[4.8355517E-1,7.593699E-1,4.837071E-1,4.782236E-1,1.6512213E0,1.8374087E-1,5.393899E-1,7.616293E-4,-1.0709161E-3,-2.479447E-3,1.8720261E-3,3.3734234E-3,1.0579361E-3,-3.634375E-4,9.688765E-4],"split_indices":[5,0,4,3,11,0,2,0,0,0,0,0,0,0,0],"split_type":[0,0,0,0,0,0,0,0,0,0,0,0,0,0,0],"sum_hessian":[8.342179E3,2.9019187E3,5.44026E3,2.2975386E3,6.0437994E2,2.038243E3,3.4020168E3,6.8682E2,1.6107186E3,5.898925E2,1.4487409E1,3.6446512E2,1.673778E3,2.4423557E3,9.5966113E2],"tree_param":{"num_deleted":"0","num_feature":"15","num_nodes":"15","size_leaf_vector":"1"}},{"base_weights":[-4.9044397E-3,9.088252E-2,-5.6005996E-2,5.2300703E-2,2.3722188E-1,-1.4734271E-1,-1.2563987E-3,-7.616293E-4,1.0709163E-3,2.4794466E-3,-1.8720261E-3,-3.3734238E-3,-1.0579358E-3,3.6343726E-4,-9.6887647E-4],"categories":[],"categories_nodes":[],"categories_segments":[],"categories_sizes":[],"default_left":[0,0,0,0,0,0,0,0,0,0,0,0,0,0,0],"id":41,"left_children":[1,3,5,7,9,11,13,-1,-1,-1,-1,-1,-1,-1,-1],"loss_changes":[4.08438E1,1.6377586E1,2.720964E1,1.6186747E1,2.801506E0,1.606276E1,1.2239907E1,0E0,0E0,0E0,0E0,0E0,0E0,0E0,0E0],"parents":[2147483647,0,0,1,1,2,2,3,3,4,4,5,5,6,6],"right_children":[2,4,6,8,10,12,14,-1,-1,-1,-1,-1,-1,-1,-1],"split_conditions":[4.8355517E-1,7.593699E-1,4.837071E-1,4.782236E-1,1.6512213E0,1.8374087E-1,5.393899E-1,-7.616293E-4,1.0709163E-3,2.4794466E-3,-1.8720261E-3,-3.3734238E-3,-1.0579358E-3,3.6343726E-4,-9.6887647E-4],"split_indices":[5,0,4,3,11,0,2,0,0,0,0,0,0,0,0],"split_type":[0,0,0,0,0,0,0,0,0,0,0,0,0,0,0],"sum_hessian":[8.342179E3,2.9019187E3,5.44026E3,2.2975386E3,6.0437994E2,2.0382432E3,3.4020166E3,6.8681995E2,1.6107186E3,5.898925E2,1.4487409E1,3.6446512E2,1.6737781E3,2.4423557E3,9.5966113E2],"tree_param":{"num_deleted":"0","num_feature":"15","num_nodes":"15","size_leaf_vector":"1"}},{"base_weights":[4.856106E-3,6.950834E-2,-6.9509804E-2,1.12016685E-1,-8.8219896E-2,-1.2631153E-1,1.7344626E-2,-5.181136E-4,1.4415253E-3,-1.4370123E-3,9.128659E-4,-5.6178134E-5,-1.6208322E-3,-5.408403E-4,7.455567E-4],"categories":[],"categories_nodes":[],"categories_segments":[],"categories_sizes":[],"default_left":[0,0,0,0,0,0,0,0,0,0,0,0,0,0,0],"id":42,"left_children":[1,3,5,7,9,11,13,-1,-1,-1,-1,-1,-1,-1,-1],"loss_changes":[4.01164E1,2.9935774E1,1.9146235E1,1.8519833E1,9.455417E0,1.0128742E1,6.277659E0,0E0,0E0,0E0,0E0,0E0,0E0,0E0,0E0],"parents":[2147483647,0,0,1,1,2,2,3,3,4,4,5,5,6,6],"right_children":[2,4,6,8,10,12,14,-1,-1,-1,-1,-1,-1,-1,-1],"split_conditions":[5.040622E-1,7.3274255E-1,5.0975364E-1,4.6130434E-1,5.285626E-1,2.868149E-1,5.2871346E-1,-5.181136E-4,1.4415253E-3,-1.4370123E-3,9.128659E-4,-5.6178134E-5,-1.6208322E-3,-5.408403E-4,7.455567E-4],"split_indices":[3,0,5,5,2,0,6,0,0,0,0,0,0,0,0],"split_type":[0,0,0,0,0,0,0,0,0,0,0,0,0,0,0],"sum_hessian":[8.341809E3,4.462375E3,3.8794336E3,3.5152827E3,9.4709216E2,2.345229E3,1.5342047E3,5.7636597E2,2.9389167E3,7.236332E2,2.2345898E2,5.3643945E2,1.8087894E3,6.823444E2,8.518603E2],"tree_param":{"num_deleted":"0","num_feature":"15","num_nodes":"15","size_leaf_vector":"1"}},{"base_weights":[-4.8561166E-3,-6.950835E-2,6.9509804E-2,-1.1201671E-1,8.8219896E-2,1.2631151E-1,-1.7344609E-2,5.1811326E-4,-1.4415255E-3,1.4370126E-3,-9.1286626E-4,5.617797E-5,1.620832E-3,5.408407E-4,-7.455566E-4],"categories":[],"categories_nodes":[],"categories_segments":[],"categories_sizes":[],"default_left":[0,0,0,0,0,0,0,0,0,0,0,0,0,0,0],"id":43,"left_children":[1,3,5,7,9,11,13,-1,-1,-1,-1,-1,-1,-1,-1],"loss_changes":[4.011641E1,2.9935781E1,1.9146225E1,1.8519825E1,9.45542E0,1.0128746E1,6.2776613E0,0E0,0E0,0E0,0E0,0E0,0E0,0E0,0E0],"parents":[2147483647,0,0,1,1,2,2,3,3,4,4,5,5,6,6],"right_children":[2,4,6,8,10,12,14,-1,-1,-1,-1,-1,-1,-1,-1],"split_conditions":[5.040622E-1,7.3274255E-1,5.0975364E-1,4.6130434E-1,5.285626E-1,2.868149E-1,5.2871346E-1,5.1811326E-4,-1.4415255E-3,1.4370126E-3,-9.1286626E-4,5.617797E-5,1.620832E-3,5.408407E-4,-7.455566E-4],"split_indices":[3,0,5,5,2,0,6,0,0,0,0,0,0,0,0],"split_type":[0,0,0,0,0,0,0,0,0,0,0,0,0,0,0],"sum_hessian":[8.341809E3,4.462375E3,3.8794336E3,3.5152827E3,9.4709216E2,2.345229E3,1.5342047E3,5.7636597E2,2.9389167E3,7.236332E2,2.2345898E2,5.3643945E2,1.8087894E3,6.8234436E2,8.518603E2],"tree_param":{"num_deleted":"0","num_feature":"15","num_nodes":"15","size_leaf_vector":"1"}},{"base_weights":[4.8076725E-3,-8.93578E-2,5.5043537E-2,-5.139474E-2,-2.3337753E-1,1.4483044E-1,1.2290791E-3,7.50343E-4,-1.0532029E-3,-2.2411637E-3,-7.630844E-3,3.3268742E-3,1.0376129E-3,-3.5733014E-4,9.5239177E-4],"categories":[],"categories_nodes":[],"categories_segments":[],"categories_sizes":[],"default_left":[0,0,0,0,0,0,0,0,0,0,0,0,0,0,0],"id":44,"left_children":[1,3,5,7,9,11,13,-1,-1,-1,-1,-1,-1,-1,-1],"loss_changes":[3.9468357E1,1.5857834E1,2.6288645E1,1.5677738E1,2.798027E0,1.5695919E1,1.1827648E1,0E0,0E0,0E0,0E0,0E0,0E0,0E0,0E0],"parents":[2147483647,0,0,1,1,2,2,3,3,4,4,5,5,6,6],"right_children":[2,4,6,8,10,12,14,-1,-1,-1,-1,-1,-1,-1,-1],"split_conditions":[4.8355517E-1,7.593699E-1,4.837071E-1,4.782236E-1,6.008081E-1,1.8374087E-1,5.393899E-1,7.50343E-4,-1.0532029E-3,-2.2411637E-3,-7.630844E-3,3.3268742E-3,1.0376129E-3,-3.5733014E-4,9.5239177E-4],"split_indices":[5,0,4,3,4,0,2,0,0,0,0,0,0,0,0],"split_type":[0,0,0,0,0,0,0,0,0,0,0,0,0,0,0],"sum_hessian":[8.341366E3,2.9016118E3,5.439755E3,2.2973862E3,6.042256E2,2.0379086E3,3.4018462E3,6.867954E2,1.6105908E3,5.9524176E2,8.983829E0,3.643251E2,1.6735834E3,2.4422449E3,9.5960126E2],"tree_param":{"num_deleted":"0","num_feature":"15","num_nodes":"15","size_leaf_vector":"1"}},{"base_weights":[-4.8076683E-3,8.935779E-2,-5.5043526E-2,5.1394727E-2,2.3337755E-1,-1.4483042E-1,-1.2290725E-3,-7.5034297E-4,1.0532027E-3,2.241164E-3,7.630844E-3,-3.3268742E-3,-1.0376128E-3,3.5733022E-4,-9.5239165E-4],"categories":[],"categories_nodes":[],"categories_segments":[],"categories_sizes":[],"default_left":[0,0,0,0,0,0,0,0,0,0,0,0,0,0,0],"id":45,"left_children":[1,3,5,7,9,11,13,-1,-1,-1,-1,-1,-1,-1,-1],"loss_changes":[3.946834E1,1.5857836E1,2.6288641E1,1.5677734E1,2.7980309E0,1.5695919E1,1.1827648E1,0E0,0E0,0E0,0E0,0E0,0E0,0E0,0E0],"parents":[2147483647,0,0,1,1,2,2,3,3,4,4,5,5,6,6],"right_children":[2,4,6,8,10,12,14,-1,-1,-1,-1,-1,-1,-1,-1],"split_conditions":[4.8355517E-1,7.593699E-1,4.837071E-1,4.782236E-1,6.008081E-1,1.8374087E-1,5.393899E-1,-7.5034297E-4,1.0532027E-3,2.241164E-3,7.630844E-3,-3.3268742E-3,-1.0376128E-3,3.5733022E-4,-9.5239165E-4],"split_indices":[5,0,4,3,4,0,2,0,0,0,0,0,0,0,0],"split_type":[0,0,0,0,0,0,0,0,0,0,0,0,0,0,0],"sum_hessian":[8.341366E3,2.9016118E3,5.439755E3,2.2973862E3,6.042256E2,2.0379086E3,3.4018462E3,6.867954E2,1.6105908E3,5.9524176E2,8.983829E0,3.643251E2,1.6735834E3,2.4422449E3,9.5960126E2],"tree_param":{"num_deleted":"0","num_feature":"15","num_nodes":"15","size_leaf_vector":"1"}},{"base_weights":[4.759212E-3,6.83078E-2,-6.833542E-2,1.1018339E-1,-8.7067895E-2,-1.2410251E-1,1.692781E-2,-2.8125744E-4,1.4721055E-3,-1.4164359E-3,8.950102E-4,-4.816058E-5,-1.5946277E-3,-5.3507654E-4,7.334437E-4],"categories":[],"categories_nodes":[],"categories_segments":[],"categories_sizes":[],"default_left":[0,0,0,0,0,0,0,0,0,0,0,0,0,0,0],"id":46,"left_children":[1,3,5,7,9,11,13,-1,-1,-1,-1,-1,-1,-1,-1],"loss_changes":[3.875359E1,2.904703E1,1.845148E1,1.8009563E1,9.148022E0,9.894329E0,6.104271E0,0E0,0E0,0E0,0E0,0E0,0E0,0E0,0E0],"parents":[2147483647,0,0,1,1,2,2,3,3,4,4,5,5,6,6],"right_children":[2,4,6,8,10,12,14,-1,-1,-1,-1,-1,-1,-1,-1],"split_conditions":[5.040622E-1,7.3274255E-1,5.0975364E-1,4.6899924E-1,5.285626E-1,2.868149E-1,5.2871346E-1,-2.8125744E-4,1.4721055E-3,-1.4164359E-3,8.950102E-4,-4.816058E-5,-1.5946277E-3,-5.3507654E-4,7.334437E-4],"split_indices":[3,0,5,5,2,0,6,0,0,0,0,0,0,0,0],"split_type":[0,0,0,0,0,0,0,0,0,0,0,0,0,0,0],"sum_hessian":[8.340962E3,4.4618706E3,3.8790916E3,3.514864E3,9.4700653E2,2.3449216E3,1.5341699E3,7.423127E2,2.7725513E3,7.235593E2,2.2344722E2,5.364306E2,1.8084911E3,6.823344E2,8.518355E2],"tree_param":{"num_deleted":"0","num_feature":"15","num_nodes":"15","size_leaf_vector":"1"}},{"base_weights":[-4.7592153E-3,-6.83078E-2,6.8335414E-2,-1.1018338E-1,8.706787E-2,1.2410249E-1,-1.69278E-2,2.8125764E-4,-1.4721055E-3,1.4164358E-3,-8.9501083E-4,4.8160462E-5,1.5946275E-3,5.350767E-4,-7.3344365E-4],"categories":[],"categories_nodes":[],"categories_segments":[],"categories_sizes":[],"default_left":[0,0,0,0,0,0,0,0,0,0,0,0,0,0,0],"id":47,"left_children":[1,3,5,7,9,11,13,-1,-1,-1,-1,-1,-1,-1,-1],"loss_changes":[3.8753586E1,2.904702E1,1.845147E1,1.8009575E1,9.148025E0,9.894333E0,6.104272E0,0E0,0E0,0E0,0E0,0E0,0E0,0E0,0E0],"parents":[2147483647,0,0,1,1,2,2,3,3,4,4,5,5,6,6],"right_children":[2,4,6,8,10,12,14,-1,-1,-1,-1,-1,-1,-1,-1],"split_conditions":[5.040622E-1,7.3274255E-1,5.0975364E-1,4.6899924E-1,5.285626E-1,2.868149E-1,5.2871346E-1,2.8125764E-4,-1.4721055E-3,1.4164358E-3,-8.9501083E-4,4.8160462E-5,1.5946275E-3,5.350767E-4,-7.3344365E-4],"split_indices":[3,0,5,5,2,0,6,0,0,0,0,0,0,0,0],"split_type":[0,0,0,0,0,0,0,0,0,0,0,0,0,0,0],"sum_hessian":[8.340962E3,4.4618706E3,3.8790916E3,3.514864E3,9.4700653E2,2.3449216E3,1.5341699E3,7.423127E2,2.7725513E3,7.235593E2,2.2344722E2,5.364306E2,1.808491E3,6.823344E2,8.518356E2],"tree_param":{"num_deleted":"0","num_feature":"15","num_nodes":"15","size_leaf_vector":"1"}},{"base_weights":[4.711782E-3,-8.7818235E-2,5.4074507E-2,1.0220107E-1,-1.156982E-1,1.6473289E-1,1.164984E-2,1.6573712E-3,-1.1262918E-3,-6.7005446E-4,-2.0536445E-3,3.757846E-3,1.1611304E-3,-2.356825E-4,1.0111094E-3],"categories":[],"categories_nodes":[],"categories_segments":[],"categories_sizes":[],"default_left":[0,0,0,0,0,0,0,0,0,0,0,0,0,0,0],"id":48,"left_children":[1,3,5,7,9,11,13,-1,-1,-1,-1,-1,-1,-1,-1],"loss_changes":[3.8104748E1,1.5387321E1,2.5537899E1,5.094553E0,1.1038593E1,1.542625E1,1.2395803E1,0E0,0E0,0E0,0E0,0E0,0E0,0E0,0E0],"parents":[2147483647,0,0,1,1,2,2,3,3,4,4,5,5,6,6],"right_children":[2,4,6,8,10,12,14,-1,-1,-1,-1,-1,-1,-1,-1],"split_conditions":[4.8355517E-1,1.8751164E-1,4.7169718E-1,7.992292E0,5.3107935E-1,1.8374087E-1,5.393899E-1,1.6573712E-3,-1.1262918E-3,-6.7005446E-4,-2.0536445E-3,3.757846E-3,1.1611304E-3,-2.356825E-4,1.0111094E-3],"split_indices":[5,0,4,7,8,0,2,0,0,0,0,0,0,0,0],"split_type":[0,0,0,0,0,0,0,0,0,0,0,0,0,0,0],"sum_hessian":[8.340481E3,2.9012788E3,5.439202E3,3.708743E2,2.5304045E3,1.5065942E3,3.9326082E3,2.864E2,8.44743E1,1.6410101E3,8.8939435E2,2.8082867E2,1.2257655E3,2.8222942E3,1.110314E3],"tree_param":{"num_deleted":"0","num_feature":"15","num_nodes":"15","size_leaf_vector":"1"}},{"base_weights":[-4.7117886E-3,8.7818235E-2,-5.407452E-2,-1.0220111E-1,1.1569821E-1,-1.6473293E-1,-1.164984E-2,-1.6573716E-3,1.1262912E-3,6.7005446E-4,2.0536445E-3,-3.7578463E-3,-1.1611308E-3,2.3568251E-4,-1.0111094E-3],"categories":[],"categories_nodes":[],"categories_segments":[],"categories_sizes":[],"default_left":[0,0,0,0,0,0,0,0,0,0,0,0,0,0,0],"id":49,"left_children":[1,3,5,7,9,11,13,-1,-1,-1,-1,-1,-1,-1,-1],"loss_changes":[3.810475E1,1.5387325E1,2.5537909E1,5.094552E0,1.1038601E1,1.542625E1,1.2395805E1,0E0,0E0,0E0,0E0,0E0,0E0,0E0,0E0],"parents":[2147483647,0,0,1,1,2,2,3,3,4,4,5,5,6,6],"right_children":[2,4,6,8,10,12,14,-1,-1,-1,-1,-1,-1,-1,-1],"split_conditions":[4.8355517E-1,1.8751164E-1,4.7169718E-1,7.992292E0,5.3107935E-1,1.8374087E-1,5.393899E-1,-1.6573716E-3,1.1262912E-3,6.7005446E-4,2.0536445E-3,-3.7578463E-3,-1.1611308E-3,2.3568251E-4,-1.0111094E-3],"split_indices":[5,0,4,7,8,0,2,0,0,0,0,0,0,0,0],"split_type":[0,0,0,0,0,0,0,0,0,0,0,0,0,0,0],"sum_hessian":[8.340481E3,2.9012788E3,5.439202E3,3.708743E2,2.5304045E3,1.5065942E3,3.9326082E3,2.8640002E2,8.44743E1,1.6410103E3,8.8939435E2,2.8082867E2,1.2257655E3,2.8222942E3,1.110314E3],"tree_param":{"num_deleted":"0","num_feature":"15","num_nodes":"15","size_leaf_vector":"1"}},{"base_weights":[4.665325E-3,6.723507E-2,-6.7301825E-2,1.3054687E-1,-3.322418E-2,-1.2207422E-1,1.6431477E-2,-2.2702827E-4,1.7000218E-3,-8.304828E-4,1.0671538E-3,-4.605104E-5,-1.5690167E-3,-5.303405E-4,7.2072557E-4],"categories":[],"categories_nodes":[],"categories_segments":[],"categories_sizes":[],"default_left":[0,0,0,0,0,0,0,0,0,0,0,0,0,0,0],"id":50,"left_children":[1,3,5,7,9,11,13,-1,-1,-1,-1,-1,-1,-1,-1],"loss_changes":[3.7564213E1,2.8386103E1,1.7795532E1,1.6556023E1,1.204239E1,9.595501E0,5.9373174E0,0E0,0E0,0E0,0E0,0E0,0E0,0E0,0E0],"parents":[2147483647,0,0,1,1,2,2,3,3,4,4,5,5,6,6],"right_children":[2,4,6,8,10,12,14,-1,-1,-1,-1,-1,-1,-1,-1],"split_conditions":[5.040622E-1,5.728417E-1,5.0975364E-1,4.68371E-1,5.285626E-1,2.868149E-1,5.2871346E-1,-2.2702827E-4,1.7000218E-3,-8.304828E-4,1.0671538E-3,-4.605104E-5,-1.5690167E-3,-5.303405E-4,7.2072557E-4],"split_indices":[3,0,5,5,2,0,6,0,0,0,0,0,0,0,0],"split_type":[0,0,0,0,0,0,0,0,0,0,0,0,0,0,0],"sum_hessian":[8.340099E3,4.4613623E3,3.878736E3,2.736473E3,1.7248894E3,2.3446042E3,1.5341318E3,5.603651E2,2.176108E3,1.2723044E3,4.5258496E2,5.364273E2,1.8081769E3,6.82325E2,8.518069E2],"tree_param":{"num_deleted":"0","num_feature":"15","num_nodes":"15","size_leaf_vector":"1"}},{"base_weights":[-4.665321E-3,-6.723506E-2,6.730182E-2,-1.3054685E-1,3.3224177E-2,1.2207422E-1,-1.6431496E-2,2.2702871E-4,-1.7000216E-3,8.304828E-4,-1.0671539E-3,4.6051162E-5,1.5690167E-3,5.3034036E-4,-7.207258E-4],"categories":[],"categories_nodes":[],"categories_segments":[],"categories_sizes":[],"default_left":[0,0,0,0,0,0,0,0,0,0,0,0,0,0,0],"id":51,"left_children":[1,3,5,7,9,11,13,-1,-1,-1,-1,-1,-1,-1,-1],"loss_changes":[3.75642E1,2.8386095E1,1.7795546E1,1.6556034E1,1.2042392E1,9.595493E0,5.9373183E0,0E0,0E0,0E0,0E0,0E0,0E0,0E0,0E0],"parents":[2147483647,0,0,1,1,2,2,3,3,4,4,5,5,6,6],"right_children":[2,4,6,8,10,12,14,-1,-1,-1,-1,-1,-1,-1,-1],"split_conditions":[5.040622E-1,5.728417E-1,5.0975364E-1,4.68371E-1,5.285626E-1,2.868149E-1,5.2871346E-1,2.2702871E-4,-1.7000216E-3,8.304828E-4,-1.0671539E-3,4.6051162E-5,1.5690167E-3,5.3034036E-4,-7.207258E-4],"split_indices":[3,0,5,5,2,0,6,0,0,0,0,0,0,0,0],"split_type":[0,0,0,0,0,0,0,0,0,0,0,0,0,0,0],"sum_hessian":[8.340099E3,4.4613623E3,3.878736E3,2.736473E3,1.7248894E3,2.3446042E3,1.5341318E3,5.603651E2,2.176108E3,1.2723044E3,4.52585E2,5.364273E2,1.808177E3,6.82325E2,8.518069E2],"tree_param":{"num_deleted":"0","num_feature":"15","num_nodes":"15","size_leaf_vector":"1"}},{"base_weights":[4.619003E-3,6.65677E-2,-6.66329E-2,1.0764658E-1,-8.5839264E-2,-1.20864265E-1,1.6267506E-2,-5.022353E-4,1.3862492E-3,-1.3915409E-3,8.66489E-4,-4.5591292E-5,-1.553503E-3,-5.25049E-4,7.135386E-4],"categories":[],"categories_nodes":[],"categories_segments":[],"categories_sizes":[],"default_left":[0,0,0,0,0,0,0,0,0,0,0,0,0,0,0],"id":52,"left_children":[1,3,5,7,9,11,13,-1,-1,-1,-1,-1,-1,-1,-1],"loss_changes":[3.681943E1,2.794488E1,1.7443525E1,1.719806E1,8.729055E0,9.406498E0,5.819397E0,0E0,0E0,0E0,0E0,0E0,0E0,0E0,0E0],"parents":[2147483647,0,0,1,1,2,2,3,3,4,4,5,5,6,6],"right_children":[2,4,6,8,10,12,14,-1,-1,-1,-1,-1,-1,-1,-1],"split_conditions":[5.040622E-1,7.3274255E-1,5.0975364E-1,4.6130434E-1,5.285626E-1,2.868149E-1,5.2871346E-1,-5.022353E-4,1.3862492E-3,-1.3915409E-3,8.66489E-4,-4.5591292E-5,-1.553503E-3,-5.25049E-4,7.135386E-4],"split_indices":[3,0,5,5,2,0,6,0,0,0,0,0,0,0,0],"split_type":[0,0,0,0,0,0,0,0,0,0,0,0,0,0,0],"sum_hessian":[8.339579E3,4.4610576E3,3.8785212E3,3.514164E3,9.468936E2,2.3444094E3,1.5341119E3,5.763548E2,2.937809E3,7.234682E2,2.2342546E2,5.364269E2,1.8079825E3,6.823192E2,8.5179266E2],"tree_param":{"num_deleted":"0","num_feature":"15","num_nodes":"15","size_leaf_vector":"1"}},{"base_weights":[-4.6189893E-3,-6.656768E-2,6.663291E-2,-1.0764657E-1,8.583927E-2,1.2086428E-1,-1.6267495E-2,5.022356E-4,-1.3862491E-3,1.391541E-3,-8.6648896E-4,4.5591172E-5,1.5535032E-3,5.2504934E-4,-7.1353867E-4],"categories":[],"categories_nodes":[],"categories_segments":[],"categories_sizes":[],"default_left":[0,0,0,0,0,0,0,0,0,0,0,0,0,0,0],"id":53,"left_children":[1,3,5,7,9,11,13,-1,-1,-1,-1,-1,-1,-1,-1],"loss_changes":[3.681943E1,2.794488E1,1.744353E1,1.7198063E1,8.729054E0,9.406502E0,5.819401E0,0E0,0E0,0E0,0E0,0E0,0E0,0E0,0E0],"parents":[2147483647,0,0,1,1,2,2,3,3,4,4,5,5,6,6],"right_children":[2,4,6,8,10,12,14,-1,-1,-1,-1,-1,-1,-1,-1],"split_conditions":[5.040622E-1,7.3274255E-1,5.0975364E-1,4.6130434E-1,5.285626E-1,2.868149E-1,5.2871346E-1,5.022356E-4,-1.3862491E-3,1.391541E-3,-8.6648896E-4,4.5591172E-5,1.5535032E-3,5.2504934E-4,-7.1353867E-4],"split_indices":[3,0,5,5,2,0,6,0,0,0,0,0,0,0,0],"split_type":[0,0,0,0,0,0,0,0,0,0,0,0,0,0,0],"sum_hessian":[8.339579E3,4.4610576E3,3.8785212E3,3.5141638E3,9.468936E2,2.3444094E3,1.5341119E3,5.763548E2,2.937809E3,7.2346814E2,2.2342545E2,5.364269E2,1.8079825E3,6.823193E2,8.5179266E2],"tree_param":{"num_deleted":"0","num_feature":"15","num_nodes":"15","size_leaf_vector":"1"}},{"base_weights":[4.572962E-3,-8.5707024E-2,5.2735224E-2,-4.8835866E-2,-2.2564508E-1,1.6097032E-1,1.1248251E-2,7.396777E-4,-1.0122476E-3,-2.1647385E-3,-7.5109843E-3,3.6924302E-3,1.1301454E-3,-2.3124256E-4,9.856519E-4],"categories":[],"categories_nodes":[],"categories_segments":[],"categories_sizes":[],"default_left":[0,0,0,0,0,0,0,0,0,0,0,0,0,0,0],"id":54,"left_children":[1,3,5,7,9,11,13,-1,-1,-1,-1,-1,-1,-1,-1],"loss_changes":[3.6267815E1,1.4961218E1,2.4422424E1,1.4791315E1,2.7522125E0,1.501112E1,1.1806893E1,0E0,0E0,0E0,0E0,0E0,0E0,0E0,0E0],"parents":[2147483647,0,0,1,1,2,2,3,3,4,4,5,5,6,6],"right_children":[2,4,6,8,10,12,14,-1,-1,-1,-1,-1,-1,-1,-1],"split_conditions":[4.8355517E-1,7.593699E-1,4.7169718E-1,4.782236E-1,6.008081E-1,1.8374087E-1,5.393899E-1,7.396777E-4,-1.0122476E-3,-2.1647385E-3,-7.5109843E-3,3.6924302E-3,1.1301454E-3,-2.3124256E-4,9.856519E-4],"split_indices":[5,0,4,3,4,0,2,0,0,0,0,0,0,0,0],"split_type":[0,0,0,0,0,0,0,0,0,0,0,0,0,0,0],"sum_hessian":[8.339055E3,2.9007776E3,5.438277E3,2.2969275E3,6.0385016E2,1.5061118E3,3.932165E3,6.8674115E2,1.6101863E3,5.9487915E2,8.97101E0,2.8063028E2,1.2254814E3,2.8220098E3,1.1101554E3],"tree_param":{"num_deleted":"0","num_feature":"15","num_nodes":"15","size_leaf_vector":"1"}},{"base_weights":[-4.5729605E-3,8.570703E-2,-5.2735224E-2,4.8835874E-2,2.2564505E-1,-1.6097033E-1,-1.1248243E-2,-7.3967763E-4,1.0122478E-3,2.164738E-3,7.510984E-3,-3.69243E-3,-1.1301456E-3,2.3124267E-4,-9.856517E-4],"categories":[],"categories_nodes":[],"categories_segments":[],"categories_sizes":[],"default_left":[0,0,0,0,0,0,0,0,0,0,0,0,0,0,0],"id":55,"left_children":[1,3,5,7,9,11,13,-1,-1,-1,-1,-1,-1,-1,-1],"loss_changes":[3.6267815E1,1.4961214E1,2.4422436E1,1.4791313E1,2.7522125E0,1.5011116E1,1.1806896E1,0E0,0E0,0E0,0E0,0E0,0E0,0E0,0E0],"parents":[2147483647,0,0,1,1,2,2,3,3,4,4,5,5,6,6],"right_children":[2,4,6,8,10,12,14,-1,-1,-1,-1,-1,-1,-1,-1],"split_conditions":[4.8355517E-1,7.593699E-1,4.7169718E-1,4.782236E-1,6.008081E-1,1.8374087E-1,5.393899E-1,-7.3967763E-4,1.0122478E-3,2.164738E-3,7.510984E-3,-3.69243E-3,-1.1301456E-3,2.3124267E-4,-9.856517E-4],"split_indices":[5,0,4,3,4,0,2,0,0,0,0,0,0,0,0],"split_type":[0,0,0,0,0,0,0,0,0,0,0,0,0,0,0],"sum_hessian":[8.339055E3,2.9007776E3,5.438277E3,2.2969275E3,6.0385016E2,1.5061118E3,3.932165E3,6.8674115E2,1.6101863E3,5.9487915E2,8.97101E0,2.8063028E2,1.2254814E3,2.8220098E3,1.1101554E3],"tree_param":{"num_deleted":"0","num_feature":"15","num_nodes":"15","size_leaf_vector":"1"}},{"base_weights":[4.526979E-3,6.546576E-2,-6.556136E-2,1.2746821E-1,-3.2904003E-2,-1.1878388E-1,1.578689E-2,-2.2448004E-4,1.6607676E-3,-8.1517873E-4,1.0364901E-3,-3.8250397E-5,-1.5287708E-3,-5.20387E-4,7.011642E-4],"categories":[],"categories_nodes":[],"categories_segments":[],"categories_sizes":[],"default_left":[0,0,0,0,0,0,0,0,0,0,0,0,0,0,0],"id":56,"left_children":[1,3,5,7,9,11,13,-1,-1,-1,-1,-1,-1,-1,-1],"loss_changes":[3.5623524E1,2.721546E1,1.6796762E1,1.5844467E1,1.1464094E1,9.190418E0,5.660275E0,0E0,0E0,0E0,0E0,0E0,0E0,0E0,0E0],"parents":[2147483647,0,0,1,1,2,2,3,3,4,4,5,5,6,6],"right_children":[2,4,6,8,10,12,14,-1,-1,-1,-1,-1,-1,-1,-1],"split_conditions":[5.040622E-1,5.728417E-1,5.0975364E-1,4.68371E-1,5.285626E-1,2.868149E-1,5.2871346E-1,-2.2448004E-4,1.6607676E-3,-8.1517873E-4,1.0364901E-3,-3.8250397E-5,-1.5287708E-3,-5.20387E-4,7.011642E-4],"split_indices":[3,0,5,5,2,0,6,0,0,0,0,0,0,0,0],"split_type":[0,0,0,0,0,0,0,0,0,0,0,0,0,0,0],"sum_hessian":[8.338595E3,4.4604727E3,3.878122E3,2.7358015E3,1.7246711E3,2.3440532E3,1.534069E3,5.6035876E2,2.1754429E3,1.2721718E3,4.5249942E2,5.36418E2,1.8076351E3,6.82309E2,8.5175995E2],"tree_param":{"num_deleted":"0","num_feature":"15","num_nodes":"15","size_leaf_vector":"1"}},{"base_weights":[-4.5269835E-3,-6.546577E-2,6.556136E-2,-1.2746823E-1,3.2904007E-2,1.1878388E-1,-1.57869E-2,2.2448029E-4,-1.6607677E-3,8.1517873E-4,-1.0364898E-3,3.8250193E-5,1.5287709E-3,5.203871E-4,-7.011644E-4],"categories":[],"categories_nodes":[],"categories_segments":[],"categories_sizes":[],"default_left":[0,0,0,0,0,0,0,0,0,0,0,0,0,0,0],"id":57,"left_children":[1,3,5,7,9,11,13,-1,-1,-1,-1,-1,-1,-1,-1],"loss_changes":[3.5623524E1,2.7215467E1,1.6796762E1,1.5844471E1,1.1464091E1,9.190426E0,5.660278E0,0E0,0E0,0E0,0E0,0E0,0E0,0E0,0E0],"parents":[2147483647,0,0,1,1,2,2,3,3,4,4,5,5,6,6],"right_children":[2,4,6,8,10,12,14,-1,-1,-1,-1,-1,-1,-1,-1],"split_conditions":[5.040622E-1,5.728417E-1,5.0975364E-1,4.68371E-1,5.285626E-1,2.868149E-1,5.2871346E-1,2.2448029E-4,-1.6607677E-3,8.1517873E-4,-1.0364898E-3,3.8250193E-5,1.5287709E-3,5.203871E-4,-7.011644E-4],"split_indices":[3,0,5,5,2,0,6,0,0,0,0,0,0,0,0],"split_type":[0,0,0,0,0,0,0,0,0,0,0,0,0,0,0],"sum_hessian":[8.338595E3,4.4604727E3,3.878122E3,2.7358015E3,1.7246711E3,2.3440532E3,1.534069E3,5.6035876E2,2.1754429E3,1.2721718E3,4.5249942E2,5.36418E2,1.8076351E3,6.82309E2,8.5176E2],"tree_param":{"num_deleted":"0","num_feature":"15","num_nodes":"15","size_leaf_vector":"1"}},{"base_weights":[4.4820523E-3,-8.42326E-2,5.180844E-2,1.0096489E-1,-1.114127E-1,1.5830958E-1,1.0993302E-2,1.6378767E-3,-1.1144568E-3,-6.4127304E-4,-1.9851767E-3,3.641431E-3,1.1093762E-3,-2.2783809E-4,9.680187E-4],"categories":[],"categories_nodes":[],"categories_segments":[],"categories_sizes":[],"default_left":[0,0,0,0,0,0,0,0,0,0,0,0,0,0,0],"id":58,"left_children":[1,3,5,7,9,11,13,-1,-1,-1,-1,-1,-1,-1,-1],"loss_changes":[3.5016136E1,1.4615927E1,2.3639256E1,4.980229E0,1.0410055E1,1.4651459E1,1.1401177E1,0E0,0E0,0E0,0E0,0E0,0E0,0E0,0E0],"parents":[2147483647,0,0,1,1,2,2,3,3,4,4,5,5,6,6],"right_children":[2,4,6,8,10,12,14,-1,-1,-1,-1,-1,-1,-1,-1],"split_conditions":[4.8355517E-1,1.8751164E-1,4.7169718E-1,7.992292E0,5.3107935E-1,1.8374087E-1,5.393899E-1,1.6378767E-3,-1.1144568E-3,-6.4127304E-4,-1.9851767E-3,3.641431E-3,1.1093762E-3,-2.2783809E-4,9.680187E-4],"split_indices":[5,0,4,7,8,0,2,0,0,0,0,0,0,0,0],"split_type":[0,0,0,0,0,0,0,0,0,0,0,0,0,0,0],"sum_hessian":[8.338028E3,2.9003882E3,5.4376396E3,3.7084448E2,2.5295437E3,1.5057434E3,3.9318962E3,2.8637485E2,8.4469635E1,1.6406464E3,8.888974E2,2.8045694E2,1.2252865E3,2.8218547E3,1.1100415E3],"tree_param":{"num_deleted":"0","num_feature":"15","num_nodes":"15","size_leaf_vector":"1"}},{"base_weights":[-4.482061E-3,8.4232576E-2,-5.180844E-2,-1.0096489E-1,1.1141267E-1,-1.583096E-1,-1.0993298E-2,-1.6378765E-3,1.114456E-3,6.412728E-4,1.9851762E-3,-3.641431E-3,-1.1093764E-3,2.2783816E-4,-9.6801884E-4],"categories":[],"categories_nodes":[],"categories_segments":[],"categories_sizes":[],"default_left":[0,0,0,0,0,0,0,0,0,0,0,0,0,0,0],"id":59,"left_children":[1,3,5,7,9,11,13,-1,-1,-1,-1,-1,-1,-1,-1],"loss_changes":[3.501613E1,1.4615923E1,2.3639263E1,4.9802256E0,1.0410051E1,1.4651459E1,1.140118E1,0E0,0E0,0E0,0E0,0E0,0E0,0E0,0E0],"parents":[2147483647,0,0,1,1,2,2,3,3,4,4,5,5,6,6],"right_children":[2,4,6,8,10,12,14,-1,-1,-1,-1,-1,-1,-1,-1],"split_conditions":[4.8355517E-1,1.8751164E-1,4.7169718E-1,7.992292E0,5.3107935E-1,1.8374087E-1,5.393899E-1,-1.6378765E-3,1.114456E-3,6.412728E-4,1.9851762E-3,-3.641431E-3,-1.1093764E-3,2.2783816E-4,-9.6801884E-4],"split_indices":[5,0,4,7,8,0,2,0,0,0,0,0,0,0,0],"split_type":[0,0,0,0,0,0,0,0,0,0,0,0,0,0,0],"sum_hessian":[8.338028E3,2.9003882E3,5.4376396E3,3.7084448E2,2.5295437E3,1.5057434E3,3.9318962E3,2.8637485E2,8.4469635E1,1.6406464E3,8.888974E2,2.8045694E2,1.2252865E3,2.8218547E3,1.1100415E3],"tree_param":{"num_deleted":"0","num_feature":"15","num_nodes":"15","size_leaf_vector":"1"}},{"base_weights":[4.4378988E-3,6.4437546E-2,-6.4568385E-2,1.0453819E-1,-8.432419E-2,-1.16840504E-1,1.5317177E-2,-4.897268E-4,1.3467051E-3,-1.5935233E-3,3.3370184E-4,-3.636226E-5,-1.5041992E-3,-5.157566E-4,6.8901223E-4],"categories":[],"categories_nodes":[],"categories_segments":[],"categories_sizes":[],"default_left":[0,0,0,0,0,0,0,0,0,0,0,0,0,0,0],"id":60,"left_children":[1,3,5,7,9,11,13,-1,-1,-1,-1,-1,-1,-1,-1],"loss_changes":[3.4528812E1,2.6619875E1,1.6198448E1,1.6261795E1,8.374042E0,8.912376E0,5.5056734E0,0E0,0E0,0E0,0E0,0E0,0E0,0E0,0E0],"parents":[2147483647,0,0,1,1,2,2,3,3,4,4,5,5,6,6],"right_children":[2,4,6,8,10,12,14,-1,-1,-1,-1,-1,-1,-1,-1],"split_conditions":[5.040622E-1,7.3274255E-1,5.0975364E-1,4.6130434E-1,4.9468485E-1,2.868149E-1,5.2871346E-1,-4.897268E-4,1.3467051E-3,-1.5935233E-3,3.3370184E-4,-3.636226E-5,-1.5041992E-3,-5.157566E-4,6.8901223E-4],"split_indices":[3,0,5,5,6,0,6,0,0,0,0,0,0,0,0],"split_type":[0,0,0,0,0,0,0,0,0,0,0,0,0,0,0],"sum_hessian":[8.337578E3,4.459871E3,3.8777068E3,3.5131528E3,9.4671826E2,2.3436838E3,1.534023E3,5.763383E2,2.9368147E3,5.779384E2,3.6877982E2,5.3641345E2,1.8072704E3,6.822982E2,8.517247E2],"tree_param":{"num_deleted":"0","num_feature":"15","num_nodes":"15","size_leaf_vector":"1"}},{"base_weights":[-4.4379053E-3,-6.4437546E-2,6.456837E-2,-1.0453819E-1,8.432417E-2,1.1684049E-1,-1.5317178E-2,4.8972684E-4,-1.3467051E-3,1.5935233E-3,-3.3370213E-4,3.6361762E-5,1.5041992E-3,5.157566E-4,-6.8901223E-4],"categories":[],"categories_nodes":[],"categories_segments":[],"categories_sizes":[],"default_left":[0,0,0,0,0,0,0,0,0,0,0,0,0,0,0],"id":61,"left_children":[1,3,5,7,9,11,13,-1,-1,-1,-1,-1,-1,-1,-1],"loss_changes":[3.4528812E1,2.6619877E1,1.619844E1,1.6261791E1,8.374044E0,8.912388E0,5.5056734E0,0E0,0E0,0E0,0E0,0E0,0E0,0E0,0E0],"parents":[2147483647,0,0,1,1,2,2,3,3,4,4,5,5,6,6],"right_children":[2,4,6,8,10,12,14,-1,-1,-1,-1,-1,-1,-1,-1],"split_conditions":[5.040622E-1,7.3274255E-1,5.0975364E-1,4.6130434E-1,4.9468485E-1,2.868149E-1,5.2871346E-1,4.8972684E-4,-1.3467051E-3,1.5935233E-3,-3.3370213E-4,3.6361762E-5,1.5041992E-3,5.157566E-4,-6.8901223E-4],"split_indices":[3,0,5,5,6,0,6,0,0,0,0,0,0,0,0],"split_type":[0,0,0,0,0,0,0,0,0,0,0,0,0,0,0],"sum_hessian":[8.337578E3,4.459871E3,3.8777068E3,3.5131528E3,9.4671826E2,2.3436838E3,1.534023E3,5.763383E2,2.9368147E3,5.779384E2,3.6877985E2,5.3641345E2,1.8072704E3,6.822982E2,8.517247E2],"tree_param":{"num_deleted":"0","num_feature":"15","num_nodes":"15","size_leaf_vector":"1"}},{"base_weights":[4.3936097E-3,-4.4223506E-2,8.809851E-2,7.541787E-4,-1.4215015E-1,1.7643891E-1,5.20151E-2,3.7502314E-4,-1.0938575E-3,-2.33732E-3,-1.0007787E-3,3.476921E-3,1.3253593E-3,7.479706E-4,-6.1110075E-4],"categories":[],"categories_nodes":[],"categories_segments":[],"categories_sizes":[],"default_left":[0,0,0,0,0,0,0,0,0,0,0,0,0,0,0],"id":62,"left_children":[1,3,5,7,9,11,13,-1,-1,-1,-1,-1,-1,-1,-1],"loss_changes":[3.393537E1,2.3234653E1,9.757212E0,1.4639056E1,6.3738785E0,6.631197E0,5.614487E0,0E0,0E0,0E0,0E0,0E0,0E0,0E0,0E0],"parents":[2147483647,0,0,1,1,2,2,3,3,4,4,5,5,6,6],"right_children":[2,4,6,8,10,12,14,-1,-1,-1,-1,-1,-1,-1,-1],"split_conditions":[5.161417E-1,5.3107935E-1,4.711202E-1,6.805695E-1,4.615E-1,1.8374087E-1,5.498289E-1,3.7502314E-4,-1.0938575E-3,-2.33732E-3,-1.0007787E-3,3.476921E-3,1.3253593E-3,7.479706E-4,-6.1110075E-4],"split_indices":[2,8,4,0,2,0,3,0,0,0,0,0,0,0,0],"split_type":[0,0,0,0,0,0,0,0,0,0,0,0,0,0,0],"sum_hessian":[8.337015E3,5.2741675E3,3.0628472E3,3.614857E3,1.6593107E3,8.8711017E2,2.175737E3,2.7109944E3,9.0386255E2,5.208915E2,1.1384192E3,1.7960437E2,7.075058E2,1.8113027E3,3.6443442E2],"tree_param":{"num_deleted":"0","num_feature":"15","num_nodes":"15","size_leaf_vector":"1"}},{"base_weights":[-4.3936074E-3,4.4223506E-2,-8.809851E-2,-7.54189E-4,1.4215018E-1,-1.764389E-1,-5.20151E-2,-3.750233E-4,1.0938575E-3,2.3373202E-3,1.0007791E-3,-3.476921E-3,-1.3253592E-3,-7.479706E-4,6.1110087E-4],"categories":[],"categories_nodes":[],"categories_segments":[],"categories_sizes":[],"default_left":[0,0,0,0,0,0,0,0,0,0,0,0,0,0,0],"id":63,"left_children":[1,3,5,7,9,11,13,-1,-1,-1,-1,-1,-1,-1,-1],"loss_changes":[3.3935375E1,2.3234663E1,9.75721E0,1.4639057E1,6.3738823E0,6.631197E0,5.6144886E0,0E0,0E0,0E0,0E0,0E0,0E0,0E0,0E0],"parents":[2147483647,0,0,1,1,2,2,3,3,4,4,5,5,6,6],"right_children":[2,4,6,8,10,12,14,-1,-1,-1,-1,-1,-1,-1,-1],"split_conditions":[5.161417E-1,5.3107935E-1,4.711202E-1,6.805695E-1,4.615E-1,1.8374087E-1,5.498289E-1,-3.750233E-4,1.0938575E-3,2.3373202E-3,1.0007791E-3,-3.476921E-3,-1.3253592E-3,-7.479706E-4,6.1110087E-4],"split_indices":[2,8,4,0,2,0,3,0,0,0,0,0,0,0,0],"split_type":[0,0,0,0,0,0,0,0,0,0,0,0,0,0,0],"sum_hessian":[8.337015E3,5.2741675E3,3.0628472E3,3.614857E3,1.6593107E3,8.8711017E2,2.175737E3,2.7109944E3,9.0386255E2,5.208915E2,1.1384192E3,1.7960437E2,7.075058E2,1.8113026E3,3.644344E2],"tree_param":{"num_deleted":"0","num_feature":"15","num_nodes":"15","size_leaf_vector":"1"}},{"base_weights":[4.3500247E-3,6.343551E-2,-6.3602954E-2,1.23892225E-1,-3.24656E-2,-1.15015715E-1,1.4959043E-2,-2.1974533E-4,1.6147332E-3,-7.9650525E-4,1.0008995E-3,-3.4519362E-5,-1.4811518E-3,-5.115024E-4,6.7916315E-4],"categories":[],"categories_nodes":[],"categories_segments":[],"categories_sizes":[],"default_left":[0,0,0,0,0,0,0,0,0,0,0,0,0,0,0],"id":64,"left_children":[1,3,5,7,9,11,13,-1,-1,-1,-1,-1,-1,-1,-1],"loss_changes":[3.3479515E1,2.5863972E1,1.5666435E1,1.5001171E1,1.0799555E1,8.656307E0,5.3773737E0,0E0,0E0,0E0,0E0,0E0,0E0,0E0,0E0],"parents":[2147483647,0,0,1,1,2,2,3,3,4,4,5,5,6,6],"right_children":[2,4,6,8,10,12,14,-1,-1,-1,-1,-1,-1,-1,-1],"split_conditions":[5.040622E-1,5.728417E-1,5.0975364E-1,4.68371E-1,5.285626E-1,2.868149E-1,5.2871346E-1,-2.1974533E-4,1.6147332E-3,-7.9650525E-4,1.0008995E-3,-3.4519362E-5,-1.4811518E-3,-5.115024E-4,6.7916315E-4],"split_indices":[3,0,5,5,2,0,6,0,0,0,0,0,0,0,0],"split_type":[0,0,0,0,0,0,0,0,0,0,0,0,0,0,0],"sum_hessian":[8.336532E3,4.4592534E3,3.8772788E3,2.7348767E3,1.7243768E3,2.3433035E3,1.5339753E3,5.6035156E2,2.1745251E3,1.2719929E3,4.5238385E2,5.36409E2,1.8068945E3,6.822819E2,8.5169336E2],"tree_param":{"num_deleted":"0","num_feature":"15","num_nodes":"15","size_leaf_vector":"1"}},{"base_weights":[-4.3500266E-3,-6.343551E-2,6.360295E-2,-1.23892225E-1,3.2465614E-2,1.1501571E-1,-1.4959047E-2,2.1974566E-4,-1.6147335E-3,7.965055E-4,-1.0008996E-3,3.451937E-5,1.4811518E-3,5.1150226E-4,-6.791631E-4],"categories":[],"categories_nodes":[],"categories_segments":[],"categories_sizes":[],"default_left":[0,0,0,0,0,0,0,0,0,0,0,0,0,0,0],"id":65,"left_children":[1,3,5,7,9,11,13,-1,-1,-1,-1,-1,-1,-1,-1],"loss_changes":[3.347951E1,2.5863976E1,1.5666434E1,1.5001175E1,1.079956E1,8.656303E0,5.377371E0,0E0,0E0,0E0,0E0,0E0,0E0,0E0,0E0],"parents":[2147483647,0,0,1,1,2,2,3,3,4,4,5,5,6,6],"right_children":[2,4,6,8,10,12,14,-1,-1,-1,-1,-1,-1,-1,-1],"split_conditions":[5.040622E-1,5.728417E-1,5.0975364E-1,4.68371E-1,5.285626E-1,2.868149E-1,5.2871346E-1,2.1974566E-4,-1.6147335E-3,7.965055E-4,-1.0008996E-3,3.451937E-5,1.4811518E-3,5.1150226E-4,-6.791631E-4],"split_indices":[3,0,5,5,2,0,6,0,0,0,0,0,0,0,0],"split_type":[0,0,0,0,0,0,0,0,0,0,0,0,0,0,0],"sum_hessian":[8.336532E3,4.4592534E3,3.8772788E3,2.7348767E3,1.7243768E3,2.3433035E3,1.5339753E3,5.6035156E2,2.1745251E3,1.2719929E3,4.5238385E2,5.36409E2,1.8068945E3,6.822819E2,8.5169336E2],"tree_param":{"num_deleted":"0","num_feature":"15","num_nodes":"15","size_leaf_vector":"1"}},{"base_weights":[4.3068803E-3,-8.166795E-2,5.0171133E-2,-4.60247E-2,-2.1702579E-1,1.5371346E-1,1.0503395E-2,7.292627E-4,-9.6782646E-4,-2.2763433E-3,2.014617E-3,3.5565442E-3,1.072777E-3,-2.2329975E-4,9.391915E-4],"categories":[],"categories_nodes":[],"categories_segments":[],"categories_sizes":[],"default_left":[0,0,0,0,0,0,0,0,0,0,0,0,0,0,0],"id":66,"left_children":[1,3,5,7,9,11,13,-1,-1,-1,-1,-1,-1,-1,-1],"loss_changes":[3.2877975E1,1.3984371E1,2.2330883E1,1.3877459E1,2.7288342E0,1.40840225E1,1.0771915E1,0E0,0E0,0E0,0E0,0E0,0E0,0E0,0E0],"parents":[2147483647,0,0,1,1,2,2,3,3,4,4,5,5,6,6],"right_children":[2,4,6,8,10,12,14,-1,-1,-1,-1,-1,-1,-1,-1],"split_conditions":[4.8355517E-1,7.593699E-1,4.7169718E-1,4.782236E-1,1.6512213E0,1.8374087E-1,5.393899E-1,7.292627E-4,-9.6782646E-4,-2.2763433E-3,2.014617E-3,3.5565442E-3,1.072777E-3,-2.2329975E-4,9.391915E-4],"split_indices":[5,0,4,3,11,0,2,0,0,0,0,0,0,0,0],"split_type":[0,0,0,0,0,0,0,0,0,0,0,0,0,0,0],"sum_hessian":[8.335913E3,2.8996306E3,5.4362827E3,2.2962961E3,6.0333466E2,1.504999E3,3.931284E3,6.866646E2,1.6096315E3,5.8886316E2,1.4471478E1,2.8012512E2,1.2248739E3,2.8214587E3,1.1098253E3],"tree_param":{"num_deleted":"0","num_feature":"15","num_nodes":"15","size_leaf_vector":"1"}},{"base_weights":[-4.3068905E-3,8.166793E-2,-5.017114E-2,4.602468E-2,2.1702576E-1,-1.5371348E-1,-1.05033945E-2,-7.292631E-4,9.678264E-4,2.276343E-3,-2.0146172E-3,-3.556545E-3,-1.0727771E-3,2.2329966E-4,-9.3919126E-4],"categories":[],"categories_nodes":[],"categories_segments":[],"categories_sizes":[],"default_left":[0,0,0,0,0,0,0,0,0,0,0,0,0,0,0],"id":67,"left_children":[1,3,5,7,9,11,13,-1,-1,-1,-1,-1,-1,-1,-1],"loss_changes":[3.287797E1,1.3984371E1,2.2330887E1,1.3877462E1,2.7288322E0,1.4084034E1,1.0771912E1,0E0,0E0,0E0,0E0,0E0,0E0,0E0,0E0],"parents":[2147483647,0,0,1,1,2,2,3,3,4,4,5,5,6,6],"right_children":[2,4,6,8,10,12,14,-1,-1,-1,-1,-1,-1,-1,-1],"split_conditions":[4.8355517E-1,7.593699E-1,4.7169718E-1,4.782236E-1,1.6512213E0,1.8374087E-1,5.393899E-1,-7.292631E-4,9.678264E-4,2.276343E-3,-2.0146172E-3,-3.556545E-3,-1.0727771E-3,2.2329966E-4,-9.3919126E-4],"split_indices":[5,0,4,3,11,0,2,0,0,0,0,0,0,0,0],"split_type":[0,0,0,0,0,0,0,0,0,0,0,0,0,0,0],"sum_hessian":[8.335913E3,2.8996306E3,5.4362827E3,2.296296E3,6.0333466E2,1.504999E3,3.931284E3,6.8666455E2,1.6096315E3,5.8886316E2,1.4471478E1,2.801251E2,1.2248739E3,2.8214587E3,1.1098252E3],"tree_param":{"num_deleted":"0","num_feature":"15","num_nodes":"15","size_leaf_vector":"1"}},{"base_weights":[4.2646946E-3,6.2387016E-2,-6.2578075E-2,1.0140558E-1,-8.234682E-2,-9.173868E-2,7.093388E-2,-4.8212602E-4,1.3078392E-3,-1.55557E-3,3.247744E-4,1.771715E-4,-1.2180848E-3,6.1520454E-3,6.2104006E-4],"categories":[],"categories_nodes":[],"categories_segments":[],"categories_sizes":[],"default_left":[0,0,0,0,0,0,0,0,0,0,0,0,0,0,0],"id":68,"left_children":[1,3,5,7,9,11,13,-1,-1,-1,-1,-1,-1,-1,-1],"loss_changes":[3.2391216E1,2.5192856E1,1.5103986E1,1.544804E1,7.9701023E0,1.0478811E1,3.3052187E0,0E0,0E0,0E0,0E0,0E0,0E0,0E0,0E0],"parents":[2147483647,0,0,1,1,2,2,3,3,4,4,5,5,6,6],"right_children":[2,4,6,8,10,12,14,-1,-1,-1,-1,-1,-1,-1,-1],"split_conditions":[5.040622E-1,7.3274255E-1,5.393899E-1,4.6130434E-1,4.9468485E-1,2.7335566E-1,5.149832E-2,-4.8212602E-4,1.3078392E-3,-1.55557E-3,3.247744E-4,1.771715E-4,-1.2180848E-3,6.1520454E-3,6.2104006E-4],"split_indices":[3,0,2,5,6,0,0,0,0,0,0,0,0,0,0],"split_type":[0,0,0,0,0,0,0,0,0,0,0,0,0,0,0],"sum_hessian":[8.335381E3,4.4585605E3,3.8768206E3,3.5120513E3,9.4650903E2,3.1821204E3,6.9470026E2,5.763207E2,2.9357307E3,5.777743E2,3.6873477E2,6.858817E2,2.4962385E3,9.994099E0,6.847062E2],"tree_param":{"num_deleted":"0","num_feature":"15","num_nodes":"15","size_leaf_vector":"1"}},{"base_weights":[-4.2646723E-3,-6.2386982E-2,6.257808E-2,-1.0140554E-1,8.2346834E-2,9.173869E-2,-7.093387E-2,4.8212643E-4,-1.3078388E-3,1.55557E-3,-3.2477407E-4,-1.7717142E-4,1.218085E-3,-6.1520454E-3,-6.2103994E-4],"categories":[],"categories_nodes":[],"categories_segments":[],"categories_sizes":[],"default_left":[0,0,0,0,0,0,0,0,0,0,0,0,0,0,0],"id":69,"left_children":[1,3,5,7,9,11,13,-1,-1,-1,-1,-1,-1,-1,-1],"loss_changes":[3.23912E1,2.5192848E1,1.5103988E1,1.5448044E1,7.9701E0,1.0478813E1,3.305218E0,0E0,0E0,0E0,0E0,0E0,0E0,0E0,0E0],"parents":[2147483647,0,0,1,1,2,2,3,3,4,4,5,5,6,6],"right_children":[2,4,6,8,10,12,14,-1,-1,-1,-1,-1,-1,-1,-1],"split_conditions":[5.040622E-1,7.3274255E-1,5.393899E-1,4.6130434E-1,4.9468485E-1,2.7335566E-1,5.149832E-2,4.8212643E-4,-1.3078388E-3,1.55557E-3,-3.2477407E-4,-1.7717142E-4,1.218085E-3,-6.1520454E-3,-6.2103994E-4],"split_indices":[3,0,2,5,6,0,0,0,0,0,0,0,0,0,0],"split_type":[0,0,0,0,0,0,0,0,0,0,0,0,0,0,0],"sum_hessian":[8.335381E3,4.4585605E3,3.8768206E3,3.5120515E3,9.4650903E2,3.1821204E3,6.9470026E2,5.763207E2,2.9357307E3,5.777743E2,3.6873477E2,6.858817E2,2.4962385E3,9.994099E0,6.847062E2],"tree_param":{"num_deleted":"0","num_feature":"15","num_nodes":"15","size_leaf_vector":"1"}},{"base_weights":[4.2229625E-3,-1.0171941E-1,4.0321328E-2,-1.033248E-2,-1.6637799E-1,9.744248E-2,-3.0010266E-2,1.9292837E-3,-7.1813207E-4,-1.4699633E-3,-4.288621E-3,1.4962552E-3,6.84741E-5,-6.2961195E-4,7.0406345E-4],"categories":[],"categories_nodes":[],"categories_segments":[],"categories_sizes":[],"default_left":[0,0,0,0,0,0,0,0,0,0,0,0,0,0,0],"id":70,"left_children":[1,3,5,7,9,11,13,-1,-1,-1,-1,-1,-1,-1,-1],"loss_changes":[3.1883099E1,1.2517883E1,2.498345E1,1.0998221E1,6.249199E0,1.622153E1,9.227904E0,0E0,0E0,0E0,0E0,0E0,0E0,0E0,0E0],"parents":[2147483647,0,0,1,1,2,2,3,3,4,4,5,5,6,6],"right_children":[2,4,6,8,10,12,14,-1,-1,-1,-1,-1,-1,-1,-1],"split_conditions":[4.7217473E-1,4.726937E-1,5.0446033E-1,4.6551162E-1,1.817547E0,5.7706606E-1,5.393899E-1,1.9292837E-3,-7.1813207E-4,-1.4699633E-3,-4.288621E-3,1.4962552E-3,6.84741E-5,-6.2961195E-4,7.0406345E-4],"split_indices":[2,0,3,3,14,0,2,0,0,0,0,0,0,0,0],"split_type":[0,0,0,0,0,0,0,0,0,0,0,0,0,0,0],"sum_hessian":[8.334803E3,2.1177527E3,6.21705E3,8.7798663E2,1.239766E3,3.4305103E3,2.7865398E3,2.0339763E2,6.74589E2,1.15597E3,8.379603E1,2.1763018E3,1.2542085E3,2.098354E3,6.8818567E2],"tree_param":{"num_deleted":"0","num_feature":"15","num_nodes":"15","size_leaf_vector":"1"}},{"base_weights":[-4.2229774E-3,1.0171939E-1,-4.0321343E-2,1.0332461E-2,1.6637796E-1,-9.744248E-2,3.0010244E-2,-1.9292843E-3,7.18132E-4,1.4699631E-3,4.288621E-3,-1.4962552E-3,-6.847423E-5,6.2961166E-4,-7.0406345E-4],"categories":[],"categories_nodes":[],"categories_segments":[],"categories_sizes":[],"default_left":[0,0,0,0,0,0,0,0,0,0,0,0,0,0,0],"id":71,"left_children":[1,3,5,7,9,11,13,-1,-1,-1,-1,-1,-1,-1,-1],"loss_changes":[3.1883093E1,1.2517883E1,2.498344E1,1.0998225E1,6.249199E0,1.622153E1,9.2279005E0,0E0,0E0,0E0,0E0,0E0,0E0,0E0,0E0],"parents":[2147483647,0,0,1,1,2,2,3,3,4,4,5,5,6,6],"right_children":[2,4,6,8,10,12,14,-1,-1,-1,-1,-1,-1,-1,-1],"split_conditions":[4.7217473E-1,4.726937E-1,5.0446033E-1,4.6551162E-1,1.817547E0,5.7706606E-1,5.393899E-1,-1.9292843E-3,7.18132E-4,1.4699631E-3,4.288621E-3,-1.4962552E-3,-6.847423E-5,6.2961166E-4,-7.0406345E-4],"split_indices":[2,0,3,3,14,0,2,0,0,0,0,0,0,0,0],"split_type":[0,0,0,0,0,0,0,0,0,0,0,0,0,0,0],"sum_hessian":[8.334803E3,2.1177527E3,6.21705E3,8.7798663E2,1.239766E3,3.4305103E3,2.7865398E3,2.0339763E2,6.74589E2,1.15597E3,8.379603E1,2.1763018E3,1.2542085E3,2.098354E3,6.881856E2],"tree_param":{"num_deleted":"0","num_feature":"15","num_nodes":"15","size_leaf_vector":"1"}},{"base_weights":[4.180681E-3,-7.9782166E-2,4.8969906E-2,9.936046E-2,-1.0608471E-1,1.5029174E-1,1.0163235E-2,1.6139126E-3,-1.1035908E-3,-6.9649896E-4,-2.0945524E-3,3.4965577E-3,1.0447983E-3,-2.1792909E-4,9.1356284E-4],"categories":[],"categories_nodes":[],"categories_segments":[],"categories_sizes":[],"default_left":[0,0,0,0,0,0,0,0,0,0,0,0,0,0,0],"id":72,"left_children":[1,3,5,7,9,11,13,-1,-1,-1,-1,-1,-1,-1,-1],"loss_changes":[3.1349632E1,1.3674946E1,2.1373638E1,4.854474E0,9.511032E0,1.3712887E1,1.0203593E1,0E0,0E0,0E0,0E0,0E0,0E0,0E0,0E0],"parents":[2147483647,0,0,1,1,2,2,3,3,4,4,5,5,6,6],"right_children":[2,4,6,8,10,12,14,-1,-1,-1,-1,-1,-1,-1,-1],"split_conditions":[4.8355517E-1,1.8751164E-1,4.7169718E-1,7.992292E0,5.460326E-1,1.8374087E-1,5.393899E-1,1.6139126E-3,-1.1035908E-3,-6.9649896E-4,-2.0945524E-3,3.4965577E-3,1.0447983E-3,-2.1792909E-4,9.1356284E-4],"split_indices":[5,0,4,7,8,0,2,0,0,0,0,0,0,0,0],"split_type":[0,0,0,0,0,0,0,0,0,0,0,0,0,0,0],"sum_hessian":[8.33423E3,2.8989727E3,5.4352583E3,3.7079147E2,2.5281812E3,1.5044247E3,3.9308335E3,2.86331E2,8.4460495E1,1.8705469E3,6.576344E2,2.798673E2,1.2245574E3,2.8211934E3,1.10964E3],"tree_param":{"num_deleted":"0","num_feature":"15","num_nodes":"15","size_leaf_vector":"1"}},{"base_weights":[-4.180685E-3,7.978216E-2,-4.896991E-2,-9.936046E-2,1.0608471E-1,-1.5029176E-1,-1.0163238E-2,-1.6139129E-3,1.103591E-3,6.9649896E-4,2.0945524E-3,-3.4965577E-3,-1.0447984E-3,2.1792903E-4,-9.1356284E-4],"categories":[],"categories_nodes":[],"categories_segments":[],"categories_sizes":[],"default_left":[0,0,0,0,0,0,0,0,0,0,0,0,0,0,0],"id":73,"left_children":[1,3,5,7,9,11,13,-1,-1,-1,-1,-1,-1,-1,-1],"loss_changes":[3.1349632E1,1.3674948E1,2.1373642E1,4.854475E0,9.511028E0,1.3712879E1,1.0203592E1,0E0,0E0,0E0,0E0,0E0,0E0,0E0,0E0],"parents":[2147483647,0,0,1,1,2,2,3,3,4,4,5,5,6,6],"right_children":[2,4,6,8,10,12,14,-1,-1,-1,-1,-1,-1,-1,-1],"split_conditions":[4.8355517E-1,1.8751164E-1,4.7169718E-1,7.992292E0,5.460326E-1,1.8374087E-1,5.393899E-1,-1.6139129E-3,1.103591E-3,6.9649896E-4,2.0945524E-3,-3.4965577E-3,-1.0447984E-3,2.1792903E-4,-9.1356284E-4],"split_indices":[5,0,4,7,8,0,2,0,0,0,0,0,0,0,0],"split_type":[0,0,0,0,0,0,0,0,0,0,0,0,0,0,0],"sum_hessian":[8.33423E3,2.8989727E3,5.4352583E3,3.7079147E2,2.5281812E3,1.5044246E3,3.9308335E3,2.86331E2,8.4460495E1,1.8705469E3,6.576344E2,2.7986728E2,1.2245574E3,2.8211934E3,1.10964E3],"tree_param":{"num_deleted":"0","num_feature":"15","num_nodes":"15","size_leaf_vector":"1"}},{"base_weights":[4.1395E-3,6.0851622E-2,-6.1077747E-2,9.913125E-2,-8.112374E-2,-1.1050618E-1,1.4427527E-2,-4.706669E-4,1.2784499E-3,-1.531061E-3,3.1757515E-4,-2.0737994E-5,-1.4269295E-3,-4.9809E-4,6.588681E-4],"categories":[],"categories_nodes":[],"categories_segments":[],"categories_sizes":[],"default_left":[0,0,0,0,0,0,0,0,0,0,0,0,0,0,0],"id":74,"left_children":[1,3,5,7,9,11,13,-1,-1,-1,-1,-1,-1,-1,-1],"loss_changes":[3.0830544E1,2.4239193E1,1.4471577E1,1.4749695E1,7.7027917E0,8.178127E0,5.076777E0,0E0,0E0,0E0,0E0,0E0,0E0,0E0,0E0],"parents":[2147483647,0,0,1,1,2,2,3,3,4,4,5,5,6,6],"right_children":[2,4,6,8,10,12,14,-1,-1,-1,-1,-1,-1,-1,-1],"split_conditions":[5.040622E-1,7.3274255E-1,5.0975364E-1,4.6130434E-1,4.9468485E-1,2.868149E-1,5.2871346E-1,-4.706669E-4,1.2784499E-3,-1.531061E-3,3.1757515E-4,-2.0737994E-5,-1.4269295E-3,-4.9809E-4,6.588681E-4],"split_indices":[3,0,5,5,6,0,6,0,0,0,0,0,0,0,0],"split_type":[0,0,0,0,0,0,0,0,0,0,0,0,0,0,0],"sum_hessian":[8.333709E3,4.4575474E3,3.8761619E3,3.5111636E3,9.463837E2,2.3423276E3,1.5338342E3,5.7629254E2,2.934871E3,