{"learner":{"attributes":{},"feature_names":["eloExpectedAgainst","eloExpectedFor","faceOffsWonAgainst_seasonal_ema","corsiPercentage_Against_seasonal_ema","fenwickPercentage_Against_seasonal_ema","fenwickPercentage_seasonal_ema","xGoalsPercentage_Against_seasonal_ema","xGoalsPercentage_seasonal_ema","reboundGoalsAgainst_seasonal_ema","faceOffsWonFor_seasonal_ema","lowDangerGoalsFor_seasonal_ema","hitsAgainst_seasonal_ema","corsiPercentage_seasonal_ema","lowDangerGoalsAgainst_seasonal_ema","dZoneGiveawaysAgainst_seasonal_ema"],"feature_types":["float","float","float","float","float","float","float","float","float","float","float","float","float","float","float"],"gradient_booster":{"model":{"gbtree_model_param":{"num_parallel_tree":"1","num_trees":"1500"},"iteration_indptr":[0,2,4,6,8,10,12,14,16,18,20,22,24,26,28,30,32,34,36,38,40,42,44,46,48,50,52,54,56,58,60,62,64,66,68,70,72,74,76,78,80,82,84,86,88,90,92,94,96,98,100,102,104,106,108,110,112,114,116,118,120,122,124,126,128,130,132,134,136,138,140,142,144,146,148,150,152,154,156,158,160,162,164,166,168,170,172,174,176,178,180,182,184,186,188,190,192,194,196,198,200,202,204,206,208,210,212,214,216,218,220,222,224,226,228,230,232,234,236,238,240,242,244,246,248,250,252,254,256,258,260,262,264,266,268,270,272,274,276,278,280,282,284,286,288,290,292,294,296,298,300,302,304,306,308,310,312,314,316,318,320,322,324,326,328,330,332,334,336,338,340,342,344,346,348,350,352,354,356,358,360,362,364,366,368,370,372,374,376,378,380,382,384,386,388,390,392,394,396,398,400,402,404,406,408,410,412,414,416,418,420,422,424,426,428,430,432,434,436,438,440,442,444,446,448,450,452,454,456,458,460,462,464,466,468,470,472,474,476,478,480,482,484,486,488,490,492,494,496,498,500,502,504,506,508,510,512,514,516,518,520,522,524,526,528,530,532,534,536,538,540,542,544,546,548,550,552,554,556,558,560,562,564,566,568,570,572,574,576,578,580,582,584,586,588,590,592,594,596,598,600,602,604,606,608,610,612,614,616,618,620,622,624,626,628,630,632,634,636,638,640,642,644,646,648,650,652,654,656,658,660,662,664,666,668,670,672,674,676,678,680,682,684,686,688,690,692,694,696,698,700,702,704,706,708,710,712,714,716,718,720,722,724,726,728,730,732,734,736,738,740,742,744,746,748,750,752,754,756,758,760,762,764,766,768,770,772,774,776,778,780,782,784,786,788,790,792,794,796,798,800,802,804,806,808,810,812,814,816,818,820,822,824,826,828,830,832,834,836,838,840,842,844,846,848,850,852,854,856,858,860,862,864,866,868,870,872,874,876,878,880,882,884,886,888,890,892,894,896,898,900,902,904,906,908,910,912,914,916,918,920,922,924,926,928,930,932,934,936,938,940,942,944,946,948,950,952,954,956,958,960,962,964,966,968,970,972,974,976,978,980,982,984,986,988,990,992,994,996,998,1000,1002,1004,1006,1008,1010,1012,1014,1016,1018,1020,1022,1024,1026,1028,1030,1032,1034,1036,1038,1040,1042,1044,1046,1048,1050,1052,1054,1056,1058,1060,1062,1064,1066,1068,1070,1072,1074,1076,1078,1080,1082,1084,1086,1088,1090,1092,1094,1096,1098,1100,1102,1104,1106,1108,1110,1112,1114,1116,1118,1120,1122,1124,1126,1128,1130,1132,1134,1136,1138,1140,1142,1144,1146,1148,1150,1152,1154,1156,1158,1160,1162,1164,1166,1168,1170,1172,1174,1176,1178,1180,1182,1184,1186,1188,1190,1192,1194,1196,1198,1200,1202,1204,1206,1208,1210,1212,1214,1216,1218,1220,1222,1224,1226,1228,1230,1232,1234,1236,1238,1240,1242,1244,1246,1248,1250,1252,1254,1256,1258,1260,1262,1264,1266,1268,1270,1272,1274,1276,1278,1280,1282,1284,1286,1288,1290,1292,1294,1296,1298,1300,1302,1304,1306,1308,1310,1312,1314,1316,1318,1320,1322,1324,1326,1328,1330,1332,1334,1336,1338,1340,1342,1344,1346,1348,1350,1352,1354,1356,1358,1360,1362,1364,1366,1368,1370,1372,1374,1376,1378,1380,1382,1384,1386,1388,1390,1392,1394,1396,1398,1400,1402,1404,1406,1408,1410,1412,1414,1416,1418,1420,1422,1424,1426,1428,1430,1432,1434,1436,1438,1440,1442,1444,1446,1448,1450,1452,1454,1456,1458,1460,1462,1464,1466,1468,1470,1472,1474,1476,1478,1480,1482,1484,1486,1488,1490,1492,1494,1496,1498,1500],"tree_info":[0,1,0,1,0,1,0,1,0,1,0,1,0,1,0,1,0,1,0,1,0,1,0,1,0,1,0,1,0,1,0,1,0,1,0,1,0,1,0,1,0,1,0,1,0,1,0,1,0,1,0,1,0,1,0,1,0,1,0,1,0,1,0,1,0,1,0,1,0,1,0,1,0,1,0,1,0,1,0,1,0,1,0,1,0,1,0,1,0,1,0,1,0,1,0,1,0,1,0,1,0,1,0,1,0,1,0,1,0,1,0,1,0,1,0,1,0,1,0,1,0,1,0,1,0,1,0,1,0,1,0,1,0,1,0,1,0,1,0,1,0,1,0,1,0,1,0,1,0,1,0,1,0,1,0,1,0,1,0,1,0,1,0,1,0,1,0,1,0,1,0,1,0,1,0,1,0,1,0,1,0,1,0,1,0,1,0,1,0,1,0,1,0,1,0,1,0,1,0,1,0,1,0,1,0,1,0,1,0,1,0,1,0,1,0,1,0,1,0,1,0,1,0,1,0,1,0,1,0,1,0,1,0,1,0,1,0,1,0,1,0,1,0,1,0,1,0,1,0,1,0,1,0,1,0,1,0,1,0,1,0,1,0,1,0,1,0,1,0,1,0,1,0,1,0,1,0,1,0,1,0,1,0,1,0,1,0,1,0,1,0,1,0,1,0,1,0,1,0,1,0,1,0,1,0,1,0,1,0,1,0,1,0,1,0,1,0,1,0,1,0,1,0,1,0,1,0,1,0,1,0,1,0,1,0,1,0,1,0,1,0,1,0,1,0,1,0,1,0,1,0,1,0,1,0,1,0,1,0,1,0,1,0,1,0,1,0,1,0,1,0,1,0,1,0,1,0,1,0,1,0,1,0,1,0,1,0,1,0,1,0,1,0,1,0,1,0,1,0,1,0,1,0,1,0,1,0,1,0,1,0,1,0,1,0,1,0,1,0,1,0,1,0,1,0,1,0,1,0,1,0,1,0,1,0,1,0,1,0,1,0,1,0,1,0,1,0,1,0,1,0,1,0,1,0,1,0,1,0,1,0,1,0,1,0,1,0,1,0,1,0,1,0,1,0,1,0,1,0,1,0,1,0,1,0,1,0,1,0,1,0,1,0,1,0,1,0,1,0,1,0,1,0,1,0,1,0,1,0,1,0,1,0,1,0,1,0,1,0,1,0,1,0,1,0,1,0,1,0,1,0,1,0,1,0,1,0,1,0,1,0,1,0,1,0,1,0,1,0,1,0,1,0,1,0,1,0,1,0,1,0,1,0,1,0,1,0,1,0,1,0,1,0,1,0,1,0,1,0,1,0,1,0,1,0,1,0,1,0,1,0,1,0,1,0,1,0,1,0,1,0,1,0,1,0,1,0,1,0,1,0,1,0,1,0,1,0,1,0,1,0,1,0,1,0,1,0,1,0,1,0,1,0,1,0,1,0,1,0,1,0,1,0,1,0,1,0,1,0,1,0,1,0,1,0,1,0,1,0,1,0,1,0,1,0,1,0,1,0,1,0,1,0,1,0,1,0,1,0,1,0,1,0,1,0,1,0,1,0,1,0,1,0,1,0,1,0,1,0,1,0,1,0,1,0,1,0,1,0,1,0,1,0,1,0,1,0,1,0,1,0,1,0,1,0,1,0,1,0,1,0,1,0,1,0,1,0,1,0,1,0,1,0,1,0,1,0,1,0,1,0,1,0,1,0,1,0,1,0,1,0,1,0,1,0,1,0,1,0,1,0,1,0,1,0,1,0,1,0,1,0,1,0,1,0,1,0,1,0,1,0,1,0,1,0,1,0,1,0,1,0,1,0,1,0,1,0,1,0,1,0,1,0,1,0,1,0,1,0,1,0,1,0,1,0,1,0,1,0,1,0,1,0,1,0,1,0,1,0,1,0,1,0,1,0,1,0,1,0,1,0,1,0,1,0,1,0,1,0,1,0,1,0,1,0,1,0,1,0,1,0,1,0,1,0,1,0,1,0,1,0,1,0,1,0,1,0,1,0,1,0,1,0,1,0,1,0,1,0,1,0,1,0,1,0,1,0,1,0,1,0,1,0,1,0,1,0,1,0,1,0,1,0,1,0,1,0,1,0,1,0,1,0,1,0,1,0,1,0,1,0,1,0,1,0,1,0,1,0,1,0,1,0,1,0,1,0,1,0,1,0,1,0,1,0,1,0,1,0,1,0,1,0,1,0,1,0,1,0,1,0,1,0,1,0,1,0,1,0,1,0,1,0,1,0,1,0,1,0,1,0,1,0,1,0,1,0,1,0,1,0,1,0,1,0,1,0,1,0,1,0,1,0,1,0,1,0,1,0,1,0,1,0,1,0,1,0,1,0,1,0,1,0,1,0,1,0,1,0,1,0,1,0,1,0,1,0,1,0,1,0,1,0,1,0,1,0,1,0,1,0,1,0,1,0,1,0,1,0,1,0,1,0,1,0,1,0,1,0,1,0,1,0,1,0,1,0,1,0,1,0,1,0,1,0,1,0,1,0,1,0,1,0,1,0,1,0,1,0,1,0,1,0,1,0,1,0,1,0,1,0,1,0,1,0,1,0,1,0,1,0,1,0,1,0,1,0,1,0,1,0,1,0,1,0,1,0,1,0,1,0,1,0,1,0,1,0,1,0,1,0,1,0,1,0,1,0,1,0,1,0,1,0,1,0,1,0,1,0,1,0,1,0,1,0,1,0,1,0,1,0,1,0,1,0,1,0,1,0,1,0,1,0,1,0,1,0,1,0,1,0,1,0,1,0,1,0,1,0,1,0,1,0,1,0,1,0,1,0,1,0,1,0,1,0,1,0,1,0,1,0,1,0,1,0,1,0,1,0,1,0,1,0,1,0,1,0,1,0,1,0,1,0,1,0,1,0,1,0,1,0,1,0,1,0,1,0,1,0,1,0,1,0,1,0,1,0,1,0,1,0,1,0,1,0,1,0,1,0,1,0,1,0,1,0,1,0,1,0,1,0,1,0,1,0,1,0,1,0,1,0,1,0,1,0,1,0,1,0,1,0,1,0,1,0,1,0,1,0,1,0,1,0,1,0,1,0,1,0,1,0,1,0,1,0,1,0,1,0,1,0,1,0,1,0,1,0,1,0,1,0,1,0,1,0,1,0,1,0,1,0,1,0,1,0,1,0,1,0,1,0,1,0,1,0,1,0,1,0,1,0,1,0,1,0,1,0,1,0,1,0,1,0,1,0,1,0,1,0,1,0,1,0,1,0,1,0,1,0,1,0,1,0,1,0,1,0,1,0,1,0,1,0,1,0,1,0,1,0,1,0,1,0,1,0,1,0,1,0,1,0,1,0,1,0,1,0,1,0,1,0,1,0,1,0,1,0,1,0,1,0,1,0,1,0,1,0,1,0,1],"trees":[{"base_weights":[4.2665703E-3,9.800084E-2,-6.638567E-2,-1.533361E-2,1.5563053E-1,-1.2265372E-1,3.8647342E-2,3.380135E-2,-2.0731707E-1,2.4211651E-1,9.9199444E-2,-8.5244484E-2,-2.3333333E-1,1.3275726E-1,-2.0088192E-2,-8.108108E-4,7.6048326E-4,-2.919708E-4,-4.2727273E-3,1.923664E-3,3.57016E-3,1.9469026E-4,1.5071633E-3,-6.570744E-4,-2.6431717E-3,-3.079096E-3,-1.7096018E-3,-3.0612245E-3,1.5008156E-3,2.5733095E-4,-2.2580645E-3],"categories":[],"categories_nodes":[],"categories_segments":[],"categories_sizes":[],"default_left":[0,0,0,0,0,0,0,0,0,0,0,0,0,0,0,0,0,0,0,0,0,0,0,0,0,0,0,0,0,0,0],"id":0,"left_children":[1,3,5,7,9,11,13,15,17,19,21,23,25,27,29,-1,-1,-1,-1,-1,-1,-1,-1,-1,-1,-1,-1,-1,-1,-1,-1],"loss_changes":[5.5109318E1,2.336205E1,2.8047705E1,1.1388043E1,1.1547642E1,1.2774071E1,9.156367E0,4.6727448E0,9.625436E0,5.2788887E0,5.897437E0,8.067787E0,3.575573E0,4.885433E0,9.625324E0,0E0,0E0,0E0,0E0,0E0,0E0,0E0,0E0,0E0,0E0,0E0,0E0,0E0,0E0,0E0,0E0],"parents":[2147483647,0,0,1,1,2,2,3,3,4,4,5,5,6,6,7,7,8,8,9,9,10,10,11,11,12,12,13,13,14,14],"right_children":[2,4,6,8,10,12,14,16,18,20,22,24,26,28,30,-1,-1,-1,-1,-1,-1,-1,-1,-1,-1,-1,-1,-1,-1,-1,-1],"split_conditions":[-1.6868668E-2,-3.53002E-2,2.9954622E-2,6.580249E-1,-1.0106131E-1,6.514348E-1,-3.3266044E-1,-1.4099327E-1,5.9820986E-1,6.622275E-1,1.754779E-2,1.3152945E-1,-6.559533E-2,-9.2735715E-2,1.381279E-1,-8.108108E-4,7.6048326E-4,-2.919708E-4,-4.2727273E-3,1.923664E-3,3.57016E-3,1.9469026E-4,1.5071633E-3,-6.570744E-4,-2.6431717E-3,-3.079096E-3,-1.7096018E-3,-3.0612245E-3,1.5008156E-3,2.5733095E-4,-2.2580645E-3],"split_indices":[5,3,4,0,5,0,14,4,1,1,6,12,4,6,7,0,0,0,0,0,0,0,0,0,0,0,0,0,0,0,0],"split_type":[0,0,0,0,0,0,0,0,0,0,0,0,0,0,0,0,0,0,0,0,0,0,0,0,0,0,0,0,0,0,0],"sum_hessian":[8.3195E3,3.5755E3,4.744E3,1.2055E3,2.37E3,3.089E3,1.655E3,9.605E2,2.45E2,9.345E2,1.4355E3,2.31E3,7.79E2,6.355E2,1.0195E3,2.58E2,7.025E2,1.36E2,1.09E2,6.54E2,2.805E2,5.64E2,8.715E2,2.084E3,2.26E2,3.53E2,4.26E2,2.35E1,6.12E2,8.345E2,1.85E2],"tree_param":{"num_deleted":"0","num_feature":"15","num_nodes":"31","size_leaf_vector":"1"}},{"base_weights":[-4.2665703E-3,-9.800084E-2,6.638567E-2,1.533361E-2,-1.5563053E-1,1.2265372E-1,-3.8647342E-2,-3.380135E-2,2.0731707E-1,-2.4211651E-1,-9.9199444E-2,8.5244484E-2,2.3333333E-1,-1.3275726E-1,2.0088192E-2,8.108108E-4,-7.6048326E-4,2.919708E-4,4.2727273E-3,-1.923664E-3,-3.57016E-3,-1.9469026E-4,-1.5071633E-3,6.570744E-4,2.6431717E-3,3.079096E-3,1.7096018E-3,3.0612245E-3,-1.5008156E-3,-2.5733095E-4,2.2580645E-3],"categories":[],"categories_nodes":[],"categories_segments":[],"categories_sizes":[],"default_left":[0,0,0,0,0,0,0,0,0,0,0,0,0,0,0,0,0,0,0,0,0,0,0,0,0,0,0,0,0,0,0],"id":1,"left_children":[1,3,5,7,9,11,13,15,17,19,21,23,25,27,29,-1,-1,-1,-1,-1,-1,-1,-1,-1,-1,-1,-1,-1,-1,-1,-1],"loss_changes":[5.5109318E1,2.336205E1,2.8047705E1,1.1388043E1,1.1547642E1,1.2774071E1,9.156367E0,4.6727448E0,9.625436E0,5.2788887E0,5.897437E0,8.067787E0,3.575573E0,4.885433E0,9.625324E0,0E0,0E0,0E0,0E0,0E0,0E0,0E0,0E0,0E0,0E0,0E0,0E0,0E0,0E0,0E0,0E0],"parents":[2147483647,0,0,1,1,2,2,3,3,4,4,5,5,6,6,7,7,8,8,9,9,10,10,11,11,12,12,13,13,14,14],"right_children":[2,4,6,8,10,12,14,16,18,20,22,24,26,28,30,-1,-1,-1,-1,-1,-1,-1,-1,-1,-1,-1,-1,-1,-1,-1,-1],"split_conditions":[-1.6868668E-2,-3.53002E-2,2.9954622E-2,6.580249E-1,-1.0106131E-1,6.514348E-1,-3.3266044E-1,-1.4099327E-1,5.9820986E-1,6.622275E-1,1.754779E-2,1.3152945E-1,-6.559533E-2,-9.2735715E-2,1.381279E-1,8.108108E-4,-7.6048326E-4,2.919708E-4,4.2727273E-3,-1.923664E-3,-3.57016E-3,-1.9469026E-4,-1.5071633E-3,6.570744E-4,2.6431717E-3,3.079096E-3,1.7096018E-3,3.0612245E-3,-1.5008156E-3,-2.5733095E-4,2.2580645E-3],"split_indices":[5,3,4,0,5,0,14,4,1,1,6,12,4,6,7,0,0,0,0,0,0,0,0,0,0,0,0,0,0,0,0],"split_type":[0,0,0,0,0,0,0,0,0,0,0,0,0,0,0,0,0,0,0,0,0,0,0,0,0,0,0,0,0,0,0],"sum_hessian":[8.3195E3,3.5755E3,4.744E3,1.2055E3,2.37E3,3.089E3,1.655E3,9.605E2,2.45E2,9.345E2,1.4355E3,2.31E3,7.79E2,6.355E2,1.0195E3,2.58E2,7.025E2,1.36E2,1.09E2,6.54E2,2.805E2,5.64E2,8.715E2,2.084E3,2.26E2,3.53E2,4.26E2,2.35E1,6.12E2,8.345E2,1.85E2],"tree_param":{"num_deleted":"0","num_feature":"15","num_nodes":"31","size_leaf_vector":"1"}},{"base_weights":[4.222813E-3,9.702182E-2,-6.572441E-2,-1.5184174E-2,1.5407778E-1,-1.2143008E-1,3.8258746E-2,3.346326E-2,-2.0526415E-1,2.3970273E-1,9.820878E-2,-8.439355E-2,-2.3100749E-1,1.3142754E-1,-1.9889325E-2,-8.027342E-4,7.5288897E-4,-2.890727E-4,-4.2304653E-3,1.9044637E-3,3.5346295E-3,1.9274704E-4,1.4921123E-3,-6.505069E-4,-2.616875E-3,-3.0484202E-3,-1.6925511E-3,-5.7981163E-3,1.4197746E-3,2.547603E-4,-2.2356168E-3],"categories":[],"categories_nodes":[],"categories_segments":[],"categories_sizes":[],"default_left":[0,0,0,0,0,0,0,0,0,0,0,0,0,0,0,0,0,0,0,0,0,0,0,0,0,0,0,0,0,0,0],"id":2,"left_children":[1,3,5,7,9,11,13,15,17,19,21,23,25,27,29,-1,-1,-1,-1,-1,-1,-1,-1,-1,-1,-1,-1,-1,-1,-1,-1],"loss_changes":[5.4014885E1,2.2899097E1,2.7489769E1,1.1163234E1,1.1318764E1,1.2520828E1,8.974122E0,4.5800023E0,9.435919E0,5.1746445E0,5.780224E0,7.908247E0,3.5047607E0,4.8582916E0,9.434768E0,0E0,0E0,0E0,0E0,0E0,0E0,0E0,0E0,0E0,0E0,0E0,0E0,0E0,0E0,0E0,0E0],"parents":[2147483647,0,0,1,1,2,2,3,3,4,4,5,5,6,6,7,7,8,8,9,9,10,10,11,11,12,12,13,13,14,14],"right_children":[2,4,6,8,10,12,14,16,18,20,22,24,26,28,30,-1,-1,-1,-1,-1,-1,-1,-1,-1,-1,-1,-1,-1,-1,-1,-1],"split_conditions":[-1.6868668E-2,-3.53002E-2,2.9954622E-2,6.580249E-1,-1.0106131E-1,6.514348E-1,-3.3266044E-1,-1.4099327E-1,5.9820986E-1,6.622275E-1,1.754779E-2,1.3152945E-1,-6.559533E-2,-1.3431876E1,1.381279E-1,-8.027342E-4,7.5288897E-4,-2.890727E-4,-4.2304653E-3,1.9044637E-3,3.5346295E-3,1.9274704E-4,1.4921123E-3,-6.505069E-4,-2.616875E-3,-3.0484202E-3,-1.6925511E-3,-5.7981163E-3,1.4197746E-3,2.547603E-4,-2.2356168E-3],"split_indices":[5,3,4,0,5,0,14,4,1,1,6,12,4,8,7,0,0,0,0,0,0,0,0,0,0,0,0,0,0,0,0],"split_type":[0,0,0,0,0,0,0,0,0,0,0,0,0,0,0,0,0,0,0,0,0,0,0,0,0,0,0,0,0,0,0],"sum_hessian":[8.3194795E3,3.5754895E3,4.74399E3,1.2054974E3,2.369992E3,3.088993E3,1.6549974E3,9.6049945E2,2.44998E2,9.34494E2,1.435498E3,2.3099976E3,7.789954E2,6.354984E2,1.019499E3,2.5799985E2,7.024996E2,1.3599998E2,1.0899801E2,6.5399756E2,2.8049643E2,5.6399994E2,8.7149805E2,2.083999E3,2.2599841E2,3.5299667E2,4.2599875E2,8.499973E0,6.269984E2,8.3449994E2,1.8499905E2],"tree_param":{"num_deleted":"0","num_feature":"15","num_nodes":"31","size_leaf_vector":"1"}},{"base_weights":[-4.2228303E-3,-9.7021855E-2,6.57244E-2,1.5184148E-2,-1.5407781E-1,1.21430084E-1,-3.825879E-2,-3.3463288E-2,2.0526415E-1,-2.3970284E-1,-9.820878E-2,8.439355E-2,2.3100753E-1,-1.3142754E-1,1.9889254E-2,8.0273405E-4,-7.5288926E-4,2.890727E-4,4.2304653E-3,-1.9044647E-3,-3.5346304E-3,-1.9274704E-4,-1.4921123E-3,6.505069E-4,2.6168753E-3,3.0484211E-3,1.6925511E-3,5.7981163E-3,-1.4197746E-3,-2.547612E-4,2.2356168E-3],"categories":[],"categories_nodes":[],"categories_segments":[],"categories_sizes":[],"default_left":[0,0,0,0,0,0,0,0,0,0,0,0,0,0,0,0,0,0,0,0,0,0,0,0,0,0,0,0,0,0,0],"id":3,"left_children":[1,3,5,7,9,11,13,15,17,19,21,23,25,27,29,-1,-1,-1,-1,-1,-1,-1,-1,-1,-1,-1,-1,-1,-1,-1,-1],"loss_changes":[5.4014896E1,2.2899101E1,2.748979E1,1.1163237E1,1.1318779E1,1.2520832E1,8.9741125E0,4.5800023E0,9.435919E0,5.1746483E0,5.780224E0,7.908251E0,3.5047684E0,4.8582926E0,9.434774E0,0E0,0E0,0E0,0E0,0E0,0E0,0E0,0E0,0E0,0E0,0E0,0E0,0E0,0E0,0E0,0E0],"parents":[2147483647,0,0,1,1,2,2,3,3,4,4,5,5,6,6,7,7,8,8,9,9,10,10,11,11,12,12,13,13,14,14],"right_children":[2,4,6,8,10,12,14,16,18,20,22,24,26,28,30,-1,-1,-1,-1,-1,-1,-1,-1,-1,-1,-1,-1,-1,-1,-1,-1],"split_conditions":[-1.6868668E-2,-3.53002E-2,2.9954622E-2,6.580249E-1,-1.0106131E-1,6.514348E-1,-3.3266044E-1,-1.4099327E-1,5.9820986E-1,6.622275E-1,1.754779E-2,1.3152945E-1,-6.559533E-2,-1.3431876E1,1.381279E-1,8.0273405E-4,-7.5288926E-4,2.890727E-4,4.2304653E-3,-1.9044647E-3,-3.5346304E-3,-1.9274704E-4,-1.4921123E-3,6.505069E-4,2.6168753E-3,3.0484211E-3,1.6925511E-3,5.7981163E-3,-1.4197746E-3,-2.547612E-4,2.2356168E-3],"split_indices":[5,3,4,0,5,0,14,4,1,1,6,12,4,8,7,0,0,0,0,0,0,0,0,0,0,0,0,0,0,0,0],"split_type":[0,0,0,0,0,0,0,0,0,0,0,0,0,0,0,0,0,0,0,0,0,0,0,0,0,0,0,0,0,0,0],"sum_hessian":[8.3194795E3,3.5754895E3,4.74399E3,1.2054974E3,2.369992E3,3.088993E3,1.6549973E3,9.6049945E2,2.44998E2,9.3449396E2,1.435498E3,2.3099976E3,7.789954E2,6.354984E2,1.01949896E3,2.5799982E2,7.0249963E2,1.3599998E2,1.0899801E2,6.5399756E2,2.804964E2,5.6399994E2,8.7149805E2,2.083999E3,2.2599843E2,3.5299664E2,4.2599875E2,8.499973E0,6.269984E2,8.344999E2,1.8499905E2],"tree_param":{"num_deleted":"0","num_feature":"15","num_nodes":"31","size_leaf_vector":"1"}},{"base_weights":[4.179223E-3,9.605322E-2,-6.507057E-2,-1.5036169E-2,1.5254161E-1,-1.4060676E-1,1.0174995E-2,3.3128697E-2,-2.0323482E-1,2.3731613E-1,9.722831E-2,-1.7281228E-1,1.5219857E-2,-8.808917E-2,4.0104005E-2,7.85765E-4,-7.0577307E-4,-2.8620276E-4,-4.1887704E-3,1.8854697E-3,3.499542E-3,1.9082284E-4,1.4772192E-3,-1.2862969E-3,-2.8837333E-3,1.5502032E-3,-7.8042754E-4,-1.3631412E-3,5.8796577E-4,2.3485425E-4,1.9801278E-3],"categories":[],"categories_nodes":[],"categories_segments":[],"categories_sizes":[],"default_left":[0,0,0,0,0,0,0,0,0,0,0,0,0,0,0,0,0,0,0,0,0,0,0,0,0,0,0,0,0,0,0],"id":4,"left_children":[1,3,5,7,9,11,13,15,17,19,21,23,25,27,29,-1,-1,-1,-1,-1,-1,-1,-1,-1,-1,-1,-1,-1,-1,-1,-1],"loss_changes":[5.294289E1,2.24455E1,2.6970669E1,1.0943035E1,1.1094772E1,1.1886269E1,6.997071E0,4.537287E0,9.250663E0,5.072838E0,5.6653996E0,9.982903E0,5.3120866E0,3.9429078E0,4.780587E0,0E0,0E0,0E0,0E0,0E0,0E0,0E0,0E0,0E0,0E0,0E0,0E0,0E0,0E0,0E0,0E0],"parents":[2147483647,0,0,1,1,2,2,3,3,4,4,5,5,6,6,7,7,8,8,9,9,10,10,11,11,12,12,13,13,14,14],"right_children":[2,4,6,8,10,12,14,16,18,20,22,24,26,28,30,-1,-1,-1,-1,-1,-1,-1,-1,-1,-1,-1,-1,-1,-1,-1,-1],"split_conditions":[-1.6868668E-2,-3.53002E-2,-5.0849784E-3,6.580249E-1,-1.0106131E-1,2.0616639E0,-1.27134165E-2,-4.9531035E-2,5.9820986E-1,6.622275E-1,1.754779E-2,5.254458E-1,1.0570323E-1,6.873966E-2,1.4298089E-1,7.85765E-4,-7.0577307E-4,-2.8620276E-4,-4.1887704E-3,1.8854697E-3,3.499542E-3,1.9082284E-4,1.4772192E-3,-1.2862969E-3,-2.8837333E-3,1.5502032E-3,-7.8042754E-4,-1.3631412E-3,5.8796577E-4,2.3485425E-4,1.9801278E-3],"split_indices":[5,3,4,0,5,1,6,12,1,1,6,1,13,2,3,0,0,0,0,0,0,0,0,0,0,0,0,0,0,0,0],"split_type":[0,0,0,0,0,0,0,0,0,0,0,0,0,0,0,0,0,0,0,0,0,0,0,0,0,0,0,0,0,0,0],"sum_hessian":[8.319421E3,3.575458E3,4.7439624E3,1.2054899E3,2.3699683E3,2.366976E3,2.3769866E3,9.6049774E2,2.4499207E2,9.3447626E2,1.4354921E3,1.9614778E3,4.0549826E2,5.544967E2,1.8224899E3,6.679984E2,2.9249933E2,1.3599994E2,1.0899212E2,6.539904E2,2.8048584E2,5.639999E2,8.714921E2,1.4204923E3,5.409855E2,1.6199934E2,2.4349892E2,4.1749756E2,1.3699918E2,1.6499908E3,1.7249902E2],"tree_param":{"num_deleted":"0","num_feature":"15","num_nodes":"31","size_leaf_vector":"1"}},{"base_weights":[-4.1792057E-3,-9.605317E-2,6.507056E-2,1.5036192E-2,-1.5254153E-1,1.4060676E-1,-1.0175009E-2,-3.3128675E-2,2.0323484E-1,-2.3731604E-1,-9.722826E-2,1.7281228E-1,-1.5219854E-2,8.808917E-2,-4.0104024E-2,-7.8576483E-4,7.057733E-4,2.8620305E-4,4.1887704E-3,-1.8854685E-3,-3.499542E-3,-1.9082284E-4,-1.4772181E-3,1.286297E-3,2.8837333E-3,-1.5502032E-3,7.8042754E-4,1.3631412E-3,-5.879659E-4,-2.3485442E-4,-1.980128E-3],"categories":[],"categories_nodes":[],"categories_segments":[],"categories_sizes":[],"default_left":[0,0,0,0,0,0,0,0,0,0,0,0,0,0,0,0,0,0,0,0,0,0,0,0,0,0,0,0,0,0,0],"id":5,"left_children":[1,3,5,7,9,11,13,15,17,19,21,23,25,27,29,-1,-1,-1,-1,-1,-1,-1,-1,-1,-1,-1,-1,-1,-1,-1,-1],"loss_changes":[5.2942852E1,2.2445488E1,2.6970678E1,1.0943035E1,1.1094765E1,1.1886269E1,6.9970727E0,4.537287E0,9.25066E0,5.0728416E0,5.665392E0,9.982903E0,5.312086E0,3.9429088E0,4.780588E0,0E0,0E0,0E0,0E0,0E0,0E0,0E0,0E0,0E0,0E0,0E0,0E0,0E0,0E0,0E0,0E0],"parents":[2147483647,0,0,1,1,2,2,3,3,4,4,5,5,6,6,7,7,8,8,9,9,10,10,11,11,12,12,13,13,14,14],"right_children":[2,4,6,8,10,12,14,16,18,20,22,24,26,28,30,-1,-1,-1,-1,-1,-1,-1,-1,-1,-1,-1,-1,-1,-1,-1,-1],"split_conditions":[-1.6868668E-2,-3.53002E-2,-5.0849784E-3,6.580249E-1,-1.0106131E-1,2.0616639E0,-1.27134165E-2,-4.9531035E-2,5.9820986E-1,6.622275E-1,1.754779E-2,5.254458E-1,1.0570323E-1,6.873966E-2,1.4298089E-1,-7.8576483E-4,7.057733E-4,2.8620305E-4,4.1887704E-3,-1.8854685E-3,-3.499542E-3,-1.9082284E-4,-1.4772181E-3,1.286297E-3,2.8837333E-3,-1.5502032E-3,7.8042754E-4,1.3631412E-3,-5.879659E-4,-2.3485442E-4,-1.980128E-3],"split_indices":[5,3,4,0,5,1,6,12,1,1,6,1,13,2,3,0,0,0,0,0,0,0,0,0,0,0,0,0,0,0,0],"split_type":[0,0,0,0,0,0,0,0,0,0,0,0,0,0,0,0,0,0,0,0,0,0,0,0,0,0,0,0,0,0,0],"sum_hessian":[8.319421E3,3.5754583E3,4.743963E3,1.2054897E3,2.3699683E3,2.366976E3,2.3769866E3,9.6049774E2,2.4499207E2,9.3447626E2,1.4354921E3,1.9614778E3,4.0549826E2,5.544967E2,1.8224899E3,6.679984E2,2.924993E2,1.3599995E2,1.0899212E2,6.539904E2,2.8048584E2,5.639999E2,8.714922E2,1.4204923E3,5.409855E2,1.6199936E2,2.4349892E2,4.1749756E2,1.3699918E2,1.6499908E3,1.7249902E2],"tree_param":{"num_deleted":"0","num_feature":"15","num_nodes":"31","size_leaf_vector":"1"}},{"base_weights":[4.137541E-3,9.5094725E-2,-6.442074E-2,-1.4889577E-2,1.510216E-1,-1.1908747E-1,3.762188E-2,3.279756E-2,-2.0122872E-1,2.3495601E-1,9.6257806E-2,-8.278252E-2,-2.2650446E-1,1.298337E-1,-1.992838E-2,-7.9836254E-4,7.421819E-4,-2.8336185E-4,-4.1476307E-3,-1.8408675E-3,2.4761262E-3,1.8891772E-4,1.4624795E-3,-6.364315E-4,-2.5821915E-3,-2.9910977E-3,-1.6578427E-3,-5.7489746E-3,1.4028758E-3,2.499713E-4,-2.2162714E-3],"categories":[],"categories_nodes":[],"categories_segments":[],"categories_sizes":[],"default_left":[0,0,0,0,0,0,0,0,0,0,0,0,0,0,0,0,0,0,0,0,0,0,0,0,0,0,0,0,0,0,0],"id":6,"left_children":[1,3,5,7,9,11,13,15,17,19,21,23,25,27,29,-1,-1,-1,-1,-1,-1,-1,-1,-1,-1,-1,-1,-1,-1,-1,-1],"loss_changes":[5.1890656E1,2.2001019E1,2.64733E1,1.0727349E1,1.0875523E1,1.20313E1,8.790611E0,4.4916577E0,9.069543E0,5.006874E0,5.5528917E0,7.7432556E0,3.3889542E0,4.769808E0,9.25268E0,0E0,0E0,0E0,0E0,0E0,0E0,0E0,0E0,0E0,0E0,0E0,0E0,0E0,0E0,0E0,0E0],"parents":[2147483647,0,0,1,1,2,2,3,3,4,4,5,5,6,6,7,7,8,8,9,9,10,10,11,11,12,12,13,13,14,14],"right_children":[2,4,6,8,10,12,14,16,18,20,22,24,26,28,30,-1,-1,-1,-1,-1,-1,-1,-1,-1,-1,-1,-1,-1,-1,-1,-1],"split_conditions":[-1.6868668E-2,-3.53002E-2,2.9954622E-2,6.580249E-1,-1.0106131E-1,6.514348E-1,-3.3266044E-1,-1.4099327E-1,5.9820986E-1,-6.8086195E0,1.754779E-2,1.3152945E-1,-6.559533E-2,-1.3431876E1,1.381279E-1,-7.9836254E-4,7.421819E-4,-2.8336185E-4,-4.1476307E-3,-1.8408675E-3,2.4761262E-3,1.8891772E-4,1.4624795E-3,-6.364315E-4,-2.5821915E-3,-2.9910977E-3,-1.6578427E-3,-5.7489746E-3,1.4028758E-3,2.499713E-4,-2.2162714E-3],"split_indices":[5,3,4,0,5,0,14,4,1,0,6,12,4,8,7,0,0,0,0,0,0,0,0,0,0,0,0,0,0,0,0],"split_type":[0,0,0,0,0,0,0,0,0,0,0,0,0,0,0,0,0,0,0,0,0,0,0,0,0,0,0,0,0,0,0],"sum_hessian":[8.319338E3,3.5754087E3,4.7439297E3,1.2054791E3,2.3699294E3,3.088941E3,1.6549886E3,9.6049677E2,2.4498235E2,9.344471E2,1.4354823E3,2.309981E3,7.7896014E2,6.35493E2,1.01949567E3,2.5799948E2,7.024973E2,1.359999E2,1.0898245E2,2.6999119E1,9.07448E2,5.639998E2,8.7148254E2,2.0839895E3,2.2599135E2,3.529723E2,4.2598782E2,8.499794E0,6.269932E2,8.34499E2,1.8499664E2],"tree_param":{"num_deleted":"0","num_feature":"15","num_nodes":"31","size_leaf_vector":"1"}},{"base_weights":[-4.13753E-3,-9.5094696E-2,6.442073E-2,1.4889607E-2,-1.5102157E-1,1.1908747E-1,-3.7621897E-2,-3.279752E-2,2.0122871E-1,-2.3495601E-1,-9.625775E-2,8.278252E-2,2.2650446E-1,-1.298337E-1,1.9928358E-2,7.983625E-4,-7.421813E-4,2.8336185E-4,4.14763E-3,1.8408675E-3,-2.476126E-3,-1.8891772E-4,-1.4624787E-3,6.3643156E-4,2.5821913E-3,2.9910975E-3,1.6578428E-3,5.7489746E-3,-1.4028758E-3,-2.499715E-4,2.2162714E-3],"categories":[],"categories_nodes":[],"categories_segments":[],"categories_sizes":[],"default_left":[0,0,0,0,0,0,0,0,0,0,0,0,0,0,0,0,0,0,0,0,0,0,0,0,0,0,0,0,0,0,0],"id":7,"left_children":[1,3,5,7,9,11,13,15,17,19,21,23,25,27,29,-1,-1,-1,-1,-1,-1,-1,-1,-1,-1,-1,-1,-1,-1,-1,-1],"loss_changes":[5.189063E1,2.2001015E1,2.6473309E1,1.0727344E1,1.0875526E1,1.20313E1,8.790609E0,4.491654E0,9.069543E0,5.006878E0,5.552882E0,7.74325E0,3.3889427E0,4.769808E0,9.25268E0,0E0,0E0,0E0,0E0,0E0,0E0,0E0,0E0,0E0,0E0,0E0,0E0,0E0,0E0,0E0,0E0],"parents":[2147483647,0,0,1,1,2,2,3,3,4,4,5,5,6,6,7,7,8,8,9,9,10,10,11,11,12,12,13,13,14,14],"right_children":[2,4,6,8,10,12,14,16,18,20,22,24,26,28,30,-1,-1,-1,-1,-1,-1,-1,-1,-1,-1,-1,-1,-1,-1,-1,-1],"split_conditions":[-1.6868668E-2,-3.53002E-2,2.9954622E-2,6.580249E-1,-1.0106131E-1,6.514348E-1,-3.3266044E-1,-1.4099327E-1,5.9820986E-1,-6.8086195E0,1.754779E-2,1.3152945E-1,-6.559533E-2,-1.3431876E1,1.381279E-1,7.983625E-4,-7.421813E-4,2.8336185E-4,4.14763E-3,1.8408675E-3,-2.476126E-3,-1.8891772E-4,-1.4624787E-3,6.3643156E-4,2.5821913E-3,2.9910975E-3,1.6578428E-3,5.7489746E-3,-1.4028758E-3,-2.499715E-4,2.2162714E-3],"split_indices":[5,3,4,0,5,0,14,4,1,0,6,12,4,8,7,0,0,0,0,0,0,0,0,0,0,0,0,0,0,0,0],"split_type":[0,0,0,0,0,0,0,0,0,0,0,0,0,0,0,0,0,0,0,0,0,0,0,0,0,0,0,0,0,0,0],"sum_hessian":[8.319338E3,3.5754087E3,4.7439297E3,1.2054791E3,2.3699294E3,3.088941E3,1.6549886E3,9.6049677E2,2.4498235E2,9.344471E2,1.4354824E3,2.309981E3,7.789601E2,6.35493E2,1.01949567E3,2.5799948E2,7.0249725E2,1.359999E2,1.08982445E2,2.6999119E1,9.07448E2,5.639998E2,8.714826E2,2.0839895E3,2.2599135E2,3.529723E2,4.2598782E2,8.499794E0,6.269932E2,8.34499E2,1.8499663E2],"tree_param":{"num_deleted":"0","num_feature":"15","num_nodes":"31","size_leaf_vector":"1"}},{"base_weights":[4.0942626E-3,9.414493E-2,-6.378028E-2,-1.474464E-2,1.4951557E-1,-1.3796023E-1,1.0112694E-2,3.2469593E-2,-1.9924538E-1,2.3261651E-1,9.5297255E-2,-1.6975947E-1,1.589406E-2,-8.678955E-2,3.9626747E-2,7.747724E-4,-7.023053E-4,-2.8054908E-4,-4.107031E-3,1.8437925E-3,3.4404132E-3,1.8703165E-4,1.4478934E-3,-1.2643508E-3,-2.83083E-3,1.5428237E-3,-7.6430826E-4,-1.345032E-3,5.8535254E-4,2.3204496E-4,1.956714E-3],"categories":[],"categories_nodes":[],"categories_segments":[],"categories_sizes":[],"default_left":[0,0,0,0,0,0,0,0,0,0,0,0,0,0,0,0,0,0,0,0,0,0,0,0,0,0,0,0,0,0,0],"id":8,"left_children":[1,3,5,7,9,11,13,15,17,19,21,23,25,27,29,-1,-1,-1,-1,-1,-1,-1,-1,-1,-1,-1,-1,-1,-1,-1,-1],"loss_changes":[5.0860374E1,2.156499E1,2.6009825E1,1.0516041E1,1.0660046E1,1.1587563E1,6.8043685E0,4.449744E0,8.892443E0,4.964226E0,5.4426594E0,9.598999E0,5.205462E0,3.8596306E0,4.6683073E0,0E0,0E0,0E0,0E0,0E0,0E0,0E0,0E0,0E0,0E0,0E0,0E0,0E0,0E0,0E0,0E0],"parents":[2147483647,0,0,1,1,2,2,3,3,4,4,5,5,6,6,7,7,8,8,9,9,10,10,11,11,12,12,13,13,14,14],"right_children":[2,4,6,8,10,12,14,16,18,20,22,24,26,28,30,-1,-1,-1,-1,-1,-1,-1,-1,-1,-1,-1,-1,-1,-1,-1,-1],"split_conditions":[-1.6868668E-2,-3.53002E-2,-5.0849784E-3,6.580249E-1,-1.0106131E-1,2.0616639E0,-1.27134165E-2,-4.9531035E-2,5.9820986E-1,6.622275E-1,1.754779E-2,5.254458E-1,1.0570323E-1,6.873966E-2,1.4298089E-1,7.747724E-4,-7.023053E-4,-2.8054908E-4,-4.107031E-3,1.8437925E-3,3.4404132E-3,1.8703165E-4,1.4478934E-3,-1.2643508E-3,-2.83083E-3,1.5428237E-3,-7.6430826E-4,-1.345032E-3,5.8535254E-4,2.3204496E-4,1.956714E-3],"split_indices":[5,3,4,0,5,1,6,12,1,1,6,1,13,2,3,0,0,0,0,0,0,0,0,0,0,0,0,0,0,0,0],"split_type":[0,0,0,0,0,0,0,0,0,0,0,0,0,0,0,0,0,0,0,0,0,0,0,0,0,0,0,0,0,0,0],"sum_hessian":[8.319214E3,3.5753413E3,4.743872E3,1.2054628E3,2.3698784E3,2.3669065E3,2.3769658E3,9.6049384E2,2.4496892E2,9.3440955E2,1.4354689E3,1.9614105E3,4.0549588E2,5.5449036E2,1.8224753E3,6.6799506E2,2.9249878E2,1.3599982E2,1.089691E2,6.539576E2,2.8045203E2,5.6399963E2,8.7146924E2,1.4204705E3,5.409401E2,1.619994E2,2.4349648E2,4.1749207E2,1.369983E2,1.6499791E3,1.7249626E2],"tree_param":{"num_deleted":"0","num_feature":"15","num_nodes":"31","size_leaf_vector":"1"}},{"base_weights":[-4.094242E-3,-9.414493E-2,6.378031E-2,1.4744652E-2,-1.4951557E-1,1.3796024E-1,-1.0112638E-2,-3.246959E-2,1.9924542E-1,-2.3261651E-1,-9.529726E-2,1.6975947E-1,-1.5894E-2,8.678956E-2,-3.962668E-2,-7.747724E-4,7.023055E-4,2.8054908E-4,4.1070324E-3,-1.8437925E-3,-3.4404132E-3,-1.8703194E-4,-1.4478934E-3,1.2643507E-3,2.8308304E-3,-1.5428227E-3,7.6430856E-4,1.3450321E-3,-5.853523E-4,-2.3204424E-4,-1.9567139E-3],"categories":[],"categories_nodes":[],"categories_segments":[],"categories_sizes":[],"default_left":[0,0,0,0,0,0,0,0,0,0,0,0,0,0,0,0,0,0,0,0,0,0,0,0,0,0,0,0,0,0,0],"id":9,"left_children":[1,3,5,7,9,11,13,15,17,19,21,23,25,27,29,-1,-1,-1,-1,-1,-1,-1,-1,-1,-1,-1,-1,-1,-1,-1,-1],"loss_changes":[5.08604E1,2.1564991E1,2.6009811E1,1.0516043E1,1.0660046E1,1.1587555E1,6.804364E0,4.449746E0,8.892449E0,4.964226E0,5.4426584E0,9.59901E0,5.2054586E0,3.85963E0,4.6683087E0,0E0,0E0,0E0,0E0,0E0,0E0,0E0,0E0,0E0,0E0,0E0,0E0,0E0,0E0,0E0,0E0],"parents":[2147483647,0,0,1,1,2,2,3,3,4,4,5,5,6,6,7,7,8,8,9,9,10,10,11,11,12,12,13,13,14,14],"right_children":[2,4,6,8,10,12,14,16,18,20,22,24,26,28,30,-1,-1,-1,-1,-1,-1,-1,-1,-1,-1,-1,-1,-1,-1,-1,-1],"split_conditions":[-1.6868668E-2,-3.53002E-2,-5.0849784E-3,6.580249E-1,-1.0106131E-1,2.0616639E0,-1.27134165E-2,-4.9531035E-2,5.9820986E-1,6.622275E-1,1.754779E-2,5.254458E-1,1.0570323E-1,6.873966E-2,1.4298089E-1,-7.747724E-4,7.023055E-4,2.8054908E-4,4.1070324E-3,-1.8437925E-3,-3.4404132E-3,-1.8703194E-4,-1.4478934E-3,1.2643507E-3,2.8308304E-3,-1.5428227E-3,7.6430856E-4,1.3450321E-3,-5.853523E-4,-2.3204424E-4,-1.9567139E-3],"split_indices":[5,3,4,0,5,1,6,12,1,1,6,1,13,2,3,0,0,0,0,0,0,0,0,0,0,0,0,0,0,0,0],"split_type":[0,0,0,0,0,0,0,0,0,0,0,0,0,0,0,0,0,0,0,0,0,0,0,0,0,0,0,0,0,0,0],"sum_hessian":[8.319214E3,3.5753413E3,4.743872E3,1.2054626E3,2.3698784E3,2.3669065E3,2.3769658E3,9.604938E2,2.4496892E2,9.3440955E2,1.435469E3,1.9614105E3,4.054959E2,5.5449036E2,1.8224753E3,6.67995E2,2.9249875E2,1.3599982E2,1.0896909E2,6.539576E2,2.8045203E2,5.639997E2,8.7146924E2,1.4204705E3,5.409401E2,1.6199942E2,2.4349649E2,4.174921E2,1.369983E2,1.6499791E3,1.7249628E2],"tree_param":{"num_deleted":"0","num_feature":"15","num_nodes":"31","size_leaf_vector":"1"}},{"base_weights":[4.0534637E-3,9.320646E-2,-6.314371E-2,-1.4601057E-2,1.4802755E-1,-1.16791286E-1,3.699415E-2,3.2145005E-2,-1.972845E-1,2.3030837E-1,9.434655E-2,-8.120288E-2,-2.2209594E-1,1.282597E-1,-1.996476E-2,-7.939666E-4,7.316463E-4,-2.7776384E-4,-4.0669623E-3,-1.8408963E-3,2.4282814E-3,1.219172E-3,-4.023267E-4,-6.226457E-4,-2.5480767E-3,-2.9350284E-3,-1.6238433E-3,-3.038233E-3,1.4531987E-3,2.4525262E-4,-2.1971085E-3],"categories":[],"categories_nodes":[],"categories_segments":[],"categories_sizes":[],"default_left":[0,0,0,0,0,0,0,0,0,0,0,0,0,0,0,0,0,0,0,0,0,0,0,0,0,0,0,0,0,0,0],"id":10,"left_children":[1,3,5,7,9,11,13,15,17,19,21,23,25,27,29,-1,-1,-1,-1,-1,-1,-1,-1,-1,-1,-1,-1,-1,-1,-1,-1],"loss_changes":[4.984998E1,2.1138273E1,2.5494173E1,1.0309046E1,1.0449951E1,1.156152E1,8.610944E0,4.405015E0,8.719257E0,4.897503E0,5.33477E0,7.5820255E0,3.2776566E0,4.7359314E0,9.074179E0,0E0,0E0,0E0,0E0,0E0,0E0,0E0,0E0,0E0,0E0,0E0,0E0,0E0,0E0,0E0,0E0],"parents":[2147483647,0,0,1,1,2,2,3,3,4,4,5,5,6,6,7,7,8,8,9,9,10,10,11,11,12,12,13,13,14,14],"right_children":[2,4,6,8,10,12,14,16,18,20,22,24,26,28,30,-1,-1,-1,-1,-1,-1,-1,-1,-1,-1,-1,-1,-1,-1,-1,-1],"split_conditions":[-1.6868668E-2,-3.53002E-2,2.9954622E-2,6.580249E-1,-1.0106131E-1,6.514348E-1,-3.3266044E-1,-1.4099327E-1,5.9820986E-1,-6.8086195E0,2.3089163E0,1.3152945E-1,-6.559533E-2,-9.2735715E-2,1.381279E-1,-7.939666E-4,7.316463E-4,-2.7776384E-4,-4.0669623E-3,-1.8408963E-3,2.4282814E-3,1.219172E-3,-4.023267E-4,-6.226457E-4,-2.5480767E-3,-2.9350284E-3,-1.6238433E-3,-3.038233E-3,1.4531987E-3,2.4525262E-4,-2.1971085E-3],"split_indices":[5,3,4,0,5,0,14,4,1,0,0,12,4,6,7,0,0,0,0,0,0,0,0,0,0,0,0,0,0,0,0],"split_type":[0,0,0,0,0,0,0,0,0,0,0,0,0,0,0,0,0,0,0,0,0,0,0,0,0,0,0,0,0,0,0],"sum_hessian":[8.319066E3,3.575255E3,4.743811E3,1.2054436E3,2.3698115E3,3.0888389E3,1.6549722E3,9.6049164E2,2.4495193E2,9.3435944E2,1.435452E3,2.3099478E3,7.78891E2,6.354829E2,1.01948926E3,2.579988E2,7.024928E2,1.3599973E2,1.08952194E2,2.6999119E1,9.0736035E2,1.1914574E3,2.4399458E2,2.0839692E3,2.259787E2,3.5292532E2,4.2596567E2,2.3499615E1,6.119833E2,8.344966E2,1.8499261E2],"tree_param":{"num_deleted":"0","num_feature":"15","num_nodes":"31","size_leaf_vector":"1"}},{"base_weights":[-4.0534786E-3,-9.320649E-2,6.314371E-2,1.4601058E-2,-1.480276E-1,1.1679128E-1,-3.699415E-2,-3.2145023E-2,1.9728461E-1,-2.3030846E-1,-9.4346575E-2,8.1202865E-2,2.2209597E-1,-1.282597E-1,1.9964762E-2,7.9396646E-4,-7.316465E-4,2.7776475E-4,4.0669637E-3,1.840895E-3,-2.4282823E-3,-1.2191723E-3,4.023263E-4,6.2264554E-4,2.5480762E-3,2.9350286E-3,1.6238436E-3,3.038233E-3,-1.4531987E-3,-2.4525262E-4,2.1971085E-3],"categories":[],"categories_nodes":[],"categories_segments":[],"categories_sizes":[],"default_left":[0,0,0,0,0,0,0,0,0,0,0,0,0,0,0,0,0,0,0,0,0,0,0,0,0,0,0,0,0,0,0],"id":11,"left_children":[1,3,5,7,9,11,13,15,17,19,21,23,25,27,29,-1,-1,-1,-1,-1,-1,-1,-1,-1,-1,-1,-1,-1,-1,-1,-1],"loss_changes":[4.984999E1,2.113829E1,2.549417E1,1.0309056E1,1.0449955E1,1.1561531E1,8.610945E0,4.4050155E0,8.719258E0,4.8975067E0,5.33477E0,7.5820246E0,3.2776527E0,4.7359304E0,9.07418E0,0E0,0E0,0E0,0E0,0E0,0E0,0E0,0E0,0E0,0E0,0E0,0E0,0E0,0E0,0E0,0E0],"parents":[2147483647,0,0,1,1,2,2,3,3,4,4,5,5,6,6,7,7,8,8,9,9,10,10,11,11,12,12,13,13,14,14],"right_children":[2,4,6,8,10,12,14,16,18,20,22,24,26,28,30,-1,-1,-1,-1,-1,-1,-1,-1,-1,-1,-1,-1,-1,-1,-1,-1],"split_conditions":[-1.6868668E-2,-3.53002E-2,2.9954622E-2,6.580249E-1,-1.0106131E-1,6.514348E-1,-3.3266044E-1,-1.4099327E-1,5.9820986E-1,-6.8086195E0,2.3089163E0,1.3152945E-1,-6.559533E-2,-9.2735715E-2,1.381279E-1,7.9396646E-4,-7.316465E-4,2.7776475E-4,4.0669637E-3,1.840895E-3,-2.4282823E-3,-1.2191723E-3,4.023263E-4,6.2264554E-4,2.5480762E-3,2.9350286E-3,1.6238436E-3,3.038233E-3,-1.4531987E-3,-2.4525262E-4,2.1971085E-3],"split_indices":[5,3,4,0,5,0,14,4,1,0,0,12,4,6,7,0,0,0,0,0,0,0,0,0,0,0,0,0,0,0,0],"split_type":[0,0,0,0,0,0,0,0,0,0,0,0,0,0,0,0,0,0,0,0,0,0,0,0,0,0,0,0,0,0,0],"sum_hessian":[8.319065E3,3.575255E3,4.743811E3,1.2054436E3,2.3698113E3,3.0888389E3,1.6549722E3,9.6049164E2,2.4495192E2,9.343594E2,1.4354519E3,2.3099478E3,7.78891E2,6.354829E2,1.01948926E3,2.579988E2,7.0249286E2,1.3599973E2,1.0895219E2,2.6999119E1,9.073603E2,1.1914573E3,2.4399457E2,2.083969E3,2.259787E2,3.5292535E2,4.2596567E2,2.3499615E1,6.119833E2,8.344966E2,1.8499261E2],"tree_param":{"num_deleted":"0","num_feature":"15","num_nodes":"31","size_leaf_vector":"1"}},{"base_weights":[4.0113046E-3,9.227611E-2,-6.251578E-2,-1.4459024E-2,1.4655247E-1,-1.3536651E-1,1.0050519E-2,3.182364E-2,-1.9534577E-1,2.2802015E-1,9.340469E-2,-1.6676627E-1,1.6545745E-2,-8.5358575E-2,3.9109517E-2,7.6395576E-4,-6.988061E-4,-2.7500678E-4,-4.0274123E-3,1.8030507E-3,3.3825738E-3,1.7721385E-4,1.4231075E-3,-1.2428089E-3,-2.7790715E-3,1.5353648E-3,-7.485138E-4,-1.3257092E-3,5.843356E-4,2.2883188E-4,1.9329577E-3],"categories":[],"categories_nodes":[],"categories_segments":[],"categories_sizes":[],"default_left":[0,0,0,0,0,0,0,0,0,0,0,0,0,0,0,0,0,0,0,0,0,0,0,0,0,0,0,0,0,0,0],"id":12,"left_children":[1,3,5,7,9,11,13,15,17,19,21,23,25,27,29,-1,-1,-1,-1,-1,-1,-1,-1,-1,-1,-1,-1,-1,-1,-1,-1],"loss_changes":[4.8860115E1,2.0719492E1,2.5084394E1,1.0106258E1,1.0243584E1,1.1297146E1,6.5961437E0,4.3639107E0,8.549876E0,4.858673E0,5.3142633E0,9.231167E0,5.1009984E0,3.778767E0,4.5576363E0,0E0,0E0,0E0,0E0,0E0,0E0,0E0,0E0,0E0,0E0,0E0,0E0,0E0,0E0,0E0,0E0],"parents":[2147483647,0,0,1,1,2,2,3,3,4,4,5,5,6,6,7,7,8,8,9,9,10,10,11,11,12,12,13,13,14,14],"right_children":[2,4,6,8,10,12,14,16,18,20,22,24,26,28,30,-1,-1,-1,-1,-1,-1,-1,-1,-1,-1,-1,-1,-1,-1,-1,-1],"split_conditions":[-1.6868668E-2,-3.53002E-2,-5.0849784E-3,6.580249E-1,-1.0106131E-1,2.0616639E0,-1.27134165E-2,-4.9531035E-2,5.9820986E-1,6.622275E-1,1.754779E-2,5.254458E-1,1.0570323E-1,6.873966E-2,1.4298089E-1,7.6395576E-4,-6.988061E-4,-2.7500678E-4,-4.0274123E-3,1.8030507E-3,3.3825738E-3,1.7721385E-4,1.4231075E-3,-1.2428089E-3,-2.7790715E-3,1.5353648E-3,-7.485138E-4,-1.3257092E-3,5.843356E-4,2.2883188E-4,1.9329577E-3],"split_indices":[5,3,4,0,5,1,6,12,1,1,6,1,13,2,3,0,0,0,0,0,0,0,0,0,0,0,0,0,0,0,0],"split_type":[0,0,0,0,0,0,0,0,0,0,0,0,0,0,0,0,0,0,0,0,0,0,0,0,0,0,0,0,0,0,0],"sum_hessian":[8.318882E3,3.5751562E3,4.7437256E3,1.2054188E3,2.3697373E3,2.3667915E3,2.376934E3,9.604874E2,2.4493144E2,9.343015E2,1.4354359E3,1.9612997E3,4.0549188E2,5.544797E2,1.8224545E3,6.679895E2,2.924979E2,1.359996E2,1.0893183E2,6.539022E2,2.803993E2,5.63998E2,8.7143787E2,1.4204343E3,5.408654E2,1.619992E2,2.4349268E2,4.1748254E2,1.3699712E2,1.6499633E3,1.7249124E2],"tree_param":{"num_deleted":"0","num_feature":"15","num_nodes":"31","size_leaf_vector":"1"}},{"base_weights":[-4.0113023E-3,-9.227611E-2,6.251578E-2,1.44590195E-2,-1.4655247E-1,1.353665E-1,-1.0050509E-2,-3.1823665E-2,1.9534586E-1,-2.2802013E-1,-9.340468E-2,1.6676626E-1,-1.654575E-2,8.535856E-2,-3.91095E-2,-7.6395576E-4,6.988052E-4,2.7500768E-4,4.027413E-3,-1.8030507E-3,-3.3825738E-3,-1.7721392E-4,-1.4231073E-3,1.2428088E-3,2.7790715E-3,-1.5353637E-3,7.48513E-4,1.325709E-3,-5.8433576E-4,-2.2883168E-4,-1.9329577E-3],"categories":[],"categories_nodes":[],"categories_segments":[],"categories_sizes":[],"default_left":[0,0,0,0,0,0,0,0,0,0,0,0,0,0,0,0,0,0,0,0,0,0,0,0,0,0,0,0,0,0,0],"id":13,"left_children":[1,3,5,7,9,11,13,15,17,19,21,23,25,27,29,-1,-1,-1,-1,-1,-1,-1,-1,-1,-1,-1,-1,-1,-1,-1,-1],"loss_changes":[4.8860115E1,2.0719486E1,2.5084387E1,1.0106269E1,1.0243584E1,1.1297142E1,6.5961394E0,4.363905E0,8.549873E0,4.8586693E0,5.3142633E0,9.231167E0,5.10099E0,3.7787676E0,4.5576363E0,0E0,0E0,0E0,0E0,0E0,0E0,0E0,0E0,0E0,0E0,0E0,0E0,0E0,0E0,0E0,0E0],"parents":[2147483647,0,0,1,1,2,2,3,3,4,4,5,5,6,6,7,7,8,8,9,9,10,10,11,11,12,12,13,13,14,14],"right_children":[2,4,6,8,10,12,14,16,18,20,22,24,26,28,30,-1,-1,-1,-1,-1,-1,-1,-1,-1,-1,-1,-1,-1,-1,-1,-1],"split_conditions":[-1.6868668E-2,-3.53002E-2,-5.0849784E-3,6.580249E-1,-1.0106131E-1,2.0616639E0,-1.27134165E-2,-4.9531035E-2,5.9820986E-1,6.622275E-1,1.754779E-2,5.254458E-1,1.0570323E-1,6.873966E-2,1.4298089E-1,-7.6395576E-4,6.988052E-4,2.7500768E-4,4.027413E-3,-1.8030507E-3,-3.3825738E-3,-1.7721392E-4,-1.4231073E-3,1.2428088E-3,2.7790715E-3,-1.5353637E-3,7.48513E-4,1.325709E-3,-5.8433576E-4,-2.2883168E-4,-1.9329577E-3],"split_indices":[5,3,4,0,5,1,6,12,1,1,6,1,13,2,3,0,0,0,0,0,0,0,0,0,0,0,0,0,0,0,0],"split_type":[0,0,0,0,0,0,0,0,0,0,0,0,0,0,0,0,0,0,0,0,0,0,0,0,0,0,0,0,0,0,0],"sum_hessian":[8.318882E3,3.5751562E3,4.7437256E3,1.2054188E3,2.3697373E3,2.3667915E3,2.376934E3,9.604874E2,2.4493143E2,9.343015E2,1.4354359E3,1.9612997E3,4.0549188E2,5.544797E2,1.8224545E3,6.679895E2,2.924979E2,1.359996E2,1.0893183E2,6.539022E2,2.803993E2,5.63998E2,8.7143787E2,1.4204343E3,5.408654E2,1.619992E2,2.4349269E2,4.1748254E2,1.3699712E2,1.6499633E3,1.7249124E2],"tree_param":{"num_deleted":"0","num_feature":"15","num_nodes":"31","size_leaf_vector":"1"}},{"base_weights":[3.971367E-3,7.4247174E-2,-7.8161426E-2,1.1313363E-1,-7.748638E-2,-1.5264888E-1,-2.307911E-3,4.6255376E-2,1.7449576E-1,-1.4158623E-1,1.2760864E-1,-1.8185203E-1,-1.8646844E-2,3.7847764E-3,-5.114145E-1,-8.060972E-4,7.463774E-4,3.1608387E-4,2.152172E-3,-6.857568E-4,-2.382472E-3,-1.1819494E-3,1.9843008E-3,-9.5837127E-4,-2.3547104E-3,-4.7304746E-4,4.5299376E-3,-4.3429877E-4,6.9227786E-4,-1.8596328E-3,-8.996305E-3],"categories":[],"categories_nodes":[],"categories_segments":[],"categories_sizes":[],"default_left":[0,0,0,0,0,0,0,0,0,0,0,0,0,0,0,0,0,0,0,0,0,0,0,0,0,0,0,0,0,0,0],"id":14,"left_children":[1,3,5,7,9,11,13,15,17,19,21,23,25,27,29,-1,-1,-1,-1,-1,-1,-1,-1,-1,-1,-1,-1,-1,-1,-1,-1],"loss_changes":[4.802653E1,2.6465921E1,2.1677525E1,1.4641026E1,1.2051424E1,7.571804E0,5.9014077E0,6.161154E0,1.082296E1,4.908534E0,3.826789E0,7.3072166E0,4.7181926E0,5.8133035E0,2.675397E0,0E0,0E0,0E0,0E0,0E0,0E0,0E0,0E0,0E0,0E0,0E0,0E0,0E0,0E0,0E0,0E0],"parents":[2147483647,0,0,1,1,2,2,3,3,4,4,5,5,6,6,7,7,8,8,9,9,10,10,11,11,12,12,13,13,14,14],"right_children":[2,4,6,8,10,12,14,16,18,20,22,24,26,28,30,-1,-1,-1,-1,-1,-1,-1,-1,-1,-1,-1,-1,-1,-1,-1,-1],"split_conditions":[9.918833E-3,6.580249E-1,-5.0849784E-3,1.3137979E-3,6.3576E-2,2.0616639E0,4.498056E-1,-1.3862282E-1,-4.5945042E-1,5.9820986E-1,-1.3091893E0,1.2836196E-1,6.396789E-1,7.99617E-2,2.580636E-1,-8.060972E-4,7.463774E-4,3.1608387E-4,2.152172E-3,-6.857568E-4,-2.382472E-3,-1.1819494E-3,1.9843008E-3,-9.5837127E-4,-2.3547104E-3,-4.7304746E-4,4.5299376E-3,-4.3429877E-4,6.9227786E-4,-1.8596328E-3,-8.996305E-3],"split_indices":[12,0,4,3,3,1,11,4,0,1,13,1,0,6,10,0,0,0,0,0,0,0,0,0,0,0,0,0,0,0,0],"split_type":[0,0,0,0,0,0,0,0,0,0,0,0,0,0,0,0,0,0,0,0,0,0,0,0,0,0,0,0,0,0,0],"sum_hessian":[8.318674E3,4.482974E3,3.8356997E3,3.5686504E3,9.143235E2,1.9347654E3,1.9009343E3,1.7084135E3,1.8602369E3,6.9684357E2,2.1747997E2,1.5882747E3,3.464907E2,1.8794349E3,2.1499403E1,3.1199597E2,1.3964175E3,4.129642E2,1.4472727E3,3.9796194E2,2.988816E2,4.8495453E1,1.6898451E2,6.1096313E2,9.773115E2,3.274913E2,1.8999376E1,1.091962E3,7.874729E2,1.2499652E1,8.999751E0],"tree_param":{"num_deleted":"0","num_feature":"15","num_nodes":"31","size_leaf_vector":"1"}},{"base_weights":[-3.9713797E-3,-7.424719E-2,7.816141E-2,-1.1313364E-1,7.748635E-2,1.5264888E-1,2.3079002E-3,-4.6255358E-2,-1.7449579E-1,1.4158621E-1,-1.276087E-1,1.8185201E-1,1.8646838E-2,-3.7847874E-3,5.1141447E-1,8.0609677E-4,-7.4637705E-4,-3.1608425E-4,-2.1521722E-3,6.857566E-4,2.3824717E-3,1.1819487E-3,-1.9843017E-3,9.5837115E-4,2.3547101E-3,4.7304737E-4,-4.5299376E-3,4.3429868E-4,-6.92278E-4,1.8596327E-3,8.996305E-3],"categories":[],"categories_nodes":[],"categories_segments":[],"categories_sizes":[],"default_left":[0,0,0,0,0,0,0,0,0,0,0,0,0,0,0,0,0,0,0,0,0,0,0,0,0,0,0,0,0,0,0],"id":15,"left_children":[1,3,5,7,9,11,13,15,17,19,21,23,25,27,29,-1,-1,-1,-1,-1,-1,-1,-1,-1,-1,-1,-1,-1,-1,-1,-1],"loss_changes":[4.8026527E1,2.6465912E1,2.167752E1,1.4641045E1,1.2051428E1,7.5718E0,5.9014077E0,6.161148E0,1.0822945E1,4.908535E0,3.8267894E0,7.3072243E0,4.718192E0,5.8133044E0,2.675397E0,0E0,0E0,0E0,0E0,0E0,0E0,0E0,0E0,0E0,0E0,0E0,0E0,0E0,0E0,0E0,0E0],"parents":[2147483647,0,0,1,1,2,2,3,3,4,4,5,5,6,6,7,7,8,8,9,9,10,10,11,11,12,12,13,13,14,14],"right_children":[2,4,6,8,10,12,14,16,18,20,22,24,26,28,30,-1,-1,-1,-1,-1,-1,-1,-1,-1,-1,-1,-1,-1,-1,-1,-1],"split_conditions":[9.918833E-3,6.580249E-1,-5.0849784E-3,1.3137979E-3,6.3576E-2,2.0616639E0,4.498056E-1,-1.3862282E-1,-4.5945042E-1,5.9820986E-1,-1.3091893E0,1.2836196E-1,6.396789E-1,7.99617E-2,2.580636E-1,8.0609677E-4,-7.4637705E-4,-3.1608425E-4,-2.1521722E-3,6.857566E-4,2.3824717E-3,1.1819487E-3,-1.9843017E-3,9.5837115E-4,2.3547101E-3,4.7304737E-4,-4.5299376E-3,4.3429868E-4,-6.92278E-4,1.8596327E-3,8.996305E-3],"split_indices":[12,0,4,3,3,1,11,4,0,1,13,1,0,6,10,0,0,0,0,0,0,0,0,0,0,0,0,0,0,0,0],"split_type":[0,0,0,0,0,0,0,0,0,0,0,0,0,0,0,0,0,0,0,0,0,0,0,0,0,0,0,0,0,0,0],"sum_hessian":[8.318674E3,4.482974E3,3.8356997E3,3.5686504E3,9.143235E2,1.9347653E3,1.9009343E3,1.7084135E3,1.8602369E3,6.9684357E2,2.1747997E2,1.5882747E3,3.4649066E2,1.8794349E3,2.1499403E1,3.1199597E2,1.3964175E3,4.129642E2,1.4472728E3,3.9796194E2,2.988816E2,4.8495453E1,1.6898451E2,6.109631E2,9.773115E2,3.274913E2,1.8999376E1,1.091962E3,7.8747296E2,1.2499652E1,8.999751E0],"tree_param":{"num_deleted":"0","num_feature":"15","num_nodes":"31","size_leaf_vector":"1"}},{"base_weights":[3.9305813E-3,9.062121E-2,-6.140845E-2,-1.4238851E-2,1.4394571E-1,-1.1359936E-1,3.600505E-2,3.1230526E-2,-1.9197418E-1,2.2447483E-1,9.141538E-2,-7.8991465E-2,-2.1601921E-1,1.262841E-1,-2.033655E-2,7.5329316E-4,-6.939248E-4,-2.6487085E-4,-3.9653406E-3,-1.8445853E-3,2.3683489E-3,1.6993849E-4,1.3950901E-3,-6.0301775E-4,-2.5033727E-3,-2.8590753E-3,-1.5759006E-3,-5.714207E-3,1.3663715E-3,2.3685739E-4,-2.1798357E-3],"categories":[],"categories_nodes":[],"categories_segments":[],"categories_sizes":[],"default_left":[0,0,0,0,0,0,0,0,0,0,0,0,0,0,0,0,0,0,0,0,0,0,0,0,0,0,0,0,0,0,0],"id":16,"left_children":[1,3,5,7,9,11,13,15,17,19,21,23,25,27,29,-1,-1,-1,-1,-1,-1,-1,-1,-1,-1,-1,-1,-1,-1,-1,-1],"loss_changes":[4.7129494E1,1.9997305E1,2.4125858E1,9.755292E0,1.0007515E1,1.0934166E1,8.425452E0,4.271647E0,8.313417E0,4.770523E0,5.138736E0,7.385236E0,3.139019E0,4.675497E0,8.884207E0,0E0,0E0,0E0,0E0,0E0,0E0,0E0,0E0,0E0,0E0,0E0,0E0,0E0,0E0,0E0,0E0],"parents":[2147483647,0,0,1,1,2,2,3,3,4,4,5,5,6,6,7,7,8,8,9,9,10,10,11,11,12,12,13,13,14,14],"right_children":[2,4,6,8,10,12,14,16,18,20,22,24,26,28,30,-1,-1,-1,-1,-1,-1,-1,-1,-1,-1,-1,-1,-1,-1,-1,-1],"split_conditions":[-1.6868668E-2,-3.53002E-2,2.9954622E-2,6.580249E-1,-1.0106131E-1,6.514348E-1,-3.3266044E-1,-4.9531035E-2,5.9820986E-1,-6.8086195E0,1.754779E-2,1.3152945E-1,-6.559533E-2,-1.3431876E1,1.381279E-1,7.5329316E-4,-6.939248E-4,-2.6487085E-4,-3.9653406E-3,-1.8445853E-3,2.3683489E-3,1.6993849E-4,1.3950901E-3,-6.0301775E-4,-2.5033727E-3,-2.8590753E-3,-1.5759006E-3,-5.714207E-3,1.3663715E-3,2.3685739E-4,-2.1798357E-3],"split_indices":[5,3,4,0,5,0,14,12,1,0,6,12,4,8,7,0,0,0,0,0,0,0,0,0,0,0,0,0,0,0,0],"split_type":[0,0,0,0,0,0,0,0,0,0,0,0,0,0,0,0,0,0,0,0,0,0,0,0,0,0,0,0,0,0,0],"sum_hessian":[8.318489E3,3.5749387E3,4.7435503E3,1.20537E3,2.3695688E3,3.0886096E3,1.6549406E3,9.604785E2,2.4489142E2,9.341861E2,1.4353828E3,2.3098704E3,7.787392E2,6.354634E2,1.0194771E3,6.679818E2,2.924967E2,1.3599896E2,1.0889245E2,2.6998995E1,9.0718713E2,5.6399445E2,8.7138837E2,2.0839172E3,2.2595312E2,3.5282486E2,4.2591437E2,8.499203E0,6.269642E2,8.344898E2,1.849873E2],"tree_param":{"num_deleted":"0","num_feature":"15","num_nodes":"31","size_leaf_vector":"1"}},{"base_weights":[-3.930592E-3,-9.062121E-2,6.140843E-2,1.4238843E-2,-1.4394571E-1,1.1359934E-1,-3.600506E-2,-3.1230524E-2,1.9197413E-1,-2.2447485E-1,-9.141535E-2,7.899144E-2,2.1601917E-1,-1.2628412E-1,2.0336552E-2,-7.532931E-4,6.9392455E-4,2.6487082E-4,3.9653396E-3,1.8445852E-3,-2.368349E-3,-1.6993794E-4,-1.3950901E-3,6.030175E-4,2.5033727E-3,2.8590753E-3,1.5758998E-3,5.714207E-3,-1.3663719E-3,-2.3685729E-4,2.1798355E-3],"categories":[],"categories_nodes":[],"categories_segments":[],"categories_sizes":[],"default_left":[0,0,0,0,0,0,0,0,0,0,0,0,0,0,0,0,0,0,0,0,0,0,0,0,0,0,0,0,0,0,0],"id":17,"left_children":[1,3,5,7,9,11,13,15,17,19,21,23,25,27,29,-1,-1,-1,-1,-1,-1,-1,-1,-1,-1,-1,-1,-1,-1,-1,-1],"loss_changes":[4.7129486E1,1.9997301E1,2.412585E1,9.755287E0,1.0007515E1,1.0934166E1,8.425457E0,4.2716446E0,8.313413E0,4.7705307E0,5.1387396E0,7.3852367E0,3.1390228E0,4.675498E0,8.884204E0,0E0,0E0,0E0,0E0,0E0,0E0,0E0,0E0,0E0,0E0,0E0,0E0,0E0,0E0,0E0,0E0],"parents":[2147483647,0,0,1,1,2,2,3,3,4,4,5,5,6,6,7,7,8,8,9,9,10,10,11,11,12,12,13,13,14,14],"right_children":[2,4,6,8,10,12,14,16,18,20,22,24,26,28,30,-1,-1,-1,-1,-1,-1,-1,-1,-1,-1,-1,-1,-1,-1,-1,-1],"split_conditions":[-1.6868668E-2,-3.53002E-2,2.9954622E-2,6.580249E-1,-1.0106131E-1,6.514348E-1,-3.3266044E-1,-4.9531035E-2,5.9820986E-1,-6.8086195E0,1.754779E-2,1.3152945E-1,-6.559533E-2,-1.3431876E1,1.381279E-1,-7.532931E-4,6.9392455E-4,2.6487082E-4,3.9653396E-3,1.8445852E-3,-2.368349E-3,-1.6993794E-4,-1.3950901E-3,6.030175E-4,2.5033727E-3,2.8590753E-3,1.5758998E-3,5.714207E-3,-1.3663719E-3,-2.3685729E-4,2.1798355E-3],"split_indices":[5,3,4,0,5,0,14,12,1,0,6,12,4,8,7,0,0,0,0,0,0,0,0,0,0,0,0,0,0,0,0],"split_type":[0,0,0,0,0,0,0,0,0,0,0,0,0,0,0,0,0,0,0,0,0,0,0,0,0,0,0,0,0,0,0],"sum_hessian":[8.318489E3,3.5749387E3,4.7435503E3,1.2053699E3,2.3695688E3,3.0886096E3,1.6549404E3,9.604785E2,2.4489142E2,9.3418616E2,1.4353828E3,2.3098704E3,7.7873926E2,6.354634E2,1.0194771E3,6.679818E2,2.924967E2,1.3599896E2,1.0889245E2,2.6998995E1,9.0718713E2,5.6399445E2,8.7138837E2,2.0839172E3,2.2595312E2,3.528249E2,4.2591437E2,8.499203E0,6.269642E2,8.344898E2,1.849873E2],"tree_param":{"num_deleted":"0","num_feature":"15","num_nodes":"31","size_leaf_vector":"1"}},{"base_weights":[3.8894818E-3,7.289491E-2,-7.6757476E-2,1.11165255E-1,-7.643979E-2,-1.4992753E-1,-2.2499564E-3,4.5422327E-2,1.7148955E-1,-1.3944066E-1,1.2513208E-1,-1.7876112E-1,-1.7633788E-2,3.788071E-3,-5.0680596E-1,1.5482304E-3,1.313312E-4,3.0360886E-4,2.1171302E-3,-6.775704E-4,-2.3435785E-3,-1.1819443E-3,1.9525073E-3,-9.404496E-4,-2.3157576E-3,-4.602438E-4,4.495578E-3,-4.2786892E-4,6.834458E-4,-1.8435539E-3,-8.914633E-3],"categories":[],"categories_nodes":[],"categories_segments":[],"categories_sizes":[],"default_left":[0,0,0,0,0,0,0,0,0,0,0,0,0,0,0,0,0,0,0,0,0,0,0,0,0,0,0,0,0,0,0],"id":18,"left_children":[1,3,5,7,9,11,13,15,17,19,21,23,25,27,29,-1,-1,-1,-1,-1,-1,-1,-1,-1,-1,-1,-1,-1,-1,-1,-1],"loss_changes":[4.630272E1,2.5633265E1,2.091529E1,1.4148323E1,1.1640293E1,7.380272E0,5.796109E0,6.0362854E0,1.055835E1,4.7317867E0,3.7505069E0,7.088402E0,4.6296988E0,5.656767E0,2.6261911E0,0E0,0E0,0E0,0E0,0E0,0E0,0E0,0E0,0E0,0E0,0E0,0E0,0E0,0E0,0E0,0E0],"parents":[2147483647,0,0,1,1,2,2,3,3,4,4,5,5,6,6,7,7,8,8,9,9,10,10,11,11,12,12,13,13,14,14],"right_children":[2,4,6,8,10,12,14,16,18,20,22,24,26,28,30,-1,-1,-1,-1,-1,-1,-1,-1,-1,-1,-1,-1,-1,-1,-1,-1],"split_conditions":[9.918833E-3,6.580249E-1,-5.0849784E-3,1.3137979E-3,6.3576E-2,2.0616639E0,4.498056E-1,-1.239113E-1,-4.5945042E-1,5.9820986E-1,-1.3091893E0,1.2836196E-1,6.396789E-1,7.99617E-2,2.580636E-1,1.5482304E-3,1.313312E-4,3.0360886E-4,2.1171302E-3,-6.775704E-4,-2.3435785E-3,-1.1819443E-3,1.9525073E-3,-9.404496E-4,-2.3157576E-3,-4.602438E-4,4.495578E-3,-4.2786892E-4,6.834458E-4,-1.8435539E-3,-8.914633E-3],"split_indices":[12,0,4,3,3,1,11,12,0,1,13,1,0,6,10,0,0,0,0,0,0,0,0,0,0,0,0,0,0,0,0],"split_type":[0,0,0,0,0,0,0,0,0,0,0,0,0,0,0,0,0,0,0,0,0,0,0,0,0,0,0,0,0,0,0],"sum_hessian":[8.318224E3,4.4827026E3,3.8355203E3,3.5684607E3,9.142421E2,1.9346182E3,1.9009022E3,1.7083794E3,1.8600814E3,6.9677484E2,2.1746725E2,1.5881315E3,3.464866E2,1.8794039E3,2.1498356E1,3.8845163E2,1.3199277E3,4.1295074E2,1.4471306E3,3.9794882E2,2.9882605E2,4.849472E1,1.6897253E2,6.1094293E2,9.771886E2,3.2748715E2,1.899946E1,1.0919456E3,7.874583E2,1.2499526E1,8.998831E0],"tree_param":{"num_deleted":"0","num_feature":"15","num_nodes":"31","size_leaf_vector":"1"}},{"base_weights":[-3.8894862E-3,-7.28949E-2,7.675746E-2,-1.1116525E-1,7.643978E-2,1.4992751E-1,2.2499377E-3,-4.5422297E-2,-1.7148957E-1,1.3944064E-1,-1.2513207E-1,1.787611E-1,1.7633809E-2,-3.78809E-3,5.0680596E-1,-1.5482303E-3,-1.3133085E-4,-3.0360883E-4,-2.1171302E-3,6.775703E-4,2.3435783E-3,1.1819443E-3,-1.9525072E-3,9.404496E-4,2.3157573E-3,4.6024405E-4,-4.4955774E-3,4.2786874E-4,-6.834459E-4,1.8435542E-3,8.914633E-3],"categories":[],"categories_nodes":[],"categories_segments":[],"categories_sizes":[],"default_left":[0,0,0,0,0,0,0,0,0,0,0,0,0,0,0,0,0,0,0,0,0,0,0,0,0,0,0,0,0,0,0],"id":19,"left_children":[1,3,5,7,9,11,13,15,17,19,21,23,25,27,29,-1,-1,-1,-1,-1,-1,-1,-1,-1,-1,-1,-1,-1,-1,-1,-1],"loss_changes":[4.6302704E1,2.5633263E1,2.0915298E1,1.4148331E1,1.1640289E1,7.380268E0,5.7961097E0,6.0362864E0,1.0558353E1,4.731784E0,3.7505062E0,7.088394E0,4.629699E0,5.656766E0,2.6261911E0,0E0,0E0,0E0,0E0,0E0,0E0,0E0,0E0,0E0,0E0,0E0,0E0,0E0,0E0,0E0,0E0],"parents":[2147483647,0,0,1,1,2,2,3,3,4,4,5,5,6,6,7,7,8,8,9,9,10,10,11,11,12,12,13,13,14,14],"right_children":[2,4,6,8,10,12,14,16,18,20,22,24,26,28,30,-1,-1,-1,-1,-1,-1,-1,-1,-1,-1,-1,-1,-1,-1,-1,-1],"split_conditions":[9.918833E-3,6.580249E-1,-5.0849784E-3,1.3137979E-3,6.3576E-2,2.0616639E0,4.498056E-1,-1.239113E-1,-4.5945042E-1,5.9820986E-1,-1.3091893E0,1.2836196E-1,6.396789E-1,7.99617E-2,2.580636E-1,-1.5482303E-3,-1.3133085E-4,-3.0360883E-4,-2.1171302E-3,6.775703E-4,2.3435783E-3,1.1819443E-3,-1.9525072E-3,9.404496E-4,2.3157573E-3,4.6024405E-4,-4.4955774E-3,4.2786874E-4,-6.834459E-4,1.8435542E-3,8.914633E-3],"split_indices":[12,0,4,3,3,1,11,12,0,1,13,1,0,6,10,0,0,0,0,0,0,0,0,0,0,0,0,0,0,0,0],"split_type":[0,0,0,0,0,0,0,0,0,0,0,0,0,0,0,0,0,0,0,0,0,0,0,0,0,0,0,0,0,0,0],"sum_hessian":[8.318224E3,4.4827026E3,3.8355203E3,3.5684607E3,9.142421E2,1.934618E3,1.9009022E3,1.7083793E3,1.8600814E3,6.9677484E2,2.1746725E2,1.5881315E3,3.464866E2,1.8794039E3,2.1498356E1,3.8845163E2,1.3199277E3,4.1295074E2,1.4471306E3,3.9794882E2,2.9882605E2,4.8494717E1,1.6897253E2,6.1094293E2,9.7718854E2,3.2748715E2,1.899946E1,1.0919456E3,7.874583E2,1.2499526E1,8.998831E0],"tree_param":{"num_deleted":"0","num_feature":"15","num_nodes":"31","size_leaf_vector":"1"}},{"base_weights":[3.8497418E-3,8.895665E-2,-6.0294036E-2,-1.4219581E-2,1.4142703E-1,-1.3040194E-1,9.532222E-3,3.0399963E-2,-1.886645E-1,2.2093919E-1,8.956584E-2,-1.6093847E-1,1.730878E-2,-8.3581895E-2,3.789209E-2,-7.9044595E-4,7.065083E-4,-2.549287E-4,-3.9045366E-3,1.7417702E-3,3.290106E-3,1.1618763E-3,-4.0365005E-4,-1.1977908E-3,-2.6864368E-3,1.5292977E-3,-7.317998E-4,-1.3029791E-3,5.8688346E-4,5.5841013E-4,-9.772215E-4],"categories":[],"categories_nodes":[],"categories_segments":[],"categories_sizes":[],"default_left":[0,0,0,0,0,0,0,0,0,0,0,0,0,0,0,0,0,0,0,0,0,0,0,0,0,0,0,0,0,0,0],"id":20,"left_children":[1,3,5,7,9,11,13,15,17,19,21,23,25,27,29,-1,-1,-1,-1,-1,-1,-1,-1,-1,-1,-1,-1,-1,-1,-1,-1],"loss_changes":[4.5419365E1,1.9359612E1,2.3226433E1,9.395245E0,9.75462E0,1.0681343E1,6.282401E0,4.241082E0,8.084739E0,4.668087E0,4.972891E0,8.665379E0,4.9996347E0,3.6993914E0,4.44386E0,0E0,0E0,0E0,0E0,0E0,0E0,0E0,0E0,0E0,0E0,0E0,0E0,0E0,0E0,0E0,0E0],"parents":[2147483647,0,0,1,1,2,2,3,3,4,4,5,5,6,6,7,7,8,8,9,9,10,10,11,11,12,12,13,13,14,14],"right_children":[2,4,6,8,10,12,14,16,18,20,22,24,26,28,30,-1,-1,-1,-1,-1,-1,-1,-1,-1,-1,-1,-1,-1,-1,-1,-1],"split_conditions":[-1.6868668E-2,-3.53002E-2,-5.0849784E-3,6.580249E-1,-1.0106131E-1,2.0616639E0,-1.27134165E-2,-1.4099327E-1,5.9820986E-1,6.622275E-1,2.3089163E0,5.254458E-1,1.0570323E-1,6.873966E-2,1.345717E-1,-7.9044595E-4,7.065083E-4,-2.549287E-4,-3.9045366E-3,1.7417702E-3,3.290106E-3,1.1618763E-3,-4.0365005E-4,-1.1977908E-3,-2.6864368E-3,1.5292977E-3,-7.317998E-4,-1.3029791E-3,5.8688346E-4,5.5841013E-4,-9.772215E-4],"split_indices":[5,3,4,0,5,1,6,4,1,1,0,1,13,2,9,0,0,0,0,0,0,0,0,0,0,0,0,0,0,0,0],"split_type":[0,0,0,0,0,0,0,0,0,0,0,0,0,0,0,0,0,0,0,0,0,0,0,0,0,0,0,0,0,0,0],"sum_hessian":[8.317986E3,3.574672E3,4.7433145E3,1.2053115E3,2.3693606E3,2.3664507E3,2.3768635E3,9.6046844E2,2.4484303E2,9.34046E2,1.4353147E3,1.9609667E3,4.0548404E2,5.5445874E2,1.8224047E3,2.579965E2,7.02472E2,1.3599805E2,1.08844986E2,6.5377234E2,2.8027368E2,1.191327E3,2.4398758E2,1.4203096E3,5.406571E2,1.6199792E2,2.4348613E2,4.1746396E2,1.3699477E2,1.6099161E3,2.1248863E2],"tree_param":{"num_deleted":"0","num_feature":"15","num_nodes":"31","size_leaf_vector":"1"}},{"base_weights":[-3.8497446E-3,-8.895666E-2,6.0294047E-2,1.4219545E-2,-1.4142703E-1,1.3040197E-1,-9.53223E-3,-3.0399993E-2,1.8866442E-1,-2.2093919E-1,-8.956585E-2,1.609385E-1,-1.7308785E-2,8.3581924E-2,-3.789211E-2,7.9044583E-4,-7.0650864E-4,2.5492784E-4,3.9045364E-3,-1.7417702E-3,-3.2901056E-3,-1.1618764E-3,4.0364996E-4,1.1977911E-3,2.6864372E-3,-1.5292966E-3,7.3179905E-4,1.3029794E-3,-5.868833E-4,-5.584103E-4,9.772213E-4],"categories":[],"categories_nodes":[],"categories_segments":[],"categories_sizes":[],"default_left":[0,0,0,0,0,0,0,0,0,0,0,0,0,0,0,0,0,0,0,0,0,0,0,0,0,0,0,0,0,0,0],"id":21,"left_children":[1,3,5,7,9,11,13,15,17,19,21,23,25,27,29,-1,-1,-1,-1,-1,-1,-1,-1,-1,-1,-1,-1,-1,-1,-1,-1],"loss_changes":[4.541938E1,1.9359608E1,2.3226439E1,9.395241E0,9.754612E0,1.0681351E1,6.282406E0,4.241084E0,8.084743E0,4.668091E0,4.97289E0,8.665379E0,4.999627E0,3.6993926E0,4.44386E0,0E0,0E0,0E0,0E0,0E0,0E0,0E0,0E0,0E0,0E0,0E0,0E0,0E0,0E0,0E0,0E0],"parents":[2147483647,0,0,1,1,2,2,3,3,4,4,5,5,6,6,7,7,8,8,9,9,10,10,11,11,12,12,13,13,14,14],"right_children":[2,4,6,8,10,12,14,16,18,20,22,24,26,28,30,-1,-1,-1,-1,-1,-1,-1,-1,-1,-1,-1,-1,-1,-1,-1,-1],"split_conditions":[-1.6868668E-2,-3.53002E-2,-5.0849784E-3,6.580249E-1,-1.0106131E-1,2.0616639E0,-1.27134165E-2,-1.4099327E-1,5.9820986E-1,6.622275E-1,2.3089163E0,5.254458E-1,1.0570323E-1,6.873966E-2,1.345717E-1,7.9044583E-4,-7.0650864E-4,2.5492784E-4,3.9045364E-3,-1.7417702E-3,-3.2901056E-3,-1.1618764E-3,4.0364996E-4,1.1977911E-3,2.6864372E-3,-1.5292966E-3,7.3179905E-4,1.3029794E-3,-5.868833E-4,-5.584103E-4,9.772213E-4],"split_indices":[5,3,4,0,5,1,6,4,1,1,0,1,13,2,9,0,0,0,0,0,0,0,0,0,0,0,0,0,0,0,0],"split_type":[0,0,0,0,0,0,0,0,0,0,0,0,0,0,0,0,0,0,0,0,0,0,0,0,0,0,0,0,0,0,0],"sum_hessian":[8.317986E3,3.574672E3,4.743314E3,1.2053115E3,2.3693606E3,2.3664507E3,2.3768635E3,9.6046844E2,2.4484303E2,9.340461E2,1.4353146E3,1.9609667E3,4.0548404E2,5.5445874E2,1.8224047E3,2.5799646E2,7.02472E2,1.3599805E2,1.0884498E2,6.537724E2,2.8027368E2,1.191327E3,2.439876E2,1.4203096E3,5.406571E2,1.6199792E2,2.4348613E2,4.1746396E2,1.3699477E2,1.6099161E3,2.1248863E2],"tree_param":{"num_deleted":"0","num_feature":"15","num_nodes":"31","size_leaf_vector":"1"}},{"base_weights":[3.8110644E-3,7.160487E-2,-7.541836E-2,1.0918997E-1,-7.50607E-2,-1.4719272E-1,-2.338391E-3,4.4596896E-2,1.6846386E-1,-1.3709986E-1,1.2342114E-1,-1.7543568E-1,-1.7621374E-2,3.6444978E-3,-5.023317E-1,-7.9765153E-4,7.242096E-4,2.9022447E-4,2.0821076E-3,-5.524296E-3,-1.2085863E-3,8.411232E-3,9.920144E-4,-9.197432E-4,-2.2747498E-3,-4.5739088E-4,4.4509834E-3,-4.2268517E-4,6.728362E-4,-1.8275558E-3,-8.836394E-3],"categories":[],"categories_nodes":[],"categories_segments":[],"categories_sizes":[],"default_left":[0,0,0,0,0,0,0,0,0,0,0,0,0,0,0,0,0,0,0,0,0,0,0,0,0,0,0,0,0,0,0],"id":22,"left_children":[1,3,5,7,9,11,13,15,17,19,21,23,25,27,29,-1,-1,-1,-1,-1,-1,-1,-1,-1,-1,-1,-1,-1,-1,-1,-1],"loss_changes":[4.4687256E1,2.4722519E1,2.0122139E1,1.3657906E1,1.12857685E1,7.079567E0,5.6911316E0,5.920517E0,1.0307671E1,4.639513E0,3.7138715E0,6.8802986E0,4.5413184E0,5.4970794E0,2.579792E0,0E0,0E0,0E0,0E0,0E0,0E0,0E0,0E0,0E0,0E0,0E0,0E0,0E0,0E0,0E0,0E0],"parents":[2147483647,0,0,1,1,2,2,3,3,4,4,5,5,6,6,7,7,8,8,9,9,10,10,11,11,12,12,13,13,14,14],"right_children":[2,4,6,8,10,12,14,16,18,20,22,24,26,28,30,-1,-1,-1,-1,-1,-1,-1,-1,-1,-1,-1,-1,-1,-1,-1,-1],"split_conditions":[9.918833E-3,6.580249E-1,-5.0849784E-3,1.3137979E-3,6.3576E-2,2.0616639E0,4.498056E-1,-1.3862282E-1,-4.5945042E-1,-2.3885581E-1,-2.7440423E-1,1.2836196E-1,6.396789E-1,7.99617E-2,2.580636E-1,-7.9765153E-4,7.242096E-4,2.9022447E-4,2.0821076E-3,-5.524296E-3,-1.2085863E-3,8.411232E-3,9.920144E-4,-9.197432E-4,-2.2747498E-3,-4.5739088E-4,4.4509834E-3,-4.2268517E-4,6.728362E-4,-1.8275558E-3,-8.836394E-3],"split_indices":[12,0,4,3,3,1,11,4,0,3,7,1,0,6,10,0,0,0,0,0,0,0,0,0,0,0,0,0,0,0,0],"split_type":[0,0,0,0,0,0,0,0,0,0,0,0,0,0,0,0,0,0,0,0,0,0,0,0,0,0,0,0,0,0,0],"sum_hessian":[8.317685E3,4.482373E3,3.8353115E3,3.5682222E3,9.1415106E2,1.9344285E3,1.900883E3,1.7083351E3,1.8598871E3,6.966954E2,2.1745573E2,1.5879462E3,3.4648224E2,1.8793872E3,2.1495922E1,3.1199222E2,1.3963428E3,4.1293723E2,1.4469498E3,2.4976192E1,6.717192E2,5.9976788E0,2.1145805E2,6.109168E2,9.7702936E2,3.2748346E2,1.8998772E1,1.091936E3,7.8745123E2,1.2499397E1,8.996525E0],"tree_param":{"num_deleted":"0","num_feature":"15","num_nodes":"31","size_leaf_vector":"1"}},{"base_weights":[-3.8110458E-3,-7.160488E-2,7.5418405E-2,-1.0918998E-1,7.506071E-2,1.4719279E-1,2.3384017E-3,-4.45969E-2,-1.6846387E-1,1.3709988E-1,-1.2342114E-1,1.7543577E-1,1.7621413E-2,-3.6444871E-3,5.023317E-1,7.9765235E-4,-7.242098E-4,-2.9022427E-4,-2.0821078E-3,5.524297E-3,1.2085865E-3,-8.411232E-3,-9.920144E-4,9.197442E-4,2.2747505E-3,4.5739132E-4,-4.4509834E-3,4.22685E-4,-6.728357E-4,1.8275558E-3,8.836394E-3],"categories":[],"categories_nodes":[],"categories_segments":[],"categories_sizes":[],"default_left":[0,0,0,0,0,0,0,0,0,0,0,0,0,0,0,0,0,0,0,0,0,0,0,0,0,0,0,0,0,0,0],"id":23,"left_children":[1,3,5,7,9,11,13,15,17,19,21,23,25,27,29,-1,-1,-1,-1,-1,-1,-1,-1,-1,-1,-1,-1,-1,-1,-1,-1],"loss_changes":[4.4687283E1,2.4722525E1,2.0122154E1,1.3657906E1,1.12857685E1,7.0795746E0,5.6911316E0,5.920524E0,1.0307678E1,4.639516E0,3.713872E0,6.8802986E0,4.5413184E0,5.497073E0,2.579792E0,0E0,0E0,0E0,0E0,0E0,0E0,0E0,0E0,0E0,0E0,0E0,0E0,0E0,0E0,0E0,0E0],"parents":[2147483647,0,0,1,1,2,2,3,3,4,4,5,5,6,6,7,7,8,8,9,9,10,10,11,11,12,12,13,13,14,14],"right_children":[2,4,6,8,10,12,14,16,18,20,22,24,26,28,30,-1,-1,-1,-1,-1,-1,-1,-1,-1,-1,-1,-1,-1,-1,-1,-1],"split_conditions":[9.918833E-3,6.580249E-1,-5.0849784E-3,1.3137979E-3,6.3576E-2,2.0616639E0,4.498056E-1,-1.3862282E-1,-4.5945042E-1,-2.3885581E-1,-2.7440423E-1,1.2836196E-1,6.396789E-1,7.99617E-2,2.580636E-1,7.9765235E-4,-7.242098E-4,-2.9022427E-4,-2.0821078E-3,5.524297E-3,1.2085865E-3,-8.411232E-3,-9.920144E-4,9.197442E-4,2.2747505E-3,4.5739132E-4,-4.4509834E-3,4.22685E-4,-6.728357E-4,1.8275558E-3,8.836394E-3],"split_indices":[12,0,4,3,3,1,11,4,0,3,7,1,0,6,10,0,0,0,0,0,0,0,0,0,0,0,0,0,0,0,0],"split_type":[0,0,0,0,0,0,0,0,0,0,0,0,0,0,0,0,0,0,0,0,0,0,0,0,0,0,0,0,0,0,0],"sum_hessian":[8.317685E3,4.482373E3,3.8353115E3,3.5682222E3,9.1415106E2,1.9344285E3,1.900883E3,1.708335E3,1.8598871E3,6.966954E2,2.1745573E2,1.5879462E3,3.464822E2,1.8793872E3,2.1495922E1,3.1199222E2,1.3963428E3,4.1293723E2,1.4469498E3,2.497619E1,6.717192E2,5.9976788E0,2.1145805E2,6.109168E2,9.7702936E2,3.2748346E2,1.8998772E1,1.091936E3,7.8745123E2,1.2499397E1,8.996525E0],"tree_param":{"num_deleted":"0","num_feature":"15","num_nodes":"31","size_leaf_vector":"1"}},{"base_weights":[3.7725125E-3,8.736275E-2,-5.9226256E-2,-1.3968501E-2,1.3889736E-1,-1.09574385E-1,3.473734E-2,2.9833114E-2,-1.8524909E-1,2.1748906E-1,8.764337E-2,-1.3637675E-1,1.5383929E-2,1.23976454E-1,-2.095281E-2,7.326241E-4,-6.925718E-4,-2.3736566E-4,-3.8508668E-3,-1.8529852E-3,2.296713E-3,1.5101113E-4,1.3452963E-3,-1.0078793E-3,-2.2987758E-3,1.3298952E-3,-6.188325E-4,-5.67046E-3,1.3423148E-3,2.25655E-4,-2.1633634E-3],"categories":[],"categories_nodes":[],"categories_segments":[],"categories_sizes":[],"default_left":[0,0,0,0,0,0,0,0,0,0,0,0,0,0,0,0,0,0,0,0,0,0,0,0,0,0,0,0,0,0,0],"id":24,"left_children":[1,3,5,7,9,11,13,15,17,19,21,23,25,27,29,-1,-1,-1,-1,-1,-1,-1,-1,-1,-1,-1,-1,-1,-1,-1,-1],"loss_changes":[4.3810562E1,1.8672703E1,2.2447357E1,9.055217E0,9.528088E0,1.0348248E1,8.231902E0,4.142615E0,7.924082E0,4.629879E0,4.8829384E0,8.44117E0,4.974064E0,4.5861435E0,8.681549E0,0E0,0E0,0E0,0E0,0E0,0E0,0E0,0E0,0E0,0E0,0E0,0E0,0E0,0E0,0E0,0E0],"parents":[2147483647,0,0,1,1,2,2,3,3,4,4,5,5,6,6,7,7,8,8,9,9,10,10,11,11,12,12,13,13,14,14],"right_children":[2,4,6,8,10,12,14,16,18,20,22,24,26,28,30,-1,-1,-1,-1,-1,-1,-1,-1,-1,-1,-1,-1,-1,-1,-1,-1],"split_conditions":[-1.6868668E-2,-3.53002E-2,2.9954622E-2,6.580249E-1,-1.0106131E-1,2.0616639E0,-3.3266044E-1,-4.9531035E-2,5.9820986E-1,-6.8086195E0,1.754779E-2,5.254458E-1,1.0570323E-1,-1.3431876E1,1.381279E-1,7.326241E-4,-6.925718E-4,-2.3736566E-4,-3.8508668E-3,-1.8529852E-3,2.296713E-3,1.5101113E-4,1.3452963E-3,-1.0078793E-3,-2.2987758E-3,1.3298952E-3,-6.188325E-4,-5.67046E-3,1.3423148E-3,2.25655E-4,-2.1633634E-3],"split_indices":[5,3,4,0,5,1,14,12,1,0,6,1,13,8,7,0,0,0,0,0,0,0,0,0,0,0,0,0,0,0,0],"split_type":[0,0,0,0,0,0,0,0,0,0,0,0,0,0,0,0,0,0,0,0,0,0,0,0,0,0,0,0,0,0,0],"sum_hessian":[8.317402E3,3.574359E3,4.743043E3,1.2052448E3,2.3691143E3,3.0881606E3,1.6548826E3,9.604536E2,2.4479115E2,9.3388025E2,1.4352339E3,2.542687E3,5.4547363E2,6.354298E2,1.0194527E3,6.679605E2,2.9249307E2,1.3599567E2,1.0879549E2,2.6998669E1,9.068816E2,5.639754E2,8.7125854E2,1.8431967E3,6.9949023E2,2.1599472E2,3.2947894E2,8.498142E0,6.2693164E2,8.344728E2,1.849799E2],"tree_param":{"num_deleted":"0","num_feature":"15","num_nodes":"31","size_leaf_vector":"1"}},{"base_weights":[-3.7725177E-3,-8.7362766E-2,5.922626E-2,1.3968498E-2,-1.3889739E-1,1.09574385E-1,-3.4737326E-2,-2.9833134E-2,1.8524915E-1,-2.1748906E-1,-8.7643415E-2,1.3637675E-1,-1.5383915E-2,-1.23976424E-1,2.0952817E-2,-7.3262426E-4,6.9257175E-4,2.3736653E-4,3.8508668E-3,1.8529855E-3,-2.296713E-3,-1.510115E-4,-1.345297E-3,1.0078793E-3,2.2987756E-3,-1.3298951E-3,6.188327E-4,5.670459E-3,-1.3423144E-3,-2.2565507E-4,2.163364E-3],"categories":[],"categories_nodes":[],"categories_segments":[],"categories_sizes":[],"default_left":[0,0,0,0,0,0,0,0,0,0,0,0,0,0,0,0,0,0,0,0,0,0,0,0,0,0,0,0,0,0,0],"id":25,"left_children":[1,3,5,7,9,11,13,15,17,19,21,23,25,27,29,-1,-1,-1,-1,-1,-1,-1,-1,-1,-1,-1,-1,-1,-1,-1,-1],"loss_changes":[4.3810577E1,1.8672716E1,2.2447351E1,9.055223E0,9.528076E0,1.0348248E1,8.231901E0,4.1426153E0,7.924078E0,4.629879E0,4.8829393E0,8.441166E0,4.9740653E0,4.5861425E0,8.681553E0,0E0,0E0,0E0,0E0,0E0,0E0,0E0,0E0,0E0,0E0,0E0,0E0,0E0,0E0,0E0,0E0],"parents":[2147483647,0,0,1,1,2,2,3,3,4,4,5,5,6,6,7,7,8,8,9,9,10,10,11,11,12,12,13,13,14,14],"right_children":[2,4,6,8,10,12,14,16,18,20,22,24,26,28,30,-1,-1,-1,-1,-1,-1,-1,-1,-1,-1,-1,-1,-1,-1,-1,-1],"split_conditions":[-1.6868668E-2,-3.53002E-2,2.9954622E-2,6.580249E-1,-1.0106131E-1,2.0616639E0,-3.3266044E-1,-4.9531035E-2,5.9820986E-1,-6.8086195E0,1.754779E-2,5.254458E-1,1.0570323E-1,-1.3431876E1,1.381279E-1,-7.3262426E-4,6.9257175E-4,2.3736653E-4,3.8508668E-3,1.8529855E-3,-2.296713E-3,-1.510115E-4,-1.345297E-3,1.0078793E-3,2.2987756E-3,-1.3298951E-3,6.188327E-4,5.670459E-3,-1.3423144E-3,-2.2565507E-4,2.163364E-3],"split_indices":[5,3,4,0,5,1,14,12,1,0,6,1,13,8,7,0,0,0,0,0,0,0,0,0,0,0,0,0,0,0,0],"split_type":[0,0,0,0,0,0,0,0,0,0,0,0,0,0,0,0,0,0,0,0,0,0,0,0,0,0,0,0,0,0,0],"sum_hessian":[8.317402E3,3.574359E3,4.743043E3,1.2052448E3,2.369114E3,3.0881606E3,1.6548824E3,9.604536E2,2.4479115E2,9.3388025E2,1.4352339E3,2.542687E3,5.4547363E2,6.354298E2,1.0194527E3,6.679605E2,2.9249307E2,1.3599565E2,1.08795494E2,2.6998669E1,9.068816E2,5.639754E2,8.712585E2,1.8431967E3,6.9949023E2,2.159947E2,3.2947894E2,8.498142E0,6.2693164E2,8.344728E2,1.849799E2],"tree_param":{"num_deleted":"0","num_feature":"15","num_nodes":"31","size_leaf_vector":"1"}},{"base_weights":[3.7336294E-3,7.03284E-2,-7.4093066E-2,1.0731646E-1,-7.4012786E-2,-1.4466012E-1,-2.248546E-3,-2.7337908E-3,1.4100151E-1,-1.3499294E-1,1.2107332E-1,-1.7236611E-1,-1.7565802E-2,3.6802092E-3,-4.9780312E-1,8.1165996E-4,-5.7859503E-4,7.109249E-4,2.0386556E-3,-5.452014E-3,-1.1895874E-3,-8.051337E-4,2.0418677E-3,-9.007593E-4,-2.2368275E-3,-4.541775E-4,4.408137E-3,4.5963938E-4,-6.3777197E-4,-1.8115259E-3,-8.7575205E-3],"categories":[],"categories_nodes":[],"categories_segments":[],"categories_sizes":[],"default_left":[0,0,0,0,0,0,0,0,0,0,0,0,0,0,0,0,0,0,0,0,0,0,0,0,0,0,0,0,0,0,0],"id":26,"left_children":[1,3,5,7,9,11,13,15,17,19,21,23,25,27,29,-1,-1,-1,-1,-1,-1,-1,-1,-1,-1,-1,-1,-1,-1,-1,-1],"loss_changes":[4.31164E1,2.3942184E1,1.9447918E1,1.3230644E1,1.0902069E1,6.811405E0,5.5894737E0,3.877611E0,1.1994488E1,4.5235605E0,3.676272E0,6.6888695E0,4.456174E0,5.3663387E0,2.5331106E0,0E0,0E0,0E0,0E0,0E0,0E0,0E0,0E0,0E0,0E0,0E0,0E0,0E0,0E0,0E0,0E0],"parents":[2147483647,0,0,1,1,2,2,3,3,4,4,5,5,6,6,7,7,8,8,9,9,10,10,11,11,12,12,13,13,14,14],"right_children":[2,4,6,8,10,12,14,16,18,20,22,24,26,28,30,-1,-1,-1,-1,-1,-1,-1,-1,-1,-1,-1,-1,-1,-1,-1,-1],"split_conditions":[9.918833E-3,6.580249E-1,-5.0849784E-3,-4.2964178E-1,6.3576E-2,2.0616639E0,4.498056E-1,-2.6774505E-1,1.3137979E-3,-2.3885581E-1,-8.470035E-1,1.2836196E-1,6.396789E-1,9.4853334E-2,2.580636E-1,8.1165996E-4,-5.7859503E-4,7.109249E-4,2.0386556E-3,-5.452014E-3,-1.1895874E-3,-8.051337E-4,2.0418677E-3,-9.007593E-4,-2.2368275E-3,-4.541775E-4,4.408137E-3,4.5963938E-4,-6.3777197E-4,-1.8115259E-3,-8.7575205E-3],"split_indices":[12,0,4,0,3,1,11,14,3,3,13,1,0,7,10,0,0,0,0,0,0,0,0,0,0,0,0,0,0,0,0],"split_type":[0,0,0,0,0,0,0,0,0,0,0,0,0,0,0,0,0,0,0,0,0,0,0,0,0,0,0,0,0,0,0],"sum_hessian":[8.317046E3,4.481991E3,3.835055E3,3.567946E3,9.140451E2,1.934217E3,1.9008379E3,8.363804E2,2.7315654E3,6.966072E2,2.1743793E2,1.5877404E3,3.464767E2,1.8793462E3,2.14917E1,3.3145016E2,5.0493024E2,1.2943232E3,1.4372423E3,2.4963177E1,6.7164404E2,6.3486496E1,1.5395143E2,6.1088855E2,9.768518E2,3.2747943E2,1.899731E1,1.155422E3,7.2392426E2,1.2499097E1,8.992601E0],"tree_param":{"num_deleted":"0","num_feature":"15","num_nodes":"31","size_leaf_vector":"1"}},{"base_weights":[-3.7336308E-3,-7.03284E-2,7.4093066E-2,-1.0731645E-1,7.401277E-2,1.446601E-1,2.2485435E-3,2.7337947E-3,-1.410015E-1,1.3499291E-1,-1.2107333E-1,1.7236611E-1,1.7565763E-2,-3.680212E-3,4.9780312E-1,-8.116599E-4,5.785951E-4,-7.109249E-4,-2.0386556E-3,5.4520145E-3,1.189587E-3,8.051338E-4,-2.0418677E-3,9.007585E-4,2.236828E-3,4.5417706E-4,-4.408137E-3,-4.5963938E-4,6.377719E-4,1.8115259E-3,8.7575205E-3],"categories":[],"categories_nodes":[],"categories_segments":[],"categories_sizes":[],"default_left":[0,0,0,0,0,0,0,0,0,0,0,0,0,0,0,0,0,0,0,0,0,0,0,0,0,0,0,0,0,0,0],"id":27,"left_children":[1,3,5,7,9,11,13,15,17,19,21,23,25,27,29,-1,-1,-1,-1,-1,-1,-1,-1,-1,-1,-1,-1,-1,-1,-1,-1],"loss_changes":[4.3116398E1,2.3942177E1,1.9447916E1,1.323064E1,1.0902069E1,6.811409E0,5.5894732E0,3.877611E0,1.1994488E1,4.5235624E0,3.6762724E0,6.6888885E0,4.456173E0,5.366338E0,2.533111E0,0E0,0E0,0E0,0E0,0E0,0E0,0E0,0E0,0E0,0E0,0E0,0E0,0E0,0E0,0E0,0E0],"parents":[2147483647,0,0,1,1,2,2,3,3,4,4,5,5,6,6,7,7,8,8,9,9,10,10,11,11,12,12,13,13,14,14],"right_children":[2,4,6,8,10,12,14,16,18,20,22,24,26,28,30,-1,-1,-1,-1,-1,-1,-1,-1,-1,-1,-1,-1,-1,-1,-1,-1],"split_conditions":[9.918833E-3,6.580249E-1,-5.0849784E-3,-4.2964178E-1,6.3576E-2,2.0616639E0,4.498056E-1,-2.6774505E-1,1.3137979E-3,-2.3885581E-1,-8.470035E-1,1.2836196E-1,6.396789E-1,9.4853334E-2,2.580636E-1,-8.116599E-4,5.785951E-4,-7.109249E-4,-2.0386556E-3,5.4520145E-3,1.189587E-3,8.051338E-4,-2.0418677E-3,9.007585E-4,2.236828E-3,4.5417706E-4,-4.408137E-3,-4.5963938E-4,6.377719E-4,1.8115259E-3,8.7575205E-3],"split_indices":[12,0,4,0,3,1,11,14,3,3,13,1,0,7,10,0,0,0,0,0,0,0,0,0,0,0,0,0,0,0,0],"split_type":[0,0,0,0,0,0,0,0,0,0,0,0,0,0,0,0,0,0,0,0,0,0,0,0,0,0,0,0,0,0,0],"sum_hessian":[8.317046E3,4.481991E3,3.835055E3,3.567946E3,9.1404517E2,1.9342172E3,1.9008379E3,8.3638043E2,2.7315654E3,6.9660724E2,2.1743793E2,1.5877404E3,3.4647675E2,1.8793462E3,2.14917E1,3.3145016E2,5.0493024E2,1.2943232E3,1.4372423E3,2.4963177E1,6.7164404E2,6.3486496E1,1.5395143E2,6.108886E2,9.768518E2,3.2747943E2,1.899731E1,1.155422E3,7.2392426E2,1.2499097E1,8.992601E0],"tree_param":{"num_deleted":"0","num_feature":"15","num_nodes":"31","size_leaf_vector":"1"}},{"base_weights":[3.6949406E-3,6.962735E-2,-7.335742E-2,1.0624828E-1,-7.328171E-2,-1.432227E-1,-2.2317262E-3,-4.0971216E-2,1.3108765E-1,-1.3365829E-1,1.1987337E-1,-8.39424E-2,-2.017609E-1,3.643331E-3,-4.9341184E-1,-9.682597E-4,2.9931145E-3,2.335955E-3,9.773573E-4,-6.388004E-4,-2.260986E-3,8.31247E-3,9.588852E-4,-5.5485405E-4,-2.1945913E-3,3.350685E-3,-2.1051096E-3,-4.1614534E-4,6.6374626E-4,-1.794785E-3,-8.683112E-3],"categories":[],"categories_nodes":[],"categories_segments":[],"categories_sizes":[],"default_left":[0,0,0,0,0,0,0,0,0,0,0,0,0,0,0,0,0,0,0,0,0,0,0,0,0,0,0,0,0,0,0],"id":28,"left_children":[1,3,5,7,9,11,13,15,17,19,21,23,25,27,29,-1,-1,-1,-1,-1,-1,-1,-1,-1,-1,-1,-1,-1,-1,-1,-1],"loss_changes":[4.2261227E1,2.3468426E1,1.906118E1,1.305592E1,1.0686863E1,6.6981277E0,5.4899235E0,9.835799E0,1.0417713E1,4.485157E0,3.6471663E0,3.7021608E0,4.6406517E0,5.3412104E0,2.4906607E0,0E0,0E0,0E0,0E0,0E0,0E0,0E0,0E0,0E0,0E0,0E0,0E0,0E0,0E0,0E0,0E0],"parents":[2147483647,0,0,1,1,2,2,3,3,4,4,5,5,6,6,7,7,8,8,9,9,10,10,11,11,12,12,13,13,14,14],"right_children":[2,4,6,8,10,12,14,16,18,20,22,24,26,28,30,-1,-1,-1,-1,-1,-1,-1,-1,-1,-1,-1,-1,-1,-1,-1,-1],"split_conditions":[9.918833E-3,6.580249E-1,-5.0849784E-3,-1.0142345E-1,6.3576E-2,6.641139E-2,4.498056E-1,5.7622874E-1,-1.1914451E-1,5.9820986E-1,-2.7440423E-1,6.514348E-1,-2.453172E-1,7.99617E-2,2.580636E-1,-9.682597E-4,2.9931145E-3,2.335955E-3,9.773573E-4,-6.388004E-4,-2.260986E-3,8.31247E-3,9.588852E-4,-5.5485405E-4,-2.1945913E-3,3.350685E-3,-2.1051096E-3,-4.1614534E-4,6.6374626E-4,-1.794785E-3,-8.683112E-3],"split_indices":[12,0,4,3,3,7,11,0,12,1,7,0,9,6,10,0,0,0,0,0,0,0,0,0,0,0,0,0,0,0,0],"split_type":[0,0,0,0,0,0,0,0,0,0,0,0,0,0,0,0,0,0,0,0,0,0,0,0,0,0,0,0,0,0,0],"sum_hessian":[8.316729E3,4.481813E3,3.8349155E3,3.5678066E3,9.140061E2,1.9340878E3,1.9008278E3,5.1497437E2,3.0528323E3,6.965774E2,2.1742873E2,9.621622E2,9.7192566E2,1.8793413E3,2.1486416E1,4.429784E2,7.1996E1,7.479593E2,2.304873E3,3.979085E2,2.9866888E2,5.993992E0,2.1143474E2,7.9634753E2,1.658146E2,1.4989748E1,9.569359E2,1.0919117E3,7.8742957E2,1.2498858E1,8.987557E0],"tree_param":{"num_deleted":"0","num_feature":"15","num_nodes":"31","size_leaf_vector":"1"}},{"base_weights":[-3.6949362E-3,-6.962736E-2,7.335744E-2,-1.062483E-1,7.328171E-2,1.4322273E-1,2.2317308E-3,4.097118E-2,-1.3108765E-1,1.3365829E-1,-1.1987336E-1,8.3942436E-2,2.0176093E-1,-3.643326E-3,4.9341184E-1,9.6825935E-4,-2.9931148E-3,-2.3359547E-3,-9.773573E-4,6.388005E-4,2.2609858E-3,-8.31247E-3,-9.5888507E-4,5.5485446E-4,2.1945913E-3,-3.3506847E-3,2.1051099E-3,4.161454E-4,-6.637462E-4,1.7947848E-3,8.683113E-3],"categories":[],"categories_nodes":[],"categories_segments":[],"categories_sizes":[],"default_left":[0,0,0,0,0,0,0,0,0,0,0,0,0,0,0,0,0,0,0,0,0,0,0,0,0,0,0,0,0,0,0],"id":29,"left_children":[1,3,5,7,9,11,13,15,17,19,21,23,25,27,29,-1,-1,-1,-1,-1,-1,-1,-1,-1,-1,-1,-1,-1,-1,-1,-1],"loss_changes":[4.2261242E1,2.346843E1,1.9061184E1,1.3055912E1,1.0686863E1,6.6981316E0,5.4899225E0,9.835799E0,1.0417717E1,4.485155E0,3.647166E0,3.7021594E0,4.640648E0,5.3412104E0,2.4906607E0,0E0,0E0,0E0,0E0,0E0,0E0,0E0,0E0,0E0,0E0,0E0,0E0,0E0,0E0,0E0,0E0],"parents":[2147483647,0,0,1,1,2,2,3,3,4,4,5,5,6,6,7,7,8,8,9,9,10,10,11,11,12,12,13,13,14,14],"right_children":[2,4,6,8,10,12,14,16,18,20,22,24,26,28,30,-1,-1,-1,-1,-1,-1,-1,-1,-1,-1,-1,-1,-1,-1,-1,-1],"split_conditions":[9.918833E-3,6.580249E-1,-5.0849784E-3,-1.0142345E-1,6.3576E-2,6.641139E-2,4.498056E-1,5.7622874E-1,-1.1914451E-1,5.9820986E-1,-2.7440423E-1,6.514348E-1,-2.453172E-1,7.99617E-2,2.580636E-1,9.6825935E-4,-2.9931148E-3,-2.3359547E-3,-9.773573E-4,6.388005E-4,2.2609858E-3,-8.31247E-3,-9.5888507E-4,5.5485446E-4,2.1945913E-3,-3.3506847E-3,2.1051099E-3,4.161454E-4,-6.637462E-4,1.7947848E-3,8.683113E-3],"split_indices":[12,0,4,3,3,7,11,0,12,1,7,0,9,6,10,0,0,0,0,0,0,0,0,0,0,0,0,0,0,0,0],"split_type":[0,0,0,0,0,0,0,0,0,0,0,0,0,0,0,0,0,0,0,0,0,0,0,0,0,0,0,0,0,0,0],"sum_hessian":[8.316729E3,4.481813E3,3.8349155E3,3.5678066E3,9.140061E2,1.9340878E3,1.9008278E3,5.1497437E2,3.0528323E3,6.965774E2,2.1742873E2,9.621622E2,9.7192566E2,1.8793413E3,2.1486416E1,4.429784E2,7.1996E1,7.479593E2,2.304873E3,3.979085E2,2.9866885E2,5.993992E0,2.1143474E2,7.9634753E2,1.6581462E2,1.4989748E1,9.569359E2,1.0919117E3,7.8742957E2,1.2498858E1,8.987557E0],"tree_param":{"num_deleted":"0","num_feature":"15","num_nodes":"31","size_leaf_vector":"1"}},{"base_weights":[3.6581329E-3,8.504195E-2,-5.7674874E-2,-1.403777E-2,1.3543586E-1,-1.0509364E-1,3.7126813E-2,2.8527165E-2,-1.8053375E-1,9.699407E-2,2.3690146E-1,-7.28083E-2,-2.0046258E-1,1.1518848E-1,-1.1495379E-2,7.134624E-4,-6.9165125E-4,-2.1334468E-4,-3.7766488E-3,1.6028627E-3,2.4882922E-4,3.8230692E-3,1.7045768E-3,-5.553515E-4,-2.291577E-3,-3.4482928E-3,-1.7193536E-3,-6.501669E-3,1.2648395E-3,3.6522312E-4,-2.2625793E-3],"categories":[],"categories_nodes":[],"categories_segments":[],"categories_sizes":[],"default_left":[0,0,0,0,0,0,0,0,0,0,0,0,0,0,0,0,0,0,0,0,0,0,0,0,0,0,0,0,0,0,0],"id":30,"left_children":[1,3,5,7,9,11,13,15,17,19,21,23,25,27,29,-1,-1,-1,-1,-1,-1,-1,-1,-1,-1,-1,-1,-1,-1,-1,-1],"loss_changes":[4.1521282E1,1.7851076E1,2.132801E1,8.552883E0,9.220074E0,9.721989E0,6.007084E0,4.0266747E0,7.702964E0,7.8474846E0,6.2187157E0,6.371706E0,3.2321167E0,5.333235E0,1.0072408E1,0E0,0E0,0E0,0E0,0E0,0E0,0E0,0E0,0E0,0E0,0E0,0E0,0E0,0E0,0E0,0E0],"parents":[2147483647,0,0,1,1,2,2,3,3,4,4,5,5,6,6,7,7,8,8,9,9,10,10,11,11,12,12,13,13,14,14],"right_children":[2,4,6,8,10,12,14,16,18,20,22,24,26,28,30,-1,-1,-1,-1,-1,-1,-1,-1,-1,-1,-1,-1,-1,-1,-1,-1],"split_conditions":[-1.6868668E-2,-3.53002E-2,3.3545293E-2,6.580249E-1,6.537658E-1,6.514348E-1,-3.3266044E-1,-4.9531035E-2,5.9820986E-1,2.5215355E-1,-1.1914451E-1,1.3152945E-1,5.50841E-4,-1.3431876E1,1.381279E-1,7.134624E-4,-6.9165125E-4,-2.1334468E-4,-3.7766488E-3,1.6028627E-3,2.4882922E-4,3.8230692E-3,1.7045768E-3,-5.553515E-4,-2.291577E-3,-3.4482928E-3,-1.7193536E-3,-6.501669E-3,1.2648395E-3,3.6522312E-4,-2.2625793E-3],"split_indices":[5,3,4,0,1,0,14,12,1,1,12,12,7,8,7,0,0,0,0,0,0,0,0,0,0,0,0,0,0,0,0],"split_type":[0,0,0,0,0,0,0,0,0,0,0,0,0,0,0,0,0,0,0,0,0,0,0,0,0,0,0,0,0,0,0],"sum_hessian":[8.316391E3,3.5738293E3,4.7425615E3,1.205133E3,2.3686963E3,3.161237E3,1.5813247E3,9.604271E2,2.447059E2,1.7192776E3,6.4941864E2,2.3630386E3,7.981984E2,6.0639856E2,9.7492615E2,6.6793646E2,2.9249063E2,1.3599068E2,1.0871522E2,9.149766E2,8.0430096E2,2.0219081E2,4.4722784E2,2.129168E3,2.3387071E2,1.2987195E2,6.683265E2,7.996767E0,5.984018E2,7.974567E2,1.7746944E2],"tree_param":{"num_deleted":"0","num_feature":"15","num_nodes":"31","size_leaf_vector":"1"}},{"base_weights":[-3.6581382E-3,-8.504195E-2,5.7674866E-2,1.4037766E-2,-1.3543586E-1,1.0509363E-1,-3.7126817E-2,-2.8527169E-2,1.8053375E-1,-9.699407E-2,-2.3690146E-1,7.2808295E-2,2.0046255E-1,-1.1518849E-1,1.1495383E-2,-7.1346253E-4,6.916513E-4,2.1334442E-4,3.7766488E-3,-1.6028627E-3,-2.4882928E-4,-3.8230692E-3,-1.7045768E-3,5.5535143E-4,2.291577E-3,3.4482928E-3,1.7193533E-3,6.5016686E-3,-1.2648398E-3,-3.652231E-4,2.2625795E-3],"categories":[],"categories_nodes":[],"categories_segments":[],"categories_sizes":[],"default_left":[0,0,0,0,0,0,0,0,0,0,0,0,0,0,0,0,0,0,0,0,0,0,0,0,0,0,0,0,0,0,0],"id":31,"left_children":[1,3,5,7,9,11,13,15,17,19,21,23,25,27,29,-1,-1,-1,-1,-1,-1,-1,-1,-1,-1,-1,-1,-1,-1,-1,-1],"loss_changes":[4.1521275E1,1.7851076E1,2.1328003E1,8.552882E0,9.220066E0,9.721989E0,6.007086E0,4.0266757E0,7.702965E0,7.8474846E0,6.2187195E0,6.371707E0,3.232113E0,5.333234E0,1.0072407E1,0E0,0E0,0E0,0E0,0E0,0E0,0E0,0E0,0E0,0E0,0E0,0E0,0E0,0E0,0E0,0E0],"parents":[2147483647,0,0,1,1,2,2,3,3,4,4,5,5,6,6,7,7,8,8,9,9,10,10,11,11,12,12,13,13,14,14],"right_children":[2,4,6,8,10,12,14,16,18,20,22,24,26,28,30,-1,-1,-1,-1,-1,-1,-1,-1,-1,-1,-1,-1,-1,-1,-1,-1],"split_conditions":[-1.6868668E-2,-3.53002E-2,3.3545293E-2,6.580249E-1,6.537658E-1,6.514348E-1,-3.3266044E-1,-4.9531035E-2,5.9820986E-1,2.5215355E-1,-1.1914451E-1,1.3152945E-1,5.50841E-4,-1.3431876E1,1.381279E-1,-7.1346253E-4,6.916513E-4,2.1334442E-4,3.7766488E-3,-1.6028627E-3,-2.4882928E-4,-3.8230692E-3,-1.7045768E-3,5.5535143E-4,2.291577E-3,3.4482928E-3,1.7193533E-3,6.5016686E-3,-1.2648398E-3,-3.652231E-4,2.2625795E-3],"split_indices":[5,3,4,0,1,0,14,12,1,1,12,12,7,8,7,0,0,0,0,0,0,0,0,0,0,0,0,0,0,0,0],"split_type":[0,0,0,0,0,0,0,0,0,0,0,0,0,0,0,0,0,0,0,0,0,0,0,0,0,0,0,0,0,0,0],"sum_hessian":[8.316391E3,3.5738293E3,4.7425615E3,1.205133E3,2.3686963E3,3.161237E3,1.5813247E3,9.604271E2,2.4470589E2,1.7192776E3,6.494187E2,2.3630386E3,7.981984E2,6.0639856E2,9.7492615E2,6.6793646E2,2.9249063E2,1.3599068E2,1.0871522E2,9.149766E2,8.0430096E2,2.0219081E2,4.4722787E2,2.129168E3,2.3387071E2,1.2987195E2,6.683265E2,7.996767E0,5.984018E2,7.974567E2,1.7746944E2],"tree_param":{"num_deleted":"0","num_feature":"15","num_nodes":"31","size_leaf_vector":"1"}},{"base_weights":[3.6203167E-3,6.837945E-2,-7.205905E-2,1.04314126E-1,-7.1856394E-2,-1.4074719E-1,-2.1382333E-3,-3.8293842E-3,1.3742016E-1,-1.554258E-1,6.512249E-2,-1.6803482E-1,-1.5600578E-2,3.6844418E-3,-4.890833E-1,7.9167937E-4,-5.835843E-4,6.903008E-4,1.9893092E-3,-1.8931929E-3,1.5519913E-3,-3.5116653E-4,1.8211243E-3,-8.723531E-4,-2.1843393E-3,-4.319935E-4,4.3853433E-3,-4.094047E-4,6.553862E-4,-1.7788599E-3,-8.609482E-3],"categories":[],"categories_nodes":[],"categories_segments":[],"categories_sizes":[],"default_left":[0,0,0,0,0,0,0,0,0,0,0,0,0,0,0,0,0,0,0,0,0,0,0,0,0,0,0,0,0,0,0],"id":32,"left_children":[1,3,5,7,9,11,13,15,17,19,21,23,25,27,29,-1,-1,-1,-1,-1,-1,-1,-1,-1,-1,-1,-1,-1,-1,-1,-1],"loss_changes":[4.07659E1,2.2595602E1,1.8421167E1,1.2776386E1,1.0483089E1,6.604809E0,5.3939385E0,3.7942739E0,1.1479557E1,6.0148335E0,4.080013E0,6.449211E0,4.3739195E0,5.1927366E0,2.4482317E0,0E0,0E0,0E0,0E0,0E0,0E0,0E0,0E0,0E0,0E0,0E0,0E0,0E0,0E0,0E0,0E0],"parents":[2147483647,0,0,1,1,2,2,3,3,4,4,5,5,6,6,7,7,8,8,9,9,10,10,11,11,12,12,13,13,14,14],"right_children":[2,4,6,8,10,12,14,16,18,20,22,24,26,28,30,-1,-1,-1,-1,-1,-1,-1,-1,-1,-1,-1,-1,-1,-1,-1,-1],"split_conditions":[9.918833E-3,6.580249E-1,-5.0849784E-3,-4.2964178E-1,-1.27134165E-2,2.0616639E0,4.498056E-1,-2.6774505E-1,1.3137979E-3,4.6936642E-2,1.0076741E-2,1.2836196E-1,6.396789E-1,7.99617E-2,2.580636E-1,7.9167937E-4,-5.835843E-4,6.903008E-4,1.9893092E-3,-1.8931929E-3,1.5519913E-3,-3.5116653E-4,1.8211243E-3,-8.723531E-4,-2.1843393E-3,-4.319935E-4,4.3853433E-3,-4.094047E-4,6.553862E-4,-1.7788599E-3,-8.609482E-3],"split_indices":[12,0,4,0,6,1,11,14,3,4,7,1,0,6,10,0,0,0,0,0,0,0,0,0,0,0,0,0,0,0,0],"split_type":[0,0,0,0,0,0,0,0,0,0,0,0,0,0,0,0,0,0,0,0,0,0,0,0,0,0,0,0,0,0,0],"sum_hessian":[8.315987E3,4.4813633E3,3.8346238E3,3.5674736E3,9.138897E2,1.9338519E3,1.9007719E3,8.3635095E2,2.7311228E3,5.6751807E2,3.4637164E2,1.587387E3,3.4646494E2,1.8792925E3,2.1479322E1,3.3143304E2,5.0491794E2,1.2942485E3,1.4368743E3,5.1203815E2,5.5479935E1,1.8691728E2,1.5945435E2,6.108338E2,9.765532E2,3.274688E2,1.8996122E1,1.0918859E3,7.8740674E2,1.2498361E1,8.980962E0],"tree_param":{"num_deleted":"0","num_feature":"15","num_nodes":"31","size_leaf_vector":"1"}},{"base_weights":[-3.6203165E-3,-6.837945E-2,7.205904E-2,-1.0431412E-1,7.185638E-2,1.4074717E-1,2.1382484E-3,3.829391E-3,-1.3742015E-1,1.554258E-1,-6.512251E-2,1.6803479E-1,1.5600589E-2,-3.684427E-3,4.890833E-1,-7.916791E-4,5.8358425E-4,-6.9030107E-4,-1.9893087E-3,1.8931928E-3,-1.5519913E-3,3.5116638E-4,-1.8211245E-3,8.723528E-4,2.184339E-3,4.3199363E-4,-4.3853433E-3,4.094048E-4,-6.55386E-4,1.77886E-3,8.609482E-3],"categories":[],"categories_nodes":[],"categories_segments":[],"categories_sizes":[],"default_left":[0,0,0,0,0,0,0,0,0,0,0,0,0,0,0,0,0,0,0,0,0,0,0,0,0,0,0,0,0,0,0],"id":33,"left_children":[1,3,5,7,9,11,13,15,17,19,21,23,25,27,29,-1,-1,-1,-1,-1,-1,-1,-1,-1,-1,-1,-1,-1,-1,-1,-1],"loss_changes":[4.0765896E1,2.2595596E1,1.8421158E1,1.2776386E1,1.0483089E1,6.604805E0,5.393939E0,3.794272E0,1.1479546E1,6.0148315E0,4.0800133E0,6.449211E0,4.3739195E0,5.1927357E0,2.4482327E0,0E0,0E0,0E0,0E0,0E0,0E0,0E0,0E0,0E0,0E0,0E0,0E0,0E0,0E0,0E0,0E0],"parents":[2147483647,0,0,1,1,2,2,3,3,4,4,5,5,6,6,7,7,8,8,9,9,10,10,11,11,12,12,13,13,14,14],"right_children":[2,4,6,8,10,12,14,16,18,20,22,24,26,28,30,-1,-1,-1,-1,-1,-1,-1,-1,-1,-1,-1,-1,-1,-1,-1,-1],"split_conditions":[9.918833E-3,6.580249E-1,-5.0849784E-3,-4.2964178E-1,-1.27134165E-2,2.0616639E0,4.498056E-1,-2.6774505E-1,1.3137979E-3,4.6936642E-2,1.0076741E-2,1.2836196E-1,6.396789E-1,7.99617E-2,2.580636E-1,-7.916791E-4,5.8358425E-4,-6.9030107E-4,-1.9893087E-3,1.8931928E-3,-1.5519913E-3,3.5116638E-4,-1.8211245E-3,8.723528E-4,2.184339E-3,4.3199363E-4,-4.3853433E-3,4.094048E-4,-6.55386E-4,1.77886E-3,8.609482E-3],"split_indices":[12,0,4,0,6,1,11,14,3,4,7,1,0,6,10,0,0,0,0,0,0,0,0,0,0,0,0,0,0,0,0],"split_type":[0,0,0,0,0,0,0,0,0,0,0,0,0,0,0,0,0,0,0,0,0,0,0,0,0,0,0,0,0,0,0],"sum_hessian":[8.315987E3,4.4813633E3,3.8346238E3,3.5674736E3,9.138897E2,1.9338519E3,1.9007719E3,8.3635095E2,2.7311228E3,5.6751807E2,3.4637164E2,1.587387E3,3.4646494E2,1.8792926E3,2.1479322E1,3.3143304E2,5.0491794E2,1.2942485E3,1.4368743E3,5.1203815E2,5.547994E1,1.8691728E2,1.5945435E2,6.108338E2,9.765532E2,3.274688E2,1.8996124E1,1.0918859E3,7.8740674E2,1.2498361E1,8.980961E0],"tree_param":{"num_deleted":"0","num_feature":"15","num_nodes":"31","size_leaf_vector":"1"}},{"base_weights":[3.5836403E-3,8.353202E-2,-5.6665488E-2,-1.3930087E-2,1.3310651E-1,-1.0320836E-1,3.6379136E-2,2.7782016E-2,-1.7713274E-1,2.0989843E-1,8.304382E-2,-7.1486324E-2,-1.9693136E-1,1.1359076E-1,-1.1711879E-2,-7.858117E-4,6.6904427E-4,-1.952857E-4,-3.7241178E-3,-1.8578017E-3,2.2187587E-3,1.3941426E-3,2.500646E-4,-5.442807E-4,-2.2591217E-3,-3.3983914E-3,-1.6869797E-3,-6.447458E-3,1.2478126E-3,3.580569E-4,-2.242451E-3],"categories":[],"categories_nodes":[],"categories_segments":[],"categories_sizes":[],"default_left":[0,0,0,0,0,0,0,0,0,0,0,0,0,0,0,0,0,0,0,0,0,0,0,0,0,0,0,0,0,0,0],"id":34,"left_children":[1,3,5,7,9,11,13,15,17,19,21,23,25,27,29,-1,-1,-1,-1,-1,-1,-1,-1,-1,-1,-1,-1,-1,-1,-1,-1],"loss_changes":[4.0064316E1,1.7272144E1,2.0544418E1,8.215123E0,9.091412E0,9.38657E0,5.876579E0,4.005867E0,7.552635E0,4.469589E0,4.694398E0,6.2148113E0,3.1664639E0,5.2346587E0,9.863714E0,0E0,0E0,0E0,0E0,0E0,0E0,0E0,0E0,0E0,0E0,0E0,0E0,0E0,0E0,0E0,0E0],"parents":[2147483647,0,0,1,1,2,2,3,3,4,4,5,5,6,6,7,7,8,8,9,9,10,10,11,11,12,12,13,13,14,14],"right_children":[2,4,6,8,10,12,14,16,18,20,22,24,26,28,30,-1,-1,-1,-1,-1,-1,-1,-1,-1,-1,-1,-1,-1,-1,-1,-1],"split_conditions":[-1.6868668E-2,-3.53002E-2,3.3545293E-2,6.580249E-1,-1.0106131E-1,6.514348E-1,-3.3266044E-1,-1.4099327E-1,5.9820986E-1,-6.8086195E0,-1.3528522E-2,1.3152945E-1,5.50841E-4,-1.3431876E1,1.381279E-1,-7.858117E-4,6.6904427E-4,-1.952857E-4,-3.7241178E-3,-1.8578017E-3,2.2187587E-3,1.3941426E-3,2.500646E-4,-5.442807E-4,-2.2591217E-3,-3.3983914E-3,-1.6869797E-3,-6.447458E-3,1.2478126E-3,3.580569E-4,-2.242451E-3],"split_indices":[5,3,4,0,5,0,14,4,1,0,14,12,7,8,7,0,0,0,0,0,0,0,0,0,0,0,0,0,0,0,0],"split_type":[0,0,0,0,0,0,0,0,0,0,0,0,0,0,0,0,0,0,0,0,0,0,0,0,0,0,0,0,0,0,0],"sum_hessian":[8.315604E3,3.5734202E3,4.7421836E3,1.2050479E3,2.3683723E3,3.1609172E3,1.5812665E3,9.6041125E2,2.4463666E2,9.334092E2,1.434963E3,2.362914E3,7.9800305E2,6.0636554E2,9.749009E2,2.5799216E2,7.0241907E2,1.3598613E2,1.08650536E2,2.6998411E1,9.064108E2,7.2722394E2,7.077391E2,2.1290828E3,2.3383128E2,1.2982689E2,6.6817615E2,7.9944954E0,5.9837103E2,7.974425E2,1.7745837E2],"tree_param":{"num_deleted":"0","num_feature":"15","num_nodes":"31","size_leaf_vector":"1"}},{"base_weights":[-3.583645E-3,-8.353201E-2,5.6665476E-2,1.3930095E-2,-1.3310651E-1,1.0320835E-1,-3.6379132E-2,-2.7782014E-2,1.7713277E-1,-2.098984E-1,-8.304384E-2,7.14863E-2,1.9693138E-1,-1.1359076E-1,1.1711882E-2,7.858116E-4,-6.6904415E-4,1.9528645E-4,3.7241175E-3,1.8578018E-3,-2.2187585E-3,-1.3941427E-3,-2.5006474E-4,5.4428034E-4,2.2591217E-3,3.3983914E-3,1.6869798E-3,6.447458E-3,-1.2478126E-3,-3.5805686E-4,2.242451E-3],"categories":[],"categories_nodes":[],"categories_segments":[],"categories_sizes":[],"default_left":[0,0,0,0,0,0,0,0,0,0,0,0,0,0,0,0,0,0,0,0,0,0,0,0,0,0,0,0,0,0,0],"id":35,"left_children":[1,3,5,7,9,11,13,15,17,19,21,23,25,27,29,-1,-1,-1,-1,-1,-1,-1,-1,-1,-1,-1,-1,-1,-1,-1,-1],"loss_changes":[4.006431E1,1.7272146E1,2.0544407E1,8.215126E0,9.091404E0,9.386574E0,5.8765798E0,4.005866E0,7.5526314E0,4.469593E0,4.694399E0,6.214816E0,3.1664658E0,5.2346587E0,9.863713E0,0E0,0E0,0E0,0E0,0E0,0E0,0E0,0E0,0E0,0E0,0E0,0E0,0E0,0E0,0E0,0E0],"parents":[2147483647,0,0,1,1,2,2,3,3,4,4,5,5,6,6,7,7,8,8,9,9,10,10,11,11,12,12,13,13,14,14],"right_children":[2,4,6,8,10,12,14,16,18,20,22,24,26,28,30,-1,-1,-1,-1,-1,-1,-1,-1,-1,-1,-1,-1,-1,-1,-1,-1],"split_conditions":[-1.6868668E-2,-3.53002E-2,3.3545293E-2,6.580249E-1,-1.0106131E-1,6.514348E-1,-3.3266044E-1,-1.4099327E-1,5.9820986E-1,-6.8086195E0,-1.3528522E-2,1.3152945E-1,5.50841E-4,-1.3431876E1,1.381279E-1,7.858116E-4,-6.6904415E-4,1.9528645E-4,3.7241175E-3,1.8578018E-3,-2.2187585E-3,-1.3941427E-3,-2.5006474E-4,5.4428034E-4,2.2591217E-3,3.3983914E-3,1.6869798E-3,6.447458E-3,-1.2478126E-3,-3.5805686E-4,2.242451E-3],"split_indices":[5,3,4,0,5,0,14,4,1,0,14,12,7,8,7,0,0,0,0,0,0,0,0,0,0,0,0,0,0,0,0],"split_type":[0,0,0,0,0,0,0,0,0,0,0,0,0,0,0,0,0,0,0,0,0,0,0,0,0,0,0,0,0,0,0],"sum_hessian":[8.315604E3,3.5734202E3,4.7421836E3,1.2050479E3,2.3683723E3,3.1609172E3,1.5812664E3,9.6041125E2,2.4463666E2,9.334092E2,1.434963E3,2.3629143E3,7.9800305E2,6.0636554E2,9.749009E2,2.5799216E2,7.0241907E2,1.3598611E2,1.08650536E2,2.6998411E1,9.0641077E2,7.2722394E2,7.077391E2,2.129083E3,2.3383128E2,1.2982689E2,6.6817615E2,7.9944954E0,5.9837103E2,7.974425E2,1.7745837E2],"tree_param":{"num_deleted":"0","num_feature":"15","num_nodes":"31","size_leaf_vector":"1"}},{"base_weights":[3.5459455E-3,6.715118E-2,-7.078352E-2,1.0252544E-1,-7.090385E-2,-1.383287E-1,-2.033698E-3,-4.331796E-3,1.3524082E-1,-1.532084E-1,6.3983575E-2,-8.008809E-2,-1.9585061E-1,-1.6995864E-2,1.8425518E-1,-1.6023251E-3,2.4024518E-4,6.795443E-4,1.9576827E-3,-1.8655496E-3,1.5237826E-3,-3.5523676E-4,1.8012174E-3,-5.270833E-4,-2.1055723E-3,3.3564207E-3,-2.0452011E-3,-1.09268614E-4,-5.0824047E-3,-5.8363527E-3,2.2255958E-3],"categories":[],"categories_nodes":[],"categories_segments":[],"categories_sizes":[],"default_left":[0,0,0,0,0,0,0,0,0,0,0,0,0,0,0,0,0,0,0,0,0,0,0,0,0,0,0,0,0,0,0],"id":36,"left_children":[1,3,5,7,9,11,13,15,17,19,21,23,25,27,29,-1,-1,-1,-1,-1,-1,-1,-1,-1,-1,-1,-1,-1,-1,-1,-1],"loss_changes":[3.932146E1,2.1894966E1,1.7809711E1,1.2474308E1,1.0165306E1,6.4653587E0,5.3037357E0,3.7054744E0,1.1112419E1,5.8206396E0,4.0205965E0,3.4288545E0,4.550186E0,5.2453456E0,4.2909884E0,0E0,0E0,0E0,0E0,0E0,0E0,0E0,0E0,0E0,0E0,0E0,0E0,0E0,0E0,0E0,0E0],"parents":[2147483647,0,0,1,1,2,2,3,3,4,4,5,5,6,6,7,7,8,8,9,9,10,10,11,11,12,12,13,13,14,14],"right_children":[2,4,6,8,10,12,14,16,18,20,22,24,26,28,30,-1,-1,-1,-1,-1,-1,-1,-1,-1,-1,-1,-1,-1,-1,-1,-1],"split_conditions":[9.918833E-3,6.580249E-1,-5.0849784E-3,-4.2964178E-1,-1.27134165E-2,6.641139E-2,1.4298089E-1,-1.0142345E-1,1.3137979E-3,4.6936642E-2,1.0076741E-2,6.514348E-1,-2.453172E-1,4.498056E-1,-5.070672E0,-1.6023251E-3,2.4024518E-4,6.795443E-4,1.9576827E-3,-1.8655496E-3,1.5237826E-3,-3.5523676E-4,1.8012174E-3,-5.270833E-4,-2.1055723E-3,3.3564207E-3,-2.0452011E-3,-1.09268614E-4,-5.0824047E-3,-5.8363527E-3,2.2255958E-3],"split_indices":[12,0,4,0,6,7,3,3,3,4,7,0,9,11,14,0,0,0,0,0,0,0,0,0,0,0,0,0,0,0,0],"split_type":[0,0,0,0,0,0,0,0,0,0,0,0,0,0,0,0,0,0,0,0,0,0,0,0,0,0,0,0,0,0,0],"sum_hessian":[8.315168E3,4.4808823E3,3.8342856E3,3.5671245E3,9.137579E2,1.9335769E3,1.9007086E3,8.3632587E2,2.7307986E3,5.6740643E2,3.4635138E2,9.6197485E2,9.716021E2,1.7602402E3,1.4046846E2,1.2799101E2,7.0833484E2,1.2942008E3,1.4365979E3,5.1193234E2,5.5474125E1,1.8690512E2,1.5944627E2,7.962755E2,1.6569934E2,1.4988743E1,9.566134E2,1.7397688E3,2.0471449E1,5.9975944E0,1.3447087E2],"tree_param":{"num_deleted":"0","num_feature":"15","num_nodes":"31","size_leaf_vector":"1"}},{"base_weights":[-3.5459418E-3,-6.715118E-2,7.0783526E-2,-1.0252544E-1,7.090386E-2,1.3832872E-1,2.0336905E-3,4.33181E-3,-1.3524082E-1,1.532084E-1,-6.398358E-2,8.008809E-2,1.9585063E-1,1.6995855E-2,-1.8425515E-1,1.6023251E-3,-2.40245E-4,-6.795442E-4,-1.9576827E-3,1.8655498E-3,-1.5237826E-3,3.552366E-4,-1.8012174E-3,5.270833E-4,2.1055723E-3,-3.356421E-3,2.0452014E-3,1.09268505E-4,5.0824047E-3,5.836353E-3,-2.2255955E-3],"categories":[],"categories_nodes":[],"categories_segments":[],"categories_sizes":[],"default_left":[0,0,0,0,0,0,0,0,0,0,0,0,0,0,0,0,0,0,0,0,0,0,0,0,0,0,0,0,0,0,0],"id":37,"left_children":[1,3,5,7,9,11,13,15,17,19,21,23,25,27,29,-1,-1,-1,-1,-1,-1,-1,-1,-1,-1,-1,-1,-1,-1,-1,-1],"loss_changes":[3.9321465E1,2.189497E1,1.7809715E1,1.2474308E1,1.0165308E1,6.4653664E0,5.3037333E0,3.705474E0,1.1112419E1,5.8206396E0,4.0205956E0,3.4288535E0,4.550186E0,5.245346E0,4.290989E0,0E0,0E0,0E0,0E0,0E0,0E0,0E0,0E0,0E0,0E0,0E0,0E0,0E0,0E0,0E0,0E0],"parents":[2147483647,0,0,1,1,2,2,3,3,4,4,5,5,6,6,7,7,8,8,9,9,10,10,11,11,12,12,13,13,14,14],"right_children":[2,4,6,8,10,12,14,16,18,20,22,24,26,28,30,-1,-1,-1,-1,-1,-1,-1,-1,-1,-1,-1,-1,-1,-1,-1,-1],"split_conditions":[9.918833E-3,6.580249E-1,-5.0849784E-3,-4.2964178E-1,-1.27134165E-2,6.641139E-2,1.4298089E-1,-1.0142345E-1,1.3137979E-3,4.6936642E-2,1.0076741E-2,6.514348E-1,-2.453172E-1,4.498056E-1,-5.070672E0,1.6023251E-3,-2.40245E-4,-6.795442E-4,-1.9576827E-3,1.8655498E-3,-1.5237826E-3,3.552366E-4,-1.8012174E-3,5.270833E-4,2.1055723E-3,-3.356421E-3,2.0452014E-3,1.09268505E-4,5.0824047E-3,5.836353E-3,-2.2255955E-3],"split_indices":[12,0,4,0,6,7,3,3,3,4,7,0,9,11,14,0,0,0,0,0,0,0,0,0,0,0,0,0,0,0,0],"split_type":[0,0,0,0,0,0,0,0,0,0,0,0,0,0,0,0,0,0,0,0,0,0,0,0,0,0,0,0,0,0,0],"sum_hessian":[8.315168E3,4.4808823E3,3.8342856E3,3.5671245E3,9.137578E2,1.933577E3,1.9007086E3,8.3632587E2,2.7307986E3,5.6740643E2,3.4635138E2,9.6197485E2,9.716021E2,1.7602402E3,1.4046848E2,1.2799101E2,7.083349E2,1.2942008E3,1.4365979E3,5.119323E2,5.547412E1,1.8690512E2,1.5944627E2,7.962755E2,1.6569934E2,1.4988743E1,9.566134E2,1.7397688E3,2.0471449E1,5.9975944E0,1.3447087E2],"tree_param":{"num_deleted":"0","num_feature":"15","num_nodes":"31","size_leaf_vector":"1"}},{"base_weights":[3.5097203E-3,8.2051E-2,-5.5676647E-2,-1.3727225E-2,1.3077234E-1,-1.0297837E-1,3.2580897E-2,2.7172076E-2,-1.7379566E-1,2.0672172E-1,8.126754E-2,-1.288089E-1,1.740344E-2,1.1931725E-1,-2.1542102E-2,1.256639E-3,-1.4503808E-4,-1.7766477E-4,-3.672536E-3,-1.8421652E-3,2.1855966E-3,1.3706931E-3,2.3819426E-4,-9.510935E-4,-2.1740298E-3,1.3382522E-3,-5.9097225E-4,-3.0160223E-3,1.3594809E-3,2.0397129E-4,-2.0985496E-3],"categories":[],"categories_nodes":[],"categories_segments":[],"categories_sizes":[],"default_left":[0,0,0,0,0,0,0,0,0,0,0,0,0,0,0,0,0,0,0,0,0,0,0,0,0,0,0,0,0,0,0],"id":38,"left_children":[1,3,5,7,9,11,13,15,17,19,21,23,25,27,29,-1,-1,-1,-1,-1,-1,-1,-1,-1,-1,-1,-1,-1,-1,-1,-1],"loss_changes":[3.8661003E1,1.6679554E1,1.9803226E1,7.8997207E0,8.8904E0,9.6047325E0,7.775122E0,3.948083E0,7.405752E0,4.363552E0,4.5996304E0,7.5706253E0,4.8746634E0,4.4954567E0,8.062836E0,0E0,0E0,0E0,0E0,0E0,0E0,0E0,0E0,0E0,0E0,0E0,0E0,0E0,0E0,0E0,0E0],"parents":[2147483647,0,0,1,1,2,2,3,3,4,4,5,5,6,6,7,7,8,8,9,9,10,10,11,11,12,12,13,13,14,14],"right_children":[2,4,6,8,10,12,14,16,18,20,22,24,26,28,30,-1,-1,-1,-1,-1,-1,-1,-1,-1,-1,-1,-1,-1,-1,-1,-1],"split_conditions":[-1.6868668E-2,-3.53002E-2,2.9954622E-2,6.580249E-1,-1.0106131E-1,2.0616639E0,-3.3266044E-1,-1.239113E-1,5.9820986E-1,-6.8086195E0,-1.3528522E-2,5.254458E-1,1.0570323E-1,-9.2735715E-2,1.381279E-1,1.256639E-3,-1.4503808E-4,-1.7766477E-4,-3.672536E-3,-1.8421652E-3,2.1855966E-3,1.3706931E-3,2.3819426E-4,-9.510935E-4,-2.1740298E-3,1.3382522E-3,-5.9097225E-4,-3.0160223E-3,1.3594809E-3,2.0397129E-4,-2.0985496E-3],"split_indices":[5,3,4,0,5,1,14,12,1,0,14,1,13,6,7,0,0,0,0,0,0,0,0,0,0,0,0,0,0,0,0],"split_type":[0,0,0,0,0,0,0,0,0,0,0,0,0,0,0,0,0,0,0,0,0,0,0,0,0,0,0,0,0,0,0],"sum_hessian":[8.314764E3,3.5729773E3,4.741786E3,1.2049532E3,2.3680242E3,3.08709E3,1.654696E3,9.6039233E2,2.4456091E2,9.3317993E2,1.4348441E3,2.5416533E3,5.454368E2,6.3532825E2,1.0193678E3,2.84953E2,6.7543933E2,1.3598062E2,1.08580284E2,2.6998993E1,9.0618097E2,7.271483E2,7.076958E2,1.8427709E3,6.988824E2,2.159881E2,3.294487E2,2.3496891E1,6.1183136E2,8.344245E2,1.8494331E2],"tree_param":{"num_deleted":"0","num_feature":"15","num_nodes":"31","size_leaf_vector":"1"}},{"base_weights":[-3.509721E-3,-8.2050994E-2,5.567664E-2,1.3727225E-2,-1.3077232E-1,1.0297836E-1,-3.258091E-2,-2.7172076E-2,1.7379566E-1,-2.0672172E-1,-8.126753E-2,1.288089E-1,-1.740347E-2,-1.1931726E-1,2.1542095E-2,-1.2566389E-3,1.4503802E-4,1.7766471E-4,3.6725362E-3,1.8421654E-3,-2.1855964E-3,-1.3706931E-3,-2.381941E-4,9.510935E-4,2.1740298E-3,-1.3382524E-3,5.9097185E-4,3.0160223E-3,-1.359481E-3,-2.039713E-4,2.0985492E-3],"categories":[],"categories_nodes":[],"categories_segments":[],"categories_sizes":[],"default_left":[0,0,0,0,0,0,0,0,0,0,0,0,0,0,0,0,0,0,0,0,0,0,0,0,0,0,0,0,0,0,0],"id":39,"left_children":[1,3,5,7,9,11,13,15,17,19,21,23,25,27,29,-1,-1,-1,-1,-1,-1,-1,-1,-1,-1,-1,-1,-1,-1,-1,-1],"loss_changes":[3.866099E1,1.6679552E1,1.9803226E1,7.8997207E0,8.890396E0,9.604736E0,7.7751217E0,3.9480815E0,7.4057527E0,4.3635597E0,4.5996313E0,7.5706253E0,4.8746614E0,4.4954576E0,8.062834E0,0E0,0E0,0E0,0E0,0E0,0E0,0E0,0E0,0E0,0E0,0E0,0E0,0E0,0E0,0E0,0E0],"parents":[2147483647,0,0,1,1,2,2,3,3,4,4,5,5,6,6,7,7,8,8,9,9,10,10,11,11,12,12,13,13,14,14],"right_children":[2,4,6,8,10,12,14,16,18,20,22,24,26,28,30,-1,-1,-1,-1,-1,-1,-1,-1,-1,-1,-1,-1,-1,-1,-1,-1],"split_conditions":[-1.6868668E-2,-3.53002E-2,2.9954622E-2,6.580249E-1,-1.0106131E-1,2.0616639E0,-3.3266044E-1,-1.239113E-1,5.9820986E-1,-6.8086195E0,-1.3528522E-2,5.254458E-1,1.0570323E-1,-9.2735715E-2,1.381279E-1,-1.2566389E-3,1.4503802E-4,1.7766471E-4,3.6725362E-3,1.8421654E-3,-2.1855964E-3,-1.3706931E-3,-2.381941E-4,9.510935E-4,2.1740298E-3,-1.3382524E-3,5.9097185E-4,3.0160223E-3,-1.359481E-3,-2.039713E-4,2.0985492E-3],"split_indices":[5,3,4,0,5,1,14,12,1,0,14,1,13,6,7,0,0,0,0,0,0,0,0,0,0,0,0,0,0,0,0],"split_type":[0,0,0,0,0,0,0,0,0,0,0,0,0,0,0,0,0,0,0,0,0,0,0,0,0,0,0,0,0,0,0],"sum_hessian":[8.314764E3,3.5729773E3,4.741786E3,1.2049532E3,2.3680242E3,3.08709E3,1.654696E3,9.6039233E2,2.4456091E2,9.3318E2,1.4348441E3,2.5416533E3,5.454368E2,6.3532825E2,1.0193678E3,2.84953E2,6.7543933E2,1.3598062E2,1.08580284E2,2.6998993E1,9.0618097E2,7.271483E2,7.076958E2,1.8427709E3,6.988824E2,2.159881E2,3.294487E2,2.3496891E1,6.1183136E2,8.344245E2,1.8494331E2],"tree_param":{"num_deleted":"0","num_feature":"15","num_nodes":"31","size_leaf_vector":"1"}},{"base_weights":[3.4740104E-3,6.595757E-2,-6.9542736E-2,1.007858E-1,-6.997315E-2,-1.3596612E-1,-1.9427855E-3,-4.764809E-3,1.3310431E-1,-1.5101905E-1,6.2831916E-2,-7.8483604E-2,-1.927458E-1,3.7732283E-3,-4.8027843E-1,7.691071E-4,-5.8420695E-4,6.690452E-4,1.926645E-3,-1.8383621E-3,1.4968844E-3,-3.6001712E-4,1.7818838E-3,-5.1601697E-4,-2.0662188E-3,3.3377125E-3,-2.0133792E-3,4.483679E-4,-6.174117E-4,-1.7181018E-3,-8.497568E-3],"categories":[],"categories_nodes":[],"categories_segments":[],"categories_sizes":[],"default_left":[0,0,0,0,0,0,0,0,0,0,0,0,0,0,0,0,0,0,0,0,0,0,0,0,0,0,0,0,0,0,0],"id":40,"left_children":[1,3,5,7,9,11,13,15,17,19,21,23,25,27,29,-1,-1,-1,-1,-1,-1,-1,-1,-1,-1,-1,-1,-1,-1,-1,-1],"loss_changes":[3.7941807E1,2.1222792E1,1.7219421E1,1.2171043E1,9.853748E0,6.298073E0,5.201247E0,3.6738324E0,1.0756851E1,5.6355515E0,3.9663482E0,3.3060765E0,4.466255E0,5.0609426E0,2.41425E0,0E0,0E0,0E0,0E0,0E0,0E0,0E0,0E0,0E0,0E0,0E0,0E0,0E0,0E0,0E0,0E0],"parents":[2147483647,0,0,1,1,2,2,3,3,4,4,5,5,6,6,7,7,8,8,9,9,10,10,11,11,12,12,13,13,14,14],"right_children":[2,4,6,8,10,12,14,16,18,20,22,24,26,28,30,-1,-1,-1,-1,-1,-1,-1,-1,-1,-1,-1,-1,-1,-1,-1,-1],"split_conditions":[9.918833E-3,6.580249E-1,-5.0849784E-3,-4.2964178E-1,-1.27134165E-2,6.641139E-2,4.498056E-1,-2.6774505E-1,1.3137979E-3,4.6936642E-2,1.0076741E-2,6.514348E-1,-2.453172E-1,9.4853334E-2,2.580636E-1,7.691071E-4,-5.8420695E-4,6.690452E-4,1.926645E-3,-1.8383621E-3,1.4968844E-3,-3.6001712E-4,1.7818838E-3,-5.1601697E-4,-2.0662188E-3,3.3377125E-3,-2.0133792E-3,4.483679E-4,-6.174117E-4,-1.7181018E-3,-8.497568E-3],"split_indices":[12,0,4,0,6,7,11,14,3,4,7,0,9,7,10,0,0,0,0,0,0,0,0,0,0,0,0,0,0,0,0],"split_type":[0,0,0,0,0,0,0,0,0,0,0,0,0,0,0,0,0,0,0,0,0,0,0,0,0,0,0,0,0,0,0],"sum_hessian":[8.314286E3,4.4803525E3,3.833933E3,3.5667397E3,9.1361304E2,1.9332852E3,1.9006481E3,8.3629517E2,2.7304446E3,5.67284E2,3.463291E2,9.618804E2,9.714048E2,1.8791843E3,2.1463758E1,3.3140054E2,5.0489462E2,1.2941498E3,1.4362947E3,5.1181647E2,5.5467487E1,1.8689313E2,1.5943597E2,7.962411E2,1.656393E2,1.4989925E1,9.5641486E2,1.155345E3,7.238394E2,1.2496092E1,8.967667E0],"tree_param":{"num_deleted":"0","num_feature":"15","num_nodes":"31","size_leaf_vector":"1"}},{"base_weights":[-3.4740162E-3,-6.595757E-2,6.954272E-2,-1.0078579E-1,6.997313E-2,1.359661E-1,1.9427785E-3,4.764806E-3,-1.3310431E-1,1.5101905E-1,-6.283193E-2,7.848354E-2,1.927458E-1,-3.773235E-3,4.802784E-1,-7.691071E-4,5.842069E-4,-6.6904514E-4,-1.9266448E-3,1.8383618E-3,-1.4968844E-3,3.600169E-4,-1.781884E-3,5.160162E-4,2.0662188E-3,-3.3377123E-3,2.0133792E-3,-4.4836797E-4,6.174116E-4,1.7181016E-3,8.497568E-3],"categories":[],"categories_nodes":[],"categories_segments":[],"categories_sizes":[],"default_left":[0,0,0,0,0,0,0,0,0,0,0,0,0,0,0,0,0,0,0,0,0,0,0,0,0,0,0,0,0,0,0],"id":41,"left_children":[1,3,5,7,9,11,13,15,17,19,21,23,25,27,29,-1,-1,-1,-1,-1,-1,-1,-1,-1,-1,-1,-1,-1,-1,-1,-1],"loss_changes":[3.794179E1,2.1222782E1,1.7219418E1,1.2171047E1,9.85375E0,6.2980804E0,5.2012467E0,3.6738322E0,1.0756844E1,5.6355505E0,3.9663475E0,3.3060799E0,4.466259E0,5.0609426E0,2.4142509E0,0E0,0E0,0E0,0E0,0E0,0E0,0E0,0E0,0E0,0E0,0E0,0E0,0E0,0E0,0E0,0E0],"parents":[2147483647,0,0,1,1,2,2,3,3,4,4,5,5,6,6,7,7,8,8,9,9,10,10,11,11,12,12,13,13,14,14],"right_children":[2,4,6,8,10,12,14,16,18,20,22,24,26,28,30,-1,-1,-1,-1,-1,-1,-1,-1,-1,-1,-1,-1,-1,-1,-1,-1],"split_conditions":[9.918833E-3,6.580249E-1,-5.0849784E-3,-4.2964178E-1,-1.27134165E-2,6.641139E-2,4.498056E-1,-2.6774505E-1,1.3137979E-3,4.6936642E-2,1.0076741E-2,6.514348E-1,-2.453172E-1,9.4853334E-2,2.580636E-1,-7.691071E-4,5.842069E-4,-6.6904514E-4,-1.9266448E-3,1.8383618E-3,-1.4968844E-3,3.600169E-4,-1.781884E-3,5.160162E-4,2.0662188E-3,-3.3377123E-3,2.0133792E-3,-4.4836797E-4,6.174116E-4,1.7181016E-3,8.497568E-3],"split_indices":[12,0,4,0,6,7,11,14,3,4,7,0,9,7,10,0,0,0,0,0,0,0,0,0,0,0,0,0,0,0,0],"split_type":[0,0,0,0,0,0,0,0,0,0,0,0,0,0,0,0,0,0,0,0,0,0,0,0,0,0,0,0,0,0,0],"sum_hessian":[8.314286E3,4.4803525E3,3.8339333E3,3.5667397E3,9.1361304E2,1.9332852E3,1.9006481E3,8.3629517E2,2.7304446E3,5.67284E2,3.463291E2,9.618804E2,9.714048E2,1.8791843E3,2.1463758E1,3.3140054E2,5.0489462E2,1.2941498E3,1.4362947E3,5.1181647E2,5.546749E1,1.8689313E2,1.5943597E2,7.962411E2,1.656393E2,1.4989924E1,9.564149E2,1.1553448E3,7.238394E2,1.2496092E1,8.967667E0],"tree_param":{"num_deleted":"0","num_feature":"15","num_nodes":"31","size_leaf_vector":"1"}},{"base_weights":[3.4385163E-3,8.058714E-2,-5.4696128E-2,-1.3622486E-2,1.285143E-1,-9.959974E-2,3.5058763E-2,2.6454007E-2,-1.7051968E-1,9.114433E-2,2.2719349E-1,-1.2403298E-1,1.43808E-2,1.10630624E-1,-1.20076975E-2,-7.857354E-4,6.508788E-4,-1.6046448E-4,-3.6218567E-3,1.5126929E-3,2.2671532E-4,3.697405E-3,